%YAML:1.0
---
opencv_ml_svm:
   format: 3
   svmType: C_SVC
   kernel:
      type: RBF
      gamma: 1.
   C: 1.0000000000000001e-01
   term_criteria: { iterations:10000000 }
   var_count: 30
   class_count: 2
   class_labels: !!opencv-matrix
      rows: 2
      cols: 1
      dt: i
      data: [ 0, 1 ]
   sv_total: 630
   support_vectors:
      - [ -1.67346790e-01, 5.41033387e-01, 6.31834924e-01,
          -1.48770288e-01, -3.66789013e-01, -5.25950551e-01,
          -3.65082145e-01, -8.94090414e-01, -2.75587201e-01,
          5.40791214e-01, -1.29831403e-01, 6.27672672e-01,
          -5.04302263e-01, -1.04882084e-01, -7.02697039e-01,
          1.80734128e-01, -2.98170485e-02, -3.73937756e-01,
          -2.75045305e-01, -6.01334751e-01, 8.71599913e-01,
          -7.17614114e-01, -4.50308800e-01, -1.08580381e-01,
          -4.58078235e-01, 8.13317597e-02, -4.02133130e-02,
          3.12648453e-02, 4.25468922e-01, -9.71269831e-02 ]
      - [ -1.06155306e-01, 6.57523513e-01, 6.25573575e-01,
          -1.04608051e-02, -6.48085296e-01, -5.37767112e-01,
          -5.01943171e-01, -7.38744020e-01, -3.92452069e-02,
          5.91216981e-01, -6.06117725e-01, 7.32220888e-01,
          -6.22018218e-01, -3.24028730e-01, -5.08574307e-01,
          1.60709575e-01, 7.71961287e-02, -9.39419344e-02,
          -5.95394075e-01, -2.86670864e-01, 1., 2.51049161e-01,
          -8.32698822e-01, -2.43207276e-01, -2.29885474e-01,
          -2.33115330e-01, -1.90968603e-01, 1.59939036e-01,
          5.44354677e-01, 1.34169728e-01 ]
      - [ 8.48478854e-01, -2.72403568e-01, -6.67053103e-01,
          -4.60549861e-01, 2.77715236e-01, 4.76266146e-01,
          2.66504586e-01, 7.51242161e-01, -5.82136333e-01,
          -4.18676525e-01, 6.64809465e-01, 6.62956461e-02,
          8.18563998e-02, 3.24350953e-01, 3.69375974e-01, 2.13013310e-02,
          -1.75610796e-01, -9.19295326e-02, 1.21273689e-01,
          4.33700651e-01, -4.52802442e-02, -1.63797792e-02,
          -9.68552530e-02, 4.18674201e-01, -1.97261363e-01,
          -4.84585494e-01, 1.26251489e-01, 3.93259376e-01,
          5.46864867e-02, 3.53309304e-01 ]
      - [ 2.92382333e-02, 5.95177114e-01, 4.81831044e-01,
          -1.72398880e-01, -2.44429678e-01, -5.64068675e-01,
          -4.87009317e-01, -4.02777880e-01, -1.02637455e-01,
          5.99158704e-01, -4.91688192e-01, 3.63247931e-01,
          -6.59152210e-01, -4.45443392e-01, 1.25100449e-01,
          -2.33645022e-01, 9.41895917e-02, -2.95801610e-01,
          4.08258468e-01, -9.65446383e-02, -1.18971489e-01,
          -3.55658323e-01, -5.17329991e-01, 4.63757962e-01,
          5.04423201e-01, 2.43946955e-01, 5.12436517e-02,
          -1.82038605e-01, 3.87081325e-01, 7.15662122e-01 ]
      - [ 9.39240932e-01, -3.58858615e-01, -2.37297356e-01,
          -2.92577501e-03, 4.79682505e-01, 3.62611741e-01,
          5.76426685e-01, 4.58517730e-01, -3.67342518e-03,
          1.36399060e-01, -5.63976467e-01, -7.03114688e-01,
          9.21946049e-01, 8.46321225e-01, 4.27853703e-01,
          -1.79692414e-02, 2.53765546e-02, -1.83748901e-01,
          3.35451633e-01, 1.92790896e-01, -1.04154520e-01,
          -2.85691712e-02, 6.93356872e-01, 1.28252640e-01,
          3.43880385e-01, -2.85707086e-01, 3.39355916e-01,
          1.16713673e-01, 9.91879776e-02, 6.55900687e-02 ]
      - [ -2.06454799e-01, 6.65755570e-01, 3.82456124e-01,
          -8.54904950e-02, -2.34921053e-01, -4.41921383e-01,
          -3.96326214e-01, -2.04404712e-01, -9.01632160e-02,
          3.54160100e-01, -1.15250990e-01, 8.05988386e-02,
          -2.03934029e-01, 1.15389436e-01, -8.10978562e-02,
          -2.19566748e-01, -2.87279189e-01, 5.55011630e-01,
          1.24589112e-02, -3.81951153e-01, -6.83465004e-02,
          -2.24620998e-01, 1.96608752e-01, 1.29436076e-01,
          8.64645123e-01, 9.50114056e-02, 6.87857032e-01, 3.07996641e-03,
          -2.79442757e-01, 5.92163861e-01 ]
      - [ -9.07225072e-01, -5.22507489e-01, -5.25596976e-01,
          5.29571772e-02, 1., 5.08928359e-01, 3.95900041e-01,
          -5.00294305e-02, -3.12058657e-01, 4.32592124e-01,
          3.32835525e-01, -8.07877779e-01, 4.54639018e-01,
          5.23280025e-01, 2.92347342e-01, -3.19159292e-02,
          -2.41318364e-02, -1.56859845e-01, 3.93625230e-01,
          2.81519592e-01, -2.67664850e-01, 2.35214625e-02,
          -1.69497892e-01, 5.24101257e-01, -2.18729973e-01,
          -4.74807352e-01, 8.10952932e-02, -4.38335873e-02,
          -1.86023787e-02, 3.33319157e-01 ]
      - [ 9.27438378e-01, -3.37506741e-01, 1.27053797e-01,
          -2.08073288e-01, 4.54944104e-01, 5.17025292e-01,
          5.34709573e-01, 2.62877792e-01, -7.72917211e-01,
          -3.68747205e-01, 3.45838904e-01, 7.17571005e-02,
          5.88343501e-01, 8.51616085e-01, 4.72303092e-01, 1.13033697e-01,
          -3.86653887e-03, 6.41250685e-02, 4.64790285e-01,
          4.39142406e-01, -7.43056610e-02, 9.13379341e-02, 1.,
          3.38299215e-01, 3.03471118e-01, -2.85563409e-01,
          4.90635902e-01, 8.12269524e-02, 2.90704090e-02, 1.77150309e-01 ]
      - [ 1.35259390e-01, 1.10487148e-01, 3.94455612e-01,
          -5.87351806e-02, -4.61285681e-01, -3.18794966e-01,
          -4.46971804e-01, -1.72755852e-01, -3.19116890e-01,
          4.58257854e-01, -7.33715296e-01, 3.21804762e-01,
          -4.36954379e-01, -4.61559862e-01, -7.05692232e-01,
          -1.83420267e-03, -1.27099201e-01, -5.22118390e-01,
          -5.93987703e-02, -2.76826292e-01, 1.66494325e-01,
          1.29418328e-01, 2.00245053e-01, 5.91546334e-02,
          -5.05544484e-01, 2.95157552e-01, -8.19597006e-01,
          2.49060281e-02, 3.70883971e-01, -7.00082302e-01 ]
      - [ -8.80028546e-01, 4.40503627e-01, -4.25849974e-01,
          -9.39901397e-02, 3.10526490e-01, 6.08278573e-01,
          2.77223110e-01, 1.39226884e-01, -1.66021019e-01,
          2.07524914e-02, -1.37599513e-01, -1.40650108e-01,
          3.51529658e-01, 4.73117739e-01, 1.74756110e-01,
          -1.94189504e-01, 4.62972037e-02, -3.22484225e-01,
          4.90717471e-01, 2.51150191e-01, -2.62486607e-01,
          2.62936205e-01, 5.08764163e-02, 4.63983357e-01,
          -7.74127245e-02, -4.95505035e-01, 5.47119856e-01,
          3.61815363e-01, 2.45285660e-01, 3.66786748e-01 ]
      - [ 8.60668123e-01, -2.37708822e-01, -7.86312163e-01,
          -2.90339261e-01, 3.00947368e-01, 2.71476001e-01,
          2.63846099e-01, 7.24323511e-01, -1.79700106e-01,
          3.62097733e-02, 9.66175124e-02, -4.94806439e-01,
          3.28829050e-01, 3.92162621e-01, 3.43709290e-01,
          -1.09377056e-01, -1.80984750e-01, 1.47424459e-01,
          1.59419924e-01, 1.07807331e-01, -3.17471415e-01,
          -4.13310796e-01, 3.68988693e-01, -4.97106537e-02,
          -1.82648897e-01, -4.42056447e-01, 2.33402237e-01,
          1.17260732e-01, 1.77106276e-01, -2.66081747e-02 ]
      - [ 1.36453152e-01, 6.19286656e-01, 5.04517138e-01,
          -6.15040623e-02, -3.34173709e-01, -3.48588198e-01,
          -4.77435678e-01, -3.46029013e-01, -6.08749151e-01,
          6.54392540e-01, -6.06731355e-01, 5.29057264e-01,
          -1.93617553e-01, -2.07211189e-02, -7.42866099e-02,
          -2.57486880e-01, 1.64425582e-01, -3.08340281e-01,
          -4.44185674e-01, -3.72229785e-01, -4.60506976e-02,
          -1.62543535e-01, 1.84844464e-01, -1.07647173e-01,
          3.13113570e-01, -7.30727166e-02, -5.26394546e-01,
          -5.91461241e-01, -6.15041554e-02, -3.15703899e-01 ]
      - [ -1.60064429e-01, 6.94011986e-01, 6.76758468e-01,
          -3.85251969e-01, -6.31953180e-01, -5.41876495e-01,
          -7.23523855e-01, -6.56520367e-01, -1.16490863e-01,
          3.92576247e-01, -3.57912242e-01, 5.64877868e-01,
          -4.40719575e-01, -6.60326034e-02, -1.06432930e-01,
          5.82133234e-01, -5.33459410e-02, 1.35646937e-02,
          -9.46433172e-02, -5.33115789e-02, 5.60557485e-01,
          1.06701858e-01, 1.89016145e-02, 7.06304848e-01, 1.45179629e-01,
          -2.80372687e-02, -1.44702554e-01, 1.99621052e-01,
          3.38967144e-01, 3.48021507e-01 ]
      - [ -1.34225994e-01, 3.17465127e-01, 3.25467020e-01,
          -1.52622610e-01, -2.15064541e-01, -4.15893346e-01,
          -4.12704498e-01, 2.30982855e-01, 1.66734368e-01,
          -1.24849692e-01, -1.03241362e-01, 4.51510340e-01,
          -7.68345296e-01, 1.65228292e-01, -8.34830254e-02,
          6.66253492e-02, -3.83699894e-01, 6.99423790e-01,
          6.12729907e-01, 9.83704031e-02, -2.24876896e-01,
          -2.78660715e-01, 1.03236996e-01, 2.78732151e-01,
          1.89659130e-02, 3.63182962e-01, 1.64819911e-01,
          -3.15485686e-01, -4.65017676e-01, 1.41726747e-01 ]
      - [ -2.10850582e-01, 5.62863052e-01, 1.23480959e-02,
          -8.11579168e-01, -1.77480385e-01, -4.69359964e-01,
          -9.34005901e-02, -3.65706772e-01, -2.33151361e-01,
          6.22980967e-02, -1.01683334e-01, 1.99591890e-01,
          2.29295075e-01, 9.08311009e-02, -3.95424396e-01,
          -1.60411060e-01, -9.44909036e-01, 6.39828324e-01,
          -2.72351861e-01, -5.28364182e-01, 5.17880380e-01,
          -3.63148123e-01, 5.87226212e-01, 5.36719084e-01,
          -6.15919709e-01, 3.88358504e-01, 2.05415279e-01,
          -2.22382113e-01, 2.96238959e-01, 9.67028737e-01 ]
      - [ -3.06017101e-02, 3.68213266e-01, 3.85235339e-01,
          -4.86080796e-01, 3.28561547e-03, -2.35428751e-01,
          -1.82988383e-02, -1.60216108e-01, -1.87399924e-01,
          5.07626057e-01, 1.49965242e-01, -1.46519557e-01,
          -3.57274324e-01, 8.30663890e-02, -4.44747508e-01,
          6.90084929e-03, 3.26636106e-01, -3.90714109e-02,
          -3.40399712e-01, -2.22493678e-01, -5.67320809e-02,
          -7.48229086e-01, 1.87262386e-01, -8.34713578e-02,
          -3.84954393e-01, -3.07889938e-01, -2.20654786e-01,
          -7.58745596e-02, 4.13454056e-01, 4.88543808e-01 ]
      - [ 1.17768027e-01, 4.07000095e-01, 5.60118079e-01,
          -1.52109951e-01, -2.52320439e-01, -5.62928021e-01,
          -4.40641761e-01, -2.06771702e-01, 3.02947372e-01,
          1.62235759e-02, 5.42546995e-03, 1.79427251e-01,
          -4.78423923e-01, -9.30870324e-02, -1.40209064e-01,
          4.10102829e-02, 1.01542436e-01, 9.62440073e-01, 5.52338064e-01,
          -6.17538154e-01, 1.16368949e-01, -6.55849576e-01,
          -2.63323933e-01, 4.14810240e-01, -9.40837041e-02,
          1.12231128e-01, 1.75477676e-02, 5.78222036e-01, 4.70596850e-02,
          3.51299085e-02 ]
      - [ -1.65529892e-01, 3.56699824e-01, 3.36133152e-01,
          -4.87833619e-01, -4.94004451e-02, -3.14761698e-01,
          -1.22306101e-01, -1.44932970e-01, 1.63148373e-01,
          2.17816234e-01, -3.84415567e-01, -2.17085592e-02,
          -2.97244161e-01, -5.11153080e-02, 1.64959550e-01,
          -8.14567506e-01, 2.48409063e-01, 7.80752450e-02,
          4.34446871e-01, -5.12825251e-01, -5.08120418e-01,
          -5.51501274e-01, 7.59259820e-01, -4.03525084e-02,
          -2.29358748e-01, 2.90905982e-01, -5.44826388e-02,
          -4.65960115e-01, -1.57356873e-01, -6.06913194e-02 ]
      - [ -5.34799807e-02, 6.19773328e-01, 8.64256918e-01,
          -4.29285377e-01, -6.52427077e-01, -6.89435899e-01,
          -7.41988301e-01, -8.05238664e-01, -1.42229244e-01,
          3.60323548e-01, -5.19042730e-01, 7.78519094e-01,
          -5.61513126e-01, -6.88113511e-01, -2.61548072e-01,
          2.98679024e-01, 2.17657480e-02, -2.81995416e-01,
          -1.64030179e-01, -4.45503533e-01, 3.11624527e-01,
          -4.71613646e-01, -1.20454013e-01, -4.37551200e-01,
          1.36663139e-01, 1.50594506e-02, -3.38367224e-01,
          -4.34888899e-01, 7.41015017e-01, -2.24722289e-02 ]
      - [ 9.00606692e-01, -2.51299262e-01, -9.86704696e-03,
          -1.12521201e-01, 5.51742256e-01, 5.67490935e-01,
          6.25808597e-01, 5.01029789e-01, 2.88593560e-01,
          -2.08629370e-01, 1.72266975e-01, -2.40708917e-01,
          3.10254723e-01, 3.25226247e-01, 8.00892636e-02, 1.57685742e-01,
          1.57294348e-02, 1.06656440e-02, 3.57182950e-01, 1.41646326e-01,
          -5.04103780e-01, -1.81570407e-02, -1.82784036e-01,
          1.50491044e-01, -1.87744975e-01, -4.12468046e-01,
          3.23152095e-01, -2.13996500e-01, -3.96027938e-02,
          -2.07265597e-02 ]
      - [ -1.92609325e-01, 1.64655820e-01, 3.56020659e-01,
          -2.29385212e-01, 6.19875127e-03, -2.26607129e-01,
          -1.60211712e-01, -6.35725260e-01, -3.62660527e-01,
          5.61301351e-01, -1.54437363e-01, 4.29246604e-01,
          -1.72376424e-01, 1.36610866e-01, -6.46216094e-01,
          3.22970934e-02, 1.16707884e-01, -4.17148359e-02,
          -2.16400057e-01, -5.21791101e-01, 8.89273882e-01,
          -2.05560625e-01, -6.00529134e-01, -2.84196675e-01,
          -6.87079847e-01, 2.31118485e-01, 1.31628722e-01,
          -1.09665744e-01, 2.92168915e-01, 8.22036117e-02 ]
      - [ 8.98338705e-02, 2.31748626e-01, 4.17675614e-01,
          -4.94410455e-01, 2.10168418e-02, -2.62213618e-01,
          -2.18465507e-01, 1.52020350e-01, 1.18272290e-01,
          3.37554961e-01, -1.66882843e-01, -1.06266789e-01,
          -2.21135587e-01, -9.25320312e-02, -1.66469112e-01,
          5.90407431e-01, 3.41728717e-01, 7.60103106e-01, 2.13805705e-01,
          -2.88979799e-01, 2.38253161e-01, -4.21683908e-01,
          1.89494863e-01, 4.65701401e-01, -2.34358236e-01,
          1.04714528e-01, 1.10398836e-01, 4.27513808e-01, 1.85824275e-01,
          3.39767486e-01 ]
      - [ -1.16973311e-01, 5.56577981e-01, 5.92592537e-01,
          -1.88033327e-01, -6.50392830e-01, -5.32322109e-01,
          -5.37704766e-01, -5.88210821e-01, -2.52057374e-01,
          8.21295023e-01, 2.69397125e-02, 3.06781739e-01,
          -6.29710734e-01, 1.31808698e-01, -2.80344784e-01,
          -4.68595624e-01, -9.55149606e-02, 5.11973917e-01,
          -1.65772676e-01, 1.70024306e-01, 1.48954049e-01,
          -1.78984016e-01, 3.73494476e-02, 6.17350042e-01,
          1.37144357e-01, -1.79321934e-02, 1.19951256e-01,
          9.56217766e-01, -1.77123114e-01, 6.27788603e-01 ]
      - [ 9.19630051e-01, -3.14597636e-01, -2.48242989e-01,
          -1.42672792e-01, 5.52734256e-01, 5.00918627e-01,
          5.99010468e-01, -1.94533378e-01, -1.72122192e-04,
          -8.56138766e-01, 7.68823981e-01, 3.75308275e-01,
          3.49476933e-02, 3.72320116e-01, 3.66910517e-01, 2.57515281e-01,
          -1.57023475e-01, -1.02613904e-01, 2.61951238e-01,
          1.21705279e-01, -9.34007093e-02, 3.58973108e-02,
          4.69584912e-01, -1.54200755e-02, 2.70109326e-01,
          -5.78796864e-01, 3.58953953e-01, 7.71192163e-02,
          4.55713607e-02, 3.05941641e-01 ]
      - [ 1.67316347e-01, 8.43024850e-01, 8.29372644e-01, 2.85142288e-02,
          -8.11282992e-01, -7.57660151e-01, -6.86935544e-01,
          -3.64271015e-01, -8.88232514e-02, 4.25822705e-01,
          -3.91961426e-01, 3.38396758e-01, -6.08990967e-01,
          -1.33482993e-01, -1.02323644e-01, 2.06324562e-01,
          5.06822020e-02, 2.51525432e-01, 3.40931058e-01,
          -6.01562142e-01, 2.78107733e-01, -2.20981106e-01,
          -2.64816344e-01, 3.10438991e-01, 5.57907820e-01,
          -4.87188041e-01, -1.26861438e-01, 4.50768501e-01,
          -1.13791630e-01, -2.43875891e-01 ]
      - [ -2.18493521e-01, 3.72495860e-01, 2.19950467e-01,
          -7.26034582e-01, -2.22768769e-01, -5.52146077e-01,
          -5.47853172e-01, -1.64768070e-01, -1.54510736e-01,
          1.91006348e-01, -3.59864205e-01, 1.60687312e-01,
          -2.79123873e-01, 1.34985939e-01, -2.82481939e-01,
          1.60186127e-01, -6.26924992e-01, 1., 6.22560322e-01,
          -4.81589794e-01, 1.39903292e-01, -6.99697614e-01,
          -2.12513492e-01, 1.42441735e-01, -4.04410541e-01,
          4.46617931e-01, 1.99730426e-01, -7.26516247e-01,
          -3.80240828e-01, 2.95051355e-02 ]
      - [ 3.73384776e-03, 4.98724967e-01, 4.54603076e-01, 2.47620225e-01,
          -4.86201197e-01, -4.71591413e-01, -7.97442794e-01,
          -2.05753893e-01, -4.90044653e-01, 6.19310796e-01,
          -6.14303112e-01, 6.11292481e-01, -5.95601201e-01,
          -6.03017956e-02, -3.18969727e-01, 3.35968107e-01,
          -7.72458762e-02, 5.57261007e-03, -1.00365974e-01,
          -7.32416153e-01, -5.04757285e-01, -1.34172380e-01,
          -4.43761259e-01, 6.29951805e-02, 4.44498360e-01,
          -1.45163462e-01, -6.52141631e-01, -3.41991395e-01,
          6.61090389e-02, 1.85776651e-01 ]
      - [ -2.01641098e-01, 6.41535521e-01, 5.49679160e-01,
          -3.36040586e-01, -3.99096429e-01, -5.20213783e-01,
          -9.48529914e-02, -4.23395723e-01, 4.40712385e-02,
          -2.11792767e-01, -1.38765946e-02, 4.72577006e-01,
          -7.88759813e-02, -1.53737515e-01, -3.07533056e-01,
          -6.94133162e-01, -3.44420522e-01, 3.69268894e-01,
          4.09163266e-01, -3.31766576e-01, -4.51212049e-01,
          -2.85346895e-01, 2.89632171e-01, 1.06444091e-01,
          6.64366007e-01, -4.95703071e-02, -3.40154082e-01,
          -3.76489274e-02, -8.14173967e-02, 5.64427555e-01 ]
      - [ 8.48684549e-01, -2.06840813e-01, 3.34378928e-01,
          -6.86646253e-02, 3.96681041e-01, 4.00246114e-01,
          4.16774631e-01, 6.13164306e-01, 2.30915889e-01,
          -3.75752449e-02, -1.24385133e-01, -4.08575505e-01,
          3.72326255e-01, 2.49087527e-01, 2.57420659e-01,
          -1.80603862e-01, 8.50844383e-02, -1.47429392e-01,
          4.15301502e-01, 4.76204604e-01, -3.42006326e-01,
          -5.21160588e-02, -2.40528956e-01, 2.03544274e-01,
          -3.50086719e-01, -3.39511454e-01, 1.61608264e-01,
          -2.06851944e-01, 1.76872741e-02, 1.17479779e-01 ]
      - [ 2.05047056e-01, 6.55768381e-04, 4.40967381e-01,
          -5.63209593e-01, -2.27760822e-01, -2.73391962e-01,
          -4.32636678e-01, 4.12011556e-02, -1.46553829e-01,
          3.45210701e-01, -6.43272400e-01, 3.58181655e-01,
          -5.23782432e-01, -5.33399642e-01, -2.79297084e-01,
          4.15513963e-01, -6.22507669e-02, 2.48249114e-01,
          -1.37832135e-01, -3.53076965e-01, 1.74062252e-01,
          -2.69526422e-01, 1.24422774e-01, -1.66092947e-01,
          5.22610605e-01, 9.55231264e-02, -6.31048977e-01,
          3.26700360e-01, 2.52109140e-01, -4.99365538e-01 ]
      - [ 2.08125368e-01, -8.32775980e-02, 3.80906045e-01,
          -2.11170495e-01, -2.50940770e-01, -2.92850345e-01,
          -3.75966758e-01, 4.71856371e-02, -2.26167068e-01,
          4.31918055e-01, -6.31736338e-01, 1.36332825e-01,
          -6.66144252e-01, -2.01481834e-01, -2.26937056e-01,
          -5.65196514e-01, 2.57678628e-02, -2.58407563e-01,
          -4.14884180e-01, -3.11371833e-01, 2.80563980e-01,
          2.68919855e-01, 3.28514427e-02, -5.03719091e-01,
          -8.97782203e-03, 1.02463350e-01, -5.82237244e-01,
          7.83516884e-01, 4.20769662e-01, -4.88975048e-01 ]
      - [ 4.15606312e-02, 4.56663519e-01, 6.30429506e-01,
          -4.50869538e-02, -5.54780900e-01, -5.72841585e-01,
          -9.17923212e-01, -6.17205620e-01, -8.95230658e-03,
          7.79850066e-01, -7.79771328e-01, 7.11188078e-01,
          -8.33701432e-01, -4.17489499e-01, 1.77310854e-02,
          1.86387733e-01, -1.60318404e-01, -1.07960187e-01,
          -2.60765404e-01, -2.98367292e-01, -3.00637096e-01,
          3.19808036e-01, -2.13163421e-01, -1.03974380e-01,
          3.58886391e-01, -1.41567856e-01, -4.53938961e-01,
          -2.40724951e-01, 2.75955230e-01, -5.24147809e-01 ]
      - [ -9.46531296e-01, -8.82125795e-01, -4.76445228e-01,
          -3.90412599e-01, 6.43256843e-01, 5.85122287e-01,
          7.14402616e-01, 9.94561240e-02, -2.79834509e-01,
          -4.78953868e-03, 2.02138290e-01, -8.77197146e-01,
          3.73114139e-01, 4.77185488e-01, 3.40214163e-01,
          -2.58033037e-01, -1.47164598e-01, -3.70692223e-01,
          3.93289417e-01, 4.21264231e-01, -1.68788239e-01,
          -1.11941248e-01, -9.99554321e-02, 2.04675630e-01,
          -2.17089467e-02, -4.09491301e-01, 2.44571984e-01,
          8.09580740e-03, 7.53545240e-02, 2.12849677e-01 ]
      - [ -2.83403873e-01, 7.90697575e-01, 4.94452119e-01,
          -2.97953546e-01, -4.17753518e-01, -4.09667164e-01,
          -5.98892510e-01, -6.30161941e-01, -2.55158573e-01,
          2.50012875e-01, -9.31618363e-02, 4.41980392e-01,
          -5.63467108e-03, -9.18816403e-02, -2.95721620e-01,
          3.71001750e-01, 3.76319215e-02, 5.98318338e-01,
          -5.80034219e-02, -1.88926756e-01, 1.78126767e-01,
          -2.51854926e-01, -2.22040281e-01, 4.55912277e-02,
          6.23289824e-01, -4.24157590e-01, 5.19102514e-01,
          -2.09252268e-01, -7.98212707e-01, 4.98458326e-01 ]
      - [ -1.94970176e-01, 5.30653000e-01, 5.10489285e-01,
          -4.56985235e-01, -5.91731071e-01, -6.50191784e-01,
          -5.73669314e-01, -7.85552621e-01, -3.04790795e-01,
          1.91810653e-01, -3.96712065e-01, 4.45475936e-01,
          -4.66237456e-01, -2.99554951e-02, -2.27987155e-01,
          2.74533421e-01, -3.42165649e-01, 4.90981430e-01,
          2.73077846e-01, -1.12038486e-01, 2.55490571e-01,
          -8.34142089e-01, -3.85257959e-01, 7.31699228e-01,
          -1.67948470e-01, -1.34643847e-02, 2.28169650e-01,
          -2.54880458e-01, -2.33535916e-01, -4.99638654e-02 ]
      - [ -2.47713387e-01, 8.61919373e-02, 3.32603425e-01,
          -2.27298796e-01, -6.53152838e-02, -2.44690254e-01,
          -1.08532064e-01, -8.31242919e-01, -1.28248289e-01,
          5.50297618e-01, -2.07310989e-01, 6.88491940e-01,
          7.19359070e-02, 2.65239298e-01, -3.07296246e-01,
          -1.62755355e-01, 2.06305400e-01, -1.28714815e-01,
          -9.88326445e-02, 9.59386770e-03, 3.22543561e-01,
          5.53461798e-02, -1.27259374e-01, -2.22475976e-02,
          -9.31930304e-01, -2.15962872e-01, -2.20360264e-01,
          -4.45943028e-01, 1.36549860e-01, -1.85333461e-01 ]
      - [ -9.62841570e-01, 1.97672486e-01, -4.37312543e-01,
          4.28262958e-03, 1.51528999e-01, 5.00654459e-01, 4.46286768e-01,
          1.00013211e-01, -9.89297405e-02, 1.99086979e-01,
          1.25113904e-01, -4.36746240e-01, 3.67478788e-01,
          4.16918099e-01, 2.65491158e-01, -3.66032064e-01,
          -1.59586687e-02, -1.00017712e-01, 6.05444133e-01,
          1.23630762e-01, -3.72509569e-01, -1.65956110e-01,
          2.59172358e-03, 5.57797253e-01, -1.04758702e-01,
          -7.54608035e-01, 2.78196365e-01, 1.48740560e-01,
          -7.05489069e-02, 4.11698341e-01 ]
      - [ 6.36275187e-02, 3.94922435e-01, 3.28879952e-01,
          -4.38894123e-01, 5.17262518e-02, -4.10496831e-01,
          -4.24077362e-01, -4.56120789e-01, 2.17366661e-03,
          5.20106614e-01, -8.87156546e-01, 6.90210283e-01,
          -4.41881865e-01, 1.65637970e-01, -4.16494668e-01,
          3.40628654e-01, 3.09956402e-01, -2.28547188e-03,
          3.79567772e-01, -1.38815477e-01, -6.77402839e-02,
          -7.15212747e-02, 3.01149990e-02, -1.98728461e-02,
          -3.43494654e-01, 1.37550116e-01, -5.81401169e-01,
          -3.16333652e-01, 7.16166735e-01, 5.63624054e-02 ]
      - [ -9.18378830e-01, -1., -3.79261315e-01, -5.63178957e-01,
          5.99012017e-01, 3.91975403e-01, 5.62189877e-01, 1.53075755e-01,
          -1.87006980e-01, -2.58445501e-01, 1.20241813e-01,
          -4.87897158e-01, 5.81254900e-01, 8.03434432e-01,
          3.95899802e-01, -3.09589326e-01, -1.01445772e-01,
          -1.11309685e-01, 1.53637737e-01, 9.26476270e-02,
          -1.69414490e-01, 9.19242650e-02, 2.72919625e-01,
          3.67134988e-01, -2.83324361e-01, -4.93968487e-01,
          2.20273435e-01, -5.89185953e-02, 1.94139108e-01,
          1.98744893e-01 ]
      - [ -8.72577488e-01, 1., -2.97112644e-01, -4.94906068e-01,
          4.65467274e-02, 5.36467135e-01, 3.04914355e-01,
          -8.73401354e-04, -1.69660002e-01, -6.32296920e-01,
          8.00743923e-02, -5.51984131e-01, 7.21548676e-01,
          8.40763330e-01, 3.39916289e-01, -1.21171810e-01,
          -1.70753583e-01, -2.44331285e-01, 1.61405385e-01,
          5.77062845e-01, 2.33357236e-01, -1.92973912e-01,
          -2.06633955e-02, 1.63478389e-01, -3.28653544e-01,
          -3.04566592e-01, 1.66683778e-01, 1.37625681e-02,
          6.68053746e-01, 3.70260775e-01 ]
      - [ 4.36906517e-02, 3.59753072e-01, 5.92040598e-01,
          -2.50289857e-01, -1.64758682e-01, -4.10442561e-01,
          -5.12370110e-01, -4.59259182e-01, 3.31513852e-01,
          3.58763069e-01, -1.59060448e-01, 2.73835212e-01,
          -8.80109891e-02, -3.88853610e-01, -2.08345637e-01,
          -7.76766315e-02, -3.11677247e-01, 6.58159733e-01,
          1.61695972e-01, -4.80952829e-01, 3.46830010e-01,
          -3.27242389e-02, 3.52370501e-01, 4.79511380e-01,
          -4.57279950e-01, 1.61195081e-02, -1.77619994e-01,
          6.97887778e-01, 4.98510450e-02, 7.21270680e-01 ]
      - [ 9.55483913e-01, -2.65444607e-01, -3.54887635e-01,
          1.81299135e-01, 4.57950920e-01, 3.80763024e-01, 6.97469115e-01,
          -5.03665984e-01, 2.29975998e-01, -5.22015691e-01,
          2.04043388e-01, -1.71585947e-01, 2.68178165e-01,
          3.37385774e-01, 2.09305719e-01, 3.61548185e-01,
          -1.25656337e-01, 1.97900012e-01, 1.48390159e-01,
          5.31511046e-02, -2.92982340e-01, -1.30372876e-02,
          1.76121950e-01, -4.20489013e-02, 3.74525994e-01,
          -4.49758321e-01, 4.22902666e-02, 7.61178210e-02,
          1.57511666e-01, 2.68100232e-01 ]
      - [ 2.01406062e-01, 3.33088547e-01, 5.36047578e-01,
          -1.87844396e-01, -2.10707113e-01, -3.03863138e-01,
          -2.61418581e-01, -3.78397793e-01, 8.76360461e-02,
          6.28912330e-01, -3.65219444e-01, 6.99128389e-01,
          -1.84024006e-01, -4.32733536e-01, -2.39303812e-01,
          -1.90780729e-01, 3.62845540e-01, -7.56250560e-01,
          -1.83419250e-02, -1.58017620e-01, 2.54414558e-01,
          -6.87047660e-01, -1.25109375e-01, -5.71426094e-01,
          3.81324947e-01, 1.17460586e-01, -3.56707484e-01,
          -7.97101140e-01, 5.41451037e-01, 1.00623950e-01 ]
      - [ 1.39923533e-02, 4.25969213e-01, 4.02315229e-01,
          -7.66162649e-02, -1.18711822e-01, -2.38437131e-01,
          -3.34304750e-01, -3.65121037e-01, -1.44877136e-01,
          7.80839503e-01, -6.39060915e-01, 5.27090549e-01,
          -3.79882127e-01, 7.81401917e-02, -1.58805966e-01,
          -4.87035155e-01, 3.69258165e-01, -2.73175836e-01,
          -9.10871774e-02, -4.01352972e-01, -1.75202146e-01,
          -8.51064980e-01, -3.45810980e-01, 3.02050233e-01,
          2.87998766e-01, 8.71718526e-02, -3.72766286e-01,
          -5.05803883e-01, 4.66936260e-01, 4.08369482e-01 ]
      - [ -2.61182934e-02, 5.05632043e-01, 4.25577283e-01,
          -5.07133305e-01, -1.51185632e-01, -1.96245849e-01,
          -3.88494551e-01, -1.41347557e-01, -9.35958251e-02,
          4.19757426e-01, -1.05800182e-01, 5.02540052e-01,
          -3.46621811e-01, -2.72675514e-01, -4.58972126e-01,
          5.04359901e-01, 4.42330003e-01, -2.57037669e-01,
          -2.26892848e-02, -2.61107028e-01, 6.06601059e-01,
          -6.43842459e-01, 2.27604173e-02, -7.80088544e-01,
          -4.10180777e-01, -6.96973354e-02, -1.73633799e-01,
          -4.54684585e-01, 4.66308445e-01, 3.84326309e-01 ]
      - [ 9.82836902e-01, -3.88186842e-01, -7.21145689e-01,
          6.96517229e-02, 4.60555792e-01, 4.79679555e-01, 7.47613549e-01,
          -1.67698324e-01, -4.51518267e-01, -2.66341329e-01,
          -6.81980327e-02, -3.96486521e-01, 6.87587142e-01,
          6.43660307e-01, 4.18209195e-01, -2.08695412e-01,
          -2.76994616e-01, -1.99624449e-01, 2.93311507e-01,
          1.61459491e-01, -3.23896497e-01, -3.41550447e-02,
          -1.85093388e-01, 4.87093270e-01, -4.32819247e-01,
          -4.82926190e-01, 1.61897123e-01, -9.77405310e-02,
          1.29587576e-01, 2.20530018e-01 ]
      - [ -3.54820453e-02, 6.36727333e-01, 7.01857030e-01,
          -3.20708632e-01, -4.23367023e-01, -5.91013134e-01,
          -5.20103931e-01, -7.36919045e-01, 7.04289153e-02,
          3.05632334e-02, 4.83466275e-02, 7.88111448e-01,
          -2.75285244e-01, -3.15584391e-01, -7.95688331e-01,
          -2.10201502e-01, -3.97665977e-01, 3.74863446e-01,
          -7.08410367e-02, -2.31120080e-01, -3.10740620e-01,
          1.37283117e-01, 3.23191285e-01, 2.80553609e-01, 6.49085999e-01,
          9.34569389e-02, -9.30372253e-02, -7.40396008e-02,
          -8.95647228e-01, 7.67870486e-01 ]
      - [ -1.31701648e-01, 4.58359867e-01, 3.00002247e-01,
          -3.23450506e-01, -2.38143280e-02, -4.08297628e-01,
          -3.69393200e-01, -2.64281958e-01, -3.82001624e-02,
          5.30274808e-01, -5.18254876e-01, -6.97052479e-02,
          -3.62949103e-01, -2.70410758e-02, -2.93191522e-01,
          4.02260453e-01, 4.60800141e-01, 3.10593963e-01, 2.18842641e-01,
          -7.48996556e-01, -1.10841885e-01, -5.52734017e-01,
          -3.50619942e-01, 4.82146114e-01, -1.82197765e-01,
          -5.04271686e-01, -3.19925807e-02, 1.51274860e-01,
          3.25998753e-01, 2.82817811e-01 ]
      - [ 3.62063199e-02, 3.90740484e-01, 4.17790622e-01,
          -5.03651679e-01, 3.02408040e-02, -2.73217440e-01,
          -2.26974979e-01, -3.78845900e-01, -2.45784998e-01,
          5.65086067e-01, -1.25087827e-01, 2.26187363e-01,
          -4.12218183e-01, -3.36088508e-01, -3.40307862e-01,
          -3.70537341e-02, 6.15598440e-01, 2.90607344e-02,
          -2.43028760e-01, -9.60467905e-02, -5.39355166e-02,
          -4.74455446e-01, -3.53292316e-01, 3.18470061e-01,
          5.38148940e-01, -2.99918205e-01, 3.21375817e-01,
          -3.81455302e-01, 2.12657541e-01, 1. ]
      - [ -9.75536555e-02, 8.33631396e-01, 1., -4.72629100e-01,
          -9.47671652e-01, -6.28091156e-01, -8.19829762e-01,
          -4.66609806e-01, -3.24096948e-01, 6.50582254e-01,
          -5.65286994e-01, 1., -8.41540098e-01, -4.31314051e-01,
          1.27047732e-01, 2.93413073e-01, 1.86715171e-01, 2.00620070e-01,
          -2.93659389e-01, -3.99679295e-04, 4.51065511e-01,
          -2.47170940e-01, 1.05075799e-01, -4.23964888e-01,
          -5.20762324e-01, 1.96930125e-01, -4.26508486e-02,
          -7.27827013e-01, 5.28975844e-01, 7.34128803e-02 ]
      - [ -1.73307449e-01, 5.42317867e-01, 5.45770943e-01,
          -3.07356745e-01, -5.48708141e-01, -3.58444899e-01,
          -8.19367468e-02, -3.45303655e-01, -5.60954586e-02,
          1.88427150e-01, 1.81521114e-03, 6.38923228e-01,
          -1.67089432e-01, 1.14447996e-02, -4.61790323e-01, -1.,
          -3.65520149e-01, 3.35323185e-01, 2.13206485e-01,
          -5.27582645e-01, -4.55500573e-01, -4.16665137e-01,
          3.17073107e-01, -6.04250021e-02, 3.04275751e-01,
          1.58466280e-01, -2.37318039e-01, 6.31937459e-02,
          -1.67692214e-01, 5.42950571e-01 ]
      - [ -9.38698649e-01, -2.09781036e-01, -3.76319468e-01,
          8.39795709e-01, 5.45190752e-01, 3.91438037e-01, 1.97349191e-01,
          1.07649313e-02, -2.69991338e-01, 2.59075820e-01,
          2.55374789e-01, -3.71262342e-01, 4.64343250e-01,
          4.89662707e-01, 2.30996236e-01, 6.41677380e-02, 1.06709534e-02,
          -1.09686665e-01, 3.45325887e-01, 4.02815431e-01,
          -5.05104005e-01, -5.90817370e-02, -5.05674332e-02,
          8.02095383e-02, -4.82103229e-01, -2.22963616e-01,
          2.16179684e-01, 1.02259375e-01, 1.12160839e-01, 3.39777797e-01 ]
      - [ -9.52231884e-01, 1.96489081e-01, -5.48564494e-01,
          -9.68458712e-01, 3.41891974e-01, 8.03567588e-01,
          9.05360222e-01, 1.81997031e-01, -1.06631227e-01, 1.,
          -1.83370084e-01, 9.38671827e-01, 7.40886807e-01,
          5.13340831e-01, 2.28698209e-01, 3.27661127e-01, 1.58989534e-01,
          1.49009019e-01, 2.22957790e-01, 5.83541453e-01,
          -2.86179185e-01, -7.99559504e-02, -2.91905571e-02,
          6.22824907e-01, 3.13938081e-01, -1., 7.68533587e-01,
          4.03886475e-03, 1.92432672e-01, -1.61690280e-01 ]
      - [ 6.13053516e-02, 4.48211789e-01, 2.84232229e-01,
          -4.74581242e-01, 9.05214250e-02, -2.40028813e-01,
          -1.78617146e-02, -7.39393532e-02, -1.38158500e-01,
          5.01459002e-01, 1.02402754e-01, 1.93272129e-01,
          -3.80682528e-01, -1.00046836e-01, -1.19135454e-01,
          -7.97354877e-02, 2.17924446e-01, 4.22660671e-02,
          -5.71113348e-01, -4.77123320e-01, -5.84963560e-01,
          -8.48525107e-01, 5.89455431e-03, -4.61369514e-01,
          -1.29099429e-01, 4.75997217e-02, 3.82403523e-01,
          -1.49594486e-01, 3.91801775e-01, 5.57836294e-01 ]
      - [ -8.64636183e-01, 5.68655610e-01, -3.82039815e-01,
          -4.29563284e-01, 6.28340423e-01, 1.95806473e-01,
          5.07569194e-01, 1.68052778e-01, -3.62371475e-01,
          -2.82316387e-01, -1.97725117e-01, -5.19122481e-01,
          4.24982280e-01, 2.15786055e-01, 3.78314435e-01, 3.42038311e-02,
          -1.17869452e-01, -1.88577726e-01, 4.75402981e-01,
          3.94877404e-01, -2.36290380e-01, 9.50578228e-02,
          7.05473870e-02, 1.69200122e-01, -5.33133652e-03,
          -3.32032830e-01, 1.69406831e-01, -2.13458449e-01,
          -1.02243528e-01, 1.02113798e-01 ]
      - [ 1.63653418e-01, 4.01295841e-01, 1.64402381e-01, 1.59331873e-01,
          -3.39834034e-01, -2.54301131e-01, -2.18429089e-01,
          -2.44947225e-02, 4.21553142e-02, 1.11467503e-01,
          2.46591438e-02, 3.64259221e-02, -3.28177307e-03,
          -1.09311186e-01, -1.84879079e-01, 1.20059676e-01,
          -2.52897352e-01, -9.94390473e-02, 1.27178013e-01,
          1.07585154e-02, 5.95730305e-01, -3.31756055e-01,
          9.24971979e-03, 1.50004610e-01, 2.76677817e-01,
          -3.03807408e-01, -9.40198451e-02, 6.28916621e-01,
          1.12046357e-02, -2.63770193e-01 ]
      - [ -9.85901713e-01, -6.18835390e-01, -5.53480864e-01,
          5.93848944e-01, 4.30474550e-01, 5.76715112e-01, 6.03243887e-01,
          3.45914602e-01, -1.53024882e-01, -8.33895698e-04,
          1.79311395e-01, -6.32749081e-01, 4.48772639e-01,
          6.54943645e-01, 1.85991496e-01, -3.34168911e-01,
          -6.25906512e-02, -6.20360672e-02, 1.47869751e-01,
          4.23913211e-01, -5.01069844e-01, 1.34737819e-01,
          1.90888699e-02, 3.56945127e-01, -2.68160760e-01,
          -3.32865894e-01, 3.87334973e-01, 2.72966057e-01,
          3.86046804e-02, 1.80103213e-01 ]
      - [ -9.54865217e-01, -9.82467890e-01, -4.77597386e-01,
          -5.28355718e-01, 6.68758035e-01, 5.39906740e-01,
          6.86737359e-01, 3.34895015e-01, -1.77899152e-01,
          -1.08704783e-01, -9.19765830e-02, -7.10530460e-01,
          4.48680192e-01, 8.46875310e-01, 6.70276880e-01, 1.44053191e-01,
          -1.43681258e-01, -2.07674235e-01, 3.90824795e-01,
          7.12828264e-02, 2.67942250e-01, 3.42924029e-01,
          -2.51915604e-01, 1.71441048e-01, -1.79105073e-01,
          -6.18256330e-01, 6.64093122e-02, 3.04879814e-01,
          7.82572985e-01, 4.36299711e-01 ]
      - [ 8.50481316e-02, 2.97565728e-01, 2.59152770e-01, 4.88236547e-01,
          -1.00962348e-01, -3.24455678e-01, -2.40834817e-01,
          -1.82894260e-01, -6.24067150e-02, 4.28400695e-01,
          -3.51457953e-01, 1.72330901e-01, -3.50831151e-01,
          -1.35479838e-01, 8.36463422e-02, -7.27069497e-01,
          3.73059958e-01, -3.82289350e-01, -5.77159002e-02,
          -4.24060017e-01, -2.30308156e-02, -1.66310579e-01,
          -5.17125204e-02, -3.04950893e-01, 1.12899818e-01,
          7.63360932e-02, -2.56904632e-01, -6.50150657e-01,
          6.18273556e-01, -5.38633578e-02 ]
      - [ -8.71115386e-01, 9.60491896e-01, -3.01659107e-01,
          -3.86642933e-01, 7.16208071e-02, 5.05156934e-01,
          2.92775691e-01, 1.16164207e-01, -7.67434239e-02,
          -4.67617571e-01, 9.61641595e-03, -2.45550111e-01,
          7.36633718e-01, 6.63891196e-01, 3.51000935e-01,
          -1.18729793e-01, 2.12507527e-02, -1.71591252e-01,
          3.87580156e-01, 3.62437397e-01, -3.30493033e-01,
          1.07285544e-01, 1.76341087e-01, 1.26375049e-01,
          -1.73022568e-01, -2.01104239e-01, 3.57816696e-01,
          9.74684060e-02, 1.61631316e-01, 3.16127777e-01 ]
      - [ -1.80509582e-01, 4.06825781e-01, 6.36366308e-01,
          -4.57972199e-01, -3.03880632e-01, -4.94931489e-01,
          -3.73689324e-01, -3.65112007e-01, -5.77736080e-01,
          4.90113586e-01, -2.76515223e-02, 1.65353209e-01,
          -5.89367509e-01, -2.41054013e-01, -1.94623053e-01,
          1.01242959e-01, 1.40927359e-01, 4.68024798e-02,
          -6.47419453e-01, -4.88418758e-01, 1.96595728e-01,
          -8.05021584e-01, -2.18611266e-02, 9.65351835e-02,
          1.17820710e-01, 6.42609820e-02, -6.96539646e-03,
          -3.00189238e-02, 7.00365186e-01, 5.61338186e-01 ]
      - [ -2.27176584e-04, 4.96378928e-01, 6.05647922e-01,
          -3.27122808e-01, -5.32756746e-01, -4.70880836e-01,
          -6.64451838e-01, -3.34623516e-01, 1.39338180e-01,
          3.92793894e-01, -1.70826152e-01, 2.94048041e-01,
          -2.90502608e-01, -1.96154311e-01, -1.17665023e-01,
          2.96249092e-01, -2.19688490e-02, 3.26940179e-01,
          -5.35089612e-01, -4.63243313e-02, 4.47153986e-01,
          -3.98500543e-03, 3.44564170e-01, 2.73056805e-01,
          1.33369416e-01, 3.46697599e-01, -1.90750659e-01,
          7.79821277e-01, 2.88222730e-01, 1.68564558e-01 ]
      - [ 2.02939004e-01, -4.18639518e-02, 3.29002887e-01,
          -1.82065353e-01, -3.33456963e-01, -3.07071537e-01,
          -4.14500833e-01, 1.13568790e-01, -2.27882624e-01,
          3.61460567e-01, -6.24716222e-01, 2.70690322e-01,
          -5.91566741e-01, -3.07125479e-01, -2.36022756e-01,
          -6.04847968e-01, -3.12083717e-02, -2.95866311e-01,
          -3.94322485e-01, -2.84413695e-01, 1.17656104e-01,
          3.45279753e-01, -5.17319608e-03, -6.87155306e-01,
          -1.57167763e-01, 1.78120002e-01, -6.09119415e-01,
          6.97860181e-01, 5.43575227e-01, -4.77863222e-01 ]
      - [ -9.65204775e-01, -7.57599533e-01, -3.71334821e-01,
          5.70776224e-01, 3.52771312e-01, 3.99432778e-01, 7.24555373e-01,
          3.97567660e-01, -2.48801932e-01, -2.80907840e-01,
          4.17023990e-03, -2.26217881e-01, 5.45203924e-01,
          7.53221512e-01, 1.81092963e-01, 5.15833572e-02,
          -4.69145685e-01, -4.14436191e-01, -5.78926027e-01,
          2.29635075e-01, 1.33540511e-01, 2.40669206e-01,
          -2.44285554e-01, 3.00051510e-01, -8.55838716e-01,
          -4.85630095e-01, 4.75163370e-01, 1.20650575e-01,
          -1.10483721e-01, -6.86708391e-02 ]
      - [ 1.00250266e-01, 2.40349531e-01, 6.50505602e-01,
          -4.82691638e-02, -4.79122967e-01, -6.26262426e-01,
          -6.19134247e-01, -4.23416167e-01, -2.93875545e-01,
          6.88318670e-01, -5.55109859e-01, 9.28803861e-01,
          -2.93129325e-01, -3.44594717e-01, 4.11026366e-02,
          4.39098984e-01, -4.49224468e-03, 2.69447178e-01,
          -4.17328954e-01, -3.05775821e-01, 1.23972237e-01,
          -1.99618250e-01, 7.96881914e-02, 1.46866694e-01,
          7.18210697e-01, 1.78499699e-01, -2.86289692e-01,
          2.57166833e-01, -1.01943061e-01, 1.83587924e-01 ]
      - [ -6.87860921e-02, 5.74181974e-01, 7.06198514e-01,
          -3.51636350e-01, -4.93530691e-01, -7.67800152e-01,
          -7.32259572e-01, -8.39548349e-01, 2.83547610e-01,
          2.29189694e-01, 6.45569013e-03, 7.36068666e-01,
          -9.86315534e-02, -1.15731657e-01, -9.78125557e-02,
          -3.96552756e-02, -3.28801781e-01, 4.17581260e-01,
          6.71513975e-01, -2.22160250e-01, 4.62347329e-01,
          -9.62264895e-01, 3.27968955e-01, 5.27147293e-01,
          -1.26769602e-01, -6.58712685e-02, -5.26614845e-01,
          6.63860619e-01, -1.89788088e-01, 5.54975033e-01 ]
      - [ -9.15283486e-02, 3.82064253e-01, 4.84387428e-01,
          -3.77815723e-01, -1.07645832e-01, -5.87997854e-01,
          -3.52137685e-01, -2.73863465e-01, 1.63337290e-01,
          3.08804154e-01, -3.08570832e-01, 8.68554860e-02,
          -3.52526814e-01, 7.66258612e-02, -3.82142037e-01,
          -1.65695146e-01, 1.27942845e-01, 5.85039914e-01,
          4.92700577e-01, -6.19730711e-01, -3.58290970e-01,
          -5.59073865e-01, 2.43565202e-01, 1.10795282e-01,
          -1.72289237e-01, -1.14192791e-01, 2.64920760e-02,
          2.72610277e-01, 2.02384964e-01, -4.58716333e-01 ]
      - [ -8.64208996e-01, 2.54330456e-01, -3.61976594e-01,
          -5.19298948e-02, 2.09403872e-01, 3.86181086e-01,
          4.28214759e-01, 2.58690387e-01, -2.89346009e-01,
          3.06929052e-01, 9.92151350e-02, -1.38458937e-01,
          3.26405406e-01, 3.08905631e-01, 2.73548484e-01, 7.14884698e-02,
          4.51187640e-02, -5.89283071e-02, 5.52785575e-01,
          -2.19322252e-03, -2.69051075e-01, -2.53622085e-01,
          -8.46042391e-03, 8.22667480e-02, 9.16248336e-02,
          -4.90239084e-01, 1.67971253e-01, 5.87656274e-02,
          -3.95617150e-02, 3.77525806e-01 ]
      - [ 9.74523872e-02, 2.46672288e-01, 5.10128677e-01,
          -1.53697371e-01, -5.37237287e-01, -4.17272091e-01,
          -6.34673119e-01, -5.26830375e-01, -7.15372488e-02,
          6.82514757e-02, -7.02739060e-01, 4.19941187e-01,
          -2.06993178e-01, -7.29149282e-01, -6.81885362e-01,
          4.23548281e-01, -1.19562715e-01, -1.26154095e-01,
          4.00882781e-01, -1.39718115e-01, -2.05973908e-01,
          -3.00818175e-01, -2.62555450e-01, -5.57740748e-01,
          2.54319996e-01, 1.66838855e-01, -8.01821649e-01,
          -1.46017775e-01, 8.21150064e-01, -8.17899764e-01 ]
      - [ -2.72869002e-02, 5.58039665e-01, 7.06844211e-01,
          -1.52946413e-01, -5.86741626e-01, -6.83890045e-01,
          -7.41542876e-01, -1., 1.06222175e-01, 3.01316917e-01,
          1.05434857e-01, 7.64607191e-01, -6.27009690e-01,
          -2.42071673e-01, -3.75139177e-01, -5.46030343e-01,
          -2.98554957e-01, 1.85531884e-01, 1.14955850e-01,
          -4.24076855e-01, 1.38362780e-01, -2.89223880e-01,
          3.27968419e-01, 2.69292831e-01, 9.37814340e-02, 6.44872010e-01,
          -1.16078503e-01, 6.55632794e-01, -5.66948712e-01,
          -9.55680683e-02 ]
      - [ 9.51443315e-01, -3.39548320e-01, -7.67711341e-01,
          -1.51646780e-02, 4.00145262e-01, 4.03982073e-01,
          6.16294622e-01, 9.15373787e-02, -3.63137186e-01,
          -1.13642827e-01, 2.85217538e-02, -4.14385289e-01,
          6.65293694e-01, 5.93501747e-01, 4.43634272e-01,
          -1.41709298e-01, 1.26549244e-01, -2.05457434e-02,
          3.75457138e-01, 1.10906780e-01, -4.35376585e-01,
          -9.76468325e-02, -5.27681671e-02, 2.01509625e-01,
          -3.70493770e-01, -2.32143074e-01, 2.39295721e-01,
          1.63603947e-01, -1.69785723e-01, -3.04924720e-03 ]
      - [ -9.03671682e-01, 1.88709479e-02, -4.16337192e-01,
          -6.06512465e-02, 4.13147986e-01, 2.39303187e-01,
          7.78365254e-01, 4.01627123e-01, -1.46508321e-01,
          4.01465476e-01, 4.52318527e-02, 2.23844945e-01, 5.81571519e-01,
          6.85237348e-01, 1.90021828e-01, -5.85298181e-01,
          -1.96686629e-02, -1.27401471e-01, 5.89293659e-01,
          4.19364512e-01, -1.65799007e-01, 3.76819707e-02,
          2.31611505e-02, 3.77329178e-02, -2.68402606e-01,
          -4.48604763e-01, 3.70033443e-01, -4.25807424e-02,
          2.14031219e-01, 4.77486819e-01 ]
      - [ -7.18854070e-02, 4.90858763e-01, 4.32485640e-01,
          -1.17244139e-01, -2.29074404e-01, -4.41698223e-01,
          -2.86109895e-01, -3.77485663e-01, -3.28728288e-01,
          4.28850949e-01, -2.36562461e-01, 2.80162752e-01,
          -5.26965261e-01, -9.94637385e-02, -2.25482896e-01,
          -2.88850099e-01, 1.59963798e-02, -2.51033425e-01,
          -3.61137748e-01, -5.43931246e-01, 4.50976223e-01,
          -7.31466115e-01, -2.81513304e-01, 2.64448076e-01,
          6.80328369e-01, 8.87012482e-02, -2.80035716e-02,
          -1.56071067e-01, 7.00598061e-01, 1.05828822e-01 ]
      - [ -2.20553324e-01, 2.90851027e-01, 3.65658879e-01,
          -2.81688452e-01, -1.82933331e-01, -2.76863873e-01,
          -2.37829611e-01, -6.31645799e-01, -1.14300780e-01,
          5.13619184e-01, -2.82353550e-01, 7.96896636e-01,
          -1.11899272e-01, 8.55222195e-02, -4.41691309e-01,
          1.17794007e-01, 6.39166981e-02, -1.95665285e-01,
          -2.02979043e-01, 1.25860557e-01, 6.70918405e-01,
          -1.59247816e-01, -4.19781893e-01, 2.83730086e-02,
          -7.71210790e-01, -4.66012321e-02, -3.69939119e-01,
          -2.12521460e-02, 1.67942658e-01, 2.57461727e-01 ]
      - [ -9.59768116e-01, -2.96570301e-01, -4.74381387e-01,
          8.21325243e-01, 6.88960493e-01, 4.92298812e-01, 3.26140821e-01,
          1.79791108e-01, -3.16811889e-01, 1.61159381e-01,
          3.61147404e-01, -4.33651268e-01, 5.82544744e-01,
          5.87478161e-01, 2.77245581e-01, 5.47371581e-02, 1.30841270e-01,
          -3.51673067e-02, 4.72654998e-01, 4.20664698e-01,
          -3.56878638e-01, 1.22782737e-01, 1.22386433e-01,
          4.05481130e-01, -9.27282777e-03, -4.69398379e-01,
          1.03458293e-01, 1.66081600e-02, -3.49488780e-02,
          3.69382024e-01 ]
      - [ 1.79034665e-01, 2.76598155e-01, 4.30174261e-01,
          -3.48442763e-01, -2.65759319e-01, -3.10142100e-01,
          -6.04615211e-01, -2.89301038e-01, -3.26175600e-01,
          6.48078799e-01, -9.67141017e-02, 7.11966157e-01,
          -3.23298454e-01, -2.59846926e-01, -4.79493469e-01,
          1.03271380e-01, 1.67892188e-01, 5.67184277e-02,
          -2.99239121e-02, -3.92677575e-01, -1.76014572e-01,
          -2.53597736e-01, -4.85122114e-01, -6.50492251e-01,
          8.33223224e-01, -1.95139602e-01, -2.75356889e-01,
          -2.96494931e-01, 2.71985978e-01, 3.42799664e-01 ]
      - [ -1.77299425e-01, 5.50402761e-01, 2.07866266e-01,
          -9.58386138e-02, -1.37979865e-01, -6.66915178e-02,
          -1.96226001e-01, -7.46790692e-02, -1.94473714e-01,
          4.95716691e-01, -2.40642235e-01, 8.91448278e-03,
          -1.94112882e-01, 4.49094139e-02, 2.35071510e-01,
          1.76569894e-01, 3.02056372e-01, -1.71920270e-01,
          1.67449743e-01, -5.51887691e-01, 7.31149375e-01,
          -6.70767576e-03, -4.86486480e-02, 3.66419882e-01,
          -2.82272309e-01, -4.19731706e-01, -3.79741132e-01,
          2.12601885e-01, 1.75658762e-01, 1.17375277e-01 ]
      - [ 1.98558003e-01, -3.73068154e-02, 5.38696229e-01,
          -1.30641267e-01, -2.43543819e-01, -1.51222274e-01,
          -3.58432889e-01, 4.24573630e-01, -3.91587168e-02,
          7.12717831e-01, -6.93818867e-01, 2.20065221e-01,
          -3.89570177e-01, -3.43482941e-01, -2.71304071e-01,
          -2.79491395e-01, 7.86091313e-02, -5.96119583e-01,
          -4.49445784e-01, -8.43123347e-02, -1.90078199e-01,
          6.14885284e-05, -5.17723083e-01, -3.01082224e-01,
          -6.29647851e-01, 1.93614826e-01, -1.88234717e-01,
          9.09646153e-01, 4.72734749e-01, -6.12724185e-01 ]
      - [ 9.37923193e-01, -2.86321729e-01, -6.32789433e-01,
          8.36291090e-02, 3.43511403e-01, 3.40693235e-01, 5.76243997e-01,
          -1.29207551e-01, -3.92433137e-01, -2.09336787e-01,
          -7.77659044e-02, -4.20505047e-01, 5.47713101e-01,
          5.32966375e-01, 3.62638682e-01, -1.98459327e-01,
          5.55552989e-02, -2.66852081e-01, 4.96924520e-01,
          2.31715083e-01, -2.39474043e-01, -1.03900723e-01,
          -4.68302853e-02, 3.77583325e-01, -4.47986335e-01,
          -3.44484121e-01, 4.84002441e-01, 1.79998755e-01,
          3.16336632e-01, 6.20754421e-01 ]
      - [ 1.06072843e-01, 2.01744571e-01, 4.53460008e-01,
          -1.50972441e-01, -4.58573759e-01, -3.86768728e-01,
          -6.03377104e-01, -4.38021660e-01, -7.90882036e-02,
          4.10578586e-02, -6.47922516e-01, 3.90499353e-01,
          -1.96328029e-01, -6.59749329e-01, -7.37591803e-01,
          4.21815902e-01, -1.45791516e-01, -7.52125084e-02,
          3.71461123e-01, -2.76212513e-01, -1.08032905e-01,
          -2.56176353e-01, -2.61717170e-01, -6.03262007e-01,
          2.30276212e-01, 1.16336115e-01, -8.01439345e-01,
          -2.11231291e-01, 7.85242498e-01, -8.42793643e-01 ]
      - [ 9.42865610e-01, -2.40461305e-01, -7.30918705e-01,
          -1.66448038e-02, 2.74591148e-01, 3.75895619e-01,
          5.46275616e-01, 8.66701752e-02, -4.34961855e-01,
          -7.68695697e-02, -1.24769591e-01, -5.42157233e-01,
          6.15325630e-01, 3.49238217e-01, 2.43214875e-01, 2.62850039e-02,
          -2.38078646e-02, -1.15582563e-01, 3.50436181e-01,
          2.74633735e-01, -5.03334939e-01, 1.27180740e-01,
          -1.76357225e-01, 5.43546140e-01, -1.43293381e-01,
          -4.32979196e-01, 3.70682150e-01, 1.57832280e-02,
          -1.68676585e-01, 5.33960998e-01 ]
      - [ 8.56512547e-01, -3.49170953e-01, -8.40239108e-01,
          -2.42601767e-01, 2.86051005e-01, 3.35560739e-01,
          2.86835074e-01, 6.95088267e-01, -1.06445262e-02,
          4.66166884e-02, -5.66310771e-02, -3.74412388e-01,
          5.58108151e-01, 4.57765877e-01, 5.36037326e-01,
          -1.61346570e-01, -1.74741015e-01, -2.03285426e-01,
          3.34358156e-01, 1.71894833e-01, -2.45028302e-01,
          -1.06731705e-01, -1.18717089e-01, 5.59812486e-01,
          -9.92367938e-02, -4.74945009e-01, 1.38804182e-01,
          1.90407652e-02, 2.01041669e-01, 4.47496086e-01 ]
      - [ 8.88927460e-01, -1.81533158e-01, 4.47010368e-01,
          1.56781167e-01, 3.37480932e-01, 3.78432065e-01, 4.99395669e-01,
          1.24846108e-01, -4.86696929e-01, 1.43680185e-01,
          -3.21542501e-01, -4.61461484e-01, 5.08618593e-01,
          4.90643471e-01, 4.67791557e-01, -2.25206703e-01,
          -2.05207109e-01, -1.45994067e-01, 3.95917922e-01,
          1.18398987e-01, -3.05975616e-01, -1.05429748e-02,
          -1.36844546e-01, 2.67036021e-01, -5.43267906e-01,
          -5.23575008e-01, 1.54768556e-01, 5.47211291e-03,
          -9.19327512e-03, 1.74063012e-01 ]
      - [ -9.50649917e-01, -1.91601932e-01, -5.03594041e-01,
          7.93166399e-01, 6.39279604e-01, 4.97417569e-01, 2.89735407e-01,
          1.60587773e-01, -2.32877821e-01, 3.97592895e-02,
          4.63881403e-01, -4.28686649e-01, 6.12775683e-01,
          6.85627520e-01, 2.68700212e-01, -5.62538207e-01,
          -2.93900780e-02, -2.68894970e-01, 4.31384683e-01,
          4.15410727e-01, -2.59739727e-01, -4.31158915e-02,
          9.16908607e-02, 2.73827583e-01, -1.10511452e-01,
          -2.57349014e-01, 1.87107772e-02, 2.70849885e-03,
          2.64426112e-01, 2.82409817e-01 ]
      - [ 9.60325003e-01, -3.89779657e-01, -7.91553497e-01,
          1.86964467e-01, 4.70421374e-01, 4.32052076e-01, 7.07031429e-01,
          -1.11025430e-01, -1.25035658e-01, -2.42188185e-01,
          -2.18061417e-01, -3.09670866e-01, 5.81567049e-01,
          6.72202408e-01, 1.84671447e-01, -3.65954190e-01,
          -6.95027038e-02, -5.26902936e-02, 2.73331821e-01,
          2.02601120e-01, -3.76283407e-01, 2.76696347e-02,
          1.13219596e-01, 3.98138940e-01, -2.70215869e-01,
          -3.20429265e-01, 6.19018935e-02, -8.39298218e-02,
          1.95173666e-01, 2.48636737e-01 ]
      - [ 3.30328047e-02, 4.70106840e-01, 3.81964862e-01,
          -7.66256498e-03, -6.41736239e-02, -4.11428362e-01,
          -2.70823836e-01, -7.79230475e-01, -3.51607352e-02,
          6.02553606e-01, -2.76605487e-01, 5.88279545e-01,
          -2.98644364e-01, -2.00912297e-01, -2.68853903e-01,
          -2.56083727e-01, 5.02545238e-01, -5.70016086e-01,
          -3.33307348e-02, -5.09047031e-01, 2.47086778e-01,
          -6.88665688e-01, -8.33655238e-01, -1.40230551e-01,
          2.76636351e-02, -1.49710879e-01, -2.96222959e-02,
          -2.51601517e-01, 3.74887466e-01, 2.38768876e-01 ]
      - [ 1.65428340e-01, 2.11964831e-01, 3.06874990e-01,
          -1.99176446e-01, -2.24740803e-02, -1.56616658e-01,
          -3.19382817e-01, -1.24959223e-01, -3.40450734e-01,
          8.63762379e-01, -4.29332346e-01, 8.82608652e-01,
          -4.58656758e-01, 1.22535780e-01, -5.50421476e-01,
          3.94601882e-01, 6.67140484e-02, -4.05661464e-01,
          -2.62136877e-01, -6.09009080e-02, -6.76169097e-01,
          -1.61108747e-01, -4.24226105e-01, -4.56892788e-01,
          3.45873594e-01, -2.52914488e-01, -3.28502804e-01,
          -3.24950993e-01, 1.69947609e-01, 7.41459846e-01 ]
      - [ 4.10728939e-02, 8.15913677e-01, 9.63843882e-01,
          -3.53068113e-01, -1., -8.74778152e-01, -9.09478843e-01,
          -6.43972754e-01, 2.21381057e-02, 4.62110907e-01,
          -5.44041038e-01, 7.84139037e-01, -9.42365348e-01, -1.,
          -2.12508947e-01, 6.29263759e-01, 2.24781007e-01,
          -3.45287919e-01, -5.51654994e-01, -5.03918886e-01,
          3.33213061e-01, -5.89341283e-01, -3.34973276e-01,
          -5.98488390e-01, 2.85127372e-01, -1.38524756e-01,
          -2.26289630e-01, -2.63120562e-01, 4.90202308e-01,
          -2.21030623e-01 ]
      - [ -9.03671682e-01, 1.88709479e-02, -4.16337192e-01,
          -6.06512465e-02, 4.13147986e-01, 2.39303187e-01,
          7.78365254e-01, 4.01627123e-01, -1.46508321e-01,
          4.01465476e-01, 4.52318527e-02, 2.23844945e-01, 5.81571519e-01,
          6.85237348e-01, 1.90021828e-01, -5.85298181e-01,
          -1.96686629e-02, -1.27401471e-01, 5.89293659e-01,
          4.19364512e-01, -1.65799007e-01, 3.76819707e-02,
          2.31611505e-02, 3.77329178e-02, -2.68402606e-01,
          -4.48604763e-01, 3.70033443e-01, -4.25807424e-02,
          2.14031219e-01, 4.77486819e-01 ]
      - [ -9.05980706e-01, -5.82734466e-01, -4.45946515e-01,
          -1.10694438e-01, 5.17791271e-01, 5.66518962e-01,
          3.97586137e-01, -1.05778545e-01, -2.45581001e-01,
          4.59958702e-01, 6.69688359e-02, -5.52777827e-01,
          8.03935975e-02, 4.77951676e-01, 3.63335788e-01, 9.30363405e-03,
          -4.61108238e-02, -2.11950168e-01, 3.03462505e-01,
          2.86462307e-01, -2.57244855e-01, -1.48881614e-01,
          -1.13655053e-01, 4.77007359e-01, -7.56062344e-02,
          -5.65811455e-01, 1.82244390e-01, 1.74049020e-01,
          1.26056910e-01, 2.50695586e-01 ]
      - [ -4.63101678e-02, 3.42085004e-01, 3.59306455e-01,
          -1.87844455e-01, -3.90756041e-01, -4.80788440e-01,
          -2.88196981e-01, -6.19101048e-01, -1.22012487e-02,
          -1.51856747e-02, 2.04527676e-01, 2.69432902e-01,
          -6.60723507e-01, -1.66823953e-01, -6.38192058e-01,
          3.45907756e-03, -5.10585248e-01, -9.51374397e-02,
          4.03522998e-01, -3.73908609e-01, -2.17566174e-02,
          -9.58930552e-02, 2.40209475e-01, 9.73627865e-02,
          -4.69224423e-01, 9.15548563e-01, -2.48318404e-01,
          6.60356134e-02, -1.16879068e-01, 1.65004641e-01 ]
      - [ 6.25969172e-02, 1.13866113e-01, 3.75589967e-01,
          -2.33298138e-01, -3.96013618e-01, -3.19180399e-01,
          -5.66930234e-01, -3.32238436e-01, -2.12160394e-01,
          1.19594438e-02, -5.40088296e-01, 4.12126631e-01,
          -1.17188357e-01, -4.97274280e-01, -9.05842721e-01,
          2.60678232e-01, -2.69458473e-01, -3.03087477e-02,
          3.65071028e-01, -3.80341053e-01, -1.19693935e-01,
          -8.56747329e-02, -1.31744295e-01, -4.46039706e-01,
          -4.77686264e-02, -1.08288266e-01, -7.39831865e-01,
          -2.52573520e-01, 6.10660791e-01, -8.62047613e-01 ]
      - [ 1.67935237e-01, 2.74238437e-01, 5.59032559e-01, 9.22823250e-02,
          -3.07151973e-01, -2.64629960e-01, -7.08694935e-01,
          -1.91342339e-01, -5.51598072e-01, 7.35508025e-01,
          -8.00854445e-01, 8.83071840e-01, -5.07142365e-01,
          -3.00285399e-01, 5.08161634e-02, 2.10958362e-01,
          1.53336108e-01, -3.09442222e-01, -2.35485375e-01,
          -5.78973353e-01, 3.02237689e-01, 4.28980410e-01,
          -4.51995999e-01, -8.40980113e-02, 3.53426427e-01,
          2.30599657e-01, -9.36661482e-01, 1.53903067e-01,
          5.42722464e-01, -2.02082053e-01 ]
      - [ 8.90501857e-01, -2.18369991e-01, -1.67162314e-01,
          -5.39395399e-02, 3.66239667e-01, 3.88247013e-01,
          3.79620522e-01, -1.35520965e-01, -3.93980443e-02,
          -7.22952187e-01, 6.87913537e-01, 3.60719502e-01,
          1.69886742e-02, 3.33009630e-01, 3.55621696e-01, 3.93439293e-01,
          -2.60709733e-01, 8.61717016e-02, 3.91309321e-01,
          2.33419970e-01, -3.04468542e-01, -1.15371294e-01,
          4.31168586e-01, 3.63511480e-02, 2.16210574e-01,
          -6.22674048e-01, 2.37909466e-01, 1.75919279e-01,
          9.39451307e-02, 1.88488588e-01 ]
      - [ -2.73228586e-01, 5.01711428e-01, 2.39268392e-01,
          -4.45941031e-01, -2.92491287e-01, -5.41341186e-01,
          -3.47720236e-01, -2.88144201e-01, -3.56603980e-01,
          1.88141704e-01, -1.16795637e-01, 5.92078507e-01,
          -1.44353032e-01, 5.38705550e-02, -4.81603086e-01,
          5.54251447e-02, -5.31542718e-01, 1.73122719e-01,
          2.36248478e-01, -3.80407274e-01, 2.85806030e-01,
          -3.39208215e-01, 2.03928694e-01, 8.63682091e-01,
          5.13085783e-01, -5.14351539e-02, -3.67649049e-02,
          -4.29564357e-01, -9.73518848e-01, 8.91986847e-01 ]
      - [ -8.73255879e-02, 1.54114798e-01, 4.67724651e-01,
          -2.93015063e-01, -6.25997083e-03, -2.96794742e-01,
          -8.56722742e-02, -3.21918994e-01, -1.38306513e-01,
          2.71056026e-01, 2.28028782e-02, -1.15395941e-01,
          -3.39544326e-01, 2.40782291e-01, 2.91664779e-01,
          -4.33399994e-03, 9.62917805e-02, 5.75408161e-01,
          6.81680024e-01, -2.92577565e-01, 9.31485742e-02,
          -2.37756684e-01, 3.19405824e-01, 2.46518254e-01,
          -1.05417058e-01, 1.10518940e-01, 1.11444861e-01,
          1.04584552e-01, -1.45621598e-01, -3.85039985e-01 ]
      - [ -9.00816023e-01, -9.95067537e-01, -3.45517367e-01,
          -7.97939956e-01, 4.85286415e-01, 3.23019058e-01,
          5.28063536e-01, 8.83743539e-02, -1.91394448e-01,
          -2.50418782e-01, 2.22684667e-01, -5.46912611e-01,
          7.07038939e-01, 6.99274778e-01, 5.13049066e-01, 2.53003508e-01,
          -3.93354982e-01, 4.41886187e-01, 2.19148919e-01,
          -1.99480671e-02, -3.49645376e-01, -3.22806500e-02,
          -1.69138640e-01, 7.85645008e-01, -3.02042425e-01,
          -5.27312934e-01, 3.75842839e-01, 2.01973349e-01,
          -2.43359804e-01, 2.96412930e-02 ]
      - [ -1.20017901e-01, 5.69674551e-01, 6.50337100e-01,
          -5.24961770e-01, -5.21742821e-01, -5.19905150e-01,
          -5.83141863e-01, -5.56430638e-01, -2.20380753e-01,
          3.85324568e-01, -2.85772324e-01, 6.38325930e-01,
          -4.66204494e-01, -2.69405901e-01, -1.96076632e-01,
          6.14573181e-01, -1.54529765e-01, 4.15950179e-01,
          -3.85050654e-01, -4.80941176e-01, 1.93795249e-01,
          7.49568492e-02, 4.08135623e-01, 2.67970324e-01, 2.62162685e-01,
          2.40241252e-02, 2.48320326e-01, 9.32027772e-02,
          -2.69483685e-01, 7.31096745e-01 ]
      - [ 1.37280181e-01, 2.13770997e-02, 2.81138271e-01,
          -4.52596337e-01, -2.87078321e-01, -3.86122882e-01,
          -4.48871106e-01, -1.09410822e-01, -2.77771115e-01,
          2.98984528e-01, -7.92934060e-01, 3.38171482e-01,
          -5.18928826e-01, -1.03229634e-01, -9.42382753e-01,
          2.50592947e-01, 5.75160906e-02, -2.04338640e-01,
          9.03541222e-02, -1.96578145e-01, -3.41964811e-02,
          2.58938313e-01, 2.18125641e-01, 1.72360152e-01,
          -8.09078693e-01, 2.61688113e-01, -9.08427060e-01,
          -1.70073092e-01, 1.69352576e-01, -5.02627075e-01 ]
      - [ 2.04008654e-01, 2.30548903e-01, 5.00785470e-01,
          -1.81206495e-01, -4.76215214e-01, -2.94381082e-01,
          -4.94356006e-01, -8.74187499e-02, -6.81537613e-02,
          3.50267917e-01, -7.89124072e-01, 8.58291209e-01,
          -6.59403086e-01, -1.96441069e-01, -4.80056524e-01,
          5.11386991e-01, 1.25521794e-01, -2.79096067e-01,
          1.90384820e-01, -3.94232869e-02, -1.60841838e-01,
          3.88446301e-01, -4.17687833e-01, -3.88324231e-01,
          6.39344096e-01, -2.51746848e-02, -4.19366688e-01,
          5.31529725e-01, 5.68711579e-01, 6.08421028e-01 ]
      - [ -9.85238403e-02, 2.33327687e-01, 4.74959582e-01,
          -3.60253513e-01, -2.17903405e-02, -4.56978917e-01,
          -3.34006429e-01, -3.56260300e-01, 5.21966070e-02,
          2.52127707e-01, -3.77750903e-01, -2.28720412e-01,
          -3.16389024e-01, -3.46660137e-01, -1.31219849e-01,
          -4.60278839e-01, -3.18135843e-02, 2.69316524e-01,
          1.13077402e-01, -3.06232572e-01, -5.39024711e-01,
          -6.71935022e-01, 6.22410655e-01, 3.46815079e-01,
          2.08717324e-02, 2.00996459e-01, 8.53926409e-03,
          -1.59941912e-02, -6.55486854e-03, -1.74740076e-01 ]
      - [ -8.88250947e-01, 7.89944172e-01, -3.33172828e-01,
          -4.16212201e-01, 1.03939109e-01, 4.90583092e-01,
          3.94177437e-01, 1.56980902e-01, -6.40521348e-02,
          -3.17976117e-01, -5.32351770e-02, -7.97651410e-02,
          5.60859740e-01, 8.97033334e-01, 4.75614250e-01, 9.42384899e-02,
          -2.56642513e-02, -6.46597967e-02, 3.08289915e-01,
          2.18666121e-01, -2.72646189e-01, 1.64766312e-01,
          2.30806861e-02, 3.06153893e-01, -1.55986682e-01,
          -3.66087288e-01, 3.40392709e-01, -1.26099050e-01,
          3.38325426e-02, 3.47257018e-01 ]
      - [ -8.24576855e-01, -7.14115441e-01, -2.00544104e-01,
          -7.63440967e-01, 4.27343696e-01, 2.19209582e-01,
          2.30496526e-01, -1.45231903e-01, -2.09130943e-01,
          -1.10875100e-01, -2.00032294e-02, -2.97680020e-01,
          4.32148695e-01, 5.09897053e-01, 2.95507342e-01,
          -2.79017419e-01, 1.30791798e-01, -7.76266009e-02,
          2.33368650e-01, 1.78863585e-01, -4.07412976e-01,
          -2.25344539e-01, 1.31761163e-01, 3.57879996e-01,
          -9.30933133e-02, -4.35634822e-01, 4.42539632e-01,
          9.15046632e-02, 1.07074730e-01, 3.70597750e-01 ]
      - [ -9.06248152e-01, 4.08564776e-01, -4.53465253e-01,
          -7.39134550e-01, 7.01811373e-01, 3.12949628e-01,
          8.92919302e-01, 2.97815412e-01, -2.95313358e-01,
          8.65293369e-02, 8.00983384e-02, -3.76931757e-01,
          4.85451698e-01, 5.82762539e-01, 4.65155482e-01,
          -8.51993039e-02, -9.99033153e-02, -4.20616657e-01,
          3.99326146e-01, 3.20007712e-01, -4.37403843e-02,
          1.23757213e-01, -7.13936910e-02, 2.77471393e-01,
          1.46620246e-02, -3.75095159e-01, 2.35114127e-01,
          4.92478488e-03, -2.69055009e-01, 2.69302726e-01 ]
      - [ -2.15079606e-01, 3.71478587e-01, 2.22562283e-01,
          -7.35129118e-01, -2.44759142e-01, -5.52760184e-01,
          -5.53069592e-01, -1.80711284e-01, -1.74566507e-01,
          2.09414959e-01, -3.68564993e-01, 1.65399268e-01,
          -2.52049625e-01, 1.18248761e-01, -2.96458125e-01,
          1.74391374e-01, -6.09104395e-01, 9.60482717e-01,
          6.39732480e-01, -4.93751079e-01, 1.49099067e-01,
          -7.33676970e-01, -2.35476762e-01, 1.61949828e-01,
          -4.04403478e-01, 4.30060297e-01, 1.64064288e-01,
          -7.29039431e-01, -3.49565178e-01, 2.18817107e-02 ]
      - [ -1.17755055e-01, 3.12347978e-01, 3.18327338e-01,
          1.97242554e-02, -2.89888740e-01, -4.18222487e-01,
          -1.52071610e-01, -8.97717476e-01, 1.45472690e-01,
          -2.86111492e-03, 9.94310006e-02, 2.64189661e-01,
          -6.37053013e-01, -2.20877677e-02, 6.60897046e-02,
          -3.86608690e-01, -3.74450564e-01, -2.53373031e-02,
          7.55998790e-01, -4.84844953e-01, 3.60452384e-01,
          -3.83914918e-01, 2.86358111e-02, -2.59757750e-02,
          1.94277570e-01, 2.30896443e-01, -1.46388561e-01,
          7.25049078e-01, -4.99533266e-01, 3.91940624e-02 ]
      - [ 1.03680849e-01, 4.59914863e-01, 3.78470033e-01,
          -4.41926606e-02, -7.78592750e-03, -3.44121724e-01,
          -2.79357970e-01, -2.38754556e-01, -2.86409557e-01,
          5.25406897e-01, -5.75712144e-01, 1.38271451e-01,
          -5.67788243e-01, -3.26919466e-01, 1.70893930e-02,
          -3.30993772e-01, 1., 4.33040457e-03, 2.50661045e-01,
          -3.61050457e-01, -2.70257652e-01, -4.12046984e-02,
          -1.67487130e-01, 2.59748936e-01, 2.86096424e-01,
          -1.38196468e-01, -1.16738696e-02, 2.61617475e-04,
          3.92536521e-01, 5.32500029e-01 ]
      - [ 1.78725496e-01, 5.40878057e-01, 5.39516389e-01, 1.15783527e-01,
          -1.88039750e-01, -2.97334880e-01, -4.89873827e-01,
          -2.20411792e-01, -2.87802339e-01, 6.42118156e-01,
          -8.80910277e-01, 3.12817365e-01, -1.37333974e-01,
          -1.80193916e-01, -2.63073862e-01, -3.46250385e-01,
          3.17586094e-01, -1.91458255e-01, -2.30982989e-01,
          -3.15697700e-01, -7.51434088e-01, 9.51662138e-02,
          -4.26786691e-02, 7.68888071e-02, -1.84284821e-01,
          -2.92418271e-01, -3.07092607e-01, -3.91997814e-01,
          -1.18787870e-01, -3.63806158e-01 ]
      - [ 8.65705788e-01, -3.64661396e-01, -7.16769993e-01,
          -3.80537808e-01, 4.44746077e-01, 5.33360362e-01,
          4.90525305e-01, 6.14285469e-01, -7.23853707e-01,
          -4.37324673e-01, 6.41576827e-01, -1.99783057e-01,
          3.08337390e-01, 3.47993106e-01, 3.28728974e-01, 7.54187405e-02,
          -3.48784775e-02, -6.88841939e-02, 2.24474519e-01,
          4.82830048e-01, -3.68194096e-02, 4.59734015e-02,
          1.74278751e-01, 4.40164715e-01, -2.65739113e-01,
          -3.75047803e-01, 2.62482822e-01, 2.65771806e-01,
          1.28435314e-01, 1.75254270e-01 ]
      - [ -2.02396393e-01, 6.18555009e-01, 1.28926054e-01,
          -8.59512091e-01, -2.54651368e-01, -5.48875153e-01,
          -2.10191682e-01, -4.53872114e-01, -3.02181512e-01,
          3.55183892e-02, -1.15086116e-01, 1.75981298e-01,
          1.12260148e-01, 4.49235924e-02, -3.99584144e-01,
          -2.72842437e-01, -9.38611686e-01, 5.87657809e-01,
          -3.47331405e-01, -5.63670993e-01, 5.17627239e-01,
          -3.87043744e-01, 6.38051510e-01, 5.30972838e-01,
          -5.40985346e-01, 3.71054024e-01, 2.28826299e-01,
          -3.09899420e-01, 3.13591689e-01, 8.63893509e-01 ]
      - [ -2.01875359e-01, 1.95112839e-01, 3.91101867e-01,
          -3.42629075e-01, -6.51277006e-02, -2.72834599e-01,
          -1.75427198e-01, -5.71969926e-01, -3.85701150e-01,
          3.47821593e-01, 1.86634928e-01, 5.60923278e-01,
          -1.15388736e-01, 2.07002133e-01, -6.13677502e-01,
          -6.93055809e-01, 1.22718014e-01, -5.33541441e-02,
          -3.52551579e-01, -5.06147325e-01, 7.13766932e-01,
          -5.67240834e-01, -3.47679019e-01, -1.58130880e-02,
          -1.05361015e-01, 1.13503234e-02, 2.50212494e-02,
          -4.94669855e-01, 3.79367977e-01, -9.08573717e-02 ]
      - [ 1.00729123e-01, 5.29960752e-01, 5.83583713e-01,
          -2.17047140e-01, -5.94158828e-01, -4.81796831e-01,
          -4.79545772e-01, -5.32798886e-01, -3.30232471e-01,
          7.22674549e-01, -5.82762063e-01, 7.36975551e-01,
          -7.25304902e-01, -5.30143201e-01, -1.17750512e-02,
          1.61024958e-01, 3.73678923e-01, 7.54192993e-02,
          -5.01796246e-01, -3.63981098e-01, 4.78988051e-01,
          -5.33756077e-01, 5.36872864e-01, -1., 2.17412919e-01,
          1.91534773e-01, -3.65513414e-01, -2.20969260e-01,
          7.64576972e-01, 9.90399271e-02 ]
      - [ 2.19812900e-01, 3.88150185e-01, 1.37185678e-01, 5.83416643e-03,
          1.51091799e-01, -2.04315573e-01, -2.68601596e-01,
          -9.06532779e-02, -1.51387244e-01, 4.44556504e-01,
          -6.28692508e-01, 3.40845823e-01, -3.96228909e-01,
          2.37047434e-01, -5.77319413e-02, -6.92857325e-01,
          5.81773162e-01, 1.33444935e-01, 2.06039682e-01,
          -3.35364372e-01, -5.14894903e-01, 7.30531737e-02,
          -5.36223829e-01, -1.32532492e-01, 3.50549400e-01,
          -6.60094991e-02, -1.71424836e-01, -4.40954208e-01,
          4.28852439e-01, 1.71968177e-01 ]
      - [ -1.77987382e-01, 4.51228291e-01, 4.61463541e-01,
          -7.75739133e-01, -3.16820383e-01, -4.98294950e-01,
          -2.72451341e-01, -5.10946333e-01, 1.51194826e-01,
          -4.01751012e-01, -1.50567338e-01, 6.03828311e-01,
          -2.78027415e-01, 4.67071533e-02, -5.77484846e-01,
          -5.03690124e-01, -1.95654675e-01, 5.82575679e-01,
          -1.42693564e-01, 2.55688518e-01, 2.13011935e-01,
          -2.77624488e-01, 2.48354837e-01, 1.79479659e-01,
          7.40486681e-02, 4.58615839e-01, -2.42283061e-01,
          -1.18355490e-01, -7.70801753e-02, 6.00065708e-01 ]
      - [ 1.03021413e-01, 4.20874655e-01, 5.04122913e-01,
          -1.08730547e-01, -2.32098445e-01, -5.57319760e-01,
          -4.33487535e-01, -2.66124636e-01, 3.11973006e-01,
          -1.16826639e-01, 2.79302821e-02, 2.90312350e-01,
          -5.49160123e-01, -7.96000734e-02, -1.08636409e-01,
          -3.06362100e-02, 2.30456404e-02, 9.12999511e-01,
          5.96935093e-01, -5.97154796e-01, 1.75055087e-01,
          -6.19109929e-01, -1.42460570e-01, 4.08647835e-01,
          -8.23947601e-03, 1.97410420e-01, 9.93976742e-02,
          5.78868449e-01, -3.17648277e-02, 6.72058947e-03 ]
      - [ -1.10408239e-01, 2.27632135e-01, 2.31234059e-01,
          3.36938441e-01, -3.46635073e-01, -4.00732040e-01,
          -2.54471481e-01, -4.53938395e-01, -1.79118756e-02,
          -9.08495684e-04, 6.87369853e-02, 2.97801532e-02,
          -4.75276828e-01, 1.67647839e-01, -3.46454740e-01,
          -8.92391950e-02, -7.95574963e-01, -3.59284990e-02,
          5.93898118e-01, -4.89170179e-02, 2.51991481e-01,
          -2.20030978e-01, -1.03505157e-01, 8.57094377e-02,
          -1.54960930e-01, 8.08164179e-02, 2.19569191e-01,
          2.44494498e-01, -1.96158290e-01, -2.08912313e-01 ]
      - [ 8.28702450e-02, 1.12868577e-01, 3.79670620e-01,
          -1.92540050e-01, -3.97825569e-01, -3.15803438e-01,
          -5.50949037e-01, -3.24751377e-01, -1.67182624e-01,
          -1.24235945e-02, -5.65119445e-01, 3.64353120e-01,
          -1.09580040e-01, -5.31535268e-01, -8.41366768e-01,
          2.64337540e-01, -1.83175355e-01, -4.85670231e-02,
          3.04665029e-01, -3.38105112e-01, -1.80814251e-01,
          -1.28256679e-01, -1.66201755e-01, -5.54534137e-01,
          -4.07396108e-02, -2.04724725e-02, -7.70564318e-01,
          -2.92810172e-01, 7.07700133e-01, -9.00301993e-01 ]
      - [ 8.73995066e-01, -2.30471924e-01, -3.39266300e-01,
          -2.61742949e-01, 5.49713850e-01, 3.65527779e-01,
          3.60195726e-01, 5.61560273e-01, 1., -3.20156246e-01,
          8.18453953e-02, 3.58346328e-02, 2.27284878e-01, 3.23599607e-01,
          4.99499261e-01, 2.62783170e-01, -3.71354908e-01,
          -3.79813053e-02, 2.58585274e-01, -1.46096557e-01,
          -6.43420815e-01, 3.09552662e-02, 1.50317147e-01,
          1.45586118e-01, 9.10928011e-01, -6.84926152e-01,
          7.66195431e-02, -9.11340564e-02, -6.38449192e-02,
          8.85845795e-02 ]
      - [ -9.00816023e-01, -9.95067537e-01, -3.45517367e-01,
          -7.97939956e-01, 4.85286415e-01, 3.23019058e-01,
          5.28063536e-01, 8.83743539e-02, -1.91394448e-01,
          -2.50418782e-01, 2.22684667e-01, -5.46912611e-01,
          7.07038939e-01, 6.99274778e-01, 5.13049066e-01, 2.53003508e-01,
          -3.93354982e-01, 4.41886187e-01, 2.19148919e-01,
          -1.99480671e-02, -3.49645376e-01, -3.22806500e-02,
          -1.69138640e-01, 7.85645008e-01, -3.02042425e-01,
          -5.27312934e-01, 3.75842839e-01, 2.01973349e-01,
          -2.43359804e-01, 2.96412930e-02 ]
      - [ -9.27421153e-01, 5.00177562e-01, -3.52883101e-01,
          -4.41531569e-01, 6.70620501e-01, 1.58886969e-01,
          6.59233332e-01, 2.84454703e-01, -2.72216290e-01,
          -2.47985721e-01, -1.33858204e-01, -3.37388784e-01,
          5.44990599e-01, 6.60258830e-01, 2.97938466e-01, 1.05247416e-01,
          -7.52024055e-02, -2.52618998e-01, 3.99225295e-01,
          3.85283589e-01, -1.47741005e-01, 3.01672935e-01,
          -1.10263534e-01, 2.96523478e-02, -6.58845454e-02,
          -3.44779700e-01, 7.99499229e-02, -1.62075222e-01,
          -1.20334916e-01, 1.90150976e-01 ]
      - [ 1.49706066e-01, 3.25304449e-01, 3.68872583e-01, 3.66936296e-01,
          -1.50031447e-01, -4.30753499e-01, -4.81209010e-01,
          -5.16161382e-01, 5.86731695e-02, 4.47027355e-01,
          -5.03401399e-01, 4.54120606e-01, -3.31646234e-01,
          -1.42105609e-01, -5.83471537e-01, -5.76866567e-01,
          2.09506556e-01, -3.36985886e-01, 6.34477735e-01,
          -7.29823530e-01, 1.50499851e-01, -1.53781369e-01,
          -4.60715681e-01, 2.64083862e-01, -2.65944451e-01,
          -2.45965555e-01, -7.42975414e-01, 2.58696973e-01,
          4.15314019e-01, -2.74705410e-01 ]
      - [ 2.31905729e-01, 8.48833099e-02, 4.87925351e-01,
          -7.48547986e-02, -4.02102709e-01, -3.30866039e-01,
          -4.10328746e-01, -8.90233666e-02, -1.84642702e-01,
          4.27389205e-01, -7.37752438e-01, 2.61299014e-01,
          -5.99939108e-01, -3.74087185e-01, -8.61032486e-01,
          3.89815301e-01, 2.61391699e-01, -1., -2.88995713e-01,
          -2.19658881e-01, 8.20912004e-01, 3.78641039e-01,
          -4.32919532e-01, 7.96278790e-02, 2.54926324e-01,
          -1.52443379e-01, -6.53942227e-01, 1.49108320e-01,
          4.73548889e-01, -3.44506353e-01 ]
      - [ -1.58249848e-02, 1.76988795e-01, 3.50544274e-01,
          -7.02764213e-01, 2.39521042e-01, -2.66215317e-02,
          -8.60576183e-02, 9.41111147e-02, 5.74388504e-02,
          3.48668367e-01, -4.29699086e-02, -1.60376325e-01,
          -7.01578483e-02, 1.37556106e-01, 1.42368555e-01,
          -4.05158475e-02, 2.08813012e-01, 6.69187009e-01,
          2.10406661e-01, -2.85707802e-01, 4.94959921e-01,
          -3.51355970e-01, 4.35323566e-01, 5.70608735e-01,
          -4.71270770e-01, -2.12105125e-01, 1.15382880e-01,
          2.68512338e-01, -2.57117692e-02, -1.24781214e-01 ]
      - [ 5.95939569e-02, 6.84525549e-01, 8.17339003e-01,
          -7.06481934e-02, -7.31026649e-01, -5.28312385e-01,
          -5.71764708e-01, -2.06638053e-01, -4.64999318e-01,
          7.66766012e-01, -7.97337830e-01, 6.07348502e-01,
          -4.85586584e-01, -3.97956491e-01, 4.15665098e-02,
          -1.84576750e-01, 4.55085009e-01, -2.42891714e-01,
          -4.87470090e-01, -1.63710237e-01, 8.97552744e-02,
          -4.11251277e-01, -4.91164654e-01, -5.70225000e-01,
          -5.60202003e-01, 2.47415990e-01, -8.40333030e-02,
          -3.35430890e-01, 4.40445483e-01, 1.15256235e-01 ]
      - [ 9.00921762e-01, -3.64246368e-01, -1.92684755e-01,
          -4.94713336e-02, 5.85039914e-01, 5.23814857e-01,
          6.22384071e-01, 6.65534735e-01, 2.13341549e-01,
          -1.08115718e-01, -1.98754340e-01, -6.99937999e-01,
          5.94641387e-01, 6.42875969e-01, 2.36295968e-01,
          -1.37706146e-01, -1.22569606e-01, -1.73263639e-01,
          1.80678755e-01, 2.27009162e-01, -2.26959229e-01,
          1.21635288e-01, 7.73635432e-02, 1.09199800e-01,
          -4.72838990e-02, -6.69644117e-01, 1.70441672e-01,
          -5.65485470e-03, -1.32630290e-02, 3.43073159e-02 ]
      - [ -8.64472508e-01, -6.70691133e-01, -4.43099439e-01,
          -7.05758393e-01, 3.72119993e-01, 7.67153144e-01,
          4.68520433e-01, 3.24901454e-02, -2.44170472e-01,
          -4.83300053e-02, -2.16135681e-01, -4.85776335e-01,
          3.34996849e-01, 2.72022784e-01, 1.72728553e-01,
          -1.11486070e-01, 1.45759657e-02, -5.75940423e-02,
          8.92527029e-02, 1.59060121e-01, -1.45797068e-02,
          9.94000807e-02, 1.35399476e-01, 3.68900597e-01,
          -3.06946874e-01, -4.32745665e-01, 3.91694516e-01,
          -1.76525176e-01, -6.00111187e-02, 2.05756560e-01 ]
      - [ 1., -3.92704129e-01, -4.39238667e-01, 1.71459839e-01,
          6.20069981e-01, 4.90538031e-01, 7.94051051e-01,
          -2.53909945e-01, 3.37984294e-01, -5.70324361e-01,
          2.97848195e-01, -2.36523584e-01, 2.92993069e-01,
          4.78542060e-01, 2.29574665e-01, 2.34181032e-01,
          -1.48563132e-01, 6.11921065e-02, 1.73373282e-01,
          -1.09711736e-02, -2.31086910e-01, -1.01720297e-03,
          4.07750368e-01, -1.59887776e-01, 2.94488281e-01,
          -4.03646529e-01, 2.21401587e-01, 4.54584584e-02,
          2.08319172e-01, 7.23268539e-02 ]
      - [ 9.53120828e-01, -2.94734716e-01, 1.79039448e-01,
          3.89010876e-01, 3.70952815e-01, 3.85760039e-01, 6.81307256e-01,
          8.99322852e-02, -3.82932931e-01, 2.49486625e-01,
          -5.34169078e-01, -6.14047348e-01, 7.72637844e-01,
          8.21936369e-01, 3.63056362e-01, -1.86556622e-01,
          -2.27219760e-02, -8.37818235e-02, 2.15848207e-01,
          3.76940936e-01, -1.35299549e-01, 1.17250919e-01,
          3.15016747e-01, 3.03831875e-01, -7.61428103e-02,
          -1.89049050e-01, 1.96057990e-01, 1.48159042e-01,
          4.63681109e-03, 1.19752981e-01 ]
      - [ -9.15968418e-01, -7.02423155e-01, -5.26012719e-01,
          -3.07553113e-01, 5.71282148e-01, 5.93988240e-01,
          4.52959299e-01, -2.11897981e-03, -1.94769770e-01,
          2.84793168e-01, 8.51370320e-02, -7.69224226e-01,
          4.07369107e-01, 2.74820417e-01, 4.51825112e-01,
          -4.57719564e-01, 8.20971727e-02, -4.33893651e-01,
          2.87093371e-01, 3.04727226e-01, -3.22494388e-01,
          -1.08974680e-01, -7.56779760e-02, 4.32096481e-01,
          1.85746923e-02, -4.39265549e-01, 2.15371147e-01,
          1.84238538e-01, 9.01814997e-02, 2.83460051e-01 ]
      - [ 3.98876481e-02, 3.99297774e-01, 3.42281342e-01,
          -4.14594769e-01, -1.06234504e-02, -2.53457427e-01,
          -1.76310048e-01, 9.73842517e-02, -1.08070463e-01,
          3.84000599e-01, -5.64006865e-02, 5.73329568e-01,
          -3.04581016e-01, 2.11569369e-02, -6.42847359e-01,
          -2.02332467e-01, 4.90554482e-01, 3.03159212e-03,
          -6.98091626e-01, -6.71138465e-01, 9.84479114e-02,
          -4.58340496e-01, 7.30142072e-02, -6.41567469e-01,
          -1.16387025e-01, -8.85521844e-02, 1.20065257e-01,
          -4.86227989e-01, 2.97856718e-01, 2.65526026e-01 ]
      - [ 9.23059762e-01, -3.10426414e-01, 1.69915676e-01,
          2.28359610e-01, 5.54505050e-01, 5.58325171e-01, 7.37623215e-01,
          -9.11030099e-02, 2.73612797e-01, -3.92803282e-01,
          2.58513540e-01, -2.51499146e-01, 2.74724901e-01,
          4.64975655e-01, 1.09910138e-01, -7.76848346e-02,
          -1.75142691e-01, -1.23462662e-01, 3.53237420e-01,
          1.07845098e-01, -2.25843444e-01, 5.77612668e-02,
          -9.21496227e-02, 2.82080323e-01, -5.09645998e-01,
          -3.49437684e-01, 2.71912009e-01, -1.89173400e-01,
          -1.47629054e-02, 2.33774886e-01 ]
      - [ 2.27570742e-01, 3.94435763e-01, 1.61292508e-01, 1.42687321e-01,
          8.74511898e-02, -2.52939105e-01, -3.05633217e-01,
          -9.19898748e-02, -7.75577947e-02, 3.48371387e-01,
          -6.21584713e-01, 5.06234467e-01, -3.43249291e-01,
          2.98657387e-01, -1.28793307e-02, -6.65837586e-01,
          5.47389567e-01, 1.51285119e-02, 2.27649689e-01,
          -2.98775673e-01, -5.00289440e-01, 4.50596362e-02,
          -4.14958745e-01, -2.92111814e-01, 4.09152806e-01,
          2.02173442e-02, -3.59539449e-01, -5.14178991e-01,
          2.97310114e-01, 1.16320491e-01 ]
      - [ -1.54405549e-01, 6.75189555e-01, 2.74275988e-01,
          -3.76284093e-01, -4.58764255e-01, -5.34509957e-01,
          -6.32493436e-01, -6.52906537e-01, -2.08947778e-01,
          8.01348835e-02, -1.89076260e-01, 5.20449579e-01,
          -3.40319186e-01, -1.74700022e-02, -1.33286908e-01,
          2.62424350e-01, -4.35362816e-01, 4.90199089e-01,
          8.58431280e-01, -2.32883438e-01, 2.68847972e-01,
          -4.53999788e-01, -5.86127229e-02, 7.24905670e-01,
          -1.89799458e-01, 1.07506722e-01, 1.45641834e-01,
          1.00507557e-01, -6.03926837e-01, 4.90929216e-01 ]
      - [ -1.24333143e-01, 4.76350665e-01, 6.62355542e-01,
          -2.13423744e-01, -5.64115524e-01, -5.58613479e-01,
          -6.24632180e-01, -6.56016409e-01, 1.90603025e-02,
          6.62356973e-01, -4.32072818e-01, 7.19459653e-01,
          -5.60590148e-01, -3.48538786e-01, -2.87950575e-01,
          5.75524978e-02, 7.35758319e-02, 7.88027048e-02,
          -3.67367029e-01, -7.66567737e-02, -3.62202362e-03,
          1.81974128e-01, 2.77130425e-01, -4.10600156e-01,
          -2.63764840e-02, -6.74357114e-04, -1.22581728e-01,
          2.01247215e-01, -3.11592847e-01, 7.50477791e-01 ]
      - [ 1.54462039e-01, 4.30931866e-01, 5.53932548e-01,
          -2.66524404e-01, -4.45980906e-01, -3.33277613e-01,
          -4.67118353e-01, -1.66614801e-01, 3.16404253e-02,
          4.06890333e-01, -5.86694181e-01, 5.05292356e-01,
          -4.20600921e-01, -5.30701160e-01, -5.34197271e-01,
          3.12556475e-01, 3.22871864e-01, 8.75820294e-02,
          -9.57647741e-01, 1.05363086e-01, 2.18320608e-01,
          -1.27858698e-01, -6.14250660e-01, -4.61166352e-01,
          -1.64998651e-01, 2.09660083e-01, -1.09674156e-01,
          -7.49982536e-01, 3.21492136e-01, 1.55859292e-01 ]
      - [ 9.03235078e-01, -3.22717756e-01, -4.12346542e-01,
          -3.20834786e-01, 3.96106303e-01, 4.20486718e-01,
          4.08153921e-01, -5.54294977e-03, -4.42617387e-01,
          -6.71919346e-01, 5.63924849e-01, 4.33501989e-01,
          2.74334103e-01, 5.14269292e-01, 4.43683743e-01, 1.04755824e-02,
          -2.69455075e-01, -2.38286465e-01, 3.31550151e-01,
          2.83614248e-01, -5.92127964e-02, 2.10432157e-01,
          4.37489152e-01, 6.44956082e-02, 1.18781433e-01,
          -5.53189695e-01, 3.43673557e-01, 1.03794083e-01,
          4.91599254e-02, 2.49482870e-01 ]
      - [ -7.91156590e-02, 6.14394605e-01, 7.68350542e-01,
          -4.91077155e-01, -8.15586209e-01, -5.69512308e-01,
          -6.97488904e-01, -5.43879151e-01, -3.30255419e-01,
          5.20505130e-01, -3.89921993e-01, 7.32236743e-01,
          -5.17479837e-01, -2.89746910e-01, -5.43422103e-01,
          3.82785022e-01, -9.91497189e-02, 2.16160044e-01,
          -5.07566214e-01, -4.04961454e-03, 6.35673523e-01,
          -7.14161545e-02, -2.49580011e-01, -7.72932023e-02,
          1.32125676e-01, 1.14694354e-03, -1.57523751e-01,
          8.11220258e-02, 1.47998080e-01, 5.89923561e-01 ]
      - [ 9.21445966e-01, -3.38068604e-01, -9.83485818e-01,
          -1.14266209e-01, 4.74405825e-01, 4.26451147e-01,
          5.07076859e-01, 6.52613401e-01, -1.32848904e-01,
          -2.03039899e-01, 8.07643235e-02, -3.84609938e-01,
          4.30407345e-01, 4.57755208e-01, 5.19303918e-01,
          -2.01307565e-01, -2.97306459e-02, -1.60257265e-01,
          4.21796232e-01, 3.97123307e-01, -3.42266023e-01,
          7.07209017e-03, 3.12424246e-02, 2.95870543e-01,
          -6.40322208e-01, -5.40613592e-01, 2.24571005e-02,
          2.06167817e-01, 1.02837227e-01, 3.57082903e-01 ]
      - [ -1.09778278e-01, 3.61667514e-01, 2.48557195e-01,
          -6.09628558e-02, -3.79685551e-01, -4.69606102e-01,
          -4.03896928e-01, -4.28968877e-01, -1.97107837e-01,
          1.28490478e-01, 1.49888888e-01, 2.03163952e-01,
          -7.11636961e-01, -7.98635632e-02, -5.70418119e-01,
          1.06766015e-01, -7.00225055e-01, -1.91108420e-01,
          4.27098155e-01, -4.11511004e-01, 1.15784824e-01,
          -1.58710644e-01, -2.58324691e-03, 1.56988844e-01,
          -1.22276306e-01, 1., -1.48192421e-01, 1.22089252e-01,
          -4.47030574e-01, 1.86107323e-01 ]
      - [ -2.16982365e-01, 4.33791369e-01, 2.50123441e-01,
          -6.96484983e-01, -3.17606419e-01, -4.43379790e-01,
          -5.72121203e-01, -5.16261578e-01, -3.50555688e-01,
          4.53530908e-01, 1.76668644e-01, 1.79033786e-01,
          -1.03878602e-01, -2.34140024e-01, -5.89275718e-01,
          -3.35264593e-01, -7.24434435e-01, 1.91793770e-01,
          1.03479519e-01, -2.03849345e-01, 6.14678204e-01,
          -3.08359563e-01, 2.19596010e-02, -3.88988331e-02,
          -6.00034177e-01, 3.75029206e-01, -9.71994549e-02,
          -1.22428544e-01, 2.10807502e-01, 3.96743774e-01 ]
      - [ 1.57385603e-01, 3.37744027e-01, 5.82725108e-01,
          -2.69678831e-01, -1.66147023e-01, -2.71071374e-01,
          -3.50919962e-01, -1.27243251e-01, -1.95578486e-01,
          5.55198014e-01, -2.32158318e-01, 5.96166372e-01,
          -2.09664717e-01, -2.05210254e-01, -5.47752798e-01,
          1.58416629e-01, 6.67559028e-01, -5.27798049e-02,
          -1.74617171e-01, -3.78827304e-01, 3.28733534e-01,
          -4.16390061e-01, -4.65237200e-01, -2.29609951e-01,
          3.30698133e-01, 6.09550327e-02, 2.30048120e-01,
          -3.27100545e-01, 6.83050394e-01, 9.56169069e-01 ]
      - [ -1.56873733e-01, 4.77704853e-01, 4.58192170e-01,
          -7.40644634e-01, -4.02100891e-01, -4.64437336e-01,
          -2.22986117e-01, -5.99541306e-01, 6.58499403e-03,
          -3.74442816e-01, -1.30665883e-01, 7.24563241e-01,
          -3.55514377e-01, 6.34778515e-02, -6.82590246e-01,
          -5.32307386e-01, -3.35978925e-01, 5.96551359e-01,
          -2.27189377e-01, 1.71973258e-01, 1.55019492e-01,
          -2.08731934e-01, 2.97309101e-01, 2.23122075e-01,
          8.68228916e-03, 6.91942811e-01, -1.55941874e-01,
          1.94543730e-02, -2.59952486e-01, 4.78491247e-01 ]
      - [ -1.09915964e-01, 5.88767529e-01, 6.14896655e-01,
          -4.29204136e-01, -7.97659695e-01, -5.22931337e-01,
          -3.42895180e-01, -5.66710174e-01, -3.18991452e-01,
          5.10034800e-01, -3.42850506e-01, 4.44663316e-01,
          -5.55392683e-01, 5.26040830e-02, -1.83630243e-01,
          -5.18260777e-01, -3.28266650e-01, 5.96601129e-01,
          -1.22654565e-01, -1.02603413e-01, 3.31058413e-01,
          -1.38082668e-01, 1.07655682e-01, 9.85285401e-01,
          1.78261891e-01, -6.25788718e-02, 8.95193890e-02,
          7.58337975e-01, -2.86532491e-01, 6.27573848e-01 ]
      - [ -9.49892223e-01, -1.42955095e-01, -5.41228831e-01,
          8.16153347e-01, 7.13679254e-01, 6.07544541e-01, 3.08162957e-01,
          8.29112232e-02, -2.26567477e-01, 3.42348754e-01,
          2.71314740e-01, -4.84901369e-01, 5.16140461e-01,
          5.04419565e-01, 1.32208899e-01, -1.39886349e-01,
          5.72643466e-02, -2.09589183e-01, 3.03160459e-01,
          4.71753925e-01, -3.99328113e-01, 1.46530956e-01,
          -6.80817515e-02, 4.10834372e-01, -3.13141674e-01,
          -3.96875948e-01, 3.75614524e-01, 1.03423046e-03,
          2.29559675e-01, 4.19926405e-01 ]
      - [ -2.12961271e-01, 4.03531104e-01, 1.97031558e-01,
          -4.53471273e-01, -3.17912549e-01, -4.12496805e-01,
          -4.22603905e-01, -5.27733326e-01, -3.03669542e-01,
          5.14154732e-01, 1.84881777e-01, 1.21094733e-01,
          -3.12971443e-01, -1.46343619e-01, -8.45024765e-01,
          -5.90569258e-01, -5.53028166e-01, -2.16000110e-01,
          1.35618806e-01, -7.54761696e-02, 2.73192078e-01,
          -3.94793481e-01, -6.46479651e-02, 1.15499295e-01,
          -1.50352344e-01, 4.79248285e-01, -7.11568892e-02,
          2.06002444e-01, 2.45364845e-01, 3.91404957e-01 ]
      - [ 9.81518269e-01, -2.33887061e-01, 3.71634483e-01,
          2.43005782e-01, 4.07823622e-01, 4.03832167e-01, 6.23197854e-01,
          7.27400631e-02, -4.40823168e-01, 2.13642195e-01,
          -2.62587488e-01, -6.04487717e-01, 6.75482988e-01,
          4.08853710e-01, 5.26879609e-01, -3.36254895e-01,
          -1.78755313e-01, -1.37066200e-01, 3.78579915e-01,
          4.07004207e-02, -4.38518256e-01, 3.57730761e-02,
          -3.41159761e-01, 2.96188086e-01, -1.87782124e-01,
          -3.83387089e-01, -2.28111283e-03, -1.58894099e-02,
          1.86499193e-01, 1.84998825e-01 ]
      - [ 4.75907810e-02, 5.33945441e-01, 4.73631203e-01, 9.02415439e-03,
          -4.95088726e-01, -4.77265209e-01, -4.77767587e-01,
          -1.51363865e-01, -1.98468361e-02, 4.97041166e-01,
          -3.37388605e-01, 6.23219967e-01, -2.60679901e-01,
          -5.68209887e-01, -3.49007487e-01, 6.99329913e-01,
          -1.54909655e-01, -3.16126406e-01, -5.54640174e-01,
          -2.07449794e-01, -1.45544514e-01, 4.78852428e-02,
          -7.13223219e-01, -3.11452985e-01, 2.84870744e-01,
          2.49846987e-02, -8.03376734e-02, 2.23938137e-01,
          -1.03938214e-01, -1.93508148e-01 ]
      - [ -1.82627425e-01, 3.19771051e-01, 4.45895791e-01,
          2.77030468e-01, -2.19346285e-01, -4.77145851e-01,
          -1.19202986e-01, -6.01740181e-01, 2.64530987e-01,
          8.89128745e-02, -1.29696742e-01, 7.51556503e-03,
          -2.22752362e-01, -8.37309286e-02, 3.93202677e-02,
          -5.01577258e-01, -4.70393240e-01, 3.69250655e-01,
          6.14181161e-01, -4.95944858e-01, 3.35786715e-02,
          -4.67641383e-01, 6.18126750e-01, 5.75406075e-01,
          5.06908238e-01, -6.30357862e-02, 3.70477289e-01,
          7.69030824e-02, -9.25639272e-01, 3.21099758e-01 ]
      - [ 9.51949358e-01, -3.87504846e-01, -2.07559139e-01,
          -1.83393776e-01, 5.94372511e-01, 5.43335378e-01,
          6.48893833e-01, -6.27958551e-02, -4.88239303e-02,
          -9.73973393e-01, 8.73984277e-01, 5.34205794e-01,
          6.76212460e-02, 5.44319570e-01, 2.16662541e-01, 2.67847866e-01,
          -1.36366859e-01, -8.85864198e-02, 4.72695708e-01,
          1.99049458e-01, -1.69447213e-01, 9.60673764e-02,
          3.82473826e-01, 6.89699575e-02, 1.44404083e-01,
          -5.28683364e-01, 4.35038924e-01, 7.74022192e-02,
          4.26006652e-02, 2.01507047e-01 ]
      - [ 9.79049742e-01, -4.19554085e-01, -5.58186531e-01,
          -2.78088689e-01, 5.55741608e-01, 5.41516542e-01,
          6.79021358e-01, 4.51523252e-02, -5.88931382e-01,
          -7.92482615e-01, 6.55212939e-01, 1.31002158e-01,
          4.64123368e-01, 5.82043886e-01, 8.37551206e-02, 1.85727496e-02,
          -9.28002521e-02, 6.55628964e-02, 3.06334138e-01,
          3.87527972e-01, -1.92340031e-01, 1.77891225e-01,
          4.94421005e-01, 2.20979258e-01, -3.07407081e-01,
          -3.61905128e-01, 4.62281704e-01, 3.95646580e-02,
          -4.04924266e-02, 2.53794849e-01 ]
      - [ -8.55953619e-02, 5.55258155e-01, 6.78835869e-01,
          -3.43190491e-01, -4.53851491e-01, -7.36280501e-01,
          -6.38675809e-01, -8.90748620e-01, 1.68159485e-01,
          1.70795128e-01, 1.40036894e-02, 6.13610446e-01,
          -2.37862885e-01, -2.16669500e-01, -2.03438729e-01,
          -2.14974791e-01, -3.75598073e-01, 2.74830371e-01,
          6.87205970e-01, -3.09585571e-01, 4.40197557e-01,
          -9.34473515e-01, 2.27283537e-01, 4.19861674e-01,
          9.59156454e-02, 3.56019437e-02, -4.90806192e-01,
          6.80235744e-01, -2.84539104e-01, 5.23458779e-01 ]
      - [ -9.67053548e-02, 3.30205113e-01, 3.18617493e-01,
          -3.82661372e-01, -3.41983974e-01, -5.35152555e-01,
          -4.87173826e-01, -7.04801917e-01, -5.59749082e-02,
          1.75952576e-02, 1.26919761e-01, 5.90264678e-01,
          -2.10067481e-01, -4.70165834e-02, -4.48141158e-01,
          -3.40244800e-01, -5.24034679e-01, 7.27441549e-01,
          8.28309953e-02, 3.61681461e-01, -2.93059438e-01,
          -1.57515332e-01, -1.09342579e-02, 2.84681410e-01,
          3.89936864e-01, 1.18676610e-01, -2.70258963e-01,
          7.22190924e-03, -3.85414034e-01, 4.12985951e-01 ]
      - [ 5.34462929e-02, 5.33669055e-01, 2.48914361e-01, 4.79402952e-02,
          -1.27128899e-01, -4.27529871e-01, -5.36387742e-01,
          -3.91931266e-01, -1.79993324e-02, 7.59788692e-01,
          -7.83865869e-01, 7.02401757e-01, -5.83914876e-01,
          6.16871491e-02, -6.80463076e-01, 4.05638039e-01,
          1.10004112e-01, -1.75383598e-01, 2.69204170e-01,
          -4.81213510e-01, 3.01357210e-02, 2.96719730e-01,
          -2.11624295e-01, -1.48229763e-01, -5.31971157e-01,
          -6.32275827e-03, -6.38855278e-01, -8.05581063e-02,
          7.57701814e-01, -2.38017887e-02 ]
      - [ 8.59052315e-02, 3.00000072e-01, 4.01639670e-01,
          -6.96004808e-01, -2.26550512e-02, -1.78233877e-01,
          -3.05833250e-01, -5.34400225e-01, -1.50032014e-01,
          6.19922876e-01, -2.97826558e-01, 6.74479187e-01,
          -2.42725298e-01, -8.30430537e-03, -8.51217359e-02,
          -1.74043730e-01, 2.04213127e-01, -1.00972801e-01,
          3.46901983e-01, -4.11320210e-01, -1.10393047e-01,
          1.26120783e-02, -2.85885602e-01, 3.86689335e-01,
          3.99806082e-01, -5.84420145e-01, -3.88142318e-01,
          -3.38752776e-01, 4.30700243e-01, 4.38851357e-01 ]
      - [ -8.70885372e-01, 9.19688761e-01, -3.32865059e-01,
          -2.80329406e-01, 1.82246014e-01, 4.22610462e-01,
          3.25586706e-01, 1.62759364e-01, -1.86974496e-01,
          -5.24267972e-01, 5.80320768e-02, -5.19279659e-01,
          5.12487411e-01, 7.40954161e-01, 2.58744985e-01,
          -2.42232323e-01, -8.78718719e-02, 1.51613317e-02,
          3.38640749e-01, 2.25921169e-01, -2.60274336e-02,
          2.53021363e-02, -9.99144688e-02, 4.84270871e-01,
          -4.16218564e-02, -3.85039657e-01, 2.18426645e-01,
          1.96650233e-02, 5.31937480e-02, 2.48107150e-01 ]
      - [ -9.24415171e-01, -5.19832373e-01, -4.08704340e-01,
          -3.30266118e-01, 2.85524994e-01, 6.94203019e-01,
          2.01698422e-01, 4.49275505e-03, -8.39682594e-02,
          -4.65206876e-02, -3.46978307e-01, 1.27480432e-01,
          4.84620899e-01, 5.35439551e-01, 5.91947973e-01,
          -2.25678489e-01, 6.80027753e-02, -2.12082058e-01,
          2.32376024e-01, 4.99773115e-01, -2.01556042e-01,
          1.68831214e-01, 5.12202755e-02, 1.42226778e-02,
          -2.36109033e-01, -3.45635533e-01, 3.39973360e-01,
          1.05907485e-01, 1.56799987e-01, 1.26942053e-01 ]
      - [ 7.52254501e-02, 1.84724331e-01, 3.97453159e-01,
          -1.21145636e-01, -3.24514419e-01, -3.05966318e-01,
          -5.21500826e-01, -5.61653256e-01, -3.92187908e-02,
          4.88128334e-01, -6.35759890e-01, 5.22999525e-01,
          -6.91177368e-01, -4.13168073e-01, -5.22556007e-01,
          1.56874120e-01, -1.63094729e-01, -6.24045372e-01,
          -4.10768330e-01, -8.73021111e-02, -1.99231058e-01,
          3.51854652e-01, -4.75624576e-02, 9.99856740e-02,
          -6.97203428e-02, 3.02933693e-01, -6.39636815e-01,
          -2.08471566e-01, 4.55226511e-01, -3.11325431e-01 ]
      - [ -2.08072588e-01, 4.60475981e-01, 4.36993122e-01,
          2.17614532e-01, -2.35610977e-01, -4.92765367e-01,
          -3.23129296e-01, -7.15940297e-01, 9.83140431e-03,
          5.26881456e-01, -7.81496227e-01, 5.61216652e-01,
          -5.17342389e-01, 1.37018248e-01, -3.95529985e-01,
          2.73229349e-02, -4.14313637e-02, -4.11731839e-01,
          -2.44318768e-02, -4.26480085e-01, 7.73940802e-01,
          1.47633672e-01, -7.82241642e-01, -1.07628010e-01,
          -1.26048714e-01, 1.18015744e-01, -2.55198181e-01,
          3.09144668e-02, 5.16236067e-01, -5.89815378e-02 ]
      - [ -8.36501569e-02, 3.89656961e-01, 5.27411580e-01,
          -2.74081081e-01, -1.66014537e-01, -5.45032740e-01,
          -3.78059953e-01, -7.23297596e-01, 1.38350487e-01,
          7.98966959e-02, 1.63456738e-01, 3.53263527e-01, 1.78442094e-02,
          -2.15425104e-01, -3.21670145e-01, -3.53413701e-01,
          -4.20943141e-01, 2.47169256e-01, 7.48897672e-01,
          -2.47518539e-01, 5.01670897e-01, -8.16022217e-01,
          3.15902770e-01, 3.93453181e-01, 1.12566743e-02, 1.40457610e-02,
          -4.85485703e-01, 6.17431462e-01, -5.70830047e-01,
          6.83344960e-01 ]
      - [ -9.09735978e-01, 1.05086893e-01, -4.66197431e-01,
          3.24679703e-01, 5.40324330e-01, 7.11880088e-01,
          -7.41529241e-02, -6.52245358e-02, -2.18748391e-01,
          -2.61152923e-01, 1.44717410e-01, -1.15246661e-01,
          8.78436029e-01, 7.63813674e-01, 3.79248857e-01,
          -3.19543451e-01, -3.64105627e-02, -1.62147403e-01,
          3.12572360e-01, 5.35687447e-01, -3.02109197e-02,
          -1.81725234e-01, 1.11003384e-01, 2.50414133e-01,
          -2.88005561e-01, -2.75770903e-01, 4.01000738e-01,
          1.24667317e-01, 2.69551396e-01, 1.08120032e-01 ]
      - [ -8.65238726e-01, 7.71864772e-01, -2.72724688e-01,
          3.80853117e-02, 1.07128456e-01, 1.89512864e-01, 6.07956469e-01,
          2.59673327e-01, -2.57578939e-01, -4.06511605e-01,
          2.81372964e-01, -8.50668967e-01, 6.02016091e-01,
          5.36953628e-01, 2.88895946e-02, -4.82695699e-02,
          -2.66152382e-01, 3.80429029e-02, 3.01653296e-01,
          2.21592322e-01, -7.93906450e-02, 4.86057959e-02,
          -1.52763158e-01, 2.54532576e-01, -7.88705051e-02,
          -3.43916833e-01, 1.13739304e-01, -9.02871415e-02,
          1.39236912e-01, 3.85755867e-01 ]
      - [ -1.57020122e-01, 3.51941794e-01, 3.26519907e-01,
          -4.92872059e-01, -4.26625693e-03, -2.69099146e-01,
          -1.04672179e-01, -1.01981372e-01, 5.61528280e-02,
          2.29541883e-01, -4.28532660e-01, -6.18554540e-02,
          -3.05348545e-01, -2.28693057e-02, 9.03951377e-02,
          -8.12656224e-01, 2.44501486e-01, 1.34692177e-01,
          4.47855145e-01, -4.34543908e-01, -5.33955395e-01,
          -4.38071847e-01, 6.57176793e-01, 4.51627411e-02,
          -1.49799794e-01, 3.41184467e-01, -7.63440132e-02,
          -5.56262076e-01, -1.18693747e-01, -7.09778816e-02 ]
      - [ -9.59840715e-01, -1.26821175e-01, -4.95882601e-01,
          9.52999175e-01, 6.80722177e-01, 5.72016239e-01, 2.89442986e-01,
          1.02694266e-01, -3.20825398e-01, 8.64362568e-02,
          3.85272086e-01, -6.27372682e-01, 7.33475804e-01,
          6.46582425e-01, 7.50845000e-02, -4.49697644e-01,
          1.16757229e-02, -1.29241601e-01, 4.72045422e-01,
          3.08786958e-01, -9.04289931e-02, -7.95737430e-02,
          -3.86632010e-02, 2.13292480e-01, -7.71977454e-02,
          -5.29123127e-01, 2.74621516e-01, -3.20173055e-01,
          -4.05172759e-04, -9.14507080e-03 ]
      - [ 8.52745712e-01, -3.25022697e-01, -4.19670075e-01,
          -3.05946112e-01, 5.42749166e-01, 5.78619778e-01,
          4.62583810e-01, 7.86459923e-01, -1.54697336e-03,
          -8.63116831e-02, 9.59974825e-02, -3.85497391e-01,
          3.99082422e-01, 4.88281250e-01, 3.57148707e-01,
          -4.45492230e-02, 1.55487973e-02, -1.45386249e-01,
          2.59196043e-01, 1.38404086e-01, -2.66732991e-01,
          5.29081970e-02, 4.26326960e-01, 2.92521715e-01,
          -1.94482476e-01, -6.77077115e-01, 1.91017479e-01,
          4.42254215e-01, 1.60401568e-01, 3.95337224e-01 ]
      - [ 1.20062210e-01, 5.33204257e-01, 6.91366613e-01,
          -1.89407647e-01, -4.17845339e-01, -6.68954730e-01,
          -5.48893809e-01, -5.40513694e-01, -1.75947443e-01,
          8.47474039e-01, -3.17441970e-01, 5.18883884e-01,
          -5.78612149e-01, -3.34244162e-01, -3.72477829e-01,
          4.24131528e-02, 3.21592242e-01, -5.23336351e-01,
          -1.81739151e-01, -6.65948570e-01, 1.07554518e-01,
          -5.81539333e-01, -5.85197031e-01, 3.30198705e-01,
          3.27531099e-01, -2.22379360e-02, -2.94448379e-02,
          5.57942510e-01, 5.91870487e-01, 1.18977167e-01 ]
      - [ 1.14296913e-01, 4.18345064e-01, 4.34576929e-01,
          -2.30578065e-01, -1.13711499e-01, -3.24259102e-01,
          -3.23775321e-01, -3.27992171e-01, -1.86553314e-01,
          8.11929166e-01, -2.37617716e-01, 4.92731690e-01,
          -5.87138176e-01, 1.07669448e-02, -4.45446819e-01,
          1.32150888e-01, 2.97904700e-01, -3.80008042e-01,
          -3.09062660e-01, -5.74493349e-01, 1.13933653e-01,
          -4.05302912e-01, -7.79049218e-01, 4.25862581e-01,
          1.45156771e-01, -1.04680084e-01, -1.51951164e-01,
          4.29074585e-01, 6.76012993e-01, 1.03380524e-01 ]
      - [ -9.21061873e-01, 5.25571227e-01, -4.04585510e-01,
          -1.40299305e-01, 2.77593136e-01, 2.62720734e-01,
          6.83081508e-01, 3.17601144e-01, -2.25574270e-01,
          -1.59499049e-01, 9.64546949e-02, -6.74743176e-01,
          4.52850282e-01, 6.16029918e-01, 3.50427002e-01,
          -5.44596575e-02, -2.78155327e-01, -2.76563168e-01,
          5.14627993e-01, 2.32509285e-01, -2.37541273e-01,
          1.28922179e-01, 1.51144648e-02, 1.08527401e-02, 1.34942114e-01,
          -5.51970601e-01, 5.25490820e-01, 3.13175470e-02,
          1.08413458e-01, 2.27582544e-01 ]
      - [ -9.02741671e-01, 8.37937236e-01, -2.72489727e-01,
          6.57248721e-02, 1.15966715e-01, 3.34382415e-01, 6.03105843e-01,
          1.97254911e-01, -9.41724628e-02, -1.89175352e-01,
          -3.22283544e-02, -7.25021005e-01, 5.12826800e-01,
          5.36874115e-01, 2.99499422e-01, -2.09798574e-01,
