%YAML:1.0
---
opencv_ml_svm:
   format: 3
   svmType: EPS_SVR
   kernel:
      type: LINEAR
   C: 1.0000000000000001e-01
   p: 1.0000000000000000e-02
   term_criteria: { iterations:10000 }
   var_count: 64
   sv_total: 1
   support_vectors:
      - [ -5.23535945e-02, -9.22455564e-02, -8.70543346e-02,
          3.27298492e-02, -2.86292642e-01, -2.17484847e-01,
          -6.40814472e-03, 4.94883239e-01, -2.36604095e-01,
          2.37906966e-02, 1.77116856e-01, -2.66780648e-02,
          -1.55217856e-01, -1.14199154e-01, -6.72259107e-02,
          -1.97389543e-01, 3.46038401e-01, -4.11715150e-01,
          -4.11575705e-01, 6.44019604e-01, 8.94099101e-02,
          -4.63235766e-01, -1.73037365e-01, 5.29535294e-01,
          -2.27747381e-01, 3.39333028e-01, 2.57713228e-01,
          -3.75980258e-01, -1.40698835e-01, -3.83174308e-02,
          -8.06758355e-04, -5.23536265e-01, 2.70337820e-01,
          -2.96855360e-01, -2.26750374e-01, 4.56945777e-01,
          5.35822511e-01, 9.57861990e-02, -2.94722497e-01,
          -7.79932216e-02, 4.10266072e-02, 6.78836465e-01,
          1.59642160e-01, -1.22360504e+00, -1.79528177e-01,
          5.76583622e-03, -1.57682877e-02, -2.30856478e-01,
          3.04335207e-01, -1.56346664e-01, -1.40955821e-01,
          4.92062978e-02, 1.25021905e-01, -2.30775803e-01,
          -3.86565387e-01, -1.76323175e-01, -2.21028179e-01,
          -7.20832050e-02, 9.08880457e-02, -1.28092110e-01,
          -1.45215154e-01, -2.64872849e-01, -8.42836127e-02,
          1.98665224e-02 ]
   uncompressed_sv_total: 576
   uncompressed_support_vectors:
      - [ 1.45146757e-01, 1.02111302e-01, 4.64024162e-03, 4.46948083e-03,
          5.26455879e-01, 5.26455879e-01, 2.74182614e-02, 1.30353682e-02,
          3.45892906e-01, 5.26455879e-01, 6.60789013e-02, 1.40487961e-02,
          3.50542441e-02, 3.79775949e-02, 2.17701588e-02, 2.34183725e-02,
          5.26455879e-01, 5.21798909e-01, 1.27532408e-02, 1.56060606e-02,
          5.26455879e-01, 5.26455879e-01, 9.76121277e-02, 2.11966261e-02,
          2.15567082e-01, 5.01012504e-01, 1.35528475e-01, 1.14020020e-01,
          6.24780729e-02, 4.63652946e-02, 4.83253337e-02, 7.85407349e-02,
          2.13653430e-01, 3.17398101e-01, 1.10491581e-01, 2.76261438e-02,
          1.83373079e-01, 5.26455879e-01, 3.58414143e-01, 1.43363059e-01,
          2.25866556e-01, 1.70282036e-01, 1.81661755e-01, 2.53216147e-01,
          1.46661341e-01, 7.49658942e-02, 3.90522741e-02, 1.13930926e-01,
          2.48902570e-02, 3.75284217e-02, 3.79497558e-02, 2.02685762e-02,
          6.73410445e-02, 4.69945148e-02, 1.20534919e-01, 1.43615484e-01,
          1.89501911e-01, 3.68231051e-02, 4.90751974e-02, 2.12255806e-01,
          1.13455772e-01, 3.95014510e-02, 7.60442857e-03, 5.53116836e-02 ]
      - [ 4.09139432e-02, 4.78687361e-02, 2.80697513e-02, 1.75809488e-02,
          1.81528121e-01, 1.81945741e-01, 2.49169841e-01, 2.04163209e-01,
          1.03811488e-01, 1.01418987e-01, 1.30654365e-01, 1.04340479e-01,
          1.16135972e-02, 2.19093654e-02, 2.47250646e-02, 1.30966194e-02,
          2.91951030e-01, 3.71482909e-01, 1.16956361e-01, 6.05644360e-02,
          4.89306092e-01, 4.89306092e-01, 2.84812480e-01, 2.30694264e-01,
          3.15809309e-01, 4.18618500e-01, 4.05653656e-01, 2.26863280e-01,
          7.47932717e-02, 1.50503471e-01, 1.51631966e-01, 5.94637729e-02,
          4.89306092e-01, 4.89306092e-01, 1.53410107e-01, 8.54398459e-02,
          4.65523899e-01, 4.89306092e-01, 1.83694184e-01, 1.56125575e-01,
          2.45375991e-01, 4.89306092e-01, 3.78795922e-01, 1.09132923e-01,
          8.61451626e-02, 1.58425286e-01, 1.27179757e-01, 5.17535470e-02,
          1.50869116e-01, 1.86506167e-01, 3.25076766e-02, 4.54224013e-02,
          1.63839519e-01, 1.45332381e-01, 6.80036694e-02, 1.00032471e-01,
          1.55546471e-01, 3.13542992e-01, 1.56132996e-01, 5.35780899e-02,
          6.09430820e-02, 4.45054881e-02, 2.79695224e-02, 3.68843563e-02 ]
      - [ 0., 0., 0., 0., 0., 0., 0., 0., 0., 0., 0., 0., 0., 0., 0., 0.,
          0., 0., 0., 0., 0., 0., 0., 0., 0., 0., 0., 0., 0., 0., 0., 0.,
          0., 0., 0., 0., 0., 0., 0., 0., 0., 0., 0., 0., 0., 0., 0., 0.,
          0., 0., 0., 0., 0., 0., 0., 0., 0., 0., 0., 0., 0., 0., 0., 0. ]
      - [ 1.02669992e-01, 2.26833578e-02, 1.52441235e-02, 3.03954408e-02,
          2.36696884e-01, 1.99381914e-02, 1.11031709e-02, 1.08241990e-01,
          1.90131128e-01, 2.54099648e-02, 1.45685039e-02, 1.52688086e-01,
          1.27526835e-01, 9.95981507e-03, 2.54656468e-03, 4.21946459e-02,
          2.93796003e-01, 1.83196757e-02, 6.76083192e-02, 5.53298712e-01,
          5.53298712e-01, 1.89297736e-01, 7.29650185e-02, 5.53298712e-01,
          4.22221184e-01, 4.23151076e-01, 2.07773328e-01, 1.54705673e-01,
          9.76047069e-02, 9.68715474e-02, 2.90571935e-02, 9.77977365e-03,
          3.87883395e-01, 2.95304996e-03, 1.13890097e-02, 5.53298712e-01,
          5.53298712e-01, 2.81142980e-01, 2.20114514e-02, 5.53298712e-01,
          5.53298712e-01, 5.06244838e-01, 3.65075655e-02, 5.31140640e-02,
          1.06842496e-01, 8.45210776e-02, 4.17621760e-03, 7.23320898e-03,
          4.33194414e-02, 1.18363285e-02, 9.39370599e-03, 4.11069728e-02,
          1.52563721e-01, 5.85115924e-02, 2.67185140e-02, 2.75240596e-02,
          1.05029091e-01, 5.51334992e-02, 1.00099295e-02, 6.28474355e-03,
          1.79261826e-02, 2.22267583e-02, 6.90839207e-03, 4.71262960e-03 ]
      - [ 4.44331020e-02, 1.08284689e-02, 6.70978986e-03, 5.30268289e-02,
          1.75170988e-01, 9.05960873e-02, 4.84237075e-02, 7.35385567e-02,
          4.42344993e-02, 1.86318710e-01, 1.44851655e-01, 5.55102825e-02,
          3.69827263e-02, 6.84083030e-02, 2.05525588e-02, 3.17578157e-03,
          5.35981357e-01, 7.42809940e-03, 2.46675266e-03, 5.47433436e-01,
          5.47433436e-01, 5.47433436e-01, 1.08071230e-01, 4.00989294e-01,
          2.59131521e-01, 5.47433436e-01, 1.02471389e-01, 2.43779738e-02,
          1.04264379e-01, 2.24751040e-01, 5.87454578e-03, 2.42591859e-03,
          4.58199739e-01, 1.26233138e-02, 3.16278893e-03, 4.26527321e-01,
          5.47433436e-01, 5.47433436e-01, 3.17670964e-02, 2.55671769e-01,
          2.13460416e-01, 5.47433436e-01, 6.07463382e-02, 3.39665712e-04,
          5.14213033e-02, 1.56591460e-01, 2.60781590e-02, 3.15165217e-03,
          3.75729650e-02, 1.60403885e-02, 9.80575942e-03, 2.00272836e-02,
          5.80197275e-02, 1.48452476e-01, 8.76857266e-02, 2.03205459e-02,
          1.02994815e-02, 1.74144566e-01, 1.18903413e-01, 4.39894898e-03,
          3.71219357e-03, 3.77158858e-02, 4.04369235e-02, 2.27371859e-03 ]
      - [ 4.07858677e-02, 3.15165222e-02, 2.33274233e-02, 3.17466781e-02,
          4.52739112e-02, 6.02489002e-02, 6.12326339e-02, 4.62576449e-02,
          1.17141977e-01, 1.00888140e-01, 1.14359692e-01, 1.29414484e-01,
          1.18992500e-01, 7.93407112e-02, 8.51131678e-02, 1.37295470e-01,
          1.89913973e-01, 1.22056924e-01, 4.04833257e-02, 1.00676544e-01,
          4.77295280e-01, 2.72666156e-01, 2.36522421e-01, 4.77295280e-01,
          4.77295280e-01, 4.77295280e-01, 4.77295280e-01, 4.77295280e-01,
          3.31381947e-01, 9.93290171e-02, 1.09600656e-01, 4.21762705e-01,
          3.06538075e-01, 4.05881971e-01, 1.49280295e-01, 1.01535916e-01,
          4.77295280e-01, 3.18170249e-01, 2.36470431e-01, 4.50652868e-01,
          2.36938179e-01, 1.94021508e-01, 3.52255613e-01, 4.06693071e-01,
          1.51173502e-01, 2.68744249e-02, 8.85840729e-02, 3.29241872e-01,
          3.15926224e-02, 1.31077558e-01, 1.17793471e-01, 1.50900669e-02,
          3.18617560e-02, 7.54039288e-02, 6.75099492e-02, 2.38341391e-02,
          2.60911528e-02, 2.40921360e-02, 3.58764939e-02, 3.78847905e-02,
          9.78905428e-03, 1.19347021e-03, 6.05087553e-04, 9.20252781e-03 ]
      - [ 7.21075013e-02, 2.30063200e-02, 8.79604276e-03, 2.27761641e-02,
          1.22825347e-01, 6.88333511e-02, 3.47832516e-02, 5.27094342e-02,
          8.33016187e-02, 1.03659287e-01, 6.58079088e-02, 6.15277514e-02,
          2.20634211e-02, 9.78330001e-02, 4.57657762e-02, 5.66666340e-03,
          2.78423786e-01, 1.67048704e-02, 2.21469458e-02, 3.48556429e-01,
          5.73726892e-01, 5.28911471e-01, 5.42945415e-02, 3.27563941e-01,
          2.70242125e-01, 5.73726892e-01, 1.43953294e-01, 8.45563486e-02,
          9.08800662e-02, 3.78686428e-01, 4.62038182e-02, 4.94649773e-03,
          5.73726892e-01, 8.92708302e-02, 6.10655814e-04, 2.89436013e-01,
          5.73726892e-01, 5.73726892e-01, 3.51229161e-02, 2.65080333e-01,
          1.54985934e-01, 5.73726892e-01, 2.47775927e-01, 7.81231141e-03,
          1.30910501e-02, 2.76322693e-01, 1.48704901e-01, 1.75586750e-03,
          2.31646433e-01, 3.47424187e-02, 6.36269990e-03, 4.10550050e-02,
          1.53898269e-01, 1.16431095e-01, 6.82969391e-02, 3.97260375e-02,
          1.66974459e-02, 2.35429153e-01, 1.76241949e-01, 7.55802542e-03,
          4.53073205e-03, 8.84485766e-02, 6.86533079e-02, 6.25318987e-03 ]
      - [ 3.35749350e-02, 9.47611630e-02, 8.91817361e-02, 2.12151855e-02,
          6.19453751e-02, 2.66429693e-01, 2.84999937e-01, 6.50636107e-02,
          4.17027846e-02, 1.99942455e-01, 2.59567708e-01, 7.77351856e-02,
          4.64655235e-02, 3.81761976e-02, 4.05612811e-02, 5.41163571e-02,
          8.12413543e-02, 1.94745377e-01, 2.19247714e-01, 1.03262082e-01,
          9.93178785e-02, 4.82412547e-01, 4.91013676e-01, 2.20903352e-01,
          1.44591793e-01, 4.91013676e-01, 4.91013676e-01, 3.01495075e-01,
          1.17815740e-01, 1.48274288e-01, 1.69886678e-01, 1.73244357e-01,
          3.76527756e-02, 1.11189477e-01, 2.32431576e-01, 1.21830478e-01,
          6.01319633e-02, 4.22139496e-01, 4.91013676e-01, 2.27475792e-01,
          9.08021107e-02, 4.91013676e-01, 4.91013676e-01, 1.81591213e-01,
          7.54150674e-02, 2.13428855e-01, 1.70580864e-01, 6.92751035e-02,
          1.63837653e-02, 6.68269098e-02, 9.70033258e-02, 4.03218456e-02,
          2.69765109e-02, 2.82559186e-01, 3.66536409e-01, 6.26525432e-02,
          7.75959864e-02, 4.81393516e-01, 3.80620480e-01, 3.18487659e-02,
          7.12147206e-02, 1.12483181e-01, 6.68343306e-02, 5.57181686e-02 ]
      - [ 1.31411646e-02, 2.83982814e-03, 3.28807533e-02, 3.01522911e-01,
          7.18903393e-02, 3.23536210e-02, 9.53532606e-02, 5.28033555e-01,
          6.89799786e-02, 1.05855048e-01, 1.17399983e-01, 1.41022518e-01,
          5.21173403e-02, 5.52337281e-02, 1.13296146e-02, 1.08303241e-02,
          1.33308589e-01, 1.29926773e-02, 1.14873825e-02, 2.36643061e-01,
          5.28033555e-01, 5.28033555e-01, 1.59297645e-01, 5.28033555e-01,
          2.34764665e-01, 5.28033555e-01, 3.19213390e-01, 1.84941471e-01,
          6.99599981e-02, 2.50257522e-01, 5.32384217e-02, 7.34643079e-03,
          3.90027165e-01, 2.37840246e-02, 7.43552297e-03, 3.69535863e-01,
          5.28033555e-01, 5.28033555e-01, 2.79992186e-02, 1.03204548e-01,
          4.01083946e-01, 5.28033555e-01, 1.02974392e-01, 2.97346688e-03,
          6.72148317e-02, 2.66084462e-01, 3.05606350e-02, 3.07369628e-03,
          5.79659045e-02, 1.30335111e-02, 1.75252650e-02, 7.51477852e-02,
          9.13199559e-02, 1.63488716e-01, 1.04691274e-01, 3.61511968e-02,
          1.04572490e-01, 2.23707914e-01, 9.17450041e-02, 6.83786068e-03,
          2.82275192e-02, 6.91563115e-02, 1.48023712e-02, 2.08625267e-03 ]
      - [ 1.19480662e-01, 5.10463715e-02, 7.70837022e-03, 4.21723723e-02,
          3.09556097e-01, 1.15701653e-01, 3.09188608e-02, 7.12778270e-02,
          1.91495359e-01, 3.97947133e-01, 8.61303136e-02, 7.61742070e-02,
          9.74450782e-02, 1.63765267e-01, 5.53673645e-03, 3.36881564e-03,
          1.94875315e-01, 6.18135892e-02, 4.40284722e-02, 2.48139724e-01,
          5.61784804e-01, 5.61784804e-01, 5.37432805e-02, 2.77213603e-01,
          5.61784804e-01, 5.61784804e-01, 5.23549207e-02, 1.65471025e-02,
          1.17175385e-01, 2.53746986e-01, 1.75067056e-02, 6.19750703e-03,
          2.83878863e-01, 1.52496910e-02, 4.78501730e-02, 3.14630687e-01,
          5.61784804e-01, 5.61784804e-01, 9.54868942e-02, 2.51764685e-01,
          2.53240258e-01, 5.61784804e-01, 1.91400692e-01, 4.98361979e-03,
          4.78705913e-02, 1.19760923e-01, 6.18470013e-02, 7.90882856e-03,
          7.61259496e-02, 3.94847468e-02, 2.37301961e-02, 3.81390750e-02,
          9.08930525e-02, 2.60157943e-01, 1.75540358e-01, 4.13705409e-02,
          5.44021949e-02, 2.61332870e-01, 1.12186201e-01, 7.17752613e-03,
          2.91908346e-02, 2.78451629e-02, 3.15722041e-02, 9.49207880e-03 ]
      - [ 6.95163906e-02, 4.05612811e-02, 8.16441253e-02, 4.88784537e-02,
          2.06349701e-01, 1.82981431e-01, 1.64568961e-01, 1.52437523e-01,
          3.55928838e-01, 2.99156398e-01, 2.08536178e-01, 2.34606907e-01,
          6.97298422e-02, 2.01744735e-01, 1.16590723e-01, 4.27774638e-02,
          1.48714185e-01, 6.86254650e-02, 7.48136938e-02, 9.71091315e-02,
          1.77836344e-01, 1.55609593e-01, 1.64830670e-01, 2.10503638e-01,
          4.18783695e-01, 3.43294382e-01, 3.87660652e-01, 4.67138708e-01,
          1.79055795e-01, 1.64839953e-01, 2.78191805e-01, 4.67138708e-01,
          1.42795086e-01, 7.82697424e-02, 7.04147443e-02, 1.42318085e-01,
          3.73790056e-01, 3.51722896e-01, 1.94008514e-01, 2.30835333e-01,
          4.67138708e-01, 4.67138708e-01, 2.20673203e-01, 4.67138708e-01,
          1.76275373e-01, 1.11044697e-01, 1.44285530e-01, 4.67138708e-01,
          1.26376048e-01, 2.69004088e-02, 3.28250714e-02, 1.50028303e-01,
          2.17848226e-01, 3.11618239e-01, 2.20853239e-01, 1.60944000e-01,
          1.08915761e-01, 1.68407366e-01, 6.92769587e-02, 2.99982373e-02,
          9.82005149e-02, 1.48237169e-01, 5.61896153e-02, 3.12659517e-02 ]
      - [ 2.31937859e-02, 6.08057296e-03, 3.79664600e-02, 9.36920494e-02,
          2.08942667e-01, 6.49225488e-02, 3.76713388e-02, 1.37282491e-01,
          1.08952880e-01, 1.80186167e-01, 1.03109881e-01, 4.92273979e-02,
          2.34684870e-02, 7.96191245e-02, 3.82671468e-02, 8.27633590e-03,
          4.37526554e-01, 3.13680340e-03, 1.37109868e-02, 5.08208573e-01,
          5.40987253e-01, 5.12613118e-01, 7.49770254e-02, 5.40987253e-01,
          4.21317250e-01, 5.40987253e-01, 2.01160058e-01, 1.07534826e-01,
          6.06535301e-02, 2.04890817e-01, 9.24893022e-02, 8.71251803e-03,
          4.23216045e-01, 1.42752407e-02, 4.08341270e-03, 3.19679260e-01,
          5.40987253e-01, 2.99442232e-01, 3.32556851e-02, 4.99974936e-01,
          2.57960320e-01, 5.40987253e-01, 1.43223852e-01, 4.12072018e-02,
          3.17281149e-02, 1.62696168e-01, 1.05337203e-01, 7.37798493e-03,
          3.36695947e-02, 2.20392924e-02, 1.91976093e-02, 2.39789151e-02,
          6.10470213e-02, 8.53173435e-02, 6.87164143e-02, 7.92609006e-02,
          2.37784553e-02, 1.39105171e-01, 1.30719319e-01, 4.02476005e-02,
          2.89179888e-02, 9.85160470e-02, 3.80184315e-02, 3.69734480e-03 ]
      - [ 3.53567861e-02, 1.99734569e-02, 3.03527508e-02, 7.57361725e-02,
          1.13923505e-01, 4.38577123e-02, 4.64024208e-02, 1.46247432e-01,
          1.11109659e-01, 1.06792383e-01, 7.87987337e-02, 7.93704093e-02,
          1.10512003e-01, 4.36776690e-02, 3.38923279e-03, 1.26103209e-02,
          1.89472213e-01, 2.27928697e-03, 2.41106953e-02, 5.75351000e-01,
          5.75351000e-01, 2.72608638e-01, 9.84752104e-02, 5.75351000e-01,
          4.64341581e-01, 5.75351000e-01, 1.13691494e-01, 2.27900848e-01,
          1.59561217e-01, 1.78701282e-01, 3.67321540e-03, 4.18364210e-03,
          1.22470826e-01, 9.69068054e-03, 2.54507996e-02, 4.08658683e-01,
          5.75351000e-01, 2.77664661e-01, 8.46825540e-02, 5.75351000e-01,
          4.00270969e-01, 5.75351000e-01, 9.14164782e-02, 6.47777766e-02,
          7.30578229e-02, 1.51587427e-01, 2.35687178e-02, 5.30101266e-03,
          6.21235594e-02, 1.01695545e-02, 1.61053520e-02, 1.24854058e-01,
          7.68906623e-02, 8.28580111e-02, 7.24304616e-02, 1.05131179e-01,
          6.52993396e-02, 1.73899561e-01, 7.11887330e-02, 7.35942367e-03,
          3.82819958e-02, 5.00793457e-02, 1.84793007e-02, 2.96418671e-03 ]
      - [ 8.25870261e-02, 7.02179968e-02, 9.38423946e-02, 1.73676834e-01,
          3.83352637e-01, 3.42232704e-01, 2.95332849e-01, 4.38972443e-01,
          2.97814429e-01, 2.76888788e-01, 3.49089116e-01, 3.22470844e-01,
          2.02130795e-01, 3.75859588e-02, 7.41454959e-02, 3.62278521e-01,
          1.61350500e-02, 3.46904481e-03, 4.77202469e-03, 2.31492389e-02,
          6.70180842e-02, 1.14521170e-02, 1.36515917e-02, 7.06504658e-02,
          4.29797769e-02, 8.51948373e-03, 1.00396276e-02, 4.57453579e-02,
          2.53598504e-02, 5.92094893e-03, 1.47578251e-02, 4.48952690e-02,
          1.37586892e-01, 1.57250375e-01, 1.42457277e-01, 1.34765625e-01,
          5.23539960e-01, 4.61397797e-01, 3.56248081e-01, 4.64271069e-01,
          5.23539960e-01, 3.18441242e-01, 3.86959046e-01, 5.23539960e-01,
          1.96230263e-01, 4.35013399e-02, 1.44331947e-01, 2.43466064e-01,
          1.44528687e-01, 3.00399989e-01, 2.13382453e-01, 9.69327912e-02,
          1.13214478e-01, 1.59158438e-01, 1.71495914e-01, 1.26513422e-01,
          2.08547309e-01, 1.07952446e-01, 1.54462516e-01, 2.46194527e-01,
          9.13496539e-02, 5.87213375e-02, 8.16348419e-02, 1.17034331e-01 ]
      - [ 1.80728137e-02, 6.11583889e-03, 2.19669044e-02, 5.48699312e-02,
          1.07263830e-02, 2.49607898e-02, 1.52237058e-01, 1.17817603e-01,
          3.90522741e-03, 7.60275796e-02, 1.77424297e-01, 3.33689079e-02,
          5.40495384e-03, 4.46632579e-02, 3.96703556e-02, 2.00644042e-03,
          3.02348882e-01, 3.04585486e-03, 9.73708369e-03, 5.13873339e-01,
          3.28735143e-01, 1.07785389e-01, 5.13873339e-01, 5.13873339e-01,
          1.40822055e-02, 2.89831370e-01, 5.13873339e-01, 1.04308926e-01,
          5.49033424e-03, 1.32605121e-01, 1.43932879e-01, 5.98776806e-03,
          4.66791660e-01, 5.33070974e-03, 9.20623948e-04, 4.43913370e-01,
          5.13873339e-01, 3.26949567e-01, 4.18789268e-01, 5.13873339e-01,
          1.03358604e-01, 5.13873339e-01, 5.13873339e-01, 6.81113228e-02,
          2.49459408e-03, 1.72468498e-01, 1.73468947e-01, 4.52887593e-03,
          3.35749350e-02, 1.37907993e-02, 4.56599798e-03, 1.96931865e-02,
          6.51656985e-02, 7.69890323e-02, 2.78024729e-02, 9.89856422e-02,
          2.85244938e-02, 2.77295291e-01, 1.19092733e-01, 9.85030551e-03,
          1.94518932e-03, 5.25925010e-02, 7.11015016e-02, 4.08155657e-03 ]
      - [ 4.05631401e-02, 1.53072299e-02, 2.17683017e-02, 4.59291153e-02,
          8.08868408e-02, 1.09021552e-01, 1.01784639e-01, 1.11122653e-01,
          3.41280475e-02, 1.87617972e-01, 1.43179312e-01, 2.29413565e-02,
          5.70564112e-03, 3.46347652e-02, 4.41509709e-02, 7.23506510e-03,
          3.44435871e-01, 7.78818177e-03, 2.70934440e-02, 5.46728134e-01,
          5.46728134e-01, 2.87821203e-01, 3.24152440e-01, 5.46728134e-01,
          1.18688114e-01, 5.46728134e-01, 5.46728134e-01, 2.06657812e-01,
          3.44157442e-02, 1.45091087e-01, 5.03429137e-02, 6.15667319e-03,
          2.53243983e-01, 5.48142493e-02, 3.01355869e-02, 3.00799012e-01,
          4.80697483e-01, 3.05147886e-01, 2.44134262e-01, 5.46728134e-01,
          1.62872493e-01, 5.46728134e-01, 2.99793035e-01, 1.64409339e-01,
          2.54637916e-02, 1.16739206e-01, 7.13056698e-02, 1.15152244e-02,
          2.71342788e-02, 1.13147656e-02, 3.07388175e-02, 1.26316652e-01,
          8.81534591e-02, 4.35384624e-02, 8.08794126e-02, 2.19433323e-01,
          4.35069054e-02, 8.79010260e-02, 1.38375729e-01, 1.64260849e-01,
          1.55930687e-02, 1.99716017e-02, 3.36120538e-02, 5.01832888e-02 ]
      - [ 8.07643384e-02, 7.58531094e-02, 9.48558226e-02, 8.49312767e-02,
          2.43560717e-01, 1.57083333e-01, 1.38139993e-01, 2.07708359e-01,
          2.60969043e-01, 1.52331710e-01, 1.25954717e-01, 2.46756926e-01,
          1.70864835e-01, 8.99130329e-02, 6.25764430e-02, 1.05077349e-01,
          2.99249202e-01, 2.00885355e-01, 2.69959986e-01, 2.88958997e-01,
          4.79034454e-01, 4.79034454e-01, 4.09655392e-01, 4.79034454e-01,
          4.79034454e-01, 3.24579328e-01, 4.51948434e-01, 4.79034454e-01,
          1.37145132e-01, 8.59558433e-02, 7.53816590e-02, 1.05411440e-01,
          2.28834450e-01, 1.20900571e-01, 1.25852644e-01, 2.17198581e-01,
          4.79034454e-01, 3.01857024e-01, 2.80012608e-01, 4.79034454e-01,
          3.14571261e-01, 2.24624828e-01, 2.33352199e-01, 3.17893684e-01,
          7.69240707e-02, 7.77982920e-02, 7.62595907e-02, 7.53835142e-02,
          7.66939158e-03, 3.76416440e-03, 2.32754531e-03, 6.23277295e-03,
          5.59984380e-03, 0., 0., 5.59984380e-03, 4.22633253e-03,
          8.90926458e-05, 8.90926458e-05, 4.22633253e-03, 4.30243229e-03,
          2.93634506e-03, 2.93634506e-03, 4.30243229e-03 ]
      - [ 2.19669044e-02, 1.41638741e-02, 1.39838327e-02, 2.07418818e-02,
          7.19571635e-02, 3.58319469e-02, 2.70321928e-02, 6.38293102e-02,
          9.77030769e-02, 4.87410985e-02, 3.05049494e-02, 7.19404519e-02,
          3.76323611e-02, 3.44250277e-02, 3.01040318e-02, 3.17745209e-02,
          1.73235074e-01, 3.45883630e-02, 5.33423647e-02, 1.78840488e-01,
          4.68426853e-01, 3.11178327e-01, 1.19231939e-01, 4.05174762e-01,
          4.06112105e-01, 2.49947563e-01, 2.87295938e-01, 3.86350244e-01,
          1.68973476e-01, 2.36999437e-01, 2.49693274e-01, 1.47476166e-01,
          1.83896497e-01, 9.92789045e-02, 8.99557248e-02, 1.61970422e-01,
          2.58563548e-01, 4.68426853e-01, 4.68426853e-01, 2.92216450e-01,
          1.49393514e-01, 4.00575399e-01, 4.68426853e-01, 3.39561760e-01,
          5.76800592e-02, 2.21064836e-01, 4.68426853e-01, 1.91105574e-01,
          1.10350519e-01, 5.60875311e-02, 1.12258591e-01, 1.69706628e-01,
          1.13084555e-01, 8.77915248e-02, 3.40194702e-01, 3.67947042e-01,
          8.43688771e-02, 9.90673080e-02, 4.68426853e-01, 3.48732740e-01,
          3.28399204e-02, 2.71194298e-02, 1.42774671e-01, 9.66747999e-02 ]
      - [ 0., 0., 0., 0., 0., 0., 0., 0., 1.22706555e-02, 1.40302358e-02,
          1.40302358e-02, 1.22706555e-02, 2.69950703e-02, 2.84892283e-02,
          2.84892283e-02, 2.69950703e-02, 5.66647761e-02, 5.22695407e-02,
          4.86334488e-02, 3.61864604e-02, 2.71279663e-01, 2.31618598e-01,
          3.24993283e-01, 2.34742403e-01, 0., 5.47919748e-03,
          5.47919748e-03, 0., 0., 0., 0., 0., 2.50238955e-01,
          2.68386006e-01, 2.42957503e-01, 1.82489574e-01, 8.18030119e-01,
          8.18030119e-01, 8.18030119e-01, 8.09603393e-01, 0.,
          2.34443583e-02, 2.34443583e-02, 0., 0., 0., 0., 0.,
          5.02816588e-03, 3.43006686e-03, 3.43006686e-03, 5.02816588e-03,
          2.86653727e-01, 1.64318383e-01, 1.48955479e-01, 2.71277815e-01,
          8.08051750e-02, 5.74276336e-02, 7.83588365e-02, 1.01754941e-01,
          5.13934642e-02, 2.95546297e-02, 2.34035254e-02, 4.52349335e-02 ]
      - [ 1.20791063e-01, 8.30640420e-02, 5.00515066e-02, 8.45656246e-02,
          2.85465807e-01, 2.22525582e-01, 1.72347859e-01, 2.16849640e-01,
          1.62384331e-01, 1.47622809e-01, 1.45339802e-01, 1.31927654e-01,
          1.20460673e-03, 1.88950635e-03, 1.97859900e-03, 1.83011149e-03,
          3.35699201e-01, 1.66124374e-01, 1.43632188e-01, 2.84530342e-01,
          4.62117970e-01, 4.62117970e-01, 4.62117970e-01, 4.62117970e-01,
          4.62117970e-01, 4.62117970e-01, 3.07204425e-01, 4.44574147e-01,
          4.63523045e-02, 5.16551696e-02, 3.75135727e-02, 2.98256204e-02,
          2.45322168e-01, 2.36271843e-01, 2.75357515e-01, 2.70318210e-01,
          4.62117970e-01, 4.53355342e-01, 3.78196418e-01, 4.62117970e-01,
          8.27113837e-02, 9.38034132e-02, 7.62261823e-02, 8.29656646e-02,
          9.17282980e-03, 7.91439600e-03, 5.49404649e-03, 6.75062370e-03,
          1.19543768e-01, 8.53767395e-02, 9.55091715e-02, 1.16009749e-01,
          2.51105756e-01, 2.01978594e-01, 1.23564079e-01, 2.23806277e-01,
          3.85956764e-02, 3.19953971e-02, 3.94847468e-02, 4.50734533e-02,
          0., 0., 0., 0. ]
      - [ 4.62483652e-02, 3.11341677e-02, 2.88827214e-02, 3.50375362e-02,
          1.14400521e-01, 2.89365482e-02, 3.17893699e-02, 1.68266296e-01,
          2.47774050e-01, 1.04687572e-01, 4.68868613e-02, 7.65064508e-02,
          5.40142693e-02, 4.17361893e-02, 1.43661881e-02, 6.92138495e-03,
          2.09349155e-01, 1.83196757e-02, 7.28833526e-02, 5.18543303e-01,
          5.18543303e-01, 2.95707762e-01, 1.66233882e-01, 5.18543303e-01,
          4.05007750e-01, 5.18543303e-01, 2.29322612e-01, 1.57139003e-01,
          1.61177874e-01, 7.55412877e-02, 2.17553098e-02, 4.36832383e-02,
          3.80201012e-01, 4.53685746e-02, 2.02908497e-02, 4.79780614e-01,
          5.18543303e-01, 4.05386388e-01, 8.71437415e-02, 5.18543303e-01,
          5.18543303e-01, 5.18543303e-01, 6.36622608e-02, 5.16867265e-02,
          2.15643182e-01, 1.40048072e-01, 1.48135070e-02, 3.34283002e-02,
          3.38329300e-02, 3.03638857e-02, 4.61889692e-02, 5.59557490e-02,
          1.01840317e-01, 7.87337720e-02, 7.71078244e-02, 9.37997028e-02,
          7.49937296e-02, 1.71494052e-01, 9.36530754e-02, 2.69653723e-02,
          3.55182663e-02, 4.86353040e-02, 2.26647966e-02, 8.74964055e-03 ]
      - [ 3.12418193e-02, 2.31640856e-03, 2.36002691e-02, 1.32226482e-01,
          1.15890965e-01, 2.51890887e-02, 5.24532944e-02, 1.61604777e-01,
          2.19260696e-02, 8.93153772e-02, 1.41664729e-01, 3.64370346e-02,
          7.13483570e-03, 6.07797392e-02, 3.10209468e-02, 9.74450784e-04,
          3.53101969e-01, 2.95119389e-04, 5.93950925e-03, 5.14699340e-01,
          5.14699340e-01, 5.14699340e-01, 2.88960844e-01, 5.14699340e-01,
          8.96643251e-02, 5.14699340e-01, 4.26937521e-01, 1.27899915e-01,
          1.20386435e-02, 2.00144768e-01, 6.24966323e-02, 1.56654569e-03,
          4.38348800e-01, 9.41226725e-03, 6.68937247e-03, 3.68773013e-01,
          5.14699340e-01, 5.14699340e-01, 6.67693689e-02, 4.82958227e-01,
          2.20370650e-01, 5.14699340e-01, 1.85748875e-01, 1.59141719e-02,
          6.60028029e-03, 1.67238027e-01, 7.85574391e-02, 8.01648200e-03,
          2.20300127e-02, 1.66529007e-02, 1.84793007e-02, 1.71132125e-02,
          9.59193632e-02, 5.59241958e-02, 7.73713961e-02, 1.10083237e-01,
          2.81180106e-02, 6.95906356e-02, 1.55629992e-01, 1.04524232e-01,
          2.50573060e-03, 2.82330886e-02, 5.98015822e-02, 1.31819993e-02 ]
      - [ 4.05371524e-02, 4.70167845e-02, 4.58140373e-02, 4.75272164e-02,
          9.13013965e-02, 7.14986995e-02, 5.19094579e-02, 8.98462236e-02,
          1.35114565e-01, 1.65146202e-01, 1.12666935e-01, 9.29069221e-02,
          7.61092454e-02, 9.90413204e-02, 8.05564523e-02, 4.92385365e-02,
          2.32539222e-01, 1.22298211e-01, 1.32584706e-01, 2.82006055e-01,
          4.60113406e-01, 3.53970647e-01, 3.54954392e-01, 4.60113406e-01,
          4.60113406e-01, 4.60113406e-01, 4.60113406e-01, 4.60113406e-01,
          2.19364643e-01, 3.19350749e-01, 2.73176610e-01, 1.75165430e-01,
          1.55138135e-01, 7.78799579e-02, 9.05051306e-02, 1.78911015e-01,
          4.60113406e-01, 3.56938541e-01, 3.76056314e-01, 4.60113406e-01,
          4.60113406e-01, 3.33620399e-01, 2.49348044e-01, 4.31549907e-01,
          8.18631500e-02, 7.46243745e-02, 5.53283878e-02, 9.58358422e-02,
          2.78600119e-02, 5.65515570e-02, 5.58573753e-02, 2.71658320e-02,
          2.74535269e-02, 2.90460587e-02, 2.83852872e-02, 3.02135441e-02,
          5.20078279e-03, 2.02314556e-03, 2.51872325e-03, 3.95905413e-03,
          0., 0., 0., 0. ]
      - [ 1.18907124e-01, 2.45450232e-02, 1.06075928e-02, 6.80445060e-02,
          4.09915239e-01, 1.49087265e-01, 3.44175994e-02, 9.00652409e-02,
          6.36435151e-01, 4.11903143e-01, 2.38638371e-02, 1.80709567e-02,
          2.34141037e-01, 2.05349252e-01, 6.94365799e-03, 4.48989822e-03,
          6.74323618e-01, 6.12716116e-02, 1.75772363e-03, 1.42615050e-01,
          6.74323618e-01, 1.85982749e-01, 6.51675556e-03, 3.13719332e-01,
          6.74323618e-01, 4.38120514e-01, 5.24532981e-03, 9.38553885e-02,
          1.04299650e-01, 7.90121853e-02, 1.42733834e-03, 3.49131809e-03,
          4.91524100e-01, 7.00862110e-02, 3.21605876e-02, 9.38590989e-02,
          5.36512196e-01, 1.04824923e-01, 7.10755140e-02, 1.42678156e-01,
          2.09638715e-01, 1.66087255e-01, 9.60010365e-02, 1.27844229e-01,
          7.50215799e-02, 5.78007102e-02, 4.01213877e-02, 6.50376305e-02,
          4.51402739e-02, 2.17107628e-02, 3.07777952e-02, 4.06745039e-02,
          9.28159729e-02, 6.83210641e-02, 8.63196328e-02, 1.08501844e-01,
          1.21403575e-01, 1.59587190e-01, 9.07241553e-02, 1.08926892e-01,
          5.94285019e-02, 6.51193038e-02, 4.04703319e-02, 4.29723524e-02 ]
      - [ 3.28009427e-02, 6.98078005e-03, 6.80816267e-03, 3.49688642e-02,
          8.03300068e-02, 3.78161147e-02, 1.91419255e-02, 6.57466576e-02,
          2.62693372e-02, 5.62527254e-02, 2.52392031e-02, 1.10734729e-02,
          1.00711808e-02, 1.24859633e-02, 6.92509674e-03, 2.70990143e-03,
          4.30024207e-01, 2.21339539e-02, 1.75048485e-02, 4.27991778e-01,
          5.45842767e-01, 1.64906770e-01, 4.49357331e-01, 5.45842767e-01,
          1.05097771e-01, 1.60407588e-01, 4.85122412e-01, 4.01679754e-01,
          7.63598224e-03, 1.69888530e-02, 4.72061075e-02, 2.85764653e-02,
          5.45842767e-01, 1.00977227e-01, 2.50610188e-02, 1.80510983e-01,
          5.45842767e-01, 4.98798132e-01, 3.10944468e-01, 5.45842767e-01,
          3.66660774e-01, 3.83354515e-01, 3.26333344e-01, 2.25146398e-01,
          2.55064815e-02, 3.44008952e-02, 3.55609581e-02, 2.47269217e-02,
          1.46317974e-01, 2.48921141e-02, 9.73337144e-03, 1.97173152e-02,
          1.21258795e-01, 2.51890887e-02, 7.96822272e-03, 5.17943799e-02,
          9.31036696e-02, 3.44937034e-02, 2.38526985e-02, 5.38787767e-02,
          6.19360954e-02, 4.22076415e-03, 4.73304698e-03, 3.86346541e-02 ]
      - [ 5.61265126e-02, 2.30861325e-02, 5.46564832e-02, 4.72896323e-02,
          2.15752684e-02, 6.87850937e-02, 9.69346538e-02, 4.89081517e-02,
          6.28827065e-02, 3.43587637e-01, 4.04978037e-01, 1.11722179e-01,
          8.74035899e-03, 2.18276978e-01, 2.36251429e-01, 1.05259251e-02,
          1.71688944e-03, 0., 0., 1.71688944e-03, 9.52363294e-03,
          3.13346274e-02, 4.34085354e-02, 2.16086786e-02, 1.87200338e-01,
          5.60483634e-01, 5.60483634e-01, 4.51812923e-01, 8.05768743e-02,
          4.58834559e-01, 5.60483634e-01, 2.63370842e-01, 4.97062691e-03,
          8.09258199e-04, 1.02827768e-03, 5.18964650e-03, 1.71596147e-02,
          1.44274393e-02, 1.13667361e-02, 1.40951993e-02, 2.88498670e-01,
          2.42860973e-01, 4.10327315e-01, 3.81646901e-01, 3.27933311e-01,
          3.44847918e-01, 5.60483634e-01, 5.60483634e-01, 4.75012250e-02,
          4.81397249e-02, 5.63399605e-02, 5.57070337e-02, 1.60045654e-01,
          1.51346132e-01, 1.12163931e-01, 1.20831899e-01, 1.88972920e-01,
          1.81854784e-01, 1.33548021e-01, 1.40627161e-01, 7.38522336e-02,
          7.67607391e-02, 1.02189258e-01, 9.29811671e-02 ]
      - [ 2.41756588e-02, 1.00303469e-02, 2.12987103e-02, 3.08279116e-02,
          5.70285730e-02, 2.31232531e-02, 1.56918123e-01, 1.22598894e-01,
          2.20133062e-03, 4.42140810e-02, 2.51174450e-01, 7.60943964e-02,
          6.21792395e-04, 2.63974071e-02, 5.29711470e-02, 1.15894685e-02,
          4.99002308e-01, 3.76843326e-02, 8.07030872e-03, 2.44655833e-01,
          4.99002308e-01, 4.99002308e-01, 4.34922457e-01, 4.99002308e-01,
          8.29025656e-02, 4.99002308e-01, 4.99002308e-01, 1.45588517e-01,
          3.61753255e-03, 1.12744883e-01, 1.39316753e-01, 1.04683861e-02,
          4.99002308e-01, 7.51088113e-02, 7.35385530e-03, 2.01880217e-01,
          4.99002308e-01, 4.99002308e-01, 1.84039429e-01, 4.43737060e-01,
          9.84566510e-02, 4.99002308e-01, 3.71017039e-01, 2.53078789e-02,
          2.64308192e-02, 9.44214985e-02, 1.10773705e-01, 3.55628133e-02,
          3.96425128e-02, 3.04399859e-02, 1.50399515e-02, 1.77387167e-02,
          3.25188152e-02, 9.55407247e-02, 9.10229832e-02, 6.28047511e-02,
          1.55151132e-02, 1.30680338e-01, 1.29093379e-01, 5.17516918e-02,
          3.26079056e-02, 5.75575605e-03, 1.97507255e-02, 5.49423210e-02 ]
      - [ 1.72672682e-02, 8.01276974e-03, 3.12807970e-02, 5.76280914e-02,
          1.02749802e-01, 3.43674868e-02, 3.59099060e-02, 9.35547054e-02,
          5.77301756e-02, 1.70920536e-01, 8.21972415e-02, 2.30972674e-02,
          4.57732044e-02, 8.67502466e-02, 6.70050923e-03, 2.09182105e-03,
          3.76479506e-01, 2.57440610e-03, 1.28311962e-02, 5.50509036e-01,
          5.50509036e-01, 5.50509036e-01, 6.36121482e-02, 5.50509036e-01,
          3.61396879e-01, 5.50509036e-01, 1.37455106e-01, 1.28885508e-01,
          5.54081984e-02, 2.27498055e-01, 3.35823558e-02, 2.55770143e-03,
          4.45027053e-01, 1.12943491e-02, 2.56141345e-03, 3.46364349e-01,
          5.50509036e-01, 5.50509036e-01, 1.92792770e-02, 2.83572614e-01,
          2.90391892e-01, 5.50509036e-01, 8.19485262e-02, 1.26084648e-02,
          2.40290295e-02, 1.31120250e-01, 6.18655607e-02, 5.53116854e-03,
          4.27589007e-02, 1.45258140e-02, 1.27866510e-02, 2.28893850e-02,
          6.28511459e-02, 1.21685699e-01, 7.35515505e-02, 1.51067721e-02,
          3.70384119e-02, 1.39108881e-01, 5.95398732e-02, 2.84354016e-03,
          1.04869474e-02, 5.30323982e-02, 1.86389219e-02, 7.35014270e-04 ]
      - [ 4.16842215e-02, 4.85053770e-02, 3.23257819e-02, 5.20301014e-02,
          1.22157156e-01, 1.13888241e-01, 1.14155516e-01, 1.23543650e-01,
          1.62443727e-01, 7.70410076e-02, 1.12549990e-01, 1.97984263e-01,
          9.65764299e-02, 5.31084947e-02, 5.46193570e-02, 9.80891511e-02,
          3.32068712e-01, 1.79447427e-01, 1.94043770e-01, 3.46676171e-01,
          6.09289765e-01, 5.57072163e-01, 5.44341207e-01, 6.09289765e-01,
          5.43398321e-01, 2.33521119e-01, 3.39374304e-01, 6.09289765e-01,
          2.57759869e-01, 1.07633196e-01, 1.29033983e-01, 2.79179215e-01,
          1.16583295e-01, 4.44572307e-02, 5.50388359e-02, 1.27174184e-01,
          6.47443682e-02, 1.82213001e-02, 2.35687178e-02, 7.00954944e-02,
          1.07263830e-02, 1.99716026e-03, 4.49175434e-03, 1.32246893e-02,
          0., 0., 0., 0., 2.14607462e-01, 9.21867564e-02, 1.18582308e-01,
          2.41025314e-01, 2.30675697e-01, 2.65061736e-01, 3.18405956e-01,
          2.84064472e-01, 9.76696685e-02, 1.73442960e-01, 2.41270304e-01,
          1.65556401e-01, 0., 0., 0., 0. ]
      - [ 4.81211618e-02, 2.07066163e-02, 2.24142242e-02, 7.08713382e-02,
          1.32725760e-01, 5.41701838e-02, 9.80427414e-02, 2.13684991e-01,
          2.73106068e-01, 2.58858681e-01, 4.28665541e-02, 7.59626105e-02,
          2.90868916e-02, 7.99216703e-02, 1.21444417e-02, 1.22873602e-03,
          3.07497680e-01, 1.19309900e-02, 6.40056357e-02, 4.84010637e-01,
          4.76270705e-01, 4.09443825e-01, 4.84010637e-01, 4.84010637e-01,
          1.40224397e-01, 4.84010637e-01, 2.21306130e-01, 2.19000857e-02,
          4.66715507e-02, 8.96680355e-02, 3.13550420e-02, 6.52974844e-03,
          2.46007070e-01, 2.01200880e-02, 5.19317314e-02, 4.65074748e-01,
          3.59687418e-01, 4.84010637e-01, 4.65291917e-01, 4.84010637e-01,
          4.56822552e-02, 4.31997240e-01, 4.21623498e-01, 2.94896644e-02,
          3.29568535e-02, 6.08539879e-02, 5.92651665e-02, 1.79521684e-02,
          9.69068110e-02, 2.16365196e-02, 1.98713727e-02, 1.70942798e-01,
          1.14832997e-01, 1.54052317e-01, 2.29146287e-01, 1.67431056e-01,
          2.11557895e-02, 1.78253964e-01, 1.51784167e-01, 1.08117629e-02,
          1.64932758e-02, 3.86031009e-02, 1.88189652e-02, 5.00218058e-03 ]
      - [ 2.26666536e-02, 1.74064748e-02, 1.74287483e-02, 2.98441779e-02,
          2.61060018e-02, 5.91649413e-02, 1.08340368e-01, 8.78156498e-02,
          3.67321540e-03, 3.47554125e-02, 1.64995864e-01, 5.66517860e-02,
          3.89409089e-03, 1.06948297e-02, 5.44485971e-02, 4.14484963e-02,
          3.58454973e-01, 1.01896003e-01, 4.79244180e-02, 1.24493979e-01,
          4.64061290e-01, 1.80199146e-01, 5.15542030e-01, 5.15542030e-01,
          1.97989848e-02, 8.73182192e-02, 5.15542030e-01, 3.09700876e-01,
          2.18406897e-02, 4.53889892e-02, 1.14858977e-01, 7.78576881e-02,
          3.64637643e-01, 2.39681482e-01, 1.33564726e-01, 9.60734263e-02,
          5.15542030e-01, 5.15542030e-01, 5.15542030e-01, 3.11586678e-01,
          6.46515638e-02, 4.34426874e-01, 5.15542030e-01, 1.55978948e-01,
          1.05463415e-02, 4.24248017e-02, 1.46807969e-01, 1.02790639e-01,
          2.48820916e-01, 4.01343815e-02, 1.06929727e-02, 2.71936730e-02,
          3.61140758e-01, 1.47704467e-01, 1.35918260e-01, 9.62293372e-02,
          3.93640995e-02, 1.81776837e-01, 3.57794195e-01, 5.64828813e-02,
          5.51260728e-03, 7.51162320e-03, 5.70044406e-02, 5.83853796e-02 ]
      - [ 1.89154819e-02, 2.45951377e-02, 2.62210798e-02, 2.25590002e-02,
          3.16835716e-02, 4.06410918e-02, 1.14860833e-01, 1.03744671e-01,
          4.52609174e-02, 8.75650793e-02, 1.14779167e-01, 4.91809957e-02,
          1.40023939e-02, 6.40371963e-02, 4.13018651e-02, 4.34512226e-03,
          3.45365763e-01, 6.50543347e-02, 1.92217380e-02, 2.96288729e-01,
          4.81621861e-01, 2.59697646e-01, 4.96812135e-01, 4.96812135e-01,
          8.23215991e-02, 3.94166291e-01, 4.96812135e-01, 8.57609510e-02,
          4.08508331e-02, 1.68409228e-01, 9.96909514e-02, 1.40358033e-02,
          2.84053326e-01, 7.56916218e-03, 7.39264786e-02, 4.96812135e-01,
          4.96812135e-01, 4.96812135e-01, 4.96812135e-01, 4.96812135e-01,
          4.16879356e-02, 3.50230604e-01, 4.96812135e-01, 9.88761261e-02,
          5.08941710e-03, 6.08409978e-02, 2.59502739e-01, 6.24984913e-02,
          1.88301019e-02, 1.22687994e-02, 3.29735577e-02, 3.04808207e-02,
          4.10308726e-02, 1.34275600e-01, 1.75969109e-01, 7.66326711e-02,
          3.00186519e-02, 2.37010553e-01, 1.16445944e-01, 1.12126805e-02,
          1.37648135e-02, 7.29910061e-02, 5.30064143e-02, 1.16006052e-02 ]
      - [ 2.36411057e-02, 2.78822854e-02, 2.39417925e-02, 2.15845499e-02,
          3.20436545e-02, 4.02104780e-02, 1.26793668e-01, 1.14420936e-01,
          4.90213707e-02, 9.72817391e-02, 1.14510030e-01, 4.60256301e-02,
          1.60608049e-02, 6.71183169e-02, 3.89223471e-02, 4.23746882e-03,
          3.88213784e-01, 5.50945178e-02, 2.15251539e-02, 3.80334616e-01,
          4.92292553e-01, 3.11454862e-01, 4.92292553e-01, 4.92292553e-01,
          6.25987202e-02, 3.90129268e-01, 4.92292553e-01, 8.30343440e-02,
          3.32482606e-02, 1.50932223e-01, 1.19837023e-01, 1.86630525e-02,
          2.23327413e-01, 6.37569232e-03, 7.95931369e-02, 4.84639853e-01,
          4.46953684e-01, 4.83489066e-01, 4.92292553e-01, 4.92292553e-01,
          5.11874370e-02, 3.64121646e-01, 4.92292553e-01, 9.49374884e-02,
          6.18637027e-03, 6.28938377e-02, 2.59415507e-01, 6.50097877e-02,
          1.67122949e-02, 1.33137815e-02, 3.14849690e-02, 2.51835212e-02,
          2.62916107e-02, 1.28811255e-01, 1.73455954e-01, 5.20263948e-02,
          2.63955519e-02, 2.37647220e-01, 1.11208037e-01, 6.79331413e-03,
          1.51030589e-02, 7.84200877e-02, 4.32841778e-02, 7.62113323e-03 ]
      - [ 5.19966967e-02, 1.35402251e-02, 1.10827535e-02, 5.03429137e-02,
          7.49454722e-02, 2.38248575e-02, 1.02606878e-01, 2.24682361e-01,
          4.65694675e-03, 2.57904641e-02, 1.74818322e-01, 1.39472678e-01,
          1.03384582e-03, 2.22638808e-02, 7.15154037e-02, 1.18307611e-02,
          5.16054273e-01, 1.44088790e-02, 8.39141384e-03, 3.18680674e-01,
          5.16054273e-01, 3.95046055e-01, 4.05007750e-01, 5.16054273e-01,
          8.33109021e-02, 5.16054273e-01, 5.16054273e-01, 3.04732114e-01,
          1.31968479e-03, 1.18548892e-01, 1.98418587e-01, 2.86098737e-02,
          5.16054273e-01, 7.51756281e-02, 3.97390313e-03, 1.13641381e-01,
          5.16054273e-01, 3.99812520e-01, 1.16664954e-01, 3.67026418e-01,
          1.43526390e-01, 5.16054273e-01, 3.97637159e-01, 4.90028113e-02,
          1.02196690e-02, 9.26210880e-02, 1.57894447e-01, 6.34580925e-02,
          4.19552103e-02, 4.30929996e-02, 1.72338579e-02, 9.95610282e-03,
          7.01641664e-02, 4.40377519e-02, 3.56797501e-02, 7.10996464e-02,
          2.45097578e-02, 6.50153533e-02, 1.25563085e-01, 1.02339610e-01,
          1.29444189e-02, 5.82628744e-03, 4.07821573e-02, 6.49615303e-02 ]
      - [ 6.55387761e-03, 1.94277652e-02, 1.38076887e-01, 8.62769410e-02,
          1.87502895e-02, 5.06788641e-02, 3.61756980e-01, 2.54107058e-01,
          2.51649600e-02, 3.84379067e-02, 3.79761100e-01, 3.24699998e-01,
          2.59352401e-02, 2.94414051e-02, 6.45606071e-02, 5.25442436e-02,
          2.63769906e-02, 6.55424893e-02, 3.48239005e-01, 1.47899359e-01,
          7.43051246e-02, 1.93260506e-01, 4.93951917e-01, 4.76625234e-01,
          4.60831709e-02, 2.18716860e-01, 4.93951917e-01, 4.92266536e-01,
          2.36652326e-02, 7.12425634e-02, 3.62241417e-01, 1.64849237e-01,
          2.33534090e-02, 1.46876648e-01, 3.27534258e-01, 1.15180083e-01,
          5.75705543e-02, 3.16800445e-01, 4.93951917e-01, 2.83778638e-01,
          1.79633033e-02, 3.19222659e-01, 4.93951917e-01, 2.94904083e-01,
          1.60997845e-02, 1.64431617e-01, 4.37593371e-01, 1.35456085e-01,
          3.53215216e-03, 8.36245790e-02, 1.29384786e-01, 2.18406897e-02,
          1.75364017e-02, 1.95873886e-01, 2.91169614e-01, 9.22944099e-02,
          1.94760226e-02, 2.46068299e-01, 3.02827746e-01, 6.52492270e-02,
          5.29358815e-03, 8.99817124e-02, 1.55902848e-01, 3.54143269e-02 ]
      - [ 8.35317746e-02, 9.25097242e-02, 1.30112380e-01, 1.06029525e-01,
          9.91248488e-02, 1.23203985e-01, 1.11653499e-01, 8.55753422e-02,
          1.53671816e-01, 1.45341650e-01, 1.55221656e-01, 1.29368082e-01,
          1.17806457e-01, 8.85580853e-02, 1.00750789e-01, 1.48103520e-01,
          2.05984056e-01, 2.10917562e-01, 2.80381978e-01, 2.12938845e-01,
          1.08783975e-01, 2.15953141e-01, 1.60931021e-01, 5.37154377e-02,
          3.24774235e-01, 4.65733677e-01, 4.17621762e-01, 2.76623398e-01,
          1.70794308e-01, 7.81027004e-02, 9.99563783e-02, 1.94784358e-01,
          2.03660220e-01, 3.20804060e-01, 4.08656836e-01, 3.76167715e-01,
          2.87681997e-01, 4.14245516e-01, 3.88863415e-01, 2.90163606e-01,
          3.58698100e-01, 3.77864182e-01, 3.35491329e-01, 3.16291869e-01,
          1.31838545e-01, 1.04654163e-01, 9.67546105e-02, 1.23931587e-01,
          8.27689171e-02, 3.03720534e-01, 3.57049912e-01, 1.84438467e-01,
          1.66586533e-01, 3.74320894e-01, 4.11192238e-01, 2.44679958e-01,
          1.65795848e-01, 1.60504118e-01, 1.41427144e-01, 1.46702170e-01,
          8.51744264e-02, 5.90387248e-02, 6.05291724e-02, 8.66667256e-02 ]
      - [ 1.66993029e-02, 7.48007034e-04, 2.01999005e-02, 2.46068299e-01,
          4.13222797e-02, 5.39567322e-03, 3.29178758e-02, 3.97750407e-01,
          7.12035820e-02, 5.97199127e-02, 2.78395955e-02, 1.11727744e-01,
          1.66473314e-02, 4.01492305e-02, 1.60144027e-02, 3.58412298e-03,
          4.14614864e-02, 7.37798493e-03, 8.95937905e-03, 3.62666458e-01,
          2.22471759e-01, 1.44127771e-01, 5.05786352e-02, 5.78649342e-01,
          2.62299865e-01, 5.78649342e-01, 3.23428571e-01, 5.78649342e-01,
          1.77758373e-02, 2.08237350e-01, 5.26630320e-02, 3.53957643e-03,
          2.53442585e-01, 5.38082421e-03, 1.84496015e-03, 2.39896774e-01,
          5.78649342e-01, 5.59793234e-01, 1.68849118e-02, 2.79509604e-01,
          5.19011021e-01, 5.78649342e-01, 7.86966458e-02, 5.06770127e-02,
          4.08638269e-02, 1.80264115e-01, 1.86296441e-02, 1.41434569e-03,
          1.40244812e-01, 3.84212035e-04, 1.42733834e-03, 1.31497025e-01,
          3.53708953e-01, 1.03993393e-01, 6.01189723e-03, 1.51038006e-01,
          1.14873827e-01, 2.22326979e-01, 9.03362315e-03, 2.19576247e-03,
          1.85813829e-02, 5.22862449e-02, 5.53116854e-03, 7.49863044e-04 ]
      - [ 4.53295931e-02, 1.86444931e-02, 4.33138758e-02, 9.14220437e-02,
          2.35607356e-01, 5.58128282e-02, 4.11403850e-02, 3.40345025e-01,
          2.01238006e-01, 1.83252431e-02, 5.18797599e-02, 4.41040128e-01,
          6.63888678e-02, 2.49663573e-02, 3.17077003e-02, 1.67436630e-01,
          1.64186612e-01, 9.52715948e-02, 1.15252472e-01, 1.63778260e-01,
          4.04493570e-01, 2.97775447e-01, 3.05916309e-01, 4.19520557e-01,
          4.03162777e-01, 1.80058092e-01, 2.10280910e-01, 4.41040128e-01,
          2.06405386e-01, 3.89316268e-02, 9.18823555e-02, 4.41040128e-01,
          1.86508030e-01, 9.23983455e-02, 1.75471678e-01, 2.25909248e-01,
          1.91892564e-01, 1.95491537e-01, 4.41040128e-01, 4.41040128e-01,
          2.13430703e-01, 2.80188948e-01, 3.42763543e-01, 4.18386459e-01,
          1.34793460e-01, 1.09654486e-01, 9.88352969e-02, 1.55713528e-01,
          5.80772646e-02, 2.36949306e-02, 6.99581429e-02, 1.51455626e-01,
          1.59548223e-01, 5.31456172e-02, 1.82905346e-01, 4.41040128e-01,
          2.30968967e-01, 6.00447282e-02, 1.50958210e-01, 4.41040128e-01,
          1.31127670e-01, 2.73718592e-02, 3.59507389e-02, 2.13768512e-01 ]
      - [ 3.28065082e-02, 6.64185658e-02, 9.38906595e-02, 4.95856218e-02,
          2.87899151e-02, 1.02621734e-01, 1.12208471e-01, 4.73898612e-02,
          1.32688642e-01, 1.61370903e-01, 1.04672723e-01, 1.35339156e-01,
          7.90957063e-02, 7.34940022e-02, 7.18903393e-02, 9.10267010e-02,
          1.26220152e-01, 1.80499837e-01, 1.92395568e-01, 1.17483497e-01,
          1.93986237e-01, 4.74108338e-01, 4.74108338e-01, 1.91497207e-01,
          4.42179799e-01, 4.74108338e-01, 4.72632736e-01, 4.38411921e-01,
          7.95615911e-02, 1.07692592e-01, 1.21884309e-01, 1.23062931e-01,
          1.19265348e-01, 1.24135755e-01, 1.42154738e-01, 1.49161503e-01,
          2.79032588e-01, 4.74108338e-01, 4.74108338e-01, 1.56645283e-01,
          4.74108338e-01, 4.74108338e-01, 4.74108338e-01, 3.70231897e-01,
          9.30925310e-02, 1.49178207e-01, 1.56262919e-01, 1.31370813e-01,
          1.01649143e-01, 4.70798947e-02, 4.73583080e-02, 1.31038561e-01,
          1.85019448e-01, 2.35809669e-01, 1.42316207e-01, 1.52465358e-01,
          1.63659468e-01, 1.78042367e-01, 1.39175698e-01, 1.76008075e-01,
          3.21253240e-02, 5.19911237e-02, 2.74776556e-02, 4.03589681e-02 ]
      - [ 8.84114578e-02, 1.61859065e-01, 1.65710464e-01, 9.22647119e-02,
          2.66817600e-01, 2.93484151e-01, 2.41118103e-01, 2.14405164e-01,
          2.47859433e-01, 3.32339674e-01, 3.87740463e-01, 3.03306639e-01,
          3.63071077e-02, 9.26303640e-02, 1.07328795e-01, 5.10185324e-02,
          1.90426245e-01, 2.90215582e-01, 2.85489976e-01, 1.85696915e-01,
          2.21738607e-01, 2.52856076e-01, 2.04243034e-01, 1.73084736e-01,
          4.75886494e-01, 5.15042722e-01, 4.41162646e-01, 3.97659451e-01,
          3.30416799e-01, 1.91177964e-01, 2.19019413e-01, 3.58282357e-01,
          2.05241621e-01, 1.38104737e-01, 1.68370247e-01, 2.38449052e-01,
          1.25988141e-01, 1.19835168e-01, 1.16347566e-01, 1.39480114e-01,
          1.42991841e-01, 1.26168177e-01, 1.24835506e-01, 1.41657308e-01,
          1.46412626e-01, 1.07380763e-01, 1.17388837e-01, 1.56428128e-01,
          2.02583686e-01, 1.18480220e-01, 2.04480603e-01, 3.08236420e-01,
          3.56775224e-01, 2.47439966e-01, 2.65052468e-01, 4.76469278e-01,
          1.30390793e-01, 7.62818605e-02, 8.13582838e-02, 1.33752197e-01,
          6.97335554e-03, 7.45037198e-03, 6.79702638e-03, 6.32000947e-03 ]
      - [ 2.38712616e-02, 1.11421486e-02, 2.50907149e-02, 4.54873629e-02,
          5.94099425e-02, 2.50034798e-02, 3.90634127e-02, 1.26229420e-01,
          1.12490594e-01, 9.03399438e-02, 4.22596112e-02, 5.50778136e-02,
          2.57886089e-02, 6.56575710e-02, 2.58832704e-02, 1.77999679e-03,
          2.77191341e-01, 1.84124790e-03, 2.22341828e-02, 5.30476153e-01,
          5.30476153e-01, 1.62014976e-01, 3.55668992e-01, 5.30476153e-01,
          8.49089995e-02, 4.68939126e-01, 4.29359734e-01, 2.06097275e-01,
          5.00366576e-02, 2.03624949e-01, 5.30156903e-02, 3.32612544e-03,
          3.33334565e-01, 5.46991732e-03, 4.45648795e-03, 5.30476153e-01,
          5.30476153e-01, 4.54626769e-01, 2.68317342e-01, 5.30476153e-01,
          1.86543286e-01, 5.30476153e-01, 3.48021835e-01, 6.84565604e-02,
          2.18091365e-02, 1.87449068e-01, 7.40211383e-02, 3.06070340e-03,
          3.93139869e-02, 1.45870643e-02, 1.59271676e-02, 4.56080101e-02,
          1.04917727e-01, 7.00472370e-02, 5.60411289e-02, 1.12587117e-01,
          3.24334316e-02, 1.81804672e-01, 1.04988255e-01, 1.67252887e-02,
          8.73479154e-03, 6.11639582e-02, 4.15580086e-02, 1.74658699e-03 ]
      - [ 3.71107981e-02, 2.15864051e-02, 2.93393228e-02, 4.03422602e-02,
          1.07460573e-01, 3.70773859e-02, 3.94494794e-02, 1.16674237e-01,
          8.99928510e-02, 7.62187615e-02, 8.10501724e-02, 1.22528367e-01,
          1.11892939e-01, 3.31127644e-02, 6.33114576e-03, 2.58350093e-02,
          1.67531297e-01, 4.09640558e-03, 3.22979391e-02, 5.68294108e-01,
          5.68294108e-01, 1.45647913e-01, 8.23141783e-02, 5.68294108e-01,
          4.67205524e-01, 5.68294108e-01, 1.22415148e-01, 3.27614069e-01,
          1.50362402e-01, 1.91092581e-01, 5.50703891e-03, 5.33999037e-03,
          1.48697481e-01, 7.64711900e-03, 1.51661653e-02, 4.28968102e-01,
          5.68294108e-01, 1.96987540e-01, 8.18482935e-02, 5.68294108e-01,
          5.00151217e-01, 5.68294108e-01, 8.24812278e-02, 1.67393938e-01,
          7.83068612e-02, 1.63065523e-01, 1.84755865e-02, 3.80128622e-03,
          3.84973027e-02, 9.16911755e-03, 1.41323199e-02, 8.29433948e-02,
          7.82159194e-02, 5.90145923e-02, 5.06176166e-02, 9.51008275e-02,
          7.07729682e-02, 1.47685900e-01, 6.44139796e-02, 1.15077998e-02,
          3.09875347e-02, 4.89118621e-02, 2.08291188e-02, 2.37951591e-03 ]
      - [ 3.36510353e-02, 2.86340043e-02, 2.16049664e-02, 2.16699298e-02,
          1.20681547e-01, 8.05861503e-02, 7.49269128e-02, 1.06983557e-01,
          6.27249330e-02, 5.37024476e-02, 6.02878779e-02, 5.17980941e-02,
          3.20121013e-02, 2.48921141e-02, 3.13383341e-02, 4.23988178e-02,
          1.27088800e-01, 1.52959079e-01, 1.18350297e-01, 9.79536548e-02,
          4.61945355e-01, 4.61945355e-01, 4.61945355e-01, 4.04920489e-01,
          4.43837285e-01, 4.61945355e-01, 4.06774729e-01, 2.96184778e-01,
          1.67648226e-01, 1.79336071e-01, 1.90546885e-01, 2.02977166e-01,
          8.64532739e-02, 2.09928244e-01, 1.94379732e-01, 8.91204849e-02,
          4.08079594e-01, 4.61945355e-01, 4.61945355e-01, 2.67509937e-01,
          4.16469127e-01, 4.61945355e-01, 4.61945355e-01, 4.43319440e-01,
          1.36152118e-01, 1.55507505e-01, 1.48981452e-01, 1.74181685e-01,
          5.02334014e-02, 6.18340075e-02, 7.12295696e-02, 4.29296605e-02,
          8.08589980e-02, 1.03165574e-01, 9.63147134e-02, 7.12240040e-02,
          5.83612509e-02, 2.78878529e-02, 3.39350179e-02, 7.03980401e-02,
          3.90893966e-03, 3.57669848e-03, 3.58969113e-03, 3.92193254e-03 ]
      - [ 4.07598820e-03, 1.69832853e-03, 5.26389033e-02, 1.93199247e-01,
          8.14882144e-02, 1.11699905e-02, 9.43732411e-02, 3.61595482e-01,
          1.37464374e-01, 1.42850772e-01, 6.15184717e-02, 8.49275663e-02,
          3.57465670e-02, 6.78737462e-02, 1.22743677e-02, 4.43050312e-03,
          4.05223034e-02, 1.77795514e-02, 4.52980436e-02, 3.05476397e-01,
          2.12935135e-01, 4.99293715e-01, 1.65296555e-01, 5.62443733e-01,
          2.22761303e-01, 5.62443733e-01, 2.47438118e-01, 2.27518484e-01,
          1.66243166e-01, 1.95547223e-01, 1.11792702e-02, 7.66567932e-03,
          1.63724437e-01, 1.51012018e-02, 5.25943562e-02, 5.62443733e-01,
          5.62443733e-01, 5.62443733e-01, 7.85760060e-02, 4.94427085e-01,
          2.19024986e-01, 5.62443733e-01, 2.99052447e-01, 8.66054744e-03,
          5.55696785e-02, 1.55288473e-01, 1.05816074e-01, 6.10655826e-03,
          2.90646199e-02, 1.36664398e-02, 3.98893766e-02, 6.29198253e-02,
          2.43317574e-01, 1.72362715e-01, 2.07808577e-02, 8.12859014e-02,
          1.52710363e-01, 2.37758562e-01, 4.67086770e-02, 1.01862587e-02,
          2.32420433e-02, 3.41336206e-02, 5.16032018e-02, 1.93906426e-02 ]
      - [ 3.70606817e-02, 7.35942367e-03, 8.49349890e-03, 2.61876676e-02,
          9.87963155e-02, 3.12009864e-02, 7.22652674e-02, 1.09366789e-01,
          1.01454249e-02, 1.36107579e-02, 2.19984591e-01, 8.40737522e-02,
          4.43607132e-04, 1.03310347e-02, 5.28189465e-02, 1.05741825e-02,
          5.08067489e-01, 7.00676534e-03, 3.92564479e-03, 2.26321295e-01,
          5.28209865e-01, 1.58525512e-01, 3.48831117e-01, 5.28209865e-01,
          1.20987803e-01, 3.70844424e-01, 5.28209865e-01, 2.60083675e-01,
          2.84354016e-03, 5.17479777e-02, 1.83304399e-01, 2.29673404e-02,
          2.97634393e-01, 1.52199930e-02, 4.98918816e-03, 8.34928006e-02,
          5.28209865e-01, 3.67165625e-01, 2.46545315e-01, 2.06006318e-01,
          3.57903719e-01, 5.28209865e-01, 5.28209865e-01, 5.32774031e-02,
          1.49749881e-02, 1.03948839e-01, 1.49673775e-01, 4.59383940e-03,
          3.25516671e-01, 2.02889945e-02, 8.74221558e-04, 3.83358225e-02,
          5.28209865e-01, 4.79930937e-02, 2.67649163e-03, 1.01636149e-01,
          1.69212908e-01, 1.72173396e-01, 1.80115625e-02, 2.58275848e-02,
          6.91396045e-03, 3.80165726e-02, 3.27137075e-02, 1.44961162e-03 ]
      - [ 1.02426842e-01, 7.44090602e-02, 6.45866022e-02, 1.28391787e-01,
          3.21336746e-01, 1.78116620e-01, 2.55035102e-01, 4.42560285e-01,
          2.04762742e-01, 2.20758587e-01, 3.70322853e-01, 4.42560285e-01,
          7.85481557e-02, 1.34114131e-01, 1.73838302e-01, 1.25019252e-01,
          6.36269897e-02, 2.37246286e-02, 2.75611803e-02, 6.92955106e-02,
          1.82897925e-01, 8.37656483e-02, 1.33664951e-01, 2.70153016e-01,
          2.78898954e-01, 3.13388944e-01, 4.42560285e-01, 4.40650344e-01,
          1.59611329e-01, 1.28334239e-01, 1.96943000e-01, 2.94135660e-01,
          7.91272596e-02, 5.54527454e-02, 5.88828102e-02, 6.23165928e-02,
          3.79657179e-01, 2.24311158e-01, 2.20710322e-01, 3.22465241e-01,
          4.42560285e-01, 3.68214339e-01, 4.35536802e-01, 4.42560285e-01,
          1.51661664e-01, 1.20013356e-01, 1.56856880e-01, 1.63837656e-01,
          1.00364715e-01, 1.07631333e-01, 1.03516370e-01, 6.76695779e-02,
          2.53487140e-01, 1.50483042e-01, 1.55719101e-01, 2.30501235e-01,
          3.19493651e-01, 1.48623228e-01, 1.62451148e-01, 2.73605376e-01,
          1.05287082e-01, 9.20067206e-02, 1.00175396e-01, 9.98375863e-02 ]
      - [ 4.49082628e-02, 2.19817534e-02, 2.28559747e-02, 4.56154346e-02,
          2.19409186e-02, 2.06954777e-02, 2.19409186e-02, 2.50517372e-02,
          2.29617730e-02, 5.11577390e-02, 5.07085621e-02, 2.25144532e-02,
          1.84310395e-02, 2.56234165e-02, 1.93015505e-02, 1.14985192e-02,
          1.19016632e-01, 7.93722644e-02, 2.04677358e-01, 3.50323409e-01,
          2.15340629e-01, 1.44883201e-01, 1.72474071e-01, 2.77974635e-01,
          2.10752353e-01, 1.80845082e-01, 1.90886557e-01, 2.12818190e-01,
          5.74276336e-02, 4.61537018e-02, 5.07289805e-02, 6.47220910e-02,
          4.08192798e-02, 2.04783157e-02, 5.24003923e-01, 5.24003923e-01,
          9.89373848e-02, 8.83464962e-02, 5.24003923e-01, 5.24003923e-01,
          2.75687903e-01, 2.33478412e-01, 3.58620167e-01, 3.85559559e-01,
          1.39537632e-01, 1.02166988e-01, 1.42668888e-01, 2.02578112e-01,
          2.95156501e-02, 2.06973348e-02, 2.42898092e-01, 2.62878984e-01,
          1.85349826e-02, 3.30422334e-02, 5.24003923e-01, 5.24003923e-01,
          9.46980566e-02, 1.19352594e-01, 5.13903081e-01, 5.24003923e-01,
          6.78013563e-02, 6.36232868e-02, 1.02636576e-01, 1.08984433e-01 ]
      - [ 3.43136638e-02, 3.23332055e-03, 2.35260278e-02, 2.17725709e-01,
          8.61581489e-02, 1.52014336e-02, 4.55133505e-02, 2.93549120e-01,
          2.60930080e-02, 8.56662914e-02, 1.61157444e-01, 3.50486748e-02,
          1.20479241e-02, 4.43198793e-02, 3.10840514e-02, 2.48902570e-03,
          9.89039764e-02, 8.75335280e-03, 1.13982903e-02, 3.70692223e-01,
          2.51734972e-01, 5.79469740e-01, 4.40065682e-01, 5.79469740e-01,
          1.11421488e-01, 5.79469740e-01, 4.74980742e-01, 1.28627509e-01,
          6.73428997e-02, 1.88855991e-01, 4.37296405e-02, 4.59198328e-03,
          3.54414254e-01, 2.41960771e-02, 9.97095183e-03, 2.75598794e-01,
          5.79469740e-01, 5.79469740e-01, 9.87239257e-02, 1.47607952e-01,
          1.36953950e-01, 5.79469740e-01, 1.10213168e-01, 1.36423111e-03,
          5.89180812e-02, 1.75454974e-01, 1.95354186e-02, 1.99159188e-03,
          1.07772402e-01, 2.92687882e-02, 7.82344770e-03, 4.49917838e-02,
          2.05310285e-01, 2.91182578e-01, 2.90367790e-02, 1.58919003e-02,
          4.27496210e-02, 2.91052669e-01, 5.13452031e-02, 3.89780325e-05,
          9.02248640e-03, 6.04753457e-02, 1.77257229e-02, 1.75401138e-03 ]
      - [ 7.06059206e-03, 4.43050312e-03, 5.55975214e-02, 1.96213558e-01,
          5.94099425e-02, 2.23641098e-02, 6.69605508e-02, 3.47405612e-01,
          1.03609182e-01, 2.11736098e-01, 4.26029898e-02, 4.43811268e-02,
          6.90375194e-02, 9.44177806e-02, 2.88623036e-03, 1.72431383e-03,
          3.76694836e-02, 8.94453004e-03, 2.01850515e-02, 2.55408198e-01,
          4.06997472e-01, 5.76917529e-01, 1.62865072e-01, 5.76917529e-01,
          3.72323751e-01, 5.76917529e-01, 1.39327899e-01, 1.68154940e-01,
          1.40410006e-01, 2.32457548e-01, 8.05545948e-04, 3.08112055e-03,
          3.62575501e-01, 6.00651465e-02, 7.39468960e-03, 3.10801536e-01,
          5.76917529e-01, 5.76917529e-01, 1.56858731e-02, 9.84121040e-02,
          4.63016331e-01, 5.76917529e-01, 1.53035168e-02, 1.99159188e-03,
          7.89991915e-02, 1.69389248e-01, 6.69122860e-03, 2.19390634e-03,
          1.31912798e-01, 3.96016799e-02, 4.81100287e-03, 4.57917601e-02,
          2.49038085e-01, 2.34144747e-01, 9.21180751e-03, 5.54230483e-03,
          6.65837601e-02, 1.92978382e-01, 2.82126702e-02, 1.16006040e-03,
          1.40469400e-02, 4.29909118e-02, 1.65638067e-02, 2.18091370e-03 ]
      - [ 5.78712411e-02, 8.85877833e-02, 1.28118932e-01, 7.68850967e-02,
          1.72119558e-01, 2.54888505e-01, 3.25770974e-01, 2.85215229e-01,
          3.31903517e-01, 3.87914926e-01, 2.62212634e-01, 2.81677544e-01,
          1.39825329e-01, 1.42752394e-01, 8.14863592e-02, 1.13487326e-01,
          1.44721717e-01, 1.81205153e-01, 2.34768406e-01, 1.43045664e-01,
          4.22828138e-01, 4.78228897e-01, 4.78228897e-01, 3.88419807e-01,
          4.78228897e-01, 4.78228897e-01, 4.78228897e-01, 4.73174721e-01,
          2.30564341e-01, 2.19743297e-01, 1.47851110e-01, 1.92412272e-01,
          1.92133859e-01, 3.09418738e-01, 2.63240933e-01, 1.35040328e-01,
          2.35960022e-01, 3.83911341e-01, 3.37113559e-01, 1.92789063e-01,
          2.84799486e-02, 2.44299453e-02, 2.27186251e-02, 3.06348745e-02,
          1.04553923e-02, 1.26752844e-02, 8.22807662e-03, 1.73266623e-02,
          7.14133233e-02, 1.17889985e-01, 1.00342445e-01, 6.14535101e-02,
          8.59948173e-02, 1.62629336e-01, 1.22881025e-01, 7.89806321e-02,
          4.23190044e-03, 5.57757076e-03, 5.57757076e-03, 4.23190044e-03,
          1.39021641e-03, 1.72988221e-03, 1.72988221e-03, 1.39021641e-03 ]
      - [ 7.47078955e-02, 2.84354016e-03, 1.02159567e-02, 1.20280631e-01,
          3.06385886e-02, 4.24674945e-03, 1.38204962e-01, 2.70119607e-01,
          3.19434237e-03, 6.13254355e-03, 9.30665433e-02, 1.08884200e-01,
          1.71874557e-03, 3.36139137e-03, 2.26870701e-02, 1.42919449e-02,
          3.14484030e-01, 4.31356905e-03, 1.00860298e-02, 4.08937097e-01,
          1.83168903e-01, 2.22018868e-01, 5.34338713e-01, 5.34338713e-01,
          2.16235267e-03, 1.39444828e-01, 5.34338713e-01, 2.01013431e-01,
          6.21049991e-03, 1.20869027e-02, 9.74339470e-02, 5.91742210e-02,
          4.59966749e-01, 9.48651042e-03, 4.11125459e-03, 1.23500966e-01,
          5.34338713e-01, 5.34338713e-01, 5.34338713e-01, 3.13958764e-01,
          1.04004525e-01, 5.22834599e-01, 5.34338713e-01, 4.40860093e-02,
          8.59744009e-03, 5.19020334e-02, 7.53501058e-02, 3.49465907e-02,
          2.82716960e-01, 1.72709804e-02, 7.44294783e-04, 4.94130068e-02,
          3.58772367e-01, 4.88877334e-02, 1.29629802e-02, 1.35942385e-01,
          5.24235964e-02, 1.37649998e-01, 5.36838844e-02, 2.52818931e-02,
          7.07915286e-03, 2.49682125e-02, 1.70556735e-02, 7.57101877e-03 ]
      - [ 4.94501293e-02, 6.31444110e-03, 4.74232715e-03, 3.99988852e-02,
          1.47331402e-01, 8.02186430e-02, 1.95020083e-02, 6.69995248e-02,
          4.70297784e-02, 7.75384381e-02, 1.95038635e-02, 4.32470534e-03,
          1.04850903e-02, 1.46130491e-02, 8.44524056e-03, 1.66491885e-03,
          3.74881446e-01, 1.03366021e-02, 1.51884388e-02, 4.33409721e-01,
          4.09518033e-01, 8.25220570e-02, 3.95818204e-01, 5.45001984e-01,
          2.71714013e-02, 9.42247510e-02, 3.09199721e-01, 2.24118114e-01,
          1.35847721e-02, 2.12504510e-02, 3.77697125e-02, 2.35111788e-02,
          5.45001984e-01, 1.35634258e-01, 4.62595001e-02, 3.24343622e-01,
          5.45001984e-01, 5.45001984e-01, 5.45001984e-01, 5.45001984e-01,
          2.73481011e-01, 3.84139657e-01, 4.46578741e-01, 2.54752994e-01,
          1.60385314e-02, 2.86674127e-02, 4.87058349e-02, 2.67482102e-02,
          2.80931383e-01, 3.75785343e-02, 3.87924234e-03, 3.55572440e-02,
          2.54693598e-01, 6.34933561e-02, 1.19811045e-02, 7.77351856e-02,
          7.49009252e-02, 6.64853826e-02, 3.62143032e-02, 4.22373377e-02,
          3.62087376e-02, 7.15339696e-03, 5.74090751e-03, 3.00817601e-02 ]
      - [ 5.71733490e-02, 7.53798038e-02, 7.03033805e-02, 4.69091348e-02,
          1.83510438e-01, 1.63757846e-01, 1.80607498e-01, 1.33891389e-01,
          1.38177127e-01, 1.63093373e-01, 1.51470482e-01, 1.31888658e-01,
          1.41731545e-01, 1.18927546e-01, 8.07364956e-02, 1.06218852e-01,
          6.62143901e-02, 1.28458604e-01, 1.29291981e-01, 7.60758370e-02,
          3.82636189e-01, 3.50202769e-01, 2.54365057e-01, 4.22627658e-01,
          4.07029033e-01, 3.43871623e-01, 3.96143019e-01, 4.22627658e-01,
          2.38881513e-01, 1.37624010e-01, 2.02199474e-01, 2.93751448e-01,
          1.08637340e-01, 1.02109455e-01, 1.28402919e-01, 1.30010307e-01,
          3.40131581e-01, 3.49426925e-01, 3.34921539e-01, 4.03140485e-01,
          3.93856317e-01, 4.22627658e-01, 3.84319663e-01, 3.91593724e-01,
          2.27939814e-01, 2.11333320e-01, 1.66983739e-01, 1.68301567e-01,
          5.98535500e-02, 6.34543821e-02, 5.83928004e-02, 7.16601834e-02,
          1.63685456e-01, 1.25978857e-01, 1.93071187e-01, 2.77705491e-01,
          3.14948052e-01, 3.09973747e-01, 1.16692811e-01, 1.52868122e-01,
          1.00709952e-01, 1.27957448e-01, 6.48483112e-02, 4.18605506e-02 ]
      - [ 1.50325270e-02, 1.50473760e-02, 2.29339320e-02, 3.43953297e-02,
          5.23289368e-02, 3.19007337e-02, 4.11533788e-02, 6.26358390e-02,
          3.12807970e-02, 8.48291889e-02, 5.31233437e-02, 2.12578755e-02,
          1.90416966e-02, 2.48549916e-02, 1.30372234e-02, 4.67550801e-03,
          2.78163940e-01, 3.03100585e-03, 2.19798982e-02, 5.07351041e-01,
          5.41599751e-01, 1.99437603e-01, 3.24709266e-01, 5.41599751e-01,
          6.36696815e-02, 3.58052224e-01, 5.19955814e-01, 3.07119042e-01,
          1.01788342e-02, 7.72377551e-02, 7.22429976e-02, 1.27903633e-02,
          5.41599751e-01, 1.36441672e-02, 3.29457177e-03, 3.07748258e-01,
          5.41599751e-01, 5.34507632e-01, 2.18586937e-01, 5.41599751e-01,
          2.40212336e-01, 5.41599751e-01, 3.13485473e-01, 9.36011076e-02,
          1.69981346e-02, 9.90858674e-02, 4.99828309e-02, 1.51160508e-02,
          9.15129930e-02, 2.79528163e-02, 1.01250075e-02, 1.83456596e-02,
          1.41267523e-01, 6.36659786e-02, 4.16489542e-02, 5.90758510e-02,
          3.88982221e-02, 8.99668634e-02, 6.95330948e-02, 3.28250714e-02,
          6.85270922e-03, 8.89812782e-03, 3.00594848e-02, 2.66888160e-02 ]
      - [ 7.03126565e-02, 5.59483245e-02, 6.10600151e-02, 6.53067678e-02,
          1.16809733e-01, 1.57590032e-01, 8.08181688e-02, 6.67749345e-02,
          9.01264846e-02, 2.35145196e-01, 2.09466085e-01, 1.16468213e-01,
          4.85796183e-02, 9.36419368e-02, 8.18074644e-02, 5.34778610e-02,
          1.95717990e-01, 6.46497011e-02, 5.53859286e-02, 1.86446771e-01,
          3.73847574e-01, 4.90390062e-01, 3.81724864e-01, 3.33492339e-01,
          4.90390062e-01, 4.90390062e-01, 4.90390062e-01, 3.07417899e-01,
          3.41330618e-01, 3.88798445e-01, 2.49468684e-01, 2.36715451e-01,
          2.60657221e-01, 9.93772745e-02, 1.08551964e-01, 2.71743685e-01,
          4.63252068e-01, 2.66687691e-01, 2.47458532e-01, 4.42658663e-01,
          2.31690988e-01, 1.45157903e-01, 2.66838044e-01, 2.24450350e-01,
          2.47636706e-01, 2.30607033e-01, 2.59200215e-01, 2.57401645e-01,
          1.17936380e-01, 9.48372632e-02, 9.38275456e-02, 1.25182584e-01,
          2.09351018e-01, 1.32889092e-01, 1.09272130e-01, 1.85713619e-01,
          1.81990284e-02, 2.91778427e-02, 2.57533435e-02, 1.47726741e-02,
          2.12318916e-02, 1.49211623e-02, 1.82157326e-02, 2.34425012e-02 ]
      - [ 4.17584665e-02, 7.79597759e-02, 5.02649546e-02, 3.23554799e-02,
          1.17459364e-01, 3.35183233e-01, 1.48740172e-01, 4.10939828e-02,
          1.13036288e-02, 2.68298779e-02, 2.61468347e-02, 1.28683187e-02,
          4.30187546e-02, 6.27137944e-02, 5.32105789e-02, 3.94383445e-02,
          2.38679186e-01, 1.18695527e-01, 1.02463968e-01, 2.67461687e-01,
          2.16903463e-01, 1.72789618e-01, 1.30646929e-01, 1.71731636e-01,
          8.13360140e-02, 3.86532173e-02, 6.53327554e-02, 9.97614861e-02,
          4.32674736e-02, 7.10922182e-02, 8.78063664e-02, 5.99964745e-02,
          4.12034929e-01, 3.53179961e-01, 3.01955372e-01, 3.54371578e-01,
          5.50650060e-01, 5.50650060e-01, 5.50650060e-01, 5.50650060e-01,
          4.30688679e-01, 5.15458465e-01, 5.23751497e-01, 3.85669053e-01,
          1.31983325e-01, 1.42850772e-01, 1.20971099e-01, 9.49207842e-02,
          1.09595090e-01, 1.95057213e-01, 1.63301244e-01, 1.10060968e-01,
          1.84943348e-01, 1.92031771e-01, 1.79378763e-01, 1.49768442e-01,
          5.75482808e-02, 5.36671840e-02, 4.25343141e-02, 3.88610959e-02,
          7.07395598e-02, 1.95430279e-01, 1.27831236e-01, 3.34969759e-02 ]
      - [ 8.38361830e-02, 4.79819588e-02, 6.81373179e-02, 1.11382507e-01,
          4.36832383e-02, 3.92787196e-02, 4.96246032e-02, 4.75290678e-02,
          1.00526199e-01, 1.59197420e-01, 1.61779240e-01, 1.23187281e-01,
          1.91363573e-01, 1.06406316e-01, 1.57005355e-01, 2.03526586e-01,
          3.85802686e-01, 2.98434377e-01, 2.96947658e-01, 4.61950928e-01,
          4.61950928e-01, 4.61950928e-01, 3.30949485e-01, 3.65710467e-01,
          1.03672281e-01, 1.17277473e-01, 9.93679985e-02, 1.09353796e-01,
          1.59962133e-01, 9.74079594e-02, 1.33939654e-01, 2.11376011e-01,
          2.88726985e-01, 3.22435558e-01, 3.58081877e-01, 3.50059867e-01,
          4.61950928e-01, 4.61950928e-01, 4.61950928e-01, 4.61950928e-01,
          1.77286938e-01, 1.80136055e-01, 1.95792213e-01, 1.81695178e-01,
          4.66140136e-02, 4.39653620e-02, 5.04078753e-02, 4.70483415e-02,
          1.11870661e-01, 1.28900364e-01, 1.54831871e-01, 1.56786352e-01,
          2.52106220e-01, 2.44808033e-01, 3.24874490e-01, 3.17175388e-01,
          5.20096868e-02, 5.67093231e-02, 7.21650422e-02, 5.79621904e-02,
          0., 0., 0., 0. ]
      - [ 1.44534251e-02, 9.37885698e-03, 4.73898612e-02, 1.71158105e-01,
          1.04164153e-01, 3.29197310e-02, 6.19695038e-02, 2.21877798e-01,
          1.32495612e-01, 9.45532769e-02, 7.90103227e-02, 8.91631693e-02,
          1.28887355e-01, 2.22880095e-02, 4.74418327e-03, 3.50356810e-02,
          1.40280068e-01, 2.68205977e-03, 7.90363178e-02, 5.54559052e-01,
          5.54559052e-01, 5.15371263e-01, 1.17147550e-01, 5.54559052e-01,
          4.33706701e-01, 5.54559052e-01, 1.31175920e-01, 1.32467762e-01,
          2.06516743e-01, 1.41846627e-01, 4.79800999e-03, 8.92040040e-03,
          3.32211614e-01, 2.86302920e-02, 3.55275460e-02, 3.91140819e-01,
          5.54559052e-01, 3.66430610e-01, 1.78370904e-02, 2.80588001e-01,
          5.37714958e-01, 4.75431770e-01, 9.05459672e-02, 1.12967618e-01,
          1.17342442e-01, 1.53159529e-01, 6.76862821e-02, 1.97358765e-02,
          4.52330783e-02, 3.83191183e-02, 2.91444305e-02, 2.83277482e-02,
          1.60550505e-01, 1.34695083e-01, 3.37067172e-02, 2.89829522e-02,
          1.60699010e-01, 5.79157881e-02, 2.02778559e-02, 8.72291252e-02,
          3.90411392e-02, 2.32197698e-02, 3.36992927e-02, 4.13352735e-02 ]
      - [ 3.82170337e-03, 4.64766612e-03, 4.64766612e-03, 3.82170337e-03,
          1.16637116e-02, 1.51902959e-02, 1.51902959e-02, 1.16637116e-02,
          2.89439727e-02, 3.27471159e-02, 3.53939086e-02, 2.33738273e-02,
          7.27348626e-02, 7.26661906e-02, 6.77790865e-02, 5.43836355e-02,
          0., 0., 0., 0., 0., 0., 0., 0., 0., 0., 0., 0., 0., 0., 0., 0.,
          2.49977261e-01, 7.52090439e-02, 7.29650185e-02, 2.23882377e-01,
          3.68839830e-01, 7.57807195e-02, 1.38251364e-01, 4.44262326e-01,
          2.91631788e-01, 1.17843589e-02, 1.29481312e-02, 3.05571049e-01,
          1.29512861e-01, 6.87312614e-03, 6.54830970e-03, 1.21507511e-01,
          3.05530220e-01, 1.29939765e-01, 1.25392333e-01, 2.73622096e-01,
          6.90161705e-01, 1.76865608e-01, 2.81439960e-01, 6.90161705e-01,
          6.90161705e-01, 1.50930360e-01, 1.46434888e-01, 6.90161705e-01,
          4.93732870e-01, 8.55883360e-02, 7.26253539e-02, 4.47482646e-01 ]
      - [ 2.47491933e-02, 1.06577072e-02, 9.47537366e-03, 4.06243913e-02,
          1.33900672e-01, 6.25690222e-02, 2.76614092e-02, 6.07129261e-02,
          4.22429070e-02, 1.15475200e-01, 1.38333037e-01, 6.28270209e-02,
          2.29524914e-02, 5.95343001e-02, 2.83611584e-02, 4.27644700e-03,
          4.14163858e-01, 2.31826468e-03, 2.24216492e-03, 5.09552419e-01,
          5.35762310e-01, 5.35762310e-01, 8.76708701e-02, 4.52286243e-01,
          2.67151713e-01, 5.35762310e-01, 1.43166304e-01, 4.79262732e-02,
          1.01240799e-01, 2.41697207e-01, 8.51205923e-03, 3.07184015e-03,
          4.67326164e-01, 4.98361979e-03, 1.86352106e-03, 4.94900346e-01,
          5.35762310e-01, 5.35762310e-01, 3.02599445e-02, 4.09527332e-01,
          2.82572150e-01, 5.35762310e-01, 4.34345193e-02, 2.05284311e-03,
          5.39975688e-02, 1.78528666e-01, 1.99029259e-02, 2.18091370e-03,
          4.22243439e-02, 1.58380736e-02, 6.69679698e-03, 2.53171586e-02,
          8.99538696e-02, 1.36098295e-01, 4.98046428e-02, 2.72976141e-02,
          1.64821390e-02, 2.04920501e-01, 8.92986655e-02, 1.78185280e-03,
          5.19521441e-03, 4.30447385e-02, 3.35044041e-02, 1.70760904e-03 ]
      - [ 2.97179651e-02, 7.72154778e-02, 7.18198121e-02, 3.16798612e-02,
          5.20282499e-02, 2.01163754e-01, 9.41467956e-02, 1.97767112e-02,
          2.28801034e-02, 8.89163166e-02, 4.62799147e-02, 6.60770480e-03,
          5.85023127e-02, 1.91931531e-01, 9.68938172e-02, 1.31764300e-02,
          9.80186164e-02, 1.66510433e-01, 2.49277517e-01, 1.72962233e-01,
          1.66369379e-01, 2.57739455e-01, 4.32574481e-01, 4.66229260e-01,
          3.00938249e-01, 4.66229260e-01, 1.85214326e-01, 2.47712821e-01,
          1.80650190e-01, 4.66229260e-01, 2.64447361e-01, 4.84923832e-02,
          1.86452344e-01, 1.75338030e-01, 1.64860368e-01, 1.64487287e-01,
          3.95786643e-01, 2.32097477e-01, 4.66229260e-01, 4.66229260e-01,
          4.66229260e-01, 3.87718171e-01, 2.06013739e-01, 4.66229260e-01,
          1.16184235e-01, 3.15530896e-01, 2.09222943e-01, 8.26668367e-02,
          9.99619439e-02, 3.81966121e-02, 2.99796741e-02, 1.01686254e-01,
          2.08519474e-01, 9.02601331e-02, 1.90494925e-01, 3.07050377e-01,
          2.18353078e-01, 1.49710909e-01, 2.04473197e-01, 2.52739131e-01,
          6.10173233e-02, 3.70848142e-02, 6.76491559e-02, 1.00953102e-01 ]
      - [ 4.94055822e-02, 3.42728235e-02, 3.49837132e-02, 2.20875517e-02,
          1.84575841e-01, 9.85234678e-02, 5.74851707e-02, 8.14306736e-02,
          8.99000466e-02, 2.61713356e-01, 1.72286615e-01, 4.21463884e-02,
          2.10518502e-02, 1.14370823e-01, 4.60274890e-02, 3.22589604e-03,
          2.26198792e-01, 3.58913429e-02, 8.33034813e-02, 3.80843192e-01,
          4.99534994e-01, 4.99534994e-01, 2.17436165e-01, 4.99534994e-01,
          3.32503021e-01, 4.99534994e-01, 4.99534994e-01, 5.78062795e-02,
          4.98380549e-02, 2.47397274e-01, 1.49872392e-01, 1.72672682e-02,
          2.36084372e-01, 4.51866724e-02, 1.73916258e-02, 1.52855143e-01,
          4.99534994e-01, 4.99534994e-01, 1.77431703e-01, 3.60376030e-01,
          2.48219535e-01, 4.99534994e-01, 4.76886928e-01, 4.98751737e-02,
          9.39556118e-03, 1.03646293e-01, 2.23605826e-01, 5.12635373e-02,
          5.75427115e-02, 8.78119376e-03, 9.50321555e-03, 5.09053096e-02,
          1.58081904e-01, 7.28016868e-02, 9.42915753e-02, 1.43472567e-01,
          2.18295548e-02, 8.37767869e-02, 3.11690599e-01, 1.56197965e-01,
          6.43137516e-03, 3.11879944e-02, 9.99303982e-02, 3.31610255e-02 ]
      - [ 1.96207985e-02, 1.57786775e-02, 1.93219669e-02, 1.84978601e-02,
          3.49837132e-02, 4.56952453e-02, 6.64891005e-02, 5.41961715e-02,
          5.45042790e-02, 8.83372128e-02, 1.03611030e-01, 6.97929487e-02,
          2.26685088e-02, 3.63089666e-02, 3.53939086e-02, 2.24272162e-02,
          8.93710647e-03, 1.94704551e-02, 8.79047439e-03, 9.94867831e-03,
          3.71325135e-01, 3.25583488e-01, 1.95959270e-01, 1.94179267e-01,
          4.41691637e-01, 4.67264920e-01, 4.67264920e-01, 3.84930342e-01,
          2.15893745e-01, 2.08023891e-01, 1.48252025e-01, 1.21628158e-01,
          9.60177407e-02, 5.18296435e-02, 3.70124243e-02, 9.57820117e-02,
          4.67264920e-01, 4.67264920e-01, 3.91469389e-01, 4.64111418e-01,
          4.67264920e-01, 4.67264920e-01, 4.67264920e-01, 4.67264920e-01,
          1.98177308e-01, 2.74093509e-01, 2.38343224e-01, 1.29152775e-01,
          8.73293504e-02, 1.03533082e-01, 8.36320072e-02, 7.81249702e-02,
          2.55068511e-01, 1.61038667e-01, 1.64624646e-01, 1.80330947e-01,
          2.37211019e-01, 1.09804824e-01, 1.03195265e-01, 1.28453031e-01,
          1.78408008e-02, 1.60496701e-02, 9.67954472e-03, 4.22818866e-03 ]
      - [ 8.44524056e-03, 5.11540286e-03, 4.49546659e-03, 7.82715995e-03,
          1.25726417e-01, 1.68620825e-01, 1.68620825e-01, 1.25726417e-01,
          2.90145036e-02, 4.04183641e-02, 4.04183641e-02, 2.90145036e-02,
          0., 0., 0., 0., 2.43482783e-01, 1.11944906e-01, 2.01182336e-01,
          3.79061371e-01, 2.37684339e-01, 2.13469684e-01, 1.59689277e-01,
          2.93116659e-01, 4.90956120e-02, 7.57974237e-02, 1.11451179e-01,
          4.15375903e-02, 7.23692104e-02, 9.88928303e-02, 1.93080455e-01,
          8.22585002e-02, 1.75699964e-01, 3.02547485e-01, 3.15445513e-01,
          2.86432862e-01, 2.51940995e-01, 5.20451367e-01, 5.20451367e-01,
          3.49280298e-01, 8.75298083e-02, 2.01596230e-01, 3.69099677e-01,
          1.81795388e-01, 2.87036061e-01, 3.63455296e-01, 5.20451367e-01,
          5.20451367e-01, 4.42419201e-02, 1.92332447e-01, 1.20705679e-01,
          7.72600248e-02, 1.30836263e-01, 4.64826047e-01, 2.71355778e-01,
          1.47253424e-01, 2.50370741e-01, 2.20149785e-01, 1.80564806e-01,
          2.30753660e-01, 1.63308680e-01, 1.61937013e-01, 2.84721553e-01,
          2.58997887e-01 ]
      - [ 7.37798493e-03, 1.78667884e-02, 3.34895551e-02, 5.27762547e-02,
          7.40990937e-02, 4.29612137e-02, 3.31536010e-02, 6.86625913e-02,
          4.97303978e-02, 6.95201010e-02, 7.72080570e-02, 3.97223234e-02,
          9.96909570e-03, 5.62694296e-02, 4.42920364e-02, 7.84943253e-03,
          1.63347647e-01, 1.01454249e-02, 3.23350616e-02, 5.31127632e-01,
          5.31127632e-01, 2.20784560e-01, 1.40853614e-01, 5.31127632e-01,
          2.28836298e-01, 5.31127632e-01, 3.87153924e-01, 2.91306973e-01,
          1.07152469e-01, 2.26068869e-01, 6.12196401e-02, 1.38204964e-02,
          3.55813742e-01, 1.63837653e-02, 1.90565456e-02, 3.22424412e-01,
          5.31127632e-01, 5.31127632e-01, 1.10196464e-01, 5.31127632e-01,
          2.81974494e-01, 5.31127632e-01, 3.11243296e-01, 5.34592979e-02,
          2.91796979e-02, 1.86357692e-01, 1.28579244e-01, 8.34501069e-03,
          1.32291436e-01, 1.01602729e-02, 4.90195164e-03, 9.91768166e-02,
          2.91199297e-01, 6.58357516e-02, 1.53387832e-02, 1.77938432e-01,
          1.52431950e-01, 1.91788629e-01, 5.40458225e-02, 6.37754845e-03,
          1.62556954e-02, 5.17776757e-02, 4.04907502e-02, 5.76874847e-03 ]
      - [ 4.51272801e-02, 4.77629378e-02, 4.49676588e-02, 4.87856455e-02,
          6.61828443e-02, 8.26891139e-02, 7.61760697e-02, 7.05947801e-02,
          0., 0., 0., 0., 0., 0., 0., 0., 3.81242274e-03, 2.22174777e-03,
          1.17119704e-03, 5.18779038e-03, 5.98034402e-03, 4.12981538e-03,
          1.68162363e-03, 7.63783790e-03, 0., 0., 0., 0., 0., 0., 0., 0.,
          2.84567446e-01, 1.23319067e-02, 1.11959754e-02, 2.13363886e-01,
          5.95524907e-01, 2.66099304e-01, 2.03071833e-01, 5.95524907e-01,
          5.26949584e-01, 6.35416135e-02, 1.99883059e-01, 5.95524907e-01,
          1.33607417e-01, 1.23207700e-02, 5.64216301e-02, 1.80691019e-01,
          2.88205415e-01, 2.34554932e-02, 2.71361340e-02, 2.15225562e-01,
          4.63599145e-01, 2.03717753e-01, 1.46635354e-01, 5.73565423e-01,
          5.93332887e-01, 8.96903053e-02, 2.16493279e-01, 5.95524907e-01,
          2.62520730e-01, 3.88146974e-02, 1.25173301e-01, 3.73645276e-01 ]
      - [ 4.05687094e-02, 2.43427083e-02, 2.73384489e-02, 6.10080436e-02,
          1.29453465e-01, 2.31492389e-02, 3.88276875e-02, 3.12988013e-01,
          1.65348515e-01, 1.03718685e-02, 6.89484254e-02, 4.63194489e-01,
          1.84913635e-01, 7.70280138e-04, 2.59482325e-03, 1.57526940e-01,
          8.14306736e-02, 1.57990940e-02, 1.30051136e-01, 5.15018582e-01,
          2.80001491e-01, 2.10507348e-01, 2.29406133e-01, 5.15018582e-01,
          4.15010244e-01, 4.69516397e-01, 1.24842927e-01, 2.38749713e-01,
          3.20423573e-01, 5.99444956e-02, 4.78872942e-04, 8.00516009e-02,
          1.42448008e-01, 7.81973638e-03, 6.34766519e-02, 5.15018582e-01,
          5.15018582e-01, 5.15018582e-01, 1.71200797e-01, 5.15018582e-01,
          4.34458435e-01, 5.15018582e-01, 5.92818744e-02, 9.11009386e-02,
          1.15521602e-01, 9.86404046e-02, 5.11354674e-03, 8.85543693e-03,
          4.94389944e-02, 1.89043451e-02, 3.41540389e-02, 1.10953756e-01,
          1.37069032e-01, 1.64069667e-01, 4.82306741e-02, 4.13297080e-02,
          5.93783930e-02, 1.53038889e-01, 2.88251825e-02, 2.21617962e-03,
          1.05983131e-02, 3.17856558e-02, 1.21240234e-02, 2.21617962e-03 ]
      - [ 8.73479154e-03, 1.34678381e-02, 1.19012920e-02, 7.16638984e-03,
          7.79931806e-03, 2.64308183e-03, 3.29828402e-03, 8.45266506e-03,
          1.33026447e-02, 3.25559359e-03, 2.71918159e-03, 1.27662336e-02,
          0., 6.68194843e-05, 6.68194843e-05, 0., 1.77181140e-01,
          3.78550924e-02, 5.84521964e-02, 2.67554492e-01, 4.72588211e-01,
          2.89721847e-01, 1.73556179e-01, 4.28362995e-01, 4.33058918e-01,
          3.14309567e-01, 3.57460111e-01, 3.57116729e-01, 5.49070537e-02,
          3.58375162e-02, 6.75229430e-02, 7.33752102e-02, 1.89772904e-01,
          1.25694871e-01, 1.23797938e-01, 2.29476675e-01, 4.22787279e-01,
          4.72588211e-01, 3.35743755e-01, 2.96799153e-01, 4.72588211e-01,
          4.72588211e-01, 4.72588211e-01, 4.72588211e-01, 3.31992596e-01,
          1.76438704e-01, 2.63311446e-01, 3.96594048e-01, 8.32756385e-02,
          6.23165928e-02, 5.49107641e-02, 7.08676279e-02, 1.53521478e-01,
          3.31866384e-01, 2.15444580e-01, 7.65342936e-02, 7.28647932e-02,
          1.26847506e-01, 8.44319835e-02, 4.79726791e-02, 6.90932050e-02,
          6.39332533e-02, 9.99452397e-02, 1.10534273e-01 ]
      - [ 2.18945183e-02, 1.15393540e-02, 1.67902522e-02, 4.83290479e-02,
          6.41986802e-02, 3.06330230e-02, 6.15240373e-02, 8.92207175e-02,
          3.26635912e-02, 1.48417205e-01, 1.32113248e-01, 2.75908783e-02,
          3.98318376e-03, 5.32662645e-02, 4.79726791e-02, 8.55660625e-03,
          2.26080000e-01, 5.62582910e-03, 1.17156832e-02, 5.12767136e-01,
          5.12767136e-01, 3.90667528e-01, 3.16898823e-01, 5.12767136e-01,
          1.01337314e-01, 5.12767136e-01, 4.51950282e-01, 9.58061442e-02,
          4.94594090e-02, 1.59397870e-01, 7.94019625e-02, 1.86166503e-02,
          5.12767136e-01, 4.38168757e-02, 4.06856416e-03, 3.17422241e-01,
          5.12767136e-01, 5.12767136e-01, 2.60722190e-01, 5.12767136e-01,
          1.37197107e-01, 5.12767136e-01, 2.81272888e-01, 3.08316238e-02,
          3.69493179e-02, 1.69203624e-01, 6.50135055e-02, 2.12337472e-03,
          1.11081824e-01, 1.83382351e-02, 8.47122539e-03, 5.78860901e-02,
          1.19957685e-01, 1.17494643e-01, 4.30929996e-02, 1.83012992e-01,
          4.12331894e-02, 2.05072701e-01, 8.97144377e-02, 2.03855094e-02,
          8.04246776e-03, 4.34141047e-02, 4.97229770e-02, 5.82814356e-03 ]
      - [ 1.32272869e-01, 6.61290139e-02, 5.52318729e-02, 1.35702953e-01,
          1.81604221e-01, 1.44337505e-01, 1.51073292e-01, 1.96471557e-01,
          5.67928478e-02, 5.62415905e-02, 6.98634833e-02, 7.39654526e-02,
          0., 0., 0., 0., 1.74525067e-01, 1.71572015e-01, 2.00807407e-01,
          2.17352629e-01, 3.62827957e-01, 3.97013545e-01, 4.49860305e-01,
          4.45437253e-01, 2.63443261e-01, 2.68118739e-01, 3.52912664e-01,
          3.73788178e-01, 9.11844671e-02, 3.47999595e-02, 6.37327954e-02,
          1.20650001e-01, 2.80734636e-02, 6.87702373e-02, 1.00179113e-01,
          6.28288761e-02, 4.56187725e-01, 2.82503486e-01, 3.74853581e-01,
          4.56187725e-01, 4.56187725e-01, 3.71486604e-01, 4.16161031e-01,
          4.56187725e-01, 2.15390742e-01, 1.81654334e-01, 2.54647195e-01,
          2.70243973e-01, 4.09269333e-03, 4.29686392e-03, 4.29686392e-03,
          4.09269333e-03, 1.21366456e-01, 7.01307580e-02, 8.45934600e-02,
          1.67182341e-01, 2.87752539e-01, 1.99281693e-01, 2.33367026e-01,
          3.40402573e-01, 9.54868942e-02, 9.66636613e-02, 1.08323663e-01,
          1.07352927e-01 ]
      - [ 2.12723523e-01, 9.67026409e-03, 3.56927398e-03, 1.72340438e-01,
          4.49262649e-01, 1.65693760e-02, 1.11402925e-02, 4.49262649e-01,
          4.49262649e-01, 1.58473551e-02, 2.95991730e-02, 4.49262649e-01,
          2.42209479e-01, 4.63652937e-03, 1.35495071e-03, 2.11335182e-01,
          3.33098829e-01, 3.39925550e-02, 4.29723524e-02, 3.52680653e-01,
          4.49262649e-01, 8.13360140e-02, 2.00595796e-01, 4.49262649e-01,
          4.04588252e-01, 1.03267655e-01, 2.35382780e-01, 4.49262649e-01,
          2.54327953e-01, 3.04251388e-02, 4.04480621e-02, 2.28739798e-01,
          1.59360752e-01, 4.72079664e-02, 1.40500948e-01, 4.18358654e-01,
          1.96772233e-01, 2.56289840e-01, 4.49262649e-01, 4.49262649e-01,
          2.44516611e-01, 1.34919673e-01, 2.67920136e-01, 3.88499588e-01,
          1.80139750e-01, 2.04022154e-02, 2.53041666e-02, 1.53694093e-01,
          8.16051513e-02, 8.18909854e-02, 6.11750931e-02, 6.72649443e-02,
          9.30052996e-02, 1.76683709e-01, 1.62497565e-01, 9.49467719e-02,
          7.20072761e-02, 3.75544056e-02, 5.28263710e-02, 8.83446336e-02,
          4.78130542e-02, 3.03861611e-02, 3.75339910e-02, 4.90937606e-02 ]
      - [ 2.01126635e-02, 1.18734511e-02, 1.56097738e-02, 2.03836542e-02,
          7.20759481e-02, 6.97669685e-02, 1.12277150e-01, 1.21032365e-01,
          2.29135137e-02, 1.54386416e-01, 2.41615534e-01, 5.60912453e-02,
          1.95781086e-02, 7.17140138e-02, 3.25874910e-02, 1.76700403e-03,
          3.83129925e-01, 1.95855331e-02, 2.47417707e-02, 2.56185889e-01,
          5.81717432e-01, 5.81717432e-01, 1.81513265e-01, 2.85950273e-01,
          1.83527142e-01, 5.81717432e-01, 5.14012575e-01, 5.69821708e-02,
          1.98175441e-02, 1.28521711e-01, 1.24046654e-01, 3.16817164e-02,
          4.28572744e-01, 6.95943460e-02, 3.25615034e-02, 2.54877359e-01,
          5.81717432e-01, 5.81717432e-01, 7.63059929e-02, 2.82301188e-01,
          1.62712872e-01, 5.81717432e-01, 2.35820800e-01, 1.42993694e-02,
          4.20647189e-02, 1.27478585e-01, 9.25746858e-02, 1.80523973e-02,
          3.71219330e-02, 4.44089696e-02, 2.59593688e-02, 3.48630622e-02,
          9.86181349e-02, 2.62012184e-01, 1.02012932e-01, 2.52726134e-02,
          2.55454592e-02, 2.00376779e-01, 1.45959735e-01, 1.05463415e-02,
          1.04089901e-02, 5.03002219e-02, 3.94494794e-02, 5.33999037e-03 ]
      - [ 2.16420880e-03, 1.65749434e-03, 2.63936957e-03, 3.14794015e-03,
          0., 0., 0., 0., 3.92861441e-02, 2.55955737e-02, 3.11898496e-02,
          4.48859856e-02, 2.49793492e-02, 1.46408919e-02, 1.20442118e-02,
          2.23808140e-02, 2.00404614e-01, 2.38970593e-01, 3.92854035e-01,
          3.60398293e-01, 1.13520734e-01, 6.49596751e-02, 1.85602248e-01,
          1.87989190e-01, 0., 1.33638969e-04, 1.33638969e-04, 0., 0., 0.,
          0., 0., 5.18038511e-01, 5.18038511e-01, 5.18038511e-01,
          5.18038511e-01, 4.46092427e-01, 3.28313798e-01, 5.18038511e-01,
          5.18038511e-01, 9.44938790e-03, 1.06113050e-02, 2.18518265e-02,
          2.39752010e-02, 4.47319326e-04, 0., 0., 4.47319326e-04,
          1.88757613e-01, 2.23882377e-01, 2.06162244e-01, 1.76830336e-01,
          3.18582326e-01, 3.55043471e-01, 5.18038511e-01, 5.18038511e-01,
          1.23445287e-01, 1.81221858e-01, 2.27082297e-01, 1.32586554e-01,
          1.52701084e-02, 2.02908497e-02, 1.90287028e-02, 1.19588310e-02 ]
      - [ 2.03929339e-02, 2.09516212e-02, 2.09850296e-02, 2.04263460e-02,
          1.30563423e-01, 1.02527075e-01, 1.44812673e-01, 1.31155506e-01,
          1.42360777e-01, 2.46263206e-01, 2.75945902e-01, 1.34344280e-01,
          5.13414927e-02, 8.88198018e-02, 1.01506218e-01, 5.40049896e-02,
          2.47658994e-02, 2.28262786e-02, 2.24235039e-02, 2.43631247e-02,
          4.21673626e-01, 2.71003127e-01, 2.84303904e-01, 4.53656048e-01,
          4.36930746e-01, 4.87516791e-01, 4.87516791e-01, 4.87516791e-01,
          1.79853931e-01, 3.13981056e-01, 2.88910747e-01, 1.49031579e-01,
          4.05111685e-02, 2.21617948e-02, 1.70259755e-02, 3.39758508e-02,
          1.81904897e-01, 1.46444187e-01, 1.26069814e-01, 1.99515551e-01,
          4.87516791e-01, 4.87516791e-01, 4.55068529e-01, 4.87516791e-01,
          2.94254452e-01, 3.50928515e-01, 2.95433074e-01, 2.31822774e-01,
          5.58054037e-02, 3.10821943e-02, 2.17608772e-02, 4.48692814e-02,
          1.07375197e-02, 1.22743677e-02, 1.44460006e-02, 9.13013984e-03,
          1.20733529e-01, 5.21451794e-02, 6.62570819e-02, 1.04154870e-01,
          1.30505875e-01, 1.28462315e-01, 1.23740397e-01, 1.26196012e-01 ]
      - [ 4.97489609e-02, 3.48073803e-02, 4.59161215e-02, 9.47277546e-02,
          2.52152592e-01, 8.74611363e-02, 8.39586779e-02, 2.50907153e-01,
          3.60968143e-01, 1.58395573e-01, 1.79714710e-01, 2.98142970e-01,
          1.26255408e-01, 6.53067678e-02, 1.08423889e-01, 1.75000221e-01,
          1.32744327e-01, 1.61944449e-01, 1.92898571e-01, 1.63726300e-01,
          4.27429378e-01, 3.74543637e-01, 4.16966558e-01, 4.69887584e-01,
          2.89296806e-01, 1.71508908e-01, 1.35053307e-01, 2.52809674e-01,
          4.60311994e-02, 3.36306170e-02, 4.23784032e-02, 6.57299533e-02,
          4.93387654e-02, 5.77580184e-02, 5.64067811e-02, 4.79875281e-02,
          4.96556014e-01, 4.96556014e-01, 4.96556014e-01, 4.96556014e-01,
          4.64425117e-01, 4.40700471e-01, 4.45452094e-01, 4.69178587e-01,
          5.30880801e-02, 4.27440517e-02, 6.77252561e-02, 7.80915618e-02,
          0., 0., 0., 0., 4.68979962e-02, 1.15018599e-01, 1.16243631e-01,
          4.81248759e-02, 5.69988750e-02, 7.86131173e-02, 9.12512839e-02,
          6.96500242e-02, 3.40556614e-02, 7.46429339e-02, 8.29582438e-02,
          4.23765443e-02 ]
      - [ 4.77258153e-02, 1.77851189e-02, 1.28831677e-02, 3.40166837e-02,
          3.25577930e-02, 7.12072998e-02, 1.76711544e-01, 9.54219326e-02,
          8.30603298e-03, 6.13347180e-02, 1.73708379e-01, 5.62193133e-02,
          6.90096756e-03, 2.02760007e-02, 4.91865650e-02, 1.25824800e-02,
          5.21531641e-01, 1.20211959e-01, 1.62495703e-01, 3.52777153e-01,
          4.31961954e-01, 1.51893675e-01, 5.21531641e-01, 5.21531641e-01,
          7.60999648e-03, 9.30387080e-02, 5.21531641e-01, 2.16736421e-01,
          3.86996171e-03, 2.45840009e-02, 1.88796595e-01, 6.27490580e-02,
          5.21531641e-01, 1.96731403e-01, 1.53801754e-01, 2.10178822e-01,
          5.21531641e-01, 2.27416396e-01, 5.21531641e-01, 5.21531641e-01,
          4.95410785e-02, 1.56493083e-01, 5.21531641e-01, 2.87425846e-01,
          1.73582174e-02, 2.07214653e-02, 1.85979038e-01, 1.58451274e-01,
          4.52442132e-02, 3.85622643e-02, 2.42035016e-02, 3.18747498e-02,
          6.19917773e-02, 3.81761976e-02, 8.54231417e-02, 1.25828505e-01,
          7.40285665e-02, 4.72580791e-02, 1.31116539e-01, 1.32736906e-01,
          4.65156399e-02, 5.78916585e-03, 4.11088318e-02, 1.33440360e-01 ]
      - [ 6.36641160e-02, 7.08769113e-02, 8.09239596e-02, 7.69055113e-02,
          1.53480634e-01, 2.06544593e-01, 1.93817347e-01, 1.58189550e-01,
          9.93828401e-02, 8.11541155e-02, 1.23996541e-01, 1.61421016e-01,
          1.80004258e-02, 7.87913054e-03, 1.83475167e-02, 3.14961076e-02,
          1.65595382e-01, 9.74320844e-02, 9.03900564e-02, 1.62040964e-01,
          3.32920671e-01, 2.96966195e-01, 3.91920388e-01, 4.40386802e-01,
          4.40386802e-01, 3.48101676e-01, 3.52324307e-01, 4.40386802e-01,
          7.52368793e-02, 9.93067399e-02, 1.17169827e-01, 1.17875129e-01,
          1.13580130e-01, 1.02966964e-01, 1.48086816e-01, 1.48716033e-01,
          3.68006438e-01, 3.98541093e-01, 4.40386802e-01, 3.81214440e-01,
          4.40386802e-01, 4.21790570e-01, 4.40386802e-01, 4.40386802e-01,
          2.24606261e-01, 1.39816061e-01, 1.66441754e-01, 2.66890019e-01,
          2.21283846e-02, 1.24803949e-02, 1.85516886e-02, 2.66294200e-02,
          8.19373876e-02, 1.08722724e-01, 1.17412969e-01, 7.67792985e-02,
          1.80692866e-01, 2.00386062e-01, 2.03372508e-01, 1.66326687e-01,
          2.42695794e-01, 2.15761974e-01, 6.00688607e-02, 1.10385783e-01 ]
      - [ 6.78032115e-02, 1.36961378e-02, 8.59744009e-03, 4.19440754e-02,
          1.29264146e-01, 7.89639279e-02, 6.65280744e-02, 1.17641270e-01,
          5.61005212e-02, 1.10493444e-01, 1.02968819e-01, 3.94606180e-02,
          1.72412824e-02, 4.27774638e-02, 3.72648537e-02, 1.02382302e-02,
          4.02308971e-01, 4.03144211e-02, 1.25397900e-02, 3.64153177e-01,
          4.74392325e-01, 4.74392325e-01, 4.74392325e-01, 4.74392325e-01,
          6.52417988e-02, 4.74392325e-01, 4.74392325e-01, 2.19167903e-01,
          3.01374421e-02, 1.45653486e-01, 1.14977770e-01, 2.49032509e-02,
          2.62251645e-01, 3.13216336e-02, 3.71664800e-02, 3.03638875e-01,
          4.74392325e-01, 4.74392325e-01, 2.91475862e-01, 4.74392325e-01,
          1.15083568e-01, 4.74392325e-01, 4.47922558e-01, 1.01025485e-01,
          2.36002691e-02, 6.12549037e-02, 1.29394069e-01, 1.05725124e-01,
          4.22874540e-02, 1.01973955e-02, 2.27297600e-02, 9.69253778e-02,
          1.55282900e-01, 5.66387922e-02, 6.77289739e-02, 1.76130593e-01,
          7.65528530e-02, 3.28529105e-02, 9.14907157e-02, 3.29195470e-01,
          4.44535166e-02, 5.52374404e-03, 2.29636300e-02, 1.29592672e-01 ]
      - [ 1.55949248e-02, 1.13259023e-02, 3.14181484e-02, 3.74319032e-02,
          8.98016691e-02, 3.10914777e-02, 3.42431255e-02, 7.04500079e-02,
          6.31982386e-02, 1.40736684e-01, 7.26866052e-02, 2.36689467e-02,
          5.42110167e-02, 7.73546845e-02, 6.00261660e-03, 2.13265512e-03,
          3.11995000e-01, 2.61338428e-03, 1.96412150e-02, 5.15371263e-01,
          5.50507128e-01, 4.62021470e-01, 7.00342432e-02, 5.50507128e-01,
          3.20397556e-01, 5.50507128e-01, 1.59659594e-01, 1.28178328e-01,
          6.16279766e-02, 2.38515839e-01, 2.91537102e-02, 2.57069385e-03,
          4.88151580e-01, 8.80903471e-03, 1.72988221e-03, 4.09003913e-01,
          5.50507128e-01, 5.50507128e-01, 2.00588368e-02, 4.02206868e-01,
          3.35082978e-01, 5.50507128e-01, 7.86539540e-02, 2.71175727e-02,
          2.64400970e-02, 1.40157580e-01, 5.95305897e-02, 5.44949993e-03,
          5.17683960e-02, 1.29240016e-02, 9.74636432e-03, 2.80549023e-02,
          8.96290541e-02, 1.34186521e-01, 5.36987334e-02, 1.40228113e-02,
          4.22651805e-02, 1.43363059e-01, 5.30138351e-02, 2.24216492e-03,
          1.00934543e-02, 5.19911237e-02, 2.02166066e-02, 8.48236203e-04 ]
      - [ 3.40686589e-02, 5.95769919e-02, 7.36963227e-02, 4.78872992e-02,
          6.61679953e-02, 1.95333764e-01, 2.99141526e-01, 2.67793924e-01,
          5.58815077e-02, 9.61476639e-02, 1.05164587e-01, 6.48241788e-02,
          1.23486109e-01, 1.75696269e-01, 1.95122182e-01, 1.43160731e-01,
          4.33769822e-03, 9.60715674e-03, 1.53870424e-02, 1.18159121e-02,
          2.93782979e-01, 5.23582637e-01, 5.23582637e-01, 4.96815830e-01,
          1.66207895e-01, 3.72045308e-01, 3.58183980e-01, 1.83996737e-01,
          2.50977665e-01, 4.20985013e-01, 3.47008437e-01, 2.02604085e-01,
          2.62633979e-01, 1.57742247e-01, 5.39010502e-02, 1.52199939e-01,
          5.23582637e-01, 5.23582637e-01, 5.05225778e-01, 5.23582637e-01,
          1.24109767e-01, 2.35637054e-01, 1.78246543e-01, 5.62731400e-02,
          9.02415663e-02, 1.43552378e-01, 1.34854704e-01, 7.69407824e-02,
          2.04723760e-01, 1.37312174e-01, 8.98851976e-02, 1.57140866e-01,
          1.02840751e-01, 5.65849654e-02, 3.64017673e-02, 6.70310780e-02,
          9.57745884e-04, 5.51260717e-04, 5.14138839e-04, 5.82814391e-04,
          2.81384271e-02, 4.84960936e-02, 4.69184145e-02, 1.80041380e-02 ]
      - [ 1.02634728e-01, 1.21331193e-01, 8.44950899e-02, 6.05829954e-02,
          3.80124897e-01, 2.93333828e-01, 1.44795954e-01, 2.11504072e-01,
          3.67225051e-01, 2.96140220e-02, 2.96808444e-02, 3.57113004e-01,
          1.72552034e-01, 2.95397807e-02, 1.47968037e-02, 1.46366209e-01,
          2.21705183e-01, 3.17164242e-01, 2.70787805e-01, 8.20005015e-02,
          4.52824503e-01, 4.58196044e-01, 4.58196044e-01, 2.43659094e-01,
          7.19961375e-02, 4.31264080e-02, 4.14058045e-02, 7.29854330e-02,
          1.49905801e-01, 1.50861695e-01, 7.93574154e-02, 6.60436302e-02,
          2.29608446e-01, 4.35167432e-01, 3.78109187e-01, 1.89644828e-01,
          3.53953928e-01, 4.49401855e-01, 4.58196044e-01, 3.31599116e-01,
          1.00683965e-01, 1.01708539e-01, 1.03817053e-01, 9.97781977e-02,
          2.10770920e-01, 2.31726244e-01, 1.76290214e-01, 1.54317737e-01,
          4.75439169e-02, 6.53457418e-02, 1.13004737e-01, 1.45566255e-01,
          1.94298059e-01, 1.28833532e-01, 3.35857004e-01, 4.03114527e-01,
          1.62753701e-01, 1.67032003e-01, 2.35375330e-01, 2.36292258e-01,
          3.42431255e-02, 4.06151079e-02, 3.73762213e-02, 3.74114849e-02 ]
      - [ 9.02471393e-02, 4.75346344e-03, 4.70520509e-03, 8.84374380e-02,
          1.27576947e-01, 4.24415059e-02, 1.26819655e-01, 2.60482758e-01,
          7.99420848e-03, 8.51001814e-02, 2.34018549e-01, 1.00851022e-01,
          1.95075758e-03, 2.85226386e-02, 7.25826696e-02, 1.25156604e-02,
          4.17657018e-01, 8.30232073e-03, 5.77617297e-03, 4.32672858e-01,
          5.08061886e-01, 1.43058658e-01, 5.08061886e-01, 5.08061886e-01,
          9.45198685e-02, 3.82476568e-01, 5.08061886e-01, 3.27799678e-01,
          9.46609303e-04, 1.13862254e-01, 2.46487796e-01, 1.49248736e-02,
          2.74399757e-01, 5.15122525e-02, 6.53717294e-03, 1.79813087e-01,
          5.08061886e-01, 1.60845637e-01, 1.07748277e-01, 5.08061886e-01,
          2.97296584e-01, 5.03443956e-01, 4.99984235e-01, 1.63733721e-01,
          2.44819163e-03, 1.76165849e-01, 2.31180549e-01, 1.01714097e-02,
          3.74616012e-02, 1.80728137e-02, 1.34548452e-02, 7.63468295e-02,
          9.70460176e-02, 2.44782027e-02, 2.37283409e-02, 1.91976085e-01,
          5.08477725e-02, 5.44356033e-02, 8.36078748e-02, 1.90040186e-01,
          4.67179576e-03, 2.61691082e-02, 8.51502940e-02, 9.35973898e-02 ]
      - [ 1.07479140e-01, 6.71591461e-02, 4.83049154e-02, 4.72413711e-02,
          3.10562104e-01, 1.54080153e-01, 5.36244921e-02, 1.64760143e-01,
          2.94089258e-01, 2.73941308e-01, 1.14482187e-01, 1.42707855e-01,
          4.34920564e-02, 5.06157577e-02, 3.89501899e-02, 1.97006110e-02,
          5.34470499e-01, 1.81867778e-01, 4.58864234e-02, 2.98285872e-01,
          5.34470499e-01, 3.41701865e-01, 8.66221786e-02, 5.34470499e-01,
          5.34470499e-01, 3.13502163e-01, 2.70550221e-01, 5.34470499e-01,
          2.11613581e-01, 1.71948791e-01, 1.62850216e-01, 2.44279027e-01,
          3.52569282e-01, 1.22675002e-01, 9.18972045e-02, 2.23882377e-01,
          3.23580772e-01, 8.45117941e-02, 5.86433746e-02, 2.63307750e-01,
          2.34883457e-01, 1.53493628e-01, 1.95263237e-01, 2.83279330e-01,
          2.35358626e-01, 3.08527827e-01, 3.33651930e-01, 3.23623449e-01,
          1.21451840e-01, 1.22342758e-01, 1.03683420e-01, 7.89620653e-02,
          5.40699549e-02, 6.13718368e-02, 7.28091076e-02, 5.70137240e-02,
          4.42493474e-03, 4.67142425e-02, 4.78223339e-02, 5.57942688e-03,
          4.28238660e-02, 1.33833855e-01, 1.39593318e-01, 4.76404354e-02 ]
      - [ 4.33268659e-02, 8.02947395e-03, 3.45159732e-02, 2.36607805e-01,
          1.23361759e-01, 2.09497642e-02, 3.98429744e-02, 4.39976603e-01,
          9.67212021e-02, 5.98461255e-02, 5.42796925e-02, 1.40319064e-01,
          7.08546340e-02, 1.35699231e-02, 3.78272496e-03, 3.37883830e-02,
          3.01949829e-01, 5.73348301e-03, 2.50907149e-02, 5.44521213e-01,
          5.53883433e-01, 5.53883433e-01, 1.33620396e-01, 5.53883433e-01,
          4.44561154e-01, 5.53883433e-01, 1.79432586e-01, 2.74644762e-01,
          7.39116296e-02, 7.28982016e-02, 1.39745520e-02, 1.33434795e-02,
          4.33704853e-01, 1.19384145e-02, 6.45364821e-03, 3.18173975e-01,
          5.53883433e-01, 4.70240265e-01, 3.36027741e-02, 2.63504475e-01,
          2.73557127e-01, 3.64043683e-01, 5.18853255e-02, 9.90598835e-03,
          2.71621197e-02, 4.72302362e-02, 2.85244938e-02, 9.74450819e-03,
          8.37916285e-02, 2.11335160e-02, 2.04003584e-02, 6.96388930e-02,
          6.82208315e-02, 1.46395922e-01, 1.28777847e-01, 7.21706077e-02,
          3.95979695e-02, 8.63363370e-02, 2.96771303e-02, 5.15623670e-03,
          1.83530841e-02, 1.60032660e-02, 3.82170337e-03, 5.28059527e-03 ]
      - [ 3.95905413e-03, 1.97303062e-03, 6.07611835e-02, 1.71618417e-01,
          7.14281723e-02, 1.15263602e-02, 1.01862587e-01, 2.90701866e-01,
          1.30062267e-01, 1.10846095e-01, 5.65051511e-02, 7.09975585e-02,
          3.32742482e-02, 6.00948445e-02, 1.27086947e-02, 6.07129233e-03,
          2.44893413e-02, 1.48190772e-02, 5.63510992e-02, 3.39741826e-01,
          2.07251772e-01, 3.77724946e-01, 1.78760678e-01, 5.74545503e-01,
          2.52252817e-01, 5.74545503e-01, 2.40412802e-01, 2.62125403e-01,
          1.68004602e-01, 2.03289002e-01, 9.76492465e-03, 7.90697150e-03,
          1.64687753e-01, 1.68904811e-02, 4.26883698e-02, 5.56979418e-01,
          5.74545503e-01, 5.74545503e-01, 8.83112326e-02, 4.91668910e-01,
          2.01403201e-01, 5.74545503e-01, 3.07863355e-01, 2.37506125e-02,
          7.51162395e-02, 1.65138781e-01, 8.86416137e-02, 5.48476586e-03,
          3.34171653e-02, 1.23430435e-02, 4.24619243e-02, 9.34099257e-02,
          2.85352618e-01, 1.87274590e-01, 2.34165173e-02, 1.18996225e-01,
