%YAML:1.0
---
myHogDector1: !!opencv-object-detector-hog
   winSize: [ 64, 64 ]
   blockSize: [ 16, 16 ]
   blockStride: [ 4, 4 ]
   cellSize: [ 8, 8 ]
   nbins: 9
   derivAperture: 1
   winSigma: 4.
   histogramNormType: 0
   L2HysThreshold: 2.0000000000000001e-01
   gammaCorrection: 0
   nlevels: 64
   signedGradient: 0
   SVMDetector: [ 3.60106379e-02, 4.46016639e-02, -1.44148683e-02,
       -5.67081645e-02, 2.25130804e-02, 4.22233269e-02, -3.82509432e-03,
       2.70608608e-02, 4.57395017e-02, -3.87943909e-02, 1.67394895e-03,
       8.14091936e-02, 4.49234061e-02, 2.13278159e-02, 5.46531901e-02,
       1.18532428e-03, 9.50644072e-03, 2.77766995e-02, 4.60824557e-02,
       -2.76048612e-02, -2.10864302e-02, -3.62987258e-02, 1.85076650e-02,
       1.86882690e-02, 7.72617990e-03, -6.63268520e-03, 2.36014705e-02,
       -3.76690999e-02, -1.08174374e-02, -4.18148525e-02, 2.51189005e-02,
       -1.26581239e-02, 1.54260118e-02, -2.08556503e-02, 2.80676447e-02,
       2.16617528e-03, -3.57201323e-02, 7.35101337e-03, 6.51236624e-02,
       6.97993413e-02, 3.70135717e-02, 1.55716650e-02, -9.11249407e-03,
       2.06871703e-02, 2.29267795e-02, -4.93906252e-02, 4.58250791e-02,
       4.17780988e-02, 3.32561415e-03, 2.12275572e-02, -5.62386238e-04,
       -1.44954969e-03, 1.33448036e-03, -1.92168576e-03, -3.28139565e-03,
       4.13091555e-02, 8.10339488e-03, 5.20053655e-02, -2.61980225e-03,
       2.49800198e-02, -1.31913694e-02, 2.37022750e-02, -1.33887101e-02,
       -1.14594931e-02, 6.83457702e-02, 6.37572724e-04, 3.62288915e-02,
       1.45461531e-02, 1.62400510e-02, -2.73929089e-02, 1.25890989e-02,
       -1.73493270e-02, -6.35644123e-02, 4.88706604e-02, 5.63143380e-02,
       1.43161314e-02, 1.48983533e-02, -6.36341609e-03, -1.37224132e-02,
       1.29984990e-02, -1.34409815e-02, -1.30887358e-02, 9.71370004e-03,
       1.46944774e-02, 4.36505191e-02, 2.06522681e-02, 7.71218687e-02,
       6.15065126e-03, -5.12070842e-02, -1.61023680e-02, -2.48272605e-02,
       4.10949700e-02, 7.87396915e-04, 1.48532903e-02, 4.50829370e-03,
       3.42818536e-02, -1.14868088e-02, 3.55340689e-02, -4.90983063e-03,
       -3.73386010e-03, 5.02265655e-02, 1.15732942e-02, 4.68580201e-02,
       -3.06596644e-02, 7.86559284e-02, 3.05104777e-02, -3.14693972e-02,
       -2.80562695e-02, 1.01558752e-02, 2.42442191e-02, -2.32754052e-02,
       1.91258658e-02, 2.76624272e-03, 2.98906527e-02, -3.14701386e-02,
       -4.99318764e-02, -1.35937650e-02, -1.30592678e-02, 2.12191958e-02,
       -2.40700389e-03, 5.16398028e-02, 4.07386348e-02, 1.19204760e-01,
       -5.14450036e-02, -1.16500266e-01, -8.56262539e-03,
       -7.68347271e-03, 9.45989229e-03, -2.60693729e-02, -1.58720240e-02,
       3.60891409e-02, 5.65524437e-02, 6.13498613e-02, -1.21748708e-02,
       -5.37885935e-04, 2.07602791e-03, -1.04731722e-02, -1.50381466e-02,
       4.49783728e-02, -9.32580209e-04, 6.47227988e-02, 8.20814595e-02,
       -3.48638035e-02, 1.91936307e-02, 1.90873388e-02, 1.80333853e-02,
       1.29233778e-03, 4.78051091e-03, -4.06505773e-03, 7.49363825e-02,
       -8.27685073e-02, -9.88334343e-02, -2.31728586e-03,
       -1.29603520e-02, -1.10704564e-02, 2.21923981e-02, 2.56164894e-02,
       2.35811528e-02, 8.72011259e-02, -5.83177768e-02, -9.45030805e-03,
       1.21467048e-02, 1.09711746e-02, -6.67365408e-03, -6.53695269e-03,
       2.23146025e-02, 3.44308093e-02, 6.33069128e-02, 4.09770831e-02,
       -2.95824502e-02, 1.02101658e-02, 5.75417206e-02, -3.17876227e-02,
       1.81481186e-02, 2.23734826e-02, -2.87706591e-02, 3.92730236e-02,
       4.65385728e-02, 2.16515698e-02, 6.67199343e-02, -2.83925403e-02,
       -1.17431935e-02, 4.28348500e-03, -3.35814478e-03, -2.63023712e-02,
       4.68734019e-02, -6.19991422e-02, -3.04829683e-02, -1.60537828e-02,
       6.76418014e-04, -1.60882454e-02, -4.41578850e-02, 8.78909677e-02,
       5.41947596e-02, 2.75237896e-02, -1.53405149e-03, 1.56040005e-02,
       2.38761399e-02, 4.61567752e-02, -1.43076172e-02, 6.75507775e-03,
       9.71243344e-03, -3.20846662e-02, 4.40625586e-02, 6.00574724e-02,
       -1.29181277e-02, 2.97388975e-02, -5.38487220e-03, -5.42297633e-03,
       -6.15656674e-02, 5.95661514e-02, -1.99836330e-03, 1.37976483e-02,
       2.81558502e-02, 1.73057988e-02, -1.82095710e-02, 3.42009193e-03,
       1.23394011e-02, -7.90088065e-03, 4.83773947e-02, 5.11606522e-02,
       1.47699453e-02, -1.96343195e-02, 1.48161305e-02, 2.66516414e-02,
       1.12544151e-03, -3.49277660e-04, -2.57401261e-02, 2.94853095e-02,
       1.07304282e-01, 6.85778037e-02, -1.43775176e-02, 2.22367309e-02,
       -1.64294541e-02, -7.98345264e-03, -3.65778268e-03,
       -1.48987304e-02, 4.36152853e-02, 3.36078927e-02, 2.15901583e-02,
       2.72781942e-02, 1.69167127e-02, -5.64263389e-03, 2.69042403e-02,
       2.70723589e-02, -4.32748981e-02, 5.58844358e-02, 3.76118161e-02,
       2.75369212e-02, 2.53764410e-02, 8.63083266e-03, -1.52094578e-02,
       6.51252642e-03, 2.78534857e-03, -6.88402588e-03, 6.07228428e-02,
       1.04115412e-01, 6.58807158e-02, -2.42795311e-02, 3.71053740e-02,
       3.63883306e-03, 4.37320061e-02, 3.16416100e-02, -1.59201659e-02,
       4.28236686e-02, 7.53373057e-02, 2.45809108e-02, 1.13671059e-02,
       4.37853672e-02, -1.42824855e-02, 2.85991393e-02, 1.69189218e-02,
       -3.97843085e-02, 8.13828260e-02, 3.32829542e-02, 5.66297723e-03,
       -6.64524734e-04, -1.59644447e-02, -4.41547064e-03,
       -6.81083591e-04, 1.62625387e-02, -6.18979521e-03, 3.60538475e-02,
       -1.01171499e-02, 1.46905985e-02, 1.53018748e-02, -1.83526631e-02,
       1.61360204e-02, 4.43753302e-02, 3.66944559e-02, 1.55807342e-02,
       8.60747024e-02, 9.99065861e-02, 5.30058257e-02, 4.34807176e-03,
       4.44425605e-02, -2.45186202e-02, 6.51609749e-02, 6.96488516e-03,
       -2.80987695e-02, 1.57786049e-02, 6.28026715e-03, -1.32527831e-03,
       -1.65619049e-02, -1.25509361e-03, -5.48912250e-02, 8.96196812e-03,
       1.22662066e-02, 2.15273965e-02, 7.12762699e-02, 1.21284705e-02,
       3.76994796e-02, 1.72593109e-02, -2.21010558e-02, 2.24887226e-02,
       3.04101855e-02, 1.81049388e-03, -3.45664122e-03, 3.06627415e-02,
       -8.71755835e-03, -1.73593033e-02, -2.02579773e-03,
       -1.07272053e-02, -3.52839418e-02, 5.36573716e-02, 1.27084758e-02,
       3.40194581e-03, 6.13384396e-02, 1.76715665e-02, 5.67541756e-02,
       2.14970782e-02, -1.59723647e-02, -7.79112726e-02, 2.30118688e-02,
       -2.85423193e-02, -1.52484672e-02, 7.19278231e-02, -6.04794221e-03,
       3.95047897e-03, -1.18469540e-02, 4.13037278e-02, -1.58077944e-02,
       -9.85074323e-03, 7.04341335e-03, 4.85085621e-02, 6.64001107e-02,
       3.45704425e-03, 4.25523520e-02, 1.08934883e-02, -2.98842993e-02,
       -3.01478412e-02, 2.96409521e-02, -2.95407162e-03, -2.47375164e-02,
       8.11525807e-02, 3.82049545e-03, 1.18107339e-02, -3.14308796e-03,
       2.49227751e-02, 7.32680270e-03, 2.69326195e-02, -2.65967250e-02,
       -1.07511086e-02, 1.10346489e-01, 3.86741869e-02, 4.61487398e-02,
       -3.47083248e-03, 3.08008995e-02, -1.98187139e-02, 1.26068043e-02,
       -4.18472923e-02, -2.47853566e-02, 2.19073463e-02, 2.41168048e-02,
       9.81510966e-04, 4.74079400e-02, 6.14886060e-02, 7.04209208e-02,
       -5.65717695e-04, -4.51209163e-03, -1.25285774e-03, 7.94019625e-02,
       1.01590408e-02, 1.01949023e-02, -1.57196645e-03, 1.78319253e-02,
       -3.92326940e-04, 1.92738026e-02, -1.77210476e-02, -4.16490808e-02,
       1.70955360e-02, 2.95326989e-02, 2.92026845e-04, -1.61311291e-02,
       3.68501768e-02, 2.67491825e-02, 4.79085511e-03, -3.09390314e-02,
       -3.84634472e-02, 2.51176599e-02, -2.28458177e-03, 1.79540943e-02,
       3.83890793e-02, 5.62865250e-02, 4.67853025e-02, 6.48662262e-03,
       -2.94961520e-02, 1.16329957e-02, 5.29138371e-02, 6.87944219e-02,
       6.63033053e-02, 6.22594431e-02, 1.16141468e-01, 8.32342207e-02,
       1.63702145e-02, -8.09482764e-03, -7.01236948e-02, 4.51594256e-02,
       -4.92929656e-04, -2.66745612e-02, -5.13375504e-03, 1.56818759e-02,
       -5.46234706e-03, 3.27600464e-02, 2.14289874e-02, 3.68978567e-02,
       3.96034420e-02, 2.56981468e-03, 5.37015090e-04, 2.50825994e-02,
       -3.48016014e-03, 4.19126973e-02, -3.42471153e-02, -2.85029598e-02,
       2.16698069e-02, 2.19743866e-02, -9.98244528e-03, 3.73839363e-02,
       3.12075503e-02, 7.41654634e-02, 1.70955081e-02, 1.80514324e-02,
       3.09516974e-02, 2.18798090e-02, 2.53946222e-02, -2.69081835e-02,
       5.82545251e-02, -2.05680076e-02, 5.64584285e-02, 4.50217985e-02,
       -3.11138686e-02, 1.70415379e-02, 4.07930836e-03, -2.36579459e-02,
       -5.75231481e-03, -2.48708446e-02, -4.85091694e-02,
       -3.95962372e-02, -3.71521637e-02, -1.92731675e-02, 7.04302117e-02,
       6.07901579e-03, 1.95594858e-02, -9.14446712e-02, 5.61850667e-02,
       -1.32556753e-02, 4.23749648e-02, -1.92687294e-04, 4.60002609e-02,
       8.73409864e-03, 2.77225506e-02, -4.61826101e-02, -8.50656535e-04,
       2.80865449e-02, 4.28611003e-02, -2.42465716e-02, 2.34646071e-02,
       2.63461098e-03, 4.61455546e-02, 1.48015302e-02, 3.22482549e-02,
       4.05250303e-02, 1.50311533e-02, -1.86477881e-03, 3.54429428e-03,
       6.99591776e-03, -1.94964278e-03, 1.32082580e-02, -6.17584260e-03,
       7.96988513e-03, 6.18271455e-02, 2.84389518e-02, 1.67453252e-02,
       -1.15163103e-02, -2.23248694e-02, -2.64064781e-02,
       -5.84732136e-03, -1.90843772e-02, -7.80098466e-03, 6.53992146e-02,
       3.97659168e-02, 6.41045943e-02, -1.29701728e-02, -1.90084556e-03,
       -1.25067662e-02, 3.44751514e-02, 2.05688160e-02, 4.16169986e-02,
       -2.34301817e-02, 4.12201621e-02, -5.81595348e-03, 7.79121649e-03,
       -1.74104907e-02, -6.12406712e-03, 4.62590829e-02, 1.82683002e-02,
       1.08725075e-02, -7.14995945e-03, 1.88531149e-02, -2.53221411e-02,
       -1.25389062e-02, 2.56386166e-03, -4.86008860e-02, -3.32048424e-02,
       -4.57282215e-02, -5.95524115e-03, 3.40121575e-02, 3.93121168e-02,
       8.57633632e-03, -3.70350815e-02, -5.24982512e-02, -1.06635280e-02,
       -1.94875337e-02, -2.77378280e-02, 3.47253866e-02, 4.17992473e-02,
       3.89823653e-02, 6.81080148e-02, 3.75974253e-02, 1.65558271e-02,
       -3.19885812e-03, 4.06603999e-02, 2.46104505e-02, 8.19803216e-03,
       -6.87368726e-03, 1.24326330e-02, -2.26694476e-02, -9.89603344e-03,
       -6.51489524e-03, 2.18001809e-02, 5.87209826e-03, 2.99904272e-02,
       3.21340896e-02, 2.95958761e-02, 4.03552242e-02, -1.68999378e-02,
       -3.54007669e-02, -2.24271044e-02, -1.06189791e-02,
       -1.06859570e-02, -3.89052927e-02, 3.11321951e-02, 4.60611135e-02,
       5.31976111e-02, 6.06831126e-02, 1.14734070e-02, 1.57881901e-02,
       -3.15500726e-03, 6.07142374e-02, 9.20134876e-03, 4.59282771e-02,
       1.56558156e-02, -2.71462952e-03, 6.84912223e-03, -6.74521029e-02,
       1.58967171e-02, 3.92185710e-02, 2.00040005e-02, 8.43409169e-03,
       -5.93222352e-03, 9.93151776e-03, 1.18372431e-02, -1.79269053e-02,
       -1.24933487e-02, -3.33877243e-02, 3.46247889e-02, 2.65150312e-02,
       -8.39479547e-03, 2.51425337e-02, 2.49177497e-02, 2.53701955e-02,
       2.48070583e-02, -5.70809953e-02, 5.85200498e-03, -1.41358655e-02,
       4.24765386e-02, -9.72603913e-03, -1.71327367e-02, 3.19664292e-02,
       -2.02318188e-02, 2.47567948e-02, -4.23797965e-02, 1.74396653e-02,
       -1.27704749e-02, 4.88942768e-03, 2.26957239e-02, 7.55415298e-03,
       4.26808745e-02, 5.97076565e-02, 4.83964011e-02, -2.20331401e-02,
       -2.07354128e-02, 2.58047264e-02, 6.85892208e-03, -2.79804878e-02,
       -7.69799808e-04, 2.72419881e-02, -2.16294210e-02, -2.45124996e-02,
       -4.33850065e-02, 1.65780876e-02, 5.30272461e-02, -3.29941362e-02,
       4.74386383e-03, -2.60802042e-02, 1.45615044e-03, 1.02579221e-02,
       1.89758725e-02, 1.93180311e-02, 6.58909008e-02, -2.18996331e-02,
       -2.30368618e-02, 2.60614343e-02, -5.65325394e-02, 2.70386767e-02,
       1.66779999e-02, 1.49317477e-02, -3.09266970e-02, -3.80529985e-02,
       3.78381349e-02, 1.60543318e-03, -2.30060350e-02, -2.00957153e-02,
       1.68238711e-02, 9.01888236e-02, 5.98511063e-02, 3.25902700e-02,
       1.81189161e-02, 3.94683369e-02, -2.79075950e-02, -2.11089719e-02,
       -3.56482491e-02, -5.89286685e-02, -4.02801111e-02, 5.17636212e-03,
       1.28221586e-02, 5.55603430e-02, 2.54477654e-03, -1.73251592e-02,
       -7.61027336e-02, 9.49576218e-03, 2.25772187e-02, -1.47116054e-02,
       -2.48019248e-02, 2.73642540e-02, 2.33271085e-02, 1.72599088e-02,
       2.25051586e-02, -6.45508850e-03, -1.30615178e-02, 1.23817427e-02,
       5.40210046e-02, 4.08542901e-02, -5.21324016e-03, -1.81860588e-02,
       7.98299734e-04, 1.83393285e-02, -6.24290816e-02, 1.39882853e-02,
       3.92357111e-02, -1.12873351e-03, -2.42210366e-02, 5.53793535e-02,
       -4.28861938e-02, 1.24422293e-02, -1.86088700e-02, -4.56145294e-02,
       -1.22644927e-03, 1.04969135e-02, 1.25326938e-03, -1.24358200e-02,
       2.38389336e-02, 1.11502521e-02, 2.63067819e-02, 2.70968247e-02,
       -9.17519107e-02, 1.19982474e-02, 4.47225198e-02, -2.11612713e-02,
       -1.57605950e-02, 2.77224015e-02, 1.63709186e-02, 4.24037967e-03,
       9.76686925e-03, -2.04753112e-02, -3.03379279e-02, 6.98637143e-02,
       3.67044955e-02, 3.03882547e-03, 8.63647163e-02, -3.41661908e-02,
       -2.25369539e-02, 3.01085357e-02, -6.99806074e-03, 3.58713306e-02,
       -2.59392485e-02, -1.67715382e-02, -1.42882799e-03, 9.15796217e-03,
       -1.24871666e-02, 5.36210649e-02, 2.45493893e-02, -3.95717137e-02,
       2.28245966e-02, 9.16702896e-02, -1.05773117e-02, -1.37233566e-02,
       3.71881239e-02, 2.75766104e-02, 1.57668069e-02, 3.09736445e-03,
       -5.79548068e-02, 1.42576511e-03, 1.49153806e-02, -2.88290605e-02,
       2.34647430e-02, 4.21747528e-02, 3.45835276e-02, -2.12038904e-02,
       1.49501953e-02, -1.55873327e-02, 4.66562957e-02, 2.41818056e-02,
       -1.08004371e-02, 1.39173158e-02, 1.64504237e-02, 1.01804119e-02,
       9.11807455e-03, -3.55493953e-03, 7.73269404e-03, -7.11075682e-03,
       -1.26785189e-02, -3.48319788e-03, -1.17623797e-02, 3.56928259e-02,
       -5.48489112e-03, 2.94406805e-02, 1.36702042e-03, -2.65407655e-02,
       3.14923376e-02, 4.51354198e-02, -1.28288968e-02, 1.29395742e-02,
       5.82877658e-02, 6.43721893e-02, 4.43454981e-02, -8.67906306e-03,
       -3.15464735e-02, -3.68642174e-02, 2.08231956e-02, -8.19086730e-02,
       2.90846042e-02, 1.69939026e-02, 1.83537174e-02, 6.58784015e-03,
       -1.57534257e-02, 2.89291814e-02, 1.43111395e-02, 2.21972875e-02,
       3.43772626e-05, -3.39568290e-03, 1.34182395e-02, 2.36622933e-02,
       -4.14188439e-03, 7.79524771e-03, 1.64069270e-03, 4.04031985e-02,
       -2.34568492e-04, -3.33949621e-03, 3.90282250e-03, 2.88024116e-02,
       -1.36752948e-02, 2.85538696e-02, -1.78701039e-02, -1.15353670e-02,
       7.15182256e-03, 2.10859850e-02, -2.95973476e-02, 3.25867161e-02,
       1.67960506e-02, -1.40832597e-02, 3.76560278e-02, -2.84663215e-02,
       -3.51462401e-02, 5.66844717e-02, 2.65689082e-02, -2.47542299e-02,
       3.78413941e-03, 1.21698650e-02, 3.91831882e-02, -4.88463603e-02,
       -1.09180817e-02, 3.35481539e-02, 5.55692911e-02, 2.59808693e-02,
       -2.07472802e-03, -6.31174073e-03, 2.10050214e-02, -1.88896582e-02,
       -1.10973651e-02, -5.93504286e-04, -3.32972892e-02, 3.11268885e-02,
       3.91654260e-02, -1.53537132e-02, 6.51693344e-02, 2.08099876e-02,
       -4.84628789e-03, 1.46169523e-02, -4.00763489e-02, -2.73570158e-02,
       6.90702572e-02, 1.56422332e-02, -1.27366455e-02, 6.60858583e-04,
       -5.40804630e-03, 1.44438948e-02, 1.03141200e-02, -2.15363093e-02,
       -1.94243435e-02, -3.08818333e-02, 6.81163603e-03, -4.45669182e-02,
       3.30106495e-03, 4.25588079e-02, 4.03547622e-02, -1.74307805e-02,
       -4.05958528e-03, -2.40558423e-02, 7.96165690e-02, 2.00180057e-02,
       -2.54671872e-02, 4.22616825e-02, 2.00176779e-02, 3.85894859e-03,
       3.35014090e-02, 7.97597226e-03, 2.44809203e-02, 2.14515440e-02,
       7.61530995e-02, 4.47286628e-02, 5.25480472e-02, 6.06386364e-02,
       3.35724056e-02, 2.17091534e-02, -1.84803847e-02, -8.05266500e-02,
       5.53167202e-02, -1.05126472e-02, -3.13388743e-02, -1.45007558e-02,
       1.23185385e-02, 3.63655835e-02, -1.18768541e-02, 2.89747980e-03,
       1.23117110e-02, 9.25320480e-03, 1.57558713e-02, -3.82839814e-02,
       6.61806539e-02, 6.27854243e-02, 3.70800495e-02, 4.78751538e-03,
       -2.93903355e-03, -8.82477127e-03, 3.16433795e-02, 3.93162668e-03,
       4.41587046e-02, 7.07614422e-02, 4.18721475e-02, 3.35178114e-02,
       7.15108402e-03, 2.09565628e-02, 3.37350331e-02, 8.52383673e-02,
       5.39042630e-05, 5.93989566e-02, -5.43011632e-03, 3.32181416e-02,
       2.83029652e-03, -3.14902663e-02, -2.34954176e-03, 1.45627104e-03,
       -2.65699737e-02, 4.40916698e-03, -3.18744555e-02, 7.12435227e-04,
       3.78148234e-03, 3.43820313e-03, -1.57245770e-02, 6.57423958e-02,
       2.40068324e-02, 1.97496125e-03, -3.99709269e-02, 2.71150637e-02,
       3.01014986e-02, 9.91637707e-02, 1.49919221e-03, -4.13821414e-02,
       -4.39190218e-04, -4.80442494e-03, 5.37406094e-02, 9.41413047e-04,
       4.48050313e-02, -3.49873640e-02, -3.02948244e-02, -3.16724740e-02,
       -2.84967292e-03, 5.15306816e-02, 2.44268496e-02, 4.75767404e-02,
       5.75167984e-02, 1.30998358e-01, -5.55005670e-02, 1.27068935e-02,
       -1.88773740e-02, 1.36878360e-02, 3.39002088e-02, 1.09974351e-02,
       -2.06601266e-02, 1.02829542e-02, 1.32902702e-02, 4.27227095e-03,
       -3.89693640e-02, -2.79203355e-02, -3.24954242e-02,
       -2.56416518e-02, -2.10651085e-02, 1.73334740e-02, 5.41971251e-02,
       3.11426502e-02, 4.89505082e-02, -1.98006593e-02, -2.62701325e-02,
       -5.43143824e-02, -1.89076066e-02, 4.20194529e-02, 1.83576308e-02,
       4.84017581e-02, 2.78673489e-02, 1.32141173e-01, -1.27615617e-03,
       -2.94969697e-03, 1.93373254e-03, 6.19087927e-03, -1.66965872e-02,
       -5.08771688e-02, 4.37710695e-02, 1.29111242e-02, 4.28972952e-02,
       -1.00735072e-02, 1.99821573e-02, -1.73357651e-02, -1.53464125e-02,
       -1.61796510e-02, 1.08641060e-02, 7.50638358e-03, 1.31815318e-02,
       -2.77874526e-02, -2.27031521e-02, -7.65944412e-03, 3.89529369e-03,
       -6.54174574e-03, -3.54753062e-02, 2.71151438e-02, 2.41300482e-02,
       3.25266272e-02, 5.39146662e-02, -2.19406374e-02, 5.51557809e-04,
       -3.64373401e-02, -1.15674650e-02, -8.04208964e-03,
       -9.68411192e-03, 2.03288868e-02, 1.29743638e-02, 2.59828232e-02,
       2.28938404e-02, 3.74423191e-02, 3.49187069e-02, 1.35487923e-02,
       -1.66446110e-03, 1.36032412e-02, -6.94306940e-03, -2.14923616e-03,
       1.81527901e-02, -6.53338730e-02, 9.91052166e-02, 3.06357704e-02,
       -4.64381679e-04, -1.45138958e-02, 6.19793423e-02, 2.19219234e-02,
       2.77934298e-02, 1.58341117e-02, -2.37172116e-02, 1.06073283e-02,
       -7.73031637e-03, 2.81580593e-02, 5.04008494e-03, -9.67854913e-03,
       3.54504660e-02, -3.88009101e-02, -8.11513700e-03, -4.34122607e-02,
       -3.20038246e-03, 1.55908298e-02, 3.11254547e-03, 3.12550738e-02,
       2.41889190e-02, 3.62895839e-02, -1.68216266e-02, 1.18308309e-02,
       -5.02715781e-02, 7.62076303e-02, 2.87881047e-02, 5.08583756e-03,
       2.69042631e-03, 3.08086574e-02, -7.28355721e-03, 6.20293943e-03,
       2.46314686e-02, -4.99789082e-02, 6.25341237e-02, 1.34761427e-02,
       1.18998997e-02, 7.51415966e-03, 1.63482130e-02, 1.75195169e-02,
       -1.02347760e-02, 9.51082353e-03, -3.87228914e-02, -9.11790784e-03,
       1.95692275e-02, 2.23440994e-02, 3.67957838e-02, 5.73453086e-04,
       7.01939091e-02, 7.22151576e-03, -2.20043231e-02, -6.92214295e-02,
       -2.40570647e-04, 7.10735936e-03, 7.20013073e-03, -2.42874492e-02,
       2.37044580e-02, 3.87897752e-02, -5.07205203e-02, 1.14374449e-02,
       -2.18769182e-02, 2.77134869e-02, 2.72504073e-02, -2.75923498e-03,
       6.09954745e-02, 6.68018013e-02, 2.13225223e-02, 3.36840712e-02,
       7.32073411e-02, 1.30377021e-02, 1.17058735e-02, -2.90202480e-02,
       2.29346869e-03, 1.51860369e-02, -2.92815790e-02, 3.76404040e-02,
       -2.94791795e-02, -2.27084067e-02, -6.00472353e-02,
       -1.32341068e-02, 6.20517693e-02, 3.47674862e-02, 2.11652834e-02,
       -2.21740026e-02, 4.18006554e-02, 6.27468303e-02, 7.77865236e-04,
       1.81688312e-02, 4.59830835e-02, 5.87197486e-03, -2.05396693e-02,
       1.35562038e-02, -1.03744341e-03, 2.49159206e-02, -8.07729829e-03,
       2.98571214e-02, 4.90669766e-03, -1.69471875e-02, 1.38565730e-02,
       3.01728304e-02, -1.62959355e-03, 4.40113386e-03, 2.72355117e-02,
       1.78385191e-02, 7.63784423e-02, 1.15308156e-02, -1.87648311e-02,
       3.46337892e-02, 4.31879722e-02, -1.64486875e-03, 3.13165551e-03,
       -5.55437151e-03, 2.19811150e-03, -3.18533890e-02, -2.46668588e-02,
       1.71835609e-02, 2.83173900e-02, 2.44982466e-02, -9.33525153e-03,
       -2.06718631e-02, 3.57941501e-02, -2.83084298e-03, -4.76936810e-02,
       7.63389990e-02, -1.09953724e-03, -1.16610257e-02, 3.59828328e-03,
       1.01684285e-02, -3.20915729e-02, -2.12539546e-03, 1.29419044e-02,
       2.20962465e-02, -6.12487737e-03, -3.61638181e-02, -3.68816941e-03,
       1.22993784e-02, 2.33563278e-02, 8.48274902e-02, 9.93494317e-03,
       -5.12654521e-02, -1.72760617e-02, 1.48681160e-02, -4.64640558e-02,
       1.94852203e-02, -5.62603306e-03, -6.47595106e-03, -4.14531901e-02,
       2.63999086e-02, 1.88138355e-02, -3.68110687e-02, 5.95824607e-02,
       -2.94557754e-02, -9.61171836e-03, 5.99592067e-02, -3.91114168e-02,
       -3.02506681e-03, -4.26508598e-02, -7.25810230e-02,
       -2.53206957e-02, 5.63209243e-02, -3.05734873e-02, -2.68661305e-02,
       -9.91318142e-04, 1.42051484e-02, 3.93605046e-02, -1.79880369e-03,
       -5.50221317e-02, 3.39858490e-03, 1.15067372e-02, -8.49933252e-02,
       -3.11252959e-02, 1.03222253e-02, 2.01079883e-02, 7.99779966e-02,
       7.83558935e-03, 4.65048812e-02, 3.22001763e-02, 5.25570940e-03,
       -4.03671600e-02, 3.32628936e-02, 4.73127887e-02, -4.13879566e-02,
       4.58784308e-03, 6.75792843e-02, -6.81912974e-02, -1.89916305e-02,
       4.50383872e-02, 1.03878358e-03, 8.84165429e-03, 1.69470776e-02,
       -2.23590806e-02, -2.22636294e-02, 4.89124330e-03, -5.16094826e-02,
       -2.06050426e-02, 3.07442173e-02, -1.26540437e-02, -3.11859902e-02,
       7.76599301e-03, 2.82042064e-02, 7.13714287e-02, 8.04658532e-02,
       5.08993678e-02, 2.20795963e-02, 1.10888109e-03, -1.93741787e-02,
       -1.53577514e-02, -2.30372585e-02, -1.47436671e-02,
       -8.27782322e-03, 1.47594791e-02, 1.75661426e-02, -1.22199359e-03,
       -2.44613364e-02, -1.21352682e-02, 3.99486013e-02, 5.70528768e-03,
       -7.16482429e-03, -2.78000906e-03, 2.46950649e-02, -4.97372597e-02,
       -3.00914757e-02, 7.00412542e-02, 3.14926542e-02, 2.41817515e-02,
       -6.94832904e-03, -3.07085887e-02, 1.13569796e-02, 1.45304324e-02,
       -3.52448188e-02, -1.45510901e-02, 2.48307455e-02, 1.84106752e-02,
       1.92042030e-02, -1.56947095e-02, 3.50646861e-02, -5.26345894e-03,
       2.85570472e-02, 4.11038660e-02, -4.06455658e-02, -3.45161930e-02,
       5.40588563e-03, -1.08712362e-02, 9.32811107e-03, -1.72057673e-02,
       -2.17905510e-02, 3.38523351e-02, 8.94447044e-03, -1.50557104e-02,
       1.71109438e-02, 1.71740204e-02, 6.70957705e-03, -1.28171155e-02,
       3.58758494e-02, 3.89175266e-02, 2.63184104e-02, -3.98043767e-02,
       -1.61948204e-02, 1.64987240e-02, -2.49415345e-04, -2.41386471e-03,
       -1.18082706e-02, -6.15317412e-02, -1.18035777e-02, 1.49587588e-02,
       -1.21011073e-02, 1.05275605e-02, 1.39393480e-02, 1.17253568e-02,
       -3.29604670e-02, -2.51875084e-04, 3.33242640e-02, 5.63032983e-04,
       4.94268239e-02, 2.94410419e-02, -6.12843260e-02, -2.12755445e-02,
       -1.57723762e-02, -7.34205917e-03, 3.01160919e-03, -1.33374846e-03,
       -1.14981113e-02, 3.29175331e-02, -3.50293331e-02, 4.53212783e-02,
       3.43813300e-02, 8.88157822e-03, -1.72621980e-02, -1.58425737e-02,
       -4.70024012e-02, 3.35360952e-02, -1.07425917e-02, -3.22652049e-02,
       5.74136376e-02, 9.26543772e-03, 1.07945157e-02, 3.63033265e-02,
       -7.16676703e-03, -4.30636713e-03, -4.52718139e-02, 1.56295188e-02,
       1.80681217e-02, 2.11866833e-02, 5.13980538e-02, 3.99886221e-02,
       -2.47796569e-02, -3.96954594e-03, 1.45808654e-02, 3.24111469e-02,
       3.09633315e-02, -1.07823657e-02, 2.76569650e-02, 1.50870262e-02,
       -1.39457239e-02, -7.80862290e-03, 9.17267520e-03, 6.05114624e-02,
       -1.31870918e-02, -9.86606535e-03, 3.23915556e-02, -3.75628099e-02,
       -4.65345522e-03, 1.49329593e-02, 2.66627520e-02, -6.37635402e-03,
       -5.52567653e-02, -7.94849824e-03, -4.57901834e-03, 3.33130211e-02,
       1.22390017e-02, 2.97873691e-02, 3.17372493e-02, -7.72007741e-04,
       -1.47615625e-02, -2.05538864e-03, 4.37766016e-02, -5.38934320e-02,
       1.74540728e-02, -1.76635515e-02, 4.51178104e-02, 1.00207990e-02,
       -1.19786686e-03, -3.32106976e-03, 2.39508599e-02, -3.45076807e-02,
       -1.12825539e-02, 5.39112613e-02, 5.15730295e-04, 3.10208445e-04,
       2.09025219e-02, -2.72751320e-02, 3.71892890e-03, 2.85207145e-02,
       -4.96341905e-04, -1.75271723e-02, -1.95614621e-02, 8.77562165e-03,
       9.20451712e-03, 1.03215184e-02, -2.16436647e-02, -1.83574166e-02,
       -9.21201799e-03, 4.52359170e-02, -1.81635972e-02, 2.52047088e-02,
       -2.67333370e-02, 5.93397487e-03, -2.66682655e-02, -2.09009610e-02,
       3.10800839e-02, 1.50488662e-02, 1.57978311e-02, 5.49927074e-03,
       7.23643005e-02, -1.51838167e-02, 7.55313784e-02, -1.00103458e-02,
       -5.21533638e-02, 3.60237178e-03, 3.29497680e-02, 5.43143004e-02,
       -6.34999527e-03, 4.94884793e-03, -1.97478589e-02, -7.15158060e-02,
       -2.95939278e-02, 2.64605619e-02, 1.70062985e-02, -8.19573551e-03,
       3.54073122e-02, 5.05156033e-02, 1.28585864e-02, -5.07982783e-02,
       1.12863043e-02, 4.73285047e-03, -5.05981520e-02, 2.71761464e-03,
       5.03753684e-02, 2.08139252e-02, -1.49130961e-02, 1.08384145e-02,
       4.87806015e-02, -1.74967442e-02, -3.50679494e-02, -4.88392599e-02,
       8.86654016e-03, -1.45627679e-02, -1.54054221e-02, -3.59915954e-04,
       1.11009013e-02, 4.73566242e-02, -4.03583907e-02, 1.81321986e-02,
       -7.52027407e-02, -2.84181312e-02, 4.48658969e-03, -4.21545794e-03,
       -4.18144912e-02, -5.80722429e-02, 5.58189489e-02, -3.50954160e-02,
       -4.03064638e-02, -6.73625171e-02, 3.66290212e-02, 1.54508883e-02,
       6.97297649e-03, 6.68613333e-03, -3.28377485e-02, 3.37981917e-02,
       3.20466841e-03, 7.38559477e-03, -2.20317431e-02, 1.38530545e-02,
       -1.64460167e-02, 2.55662836e-02, -3.84256952e-02, -3.86686088e-03,
       -4.33077058e-03, -2.28466485e-02, 3.68442871e-02, 3.01247067e-03,
       -2.05759075e-03, -1.16786631e-02, 1.72366388e-02, -2.90980022e-02,
       -2.11478155e-02, 6.61854893e-02, -4.55205180e-02, 7.66819417e-02,
       -4.08215448e-02, 2.32463777e-02, -1.73481889e-02, -9.98667628e-03,
       -4.88323867e-02, -6.11933284e-02, 2.04101708e-02, 1.45632075e-02,
       3.82618681e-02, -3.53349447e-02, 1.82469860e-02, -2.80875154e-02,
       3.09868380e-02, -3.28275524e-02, 9.74695198e-03, -5.74214570e-03,
       -8.50983802e-03, 4.28456888e-02, 2.12921184e-02, -1.47248397e-03,
       -2.81191594e-03, 2.74163000e-02, -8.24431051e-03, -3.16807404e-02,
       3.31801325e-02, -3.14222015e-02, 7.05823749e-02, 2.47580595e-02,
       1.45777734e-02, -2.92189587e-02, -1.55959446e-02, -4.07347865e-02,
       -4.94108200e-02, -6.65922090e-03, -3.52385528e-02, 6.36153594e-02,
       2.88978964e-02, 4.32008170e-02, -3.38576734e-02, 4.07619029e-02,
       -1.25675919e-02, -4.06619050e-02, -2.18141098e-02, 2.50910725e-02,
       4.48728725e-02, 3.49168777e-02, 4.43283767e-02, 7.16163591e-03,
       2.46925093e-02, -4.06769179e-02, 2.45708730e-02, -1.03049092e-02,
       1.34083368e-02, 6.16718717e-02, 1.00313090e-02, 3.32424161e-03,
       -3.37117054e-02, 7.27727218e-03, -3.46969627e-02, -5.30004911e-02,
       -5.03374077e-03, -1.17217526e-02, 5.07996641e-02, 3.62350680e-02,
       -1.88373104e-02, 1.94317922e-02, 1.69281177e-02, 7.05589950e-02,
       -7.27161672e-03, 1.51479440e-02, -2.15305407e-02, 1.09045692e-02,
       1.67449061e-02, 6.63723350e-02, -1.52395377e-02, 5.30071892e-02,
       4.47646528e-02, 5.96431084e-03, -2.25283802e-02, 1.33203370e-02,
       3.60162668e-02, -3.64939310e-02, -3.31125446e-02, -4.78066728e-02,
       -7.47199683e-03, -1.12394122e-02, 6.70264810e-02, 5.75641692e-02,
       4.72097378e-03, -4.11635451e-03, 1.84717979e-02, -9.09281801e-03,
       4.46795532e-03, -1.47796348e-02, 2.93093901e-02, -2.76898369e-02,
       -6.80765277e-03, -3.20908753e-03, -1.38372369e-02, 2.47274153e-02,
       2.87925336e-03, -4.97331982e-03, -2.27228776e-02, 5.56370653e-02,
       3.71368788e-02, 2.82320529e-02, 3.25800776e-02, 1.53563414e-02,
       -1.42432535e-02, 3.34252790e-03, -3.98230180e-02, 3.87866190e-03,
       -1.21482052e-02, 5.99832349e-02, 5.07868975e-02, 3.06780799e-03,
       2.60644266e-03, -4.15742770e-02, 2.19577574e-03, -4.73575667e-02,
       1.89513788e-02, -1.51324058e-02, 7.15408940e-03, -2.80886013e-02,
       -6.09597899e-02, -6.39703721e-02, 1.98128466e-02, 4.46900316e-02,
       1.90932695e-02, 2.12118542e-03, 3.74054760e-02, 1.88157093e-02,
       4.75264341e-03, 3.30568962e-02, 3.07289548e-02, 4.26502973e-02,
       6.66521564e-02, 2.06082687e-02, 3.46982479e-02, 4.81107123e-02,
       -6.59595728e-02, -8.36090930e-03, 6.53842613e-02, 1.04184374e-02,
       -1.17886597e-02, 5.82724344e-03, -1.43814618e-02, -1.91585496e-02,
       -4.52610385e-03, 5.28927445e-02, 7.68564269e-03, -2.41694115e-02,
       -2.39515840e-03, -2.26221588e-02, -3.28980014e-03,
       -2.95885969e-02, 2.18998920e-02, 4.95128287e-03, -9.53971371e-02,
       -7.60131627e-02, -2.19368692e-02, -3.47571224e-02, 1.56966839e-02,
       4.27664518e-02, 2.02152636e-02, 5.86488983e-03, 2.96794306e-02,
       -2.36475505e-02, -1.31231127e-02, 6.56342134e-02, -1.42027969e-02,
       3.77501138e-02, 6.53023422e-02, 5.18147908e-02, 6.24089316e-02,
       1.19930524e-02, 1.96418520e-02, 2.61491966e-02, 7.92407542e-02,
       3.00271232e-02, -2.04196423e-02, -9.33290552e-03, -2.62315609e-02,
       4.57853377e-02, -2.55983938e-02, -7.93244094e-02, -4.84113619e-02,
       -1.76935494e-02, -7.43441805e-02, -3.25603271e-03,
       -2.00814232e-02, -7.42524257e-03, -2.33201720e-02,
       -3.33608058e-03, -2.69602016e-02, 2.50452124e-02, 9.89843439e-03,
       -2.75910803e-04, 2.32589319e-02, 5.34762219e-02, 3.42470333e-02,
       4.74678390e-02, 7.61961713e-02, 1.41094066e-02, -5.60309459e-03,
       1.15896435e-02, -5.53523796e-03, 4.12650332e-02, 1.39276450e-02,
       2.16662884e-02, -5.22041926e-03, -8.28470476e-03, 1.63732506e-02,
       2.15220712e-02, -8.45165283e-04, 2.60288212e-02, 1.40299257e-02,
       -3.26903164e-02, 6.11642469e-03, -1.01752980e-02, -3.05400267e-02,
       2.20863484e-02, 1.15458453e-02, -2.71611549e-02, -3.10678370e-02,
       4.54765297e-02, 2.28817649e-02, 4.00268100e-03, -8.05540383e-03,
       -9.23660398e-03, 2.53476482e-02, -3.98620144e-02, 5.52082732e-02,
       -3.88090452e-03, 3.81601565e-02, 1.50613692e-02, 5.87516315e-02,
       1.73595268e-02, 6.22460730e-02, 2.00042017e-02, -3.82381305e-02,
       -1.03806127e-02, 1.58854686e-02, 2.33636294e-02, 3.26811965e-03,
       -5.20126149e-03, -2.25757379e-02, -1.53581509e-02, 2.34389510e-02,
       1.50886895e-02, 1.02277258e-02, 3.41716558e-02, 1.93441752e-02,
       1.50133269e-02, 2.37432960e-02, 4.27212790e-02, -1.16441874e-02,
       -1.55867345e-03, -6.68281168e-02, 9.24240332e-03, -4.92475368e-02,
       1.55128622e-02, 1.54475318e-02, -2.85449363e-02, 2.13414878e-02,
       3.86612862e-02, 2.07376871e-02, -2.42329342e-03, 5.13724200e-02,
       8.50804057e-03, -3.04661854e-03, -1.63922075e-03, 5.50515614e-02,
       1.06226085e-02, 3.74035053e-02, -2.69213226e-03, -3.00317667e-02,
       1.17882378e-02, -1.25689460e-02, 7.80561706e-03, -1.34345535e-02,
       -2.38455683e-02, -8.60897079e-03, -3.33293644e-03,
       -2.90607829e-02, 3.80625352e-02, 2.67344881e-02, 1.03994617e-02,
       1.37282833e-02, 1.61292572e-02, -3.90649820e-03, 2.60601845e-02,
       5.39627904e-03, -6.25113863e-03, -6.64232820e-02, -2.35681366e-02,
       -1.02824243e-02, 2.55800914e-02, -3.18200961e-02, -2.49390099e-02,
       3.73608619e-03, 6.65108860e-02, -6.65089721e-03, 1.97209027e-02,
       3.50050163e-03, 3.97463888e-02, -1.04648080e-02, -1.25617431e-02,
       -5.69413695e-03, 1.63799711e-02, 6.80493331e-03, -1.64371915e-02,
       4.65947501e-02, 1.95826683e-02, 7.26263924e-03, 4.79198573e-03,
       -5.59890456e-03, 3.10085211e-02, -2.19764020e-02, -2.40794625e-02,
       1.44347148e-02, -2.26211292e-03, 3.66027616e-02, 4.14552614e-02,
       3.65174166e-03, -1.48886610e-02, -1.01360017e-02, 7.95436427e-02,
       1.37003381e-02, -2.43217349e-02, -4.14863182e-03, -1.78575628e-02,
       1.08310115e-02, -3.00535038e-02, -2.52944115e-03, 4.81089082e-04,
       1.30101377e-02, -1.24419127e-02, 3.58580686e-02, -1.75287183e-02,
       -7.26526370e-03, 1.81417689e-02, -6.65376056e-03, -3.13749863e-03,
       -3.88395449e-04, -1.47569291e-02, 5.71396342e-03, 5.25729358e-02,
       -1.33458152e-02, 2.54618023e-02, 3.00319232e-02, -1.28442245e-02,
       -2.27712318e-02, 2.30004564e-02, -2.64272317e-02, -1.28916577e-02,
       -6.04025961e-04, -1.13680027e-03, 4.59272452e-02, 2.03454886e-02,
       -4.77357581e-02, -3.09885759e-03, 1.14729162e-02, 3.73111703e-02,
       1.13926851e-03, 1.36309406e-02, -2.80381963e-02, -4.72715236e-02,
       2.31717043e-02, 1.57349603e-03, 3.80212218e-02, -1.38065042e-02,
       -1.85507126e-02, -2.93531865e-02, -1.72399904e-03, 4.45822030e-02,
       3.78686190e-02, -1.50482832e-02, -3.59485708e-02, -2.20791753e-02,
       2.35616602e-02, 4.05674204e-02, 8.66026431e-03, 3.04272380e-02,
       -1.39675261e-02, 6.33545918e-03, -7.48531334e-03, 1.48770623e-02,
       1.56122178e-03, -2.10078564e-02, 5.78296185e-03, 2.90438440e-02,
       2.17135511e-02, -2.13312358e-02, 3.79768834e-02, -4.91386745e-03,
       -5.99095644e-03, 5.35586290e-02, 1.81908940e-03, -7.24510988e-03,
       -1.77692510e-02, 3.96685414e-02, -1.12062953e-02, -9.70757194e-03,
       -2.21501794e-02, 1.36549454e-02, 4.84248064e-02, -5.70224971e-03,
       -1.14052249e-02, 4.58176024e-02, -8.44546687e-03, 4.15819651e-03,
       1.09115085e-02, -1.15329009e-02, -5.55389896e-02, 9.20527149e-03,
       3.34617831e-02, 4.15991805e-02, -4.07625251e-02, -4.03843671e-02,
       5.06122746e-02, -3.72365676e-02, -3.28548327e-02, -3.66379209e-02,
       3.61757353e-02, 2.81309746e-02, 3.12151406e-02, -3.16316336e-02,
       -1.75118931e-02, 3.70192155e-02, 1.42487809e-02, 2.50108838e-02,
       -6.60764128e-02, 2.54010595e-02, 1.52693102e-02, -1.82368122e-02,
       -9.76118445e-02, 1.27482889e-02, -3.05885244e-02, -5.99376671e-03,
       -4.63205725e-02, -7.10577592e-02, 2.51522325e-02, 2.39393208e-02,
       -3.79979378e-03, -2.77621262e-02, 3.70268822e-02, -3.09752324e-03,
       -2.41002887e-02, -8.66678655e-02, -2.47600786e-02, 5.67610562e-03,
       -4.08765636e-02, 5.06316544e-03, -4.93092872e-02, -5.74777462e-02,
       3.41541991e-02, -1.68537293e-02, 2.71580219e-02, 2.43408210e-03,
       1.00638755e-02, -3.74647118e-02, 4.63209748e-02, -3.81665230e-02,
       2.41766870e-02, -7.33899139e-03, -1.49289621e-02, 2.54317969e-02,
       -4.62662056e-02, 1.95550565e-02, -3.59631367e-02, -5.15242759e-03,
       -2.46492457e-02, -2.25017965e-02, -4.36618626e-02, 8.52968171e-03,
       -4.77170683e-02, -4.14207438e-03, 3.30251530e-02, 2.63960063e-02,
       2.88405735e-02, 3.77525315e-02, 3.28317098e-02, 2.12815013e-02,
       -9.82972421e-03, -4.87206392e-02, 9.24216025e-03, 1.76958065e-03,
       -3.97125371e-02, 3.77041847e-02, -5.10966927e-02, -3.61623839e-02,
       -1.99592635e-02, -4.06132080e-03, 3.92182544e-02, 4.98237461e-03,
       4.64243926e-02, -3.24909016e-02, 4.63890377e-03, -4.47634161e-02,
       3.78274433e-02, 4.12194931e-04, 1.23271775e-02, 2.63810009e-02,
       6.16352260e-03, 2.03655511e-02, -3.13353837e-02, -1.51407439e-02,
       -2.39488203e-02, -2.98674796e-02, 5.65447961e-04, 1.20856445e-02,
       -1.16301030e-02, -1.98996551e-02, 3.53694633e-02, -2.10873857e-02,
       6.81638252e-03, -6.10704608e-02, -4.88438755e-02, 5.69864139e-02,
       2.80990414e-02, 2.05153096e-02, 8.86023045e-03, 4.81559113e-02,
       -9.00581945e-03, 2.41205618e-02, -2.81514116e-02, -5.92223331e-02,
       -3.74245457e-02, 6.35620905e-03, 3.03337015e-02, -3.06974035e-02,
       4.49248450e-03, -2.35688668e-02, -9.83860716e-03, -4.86711487e-02,
       3.14447172e-02, 4.58842069e-02, 2.86071319e-02, -2.26504412e-02,
       1.40605429e-02, 6.75636530e-02, 1.22889662e-02, 2.25220341e-02,
       -2.05719694e-02, -2.01480463e-02, 1.69330910e-02, 2.92847082e-02,
       4.85894531e-02, -7.31661469e-02, 2.35976502e-02, 1.61958057e-02,
       9.55753308e-03, -3.56619805e-02, 2.61417497e-03, -2.73483694e-02,
       -2.17960216e-03, 1.28431069e-02, -9.82066803e-03, 5.41810924e-03,
       3.06354426e-02, -2.30345968e-03, -2.36413348e-02, 2.45625451e-02,
       3.22040245e-02, 2.90935431e-02, -1.51691372e-02, -1.54148685e-04,
       -6.13035494e-03, 1.73275231e-03, -4.44139540e-02, -2.08148779e-03,
       2.76293559e-03, -1.84067488e-02, -1.40187489e-02, -1.71149708e-02,
       -1.08631253e-02, 2.51118634e-02, 6.33952254e-03, 1.54966274e-02,
       -1.21470504e-02, 5.66495210e-02, 1.42639820e-02, 1.43735725e-02,
       2.71707196e-02, -4.50548120e-02, 3.84650193e-02, -1.54907466e-03,
       9.20764804e-02, 4.31314893e-02, 1.71020236e-02, -1.89373177e-02,
       -3.64640616e-02, -1.50859896e-02, 3.35981511e-02, 8.39770131e-04,
       5.26348203e-02, 8.88916547e-04, 2.49614231e-02, 5.96988611e-02,
       8.10040999e-03, 2.85179429e-02, 1.29469149e-02, 9.88103170e-03,
       -1.19322038e-03, 8.01077951e-03, 1.58533752e-02, 5.00480458e-03,
       -7.66961277e-02, -3.35551463e-02, 2.54360605e-02, -3.22531629e-03,
       6.58768648e-03, 4.68392670e-02, -4.61950107e-03, 4.65186574e-02,
       5.38296327e-02, 6.01895973e-02, 4.91723493e-02, 1.13477437e-02,
       2.18631290e-02, 1.55461319e-02, 1.96669716e-02, -2.21384279e-02,
       1.19474474e-02, 1.53845614e-02, 1.74961071e-02, -3.19711119e-02,
       2.25365963e-02, -9.14114621e-03, -2.37138290e-03, -2.05394756e-02,
       7.96308555e-03, 1.16609875e-02, 2.20124889e-03, -4.00824994e-02,
       -1.62037788e-03, 3.60816047e-02, -2.84324680e-02, -2.90420721e-03,
       -1.30509911e-02, 1.87192727e-02, 4.80277045e-03, 4.30517010e-02,
       4.18708809e-02, 5.10110036e-02, 4.80781458e-02, 4.67408262e-02,
       2.04923023e-02, 2.47051492e-02, -2.49429904e-02, 6.48801625e-02,
       3.33418958e-02, 1.12927565e-02, -8.60537775e-03, -3.88686336e-03,
       -2.26162598e-02, -6.63992204e-03, 2.38376018e-02, -2.15607751e-02,
       1.29820565e-02, 1.78309400e-02, 4.50513735e-02, 8.68764054e-03,
       7.36084804e-02, -2.09547672e-02, -1.55446492e-02, -2.91316360e-02,
       1.33852474e-02, 1.62841789e-02, 3.55366012e-03, 3.11645791e-02,
       1.79100037e-02, -8.68482795e-03, -6.56851474e-03, 3.99805084e-02,
       1.32566309e-02, 2.43364852e-02, 8.49516783e-03, 4.31163758e-02,
       7.97994658e-02, -4.83295023e-02, 5.24323657e-02, 2.06135716e-02,
       -2.88949814e-04, -3.64308455e-03, -1.39804631e-02,
       -1.37716262e-02, 1.59203280e-02, 1.60852522e-02, -1.01218410e-02,
       2.34702742e-03, -4.67053875e-02, 2.57124137e-02, 7.04403371e-02,
       -3.36224623e-02, 2.62804199e-02, 2.72900760e-02, 3.20036858e-02,
       -2.07790155e-02, 3.96456718e-02, -1.13089178e-02, 7.80258095e-03,
       -8.85265600e-03, 1.90960243e-02, 5.66555038e-02, 1.54825272e-02,
       3.65763530e-02, -3.64126228e-02, 5.35162129e-02, -1.56743359e-02,
       5.02109993e-03, 2.60456689e-02, -4.50996980e-02, 2.91884951e-02,
       3.02883293e-02, 2.04257593e-02, 2.12306120e-02, 6.10588528e-02,
       -2.67093745e-03, -7.26389792e-03, 3.70568335e-02, -1.36057623e-02,
       2.13528704e-03, -5.86494841e-02, -1.54175535e-02, -2.57470906e-02,
       3.18431221e-02, -3.04088909e-02, -2.42993943e-02, 4.39772084e-02,
       -3.12717375e-03, 3.80632058e-02, -2.35830620e-02, 3.18059437e-02,
       3.75999659e-02, 6.37621954e-02, 3.66595984e-02, 1.88673250e-02,
       3.29127796e-02, 8.65316670e-03, 7.36210793e-02, -1.58741586e-02,
       -8.46760906e-03, -5.79872280e-02, -6.46366365e-03,
       -2.65603475e-02, 1.70861036e-02, -2.06775256e-02, -1.31039927e-02,
       -7.43152481e-03, 6.17557205e-02, 8.98207072e-03, 4.80133705e-02,
       4.35876939e-03, -4.37012501e-03, 9.07306001e-03, 2.07237061e-02,
       -1.40094766e-02, 4.33200337e-02, -1.34821339e-02, -2.03864593e-02,
       -6.59505203e-02, 2.07395107e-02, 4.34526764e-02, -3.66983339e-02,
       -3.16708758e-02, 2.21632402e-02, -3.70536149e-02, -7.74224114e-04,
       2.84104440e-02, 6.36252537e-02, 2.42736209e-02, 3.08368541e-02,
       -7.90910330e-04, -1.07931597e-02, 4.65869019e-03, 8.96151736e-02,
       1.23164123e-02, -7.68161938e-02, -2.61616968e-02, -2.81087272e-02,
       9.31096729e-03, -1.02412244e-02, -1.31489635e-02, 7.62119237e-03,
       -1.89757831e-02, -1.42463828e-02, 3.41663174e-02, 2.73714215e-02,
       1.86440535e-02, 2.27414519e-02, -2.30162572e-02, -5.58304088e-03,
       1.27577968e-02, 5.37403300e-02, -2.06367113e-02, -1.84615515e-02,
       1.49179241e-02, 1.92260537e-02, 1.64603349e-02, -7.14300107e-03,
       -4.29475978e-02, -1.10011529e-02, 3.92489769e-02, -1.71206575e-02,
       4.89402227e-02, 2.04810798e-02, 2.86926851e-02, 6.41442416e-03,
       -1.69645604e-02, 2.43164646e-03, 2.15379074e-02, 4.78254259e-03,
       -1.15655856e-02, 6.56380551e-03, -3.92104685e-02, -5.81680471e-03,
       2.72180066e-02, 3.61093343e-03, 8.87444429e-03, -4.27502720e-03,
       -3.92568782e-02, -3.79888825e-02, 6.67857565e-03, 5.28579317e-02,
       2.32299455e-02, 1.40609099e-02, -4.95554600e-03, -2.96501685e-02,
       -3.03174229e-03, 3.85248624e-02, -8.75425991e-03, -2.40410399e-02,
       2.81202816e-03, 5.27370069e-03, -1.23680721e-03, 3.40579487e-02,
       1.17331548e-02, -5.32909017e-03, -4.50233900e-04, -4.17436706e-03,
       3.25096287e-02, 7.08354935e-02, 5.79350963e-02, 9.12859291e-03,
       -2.64832452e-02, 1.14738345e-02, -1.27624907e-02, -2.20099483e-02,
       -1.65150296e-02, 1.03191566e-02, 1.90431699e-02, -8.20195302e-03,
       -3.20325233e-02, 5.31400274e-03, 1.26607600e-03, -4.42227423e-02,
       -3.63144558e-03, 5.74640650e-03, -7.36391312e-03, 2.54415032e-02,
       3.65300663e-02, -2.32303590e-02, 4.95649036e-03, 1.29115665e-02,
       1.92069635e-02, 1.06927855e-02, 1.65447164e-02, 4.56977673e-02,
       1.37171578e-02, 2.93456693e-03, -3.57047580e-02, 1.75791718e-02,
       5.41693717e-02, -1.95794702e-02, -2.57134568e-02, -4.24364302e-03,
       7.64555717e-03, 6.54979870e-02, 5.33438101e-02, -1.96754187e-02,
       -5.52826077e-02, 6.34182096e-02, 2.21230220e-02, 9.49896313e-03,
       -7.44498521e-02, -3.54648568e-03, -3.50661613e-02,
       -1.32721616e-02, -4.45006005e-02, -4.15396057e-02, 3.72654013e-02,
       1.01391189e-02, 1.06880441e-02, -2.18130108e-02, 2.11021919e-02,
       -1.12933258e-03, -3.60029228e-02, -5.30033335e-02,
       -6.83772042e-02, -2.48057526e-02, 9.24269576e-03, 4.97053424e-03,
       9.72642680e-04, 1.28989592e-02, -2.04862445e-03, 3.52446665e-03,
       -2.71055978e-02, -2.33850516e-02, 1.44748138e-02, 2.13400312e-02,
       -3.14675570e-02, -2.39129290e-02, 2.52730586e-02, 2.85487566e-02,
       7.25312112e-03, -3.74611989e-02, -5.44535406e-02, 4.39014472e-02,
       -1.03410380e-02, 3.45997587e-02, -3.39446627e-02, -4.29002382e-02,
       -4.01312858e-02, -3.91081981e-02, -5.61378486e-02,
       -8.04631412e-03, 3.21436897e-02, 3.36282444e-03, 1.09386444e-02,
       2.00157426e-02, 4.17437479e-02, 2.83427611e-02, -2.57819751e-03,
       -6.13969378e-03, -1.36964219e-02, 1.31104561e-02, 4.38475050e-02,
       -8.38902593e-03, -1.22500677e-02, -2.29020212e-02,
       -4.42882068e-02, 6.66738581e-03, -2.41772402e-02, 1.26984604e-02,
       1.11005886e-03, -7.54685514e-03, 1.90940220e-02, -6.79286104e-03,
       2.54794024e-02, 4.72025201e-02, 1.43930539e-02, -1.18606519e-02,
       -6.80966722e-03, 3.13933231e-02, -2.26620100e-02, -2.31773569e-03,
       -3.05776075e-02, -5.39185144e-02, -3.02883107e-02,
       -2.96071302e-02, -1.56616196e-02, -3.98210473e-02, 4.11682464e-02,
       -1.51684945e-02, 2.17135753e-02, -4.70048897e-02, 4.01500985e-02,
       2.95837708e-02, 2.16817111e-02, -2.11988371e-02, 3.66183594e-02,
       1.50812082e-02, -6.96813106e-04, 3.02684028e-02, -4.94819842e-02,
       -3.63509990e-02, -6.81226561e-03, -1.06141614e-02,
       -2.18342012e-03, -1.85396858e-02, -2.77354550e-02,
       -3.56946141e-02, -4.48610773e-03, -3.49290855e-02, 2.11888887e-02,
       3.66844162e-02, -3.87137681e-02, -2.73035336e-02, 1.82018802e-02,
       7.95785040e-02, 2.39595100e-02, 1.56691168e-02, -3.54779847e-02,
       1.85170919e-02, 4.57120681e-04, 6.98952051e-03, 3.29854153e-02,
       -2.69168410e-02, 2.08764933e-02, 1.58347562e-02, 1.28591433e-02,
       -2.17831768e-02, 6.25796020e-02, -8.39799270e-03, 1.77769475e-02,
       -1.87560113e-03, 4.22756411e-02, 1.91139411e-02, -1.09566655e-03,
       5.21801375e-02, -5.57532720e-02, 1.65263508e-02, 1.46339694e-02,
       -1.21507077e-02, 6.39364636e-03, -2.46486608e-02, -1.78204279e-03,
       -1.06400382e-02, -3.26668099e-02, -1.03037544e-02,
       -2.37749349e-02, -1.96012370e-02, -3.56014520e-02,
       -7.71482522e-03, -8.52445140e-03, 2.90984176e-02, -2.73083826e-03,
       9.41771176e-03, 1.17679760e-02, 9.73628238e-02, 1.12969102e-02,
       5.19543476e-02, 3.43774520e-02, -2.55483761e-02, 1.47259561e-02,
       5.79610048e-03, 5.32473549e-02, 2.27198526e-02, 8.81212205e-02,
       1.84411965e-02, -2.19850875e-02, -6.23445772e-03, 9.42483917e-03,
       1.89806465e-02, 6.99462893e-04, -1.09330583e-02, -5.97914634e-03,
       1.00077540e-02, -1.20105939e-02, 2.13124193e-02, 3.14525957e-03,
       9.11423762e-04, 1.13252942e-02, 7.21419649e-03, 2.89046764e-02,
       -9.32457205e-03, 5.93023486e-02, -7.77309760e-02, -2.13212594e-02,
       -7.18895020e-03, -1.99942105e-02, 2.11121067e-02, -1.42579502e-03,
       2.50322185e-02, 7.24798292e-02, 1.28037795e-01, 5.90654053e-02,
       2.87986696e-02, 1.87957752e-02, 1.73255559e-02, 1.85533259e-02,
       -2.10494790e-02, 2.90441848e-02, 2.12530270e-02, 4.56765518e-02,
       -1.40423495e-02, 4.63280231e-02, -5.76856360e-03, 2.89181359e-02,
       -4.97896131e-03, 6.20146515e-04, -1.91449821e-02, 1.56744160e-02,
       8.24725032e-02, -3.50057334e-02, 2.73199510e-02, 2.85577476e-02,
       1.50966570e-02, -3.10196541e-02, -7.06582516e-02, 1.02205505e-03,
       5.53730736e-03, 3.90593931e-02, -1.19236959e-02, -4.90239996e-04,
       6.35427097e-03, 8.94295052e-03, -4.45870077e-03, 2.22057546e-03,
       5.40285930e-02, 2.04357654e-02, 1.41075598e-02, -1.43517554e-02,
       3.36048491e-02, -6.37125643e-03, 2.78236959e-02, 3.75936702e-02,
       -1.63444616e-02, -2.43722927e-02, 3.40967923e-02, 1.43675292e-02,
       -5.99427754e-03, 1.08956300e-01, -1.35391271e-02, 4.82164994e-02,
       -3.46249528e-02, -2.95420103e-02, 5.27677417e-04, 5.14504826e-03,
       4.24250588e-02, -1.00752097e-02, -4.18342166e-02, -1.23720840e-02,
       6.17584446e-03, 1.49648227e-02, 1.24496752e-02, 7.73887942e-03,
       2.68459283e-02, 1.07747074e-02, -6.41302839e-02, 1.29386373e-02,
       -4.31712996e-03, 2.47949362e-02, 1.00964156e-03, 1.00283008e-02,
       -7.21042161e-04, 4.27732505e-02, 5.27509302e-03, 6.80983532e-03,
       3.33743244e-02, -3.15210745e-02, 2.53519900e-02, 3.93638387e-02,
       -4.89785662e-03, 9.56738461e-03, -3.11476225e-03, 2.29516104e-02,
       -1.00524509e-02, 4.90041524e-02, -3.37002911e-02, -9.43172537e-03,
       -1.46041652e-02, -3.82370725e-02, 2.60221828e-02, 9.49472096e-03,
       5.19832177e-03, -4.30237725e-02, -2.79746968e-02, -5.80272377e-02,
       -3.55246700e-02, 5.63255623e-02, 6.52194815e-03, 3.24340165e-02,
       4.52469587e-02, -1.44602675e-02, -1.68755129e-02, 2.59367693e-02,
       2.01232806e-02, 8.97453073e-03, 2.08653659e-02, 1.02890134e-02,
       1.47828059e-02, 1.03432219e-02, -1.24249402e-02, 1.63333621e-02,
       5.07535972e-02, -5.45324273e-02, -2.41408423e-02, 2.68776831e-03,
       -7.51740765e-03, 6.86897188e-02, -2.66920608e-02, 2.90966779e-02,
       3.23411897e-02, 5.71279526e-02, 1.38426097e-02, -6.16124459e-02,
       8.73837341e-03, -3.20913531e-02, 3.23173106e-02, 3.41580249e-02,
       1.52329607e-02, -5.37010748e-03, 8.86005815e-03, -3.76192592e-02,
       -3.19465585e-02, 1.28406920e-02, -1.75860673e-02, 4.65586148e-02,
       -5.35296416e-03, 3.70123424e-02, 2.58054174e-02, 5.10671064e-02,
       2.37840656e-02, -1.74119591e-03, 1.13971764e-02, 1.22341365e-02,
       7.26116970e-02, -4.12227884e-02, -9.37752519e-03, -2.37654783e-02,
       1.55353528e-02, 4.62917006e-03, -3.07971779e-02, -3.46170254e-02,
       -3.67013295e-03, -3.16096307e-03, 3.10702319e-03, 9.84129403e-03,
       2.06856690e-02, 6.85855933e-03, 9.23495856e-04, -1.34134460e-02,
       2.86968034e-02, 1.00072091e-02, 6.19595572e-02, -3.82451573e-03,
       -1.50258583e-03, 1.24790641e-02, 4.97366637e-02, 1.63476206e-02,
       -3.08478810e-02, -2.31973059e-03, 5.49077382e-03, -1.05422139e-02,
       4.40681949e-02, 3.05930022e-02, 4.52179201e-02, 2.32810117e-02,
       1.45617528e-02, -3.03932372e-02, -2.40230951e-02, 1.17764324e-02,
       5.71370423e-02, -4.91370261e-02, -5.11318408e-02, -2.65012830e-02,
       -4.19521857e-05, 1.39669999e-02, -1.12123173e-02, -3.32533009e-02,
       -2.68329885e-02, 5.85866719e-02, -2.04046723e-02, 3.46728377e-02,
       -1.42933149e-02, 3.91486213e-02, -5.96885104e-03, -3.23600210e-02,
       2.25084201e-02, 3.04558780e-02, 5.60222194e-02, -2.96590687e-03,
       -4.00980376e-03, -2.47556064e-02, 5.15973866e-02, 2.22730525e-02,
       -3.08118816e-02, 1.38721643e-02, 3.04529089e-02, 1.16820624e-02,
       4.29903483e-03, 4.61677648e-02, 4.19553630e-02, 1.83215998e-02,
       -6.18189853e-03, -5.29804360e-03, -2.19243634e-02, 1.35576513e-04,
       1.51408212e-02, -5.39272018e-02, -1.64602119e-02, -3.76030393e-02,
       -7.24284817e-03, 8.82353634e-03, 4.20781113e-02, -1.53234685e-02,
       -1.68663803e-02, -6.55240007e-03, -6.98846579e-03, 3.08755916e-02,
       7.39662647e-02, 6.37941584e-02, -4.78674250e-04, -3.19670100e-04,
       -1.68829989e-02, 2.97133755e-02, 6.36633784e-02, 3.46540511e-02,
       1.36453724e-02, 2.16571130e-02, -9.95902717e-03, 5.15954569e-03,
       -1.40263122e-02, -2.78765280e-02, 1.27097010e-03, 6.12184079e-03,
       2.36044768e-02, 4.08759676e-02, 3.05392779e-02, 2.42041387e-02,
       9.82680451e-03, 1.91562567e-02, -4.60640527e-03, 2.35456582e-02,
       1.59104317e-02, -8.00834689e-03, 4.81440909e-02, 1.39925694e-02,
       4.01102528e-02, -2.71627940e-02, 1.17367692e-02, 4.17983346e-02,
       -7.80549645e-03, -1.31555796e-02, 2.34953202e-02, 5.17148115e-02,
       6.50543645e-02, 5.87453879e-02, -2.54989117e-02, -1.14566414e-02,
       -2.71795783e-02, 1.19083310e-02, 5.20080812e-02, 5.39472029e-02,
       3.00366916e-02, -2.68608797e-02, -8.62100627e-03, 1.11854011e-02,
       -8.89992248e-03, -3.53694372e-02, -3.79954949e-02, 5.79579314e-03,
       1.55643616e-02, -2.94180866e-02, -1.23906583e-02, -3.30559351e-02,
       -3.96225266e-02, -7.96593800e-02, 1.81701471e-04, 7.05985876e-04,
       -9.55064595e-03, -1.62049644e-02, 2.79146843e-02, -8.71756487e-03,
       9.13379807e-03, -5.94836324e-02, -1.99813396e-02, 7.76167540e-03,
       1.18620386e-02, -3.90506610e-02, -1.82850973e-03, 6.01427443e-02,
       1.87861058e-03, -1.08717224e-02, -4.35902700e-02, -3.43517400e-02,
       -1.27773043e-02, -5.58663439e-03, -1.88917350e-02,
       -7.09679443e-03, 5.79273589e-02, 2.50997348e-03, 4.59575793e-03,
       -1.68317091e-02, -2.27044132e-02, -2.17598886e-03, 1.85769219e-02,
       -8.18248093e-02, -1.57370586e-02, -1.34827895e-02,
       -1.06307203e-02, -1.09032085e-02, -2.65004169e-02,
       -3.43411230e-02, -1.32074263e-02, -9.68269631e-03,
       -8.93476233e-03, 2.40409728e-02, -3.54248798e-03, -4.42453511e-02,
       2.39063823e-03, -4.48753275e-02, 1.70176197e-02, 1.88117527e-04,
       -7.45929638e-03, 2.03067511e-02, -1.66451838e-02, -2.57557537e-03,
       2.63679288e-02, 3.97510827e-03, -1.14978887e-02, 1.88635271e-02,
       5.10601203e-05, 3.30712162e-02, -6.23821691e-02, -3.40862237e-02,
       -1.17974158e-03, 7.67951226e-03, 1.04137463e-02, 1.56863388e-02,
       8.76433123e-03, 3.53192957e-03, 5.06247208e-03, -3.02713867e-02,
       2.41264366e-02, 2.49157418e-02, 1.81938931e-02, -8.42444861e-05,
       -3.56812850e-02, 3.06236781e-02, 8.38978216e-03, 1.87700484e-02,
       2.42349356e-02, -2.38281637e-02, -2.04559490e-02, -6.57701911e-03,
       4.28219978e-03, -8.20963923e-03, -1.18776485e-02, -1.06418170e-02,
       -3.88888381e-02, -8.10969062e-03, -3.67083400e-02, 3.40500958e-02,
       2.88387053e-02, 8.36498861e-04, -1.70214716e-02, 1.80051886e-02,
       9.52933263e-03, -8.80194549e-03, -4.85607097e-03, 1.77696869e-02,
       -2.23108809e-02, -7.15501308e-02, -5.10402918e-02,
       -4.14147228e-02, -8.13257694e-03, 1.05304236e-03, -2.18612142e-02,
       -2.17881729e-03, 4.45497893e-02, 5.64800529e-03, 3.13972123e-02,
       -2.11839695e-02, -5.06968796e-02, 3.01978290e-02, 2.73446999e-02,
       5.00649796e-04, 3.47327963e-02, -2.32549142e-02, 5.50540611e-02,
       4.18154448e-02, -1.03895646e-03, 1.06664551e-02, -1.87279731e-02,
       -9.73186828e-03, 5.68201812e-03, -1.86074991e-02, 1.12879211e-02,
       2.23901272e-02, -1.33513976e-02, -8.92340206e-03, 2.89678480e-03,
       3.29507724e-03, 6.25094911e-03, -9.10172588e-04, 1.87010653e-02,
       2.51096021e-02, -1.99240819e-02, -2.19469797e-02, -2.18281019e-02,
       -3.50875519e-02, -4.36168946e-02, 2.55617109e-04, -2.50022989e-02,
       4.79173325e-02, -1.27769457e-02, -1.68236643e-02, -2.44753528e-02,
       2.29803612e-03, -5.99351004e-02, 1.18496642e-02, 1.81375034e-02,
       1.61968432e-02, 2.18944531e-03, 9.16325301e-03, 3.95442359e-02,
       4.62694559e-04, 6.88792393e-03, 3.29711586e-02, -4.32192441e-03,
       -6.28101081e-03, 3.67448889e-02, 5.49555607e-02, 1.32684149e-02,
       4.59209271e-02, -2.11349186e-02, -1.66720152e-02, -8.30092095e-03,
       1.28511703e-02, 2.89396979e-02, 1.45018110e-02, 5.11727743e-02,
       -9.34678596e-03, 7.40657607e-03, -1.94934644e-02, 3.01498976e-02,
       -1.50672169e-02, -2.61612982e-02, -6.33875653e-03, 1.93970706e-02,
       3.56166773e-02, 7.54205184e-03, -9.25303437e-03, -3.14423107e-02,
       -5.93657866e-02, -1.80768017e-02, 9.25774034e-03, -1.75112281e-02,
       3.61550637e-02, 1.41514034e-03, 1.11063598e-02, 5.72553091e-02,
       1.63453503e-03, 1.19336834e-02, 1.16000911e-02, 1.79445092e-02,
       -3.53983380e-02, -3.48540619e-02, 3.65388840e-02, 6.25896268e-03,
       3.57250422e-02, -2.92090252e-02, 4.67676637e-06, -1.14093125e-02,
       -7.99276773e-03, 4.40107333e-03, 4.68827225e-02, 1.99628044e-02,
       9.54479165e-03, 1.15131177e-02, -2.13271603e-02, -2.41515134e-02,
       4.92074899e-03, 2.08452027e-02, 2.03371830e-02, 6.24755444e-03,
       1.09417411e-02, -6.59554452e-03, 1.86171513e-02, -1.55570656e-02,
       -3.32702845e-02, 3.87336798e-02, 1.21541517e-02, -3.59157547e-02,
       1.99159142e-02, 4.78056259e-02, 1.68097727e-02, 1.32571328e-02,
       2.57140249e-02, -7.64458580e-03, -1.36020752e-02, 1.41984671e-02,
       2.41079479e-02, -2.34776940e-02, 2.05136631e-02, 3.15328799e-02,
       -1.17234085e-02, -3.13360221e-03, 1.24079790e-02, -3.03298770e-03,
       1.17857673e-03, -1.77838095e-02, -4.81110532e-03, -4.68183309e-03,
       -4.53227758e-03, -2.33291183e-02, 1.26102008e-02, -2.91239433e-02,
       3.59613150e-02, 2.85597723e-02, 2.32645422e-02, 3.39587480e-02,
       -5.43284463e-03, -3.58886681e-02, 4.03073570e-03, -4.02051471e-02,
       2.45811380e-02, 5.41962199e-02, -6.41208189e-03, 1.46018285e-02,
       -1.68096777e-02, 4.43931781e-02, 7.58282188e-03, 8.37709382e-03,
       1.40014000e-03, -1.49444798e-02, -1.85849220e-02, -3.61636393e-02,
       3.06043234e-02, -1.54410563e-02, 1.55546675e-02, 1.11307204e-02,
       -2.12925095e-02, 3.50568779e-02, 2.64071040e-02, 5.64890401e-03,
       7.15589430e-03, 4.00187401e-03, 1.14574814e-02, 4.32243943e-02,
       -5.94807044e-02, 4.38258946e-02, -4.25945595e-02, -1.81563925e-02,
       1.34695217e-03, 5.38264122e-03, 2.52679400e-02, 5.80286980e-02,
       -2.03677360e-02, 4.59242947e-02, -2.85534351e-03, 2.63129082e-02,
       1.89324711e-02, 9.32143442e-03, -5.83316572e-02, 5.80020482e-03,
       4.35750047e-03, 2.86384318e-02, 3.96290012e-02, -1.22750029e-02,
       4.81388047e-02, 2.18105372e-02, -1.21416086e-02, -3.34701017e-02,
       -7.15962471e-03, -2.26860903e-02, 3.52403848e-03, -1.97973363e-02,
       5.00848778e-02, 3.40509713e-02, 3.49458493e-02, 5.43315010e-03,
       -1.10621499e-02, 1.53085366e-02, 1.40772676e-02, 6.71177916e-03,
       4.72885631e-02, -3.14787822e-03, 4.79616374e-02, -6.30549155e-03,
       -3.50975804e-02, 4.07425836e-02, 4.85343672e-02, -7.78246019e-03,
       1.43197449e-02, 2.96184700e-02, 4.82920259e-02, 1.45005649e-02,
       3.15589420e-02, 3.11946869e-02, -4.98333164e-02, -1.03936009e-02,
       1.03796981e-02, 2.87812836e-02, -1.21856295e-02, -2.67750490e-03,
       1.86955128e-02, 3.86445299e-02, 4.74715699e-03, -5.46137691e-02,
       -2.50430629e-02, 1.37662170e-02, -2.67019905e-02, 4.21057036e-03,
       1.90847646e-02, 1.61738154e-02, 1.17567359e-02, -1.27097433e-02,
       3.39790359e-02, 4.40201014e-02, 4.42169495e-02, -7.08492380e-03,
       2.44421996e-02, -3.00177671e-02, -7.18707591e-03, 1.06205242e-02,
       4.60651889e-03, 6.23081950e-03, 3.90590355e-02, 1.98409650e-02,
       6.96087852e-02, -5.83175104e-04, 5.17459475e-02, 3.96653004e-02,
       6.98401779e-03, 6.23253845e-02, -4.29017693e-02, -2.32359692e-02,
       1.15637351e-02, 1.32908933e-02, -1.32361464e-02, -1.35878790e-02,
       -1.67601835e-02, 1.66740045e-02, -6.46972330e-03, -2.22061668e-02,
       -1.19250389e-02, 1.29742958e-02, 4.30448586e-03, -1.50909731e-02,
       3.88294272e-02, 2.46157814e-02, 1.04116332e-02, -2.36692261e-02,
       -1.54652409e-02, 6.56471252e-02, 7.78790563e-02, 7.80191123e-02,
       -3.04491725e-02, 5.55748902e-02, 5.65183861e-03, -1.48543175e-02,
       1.76173560e-02, -3.59633639e-02, 2.46345904e-02, -4.92754243e-02,
       4.29167263e-02, -6.01749793e-02, 2.07477733e-02, 3.76387946e-02,
       1.49802295e-02, -6.07584976e-03, -1.12638175e-02, -1.14620915e-02,
       -5.11654047e-03, 1.24655757e-02, -1.59584899e-02, -3.63077875e-03,
       -1.88712534e-02, 2.22567073e-03, -1.34111326e-02, -1.51172904e-02,
       -3.69522721e-02, -3.22082313e-03, 8.05882830e-03, -6.62177149e-03,
       3.85580324e-02, 3.33324000e-02, 3.76617499e-02, -9.61180404e-03,
       -1.89627241e-02, 6.20137379e-02, 2.48643048e-02, 5.05936034e-02,
       -2.94958316e-02, 3.16373073e-02, 6.51749521e-02, 5.05792089e-02,
       2.43747029e-02, 4.51196264e-03, 3.96571904e-02, -8.22538161e-04,
       3.80601212e-02, 1.96633134e-02, 6.22888422e-03, 2.26451084e-02,
       4.06886414e-02, -7.68066011e-03, -3.04981042e-03, -1.85255054e-02,
       6.50203507e-03, 1.78146530e-02, 6.33771494e-02, 1.25023155e-02,
       -1.71250906e-02, 1.08909169e-02, -3.96788353e-03, -3.17984354e-03,
       -2.74640191e-02, -6.45729601e-02, 1.26517867e-03, 4.29734923e-02,
       -1.31947929e-02, -3.38813057e-04, -1.62372496e-02,
       -2.84170564e-02, 3.03609688e-02, 3.66372615e-02, 3.48050743e-02,
       6.31452426e-02, 5.15015461e-02, -1.11604426e-02, 8.44442658e-03,
       2.43213493e-02, 1.54160270e-02, -4.00942676e-02, -1.58377867e-02,
       3.68275493e-02, 5.14726304e-02, 7.75484070e-02, 2.81511596e-03,
       -2.97000278e-02, -1.77635681e-02, -7.14364201e-02,
       -5.99450134e-02, -2.53826715e-02, -2.63690427e-02,
       -2.50612069e-02, 4.50276677e-03, 6.18753247e-02, -1.52716665e-02,
       9.83088650e-03, -5.16410060e-02, -1.58786830e-02, -2.14486523e-03,
       2.68642288e-02, -7.07121491e-02, -7.47863902e-04, 2.25318670e-02,
       -5.10421656e-02, 1.49178021e-02, -3.49776410e-02, -3.93793024e-02,
       -5.28017897e-03, -3.70852686e-02, -7.31228441e-02,
       -1.19434213e-02, -1.56192798e-02, 3.92318889e-02, 1.30110122e-02,
       -2.47909334e-02, -1.41154267e-02, -1.92255210e-02, 6.45499974e-02,
       -4.21434753e-02, -3.24495770e-02, 7.63240382e-02, -8.82755313e-03,
       -1.81889441e-02, -2.63847262e-02, -6.71061641e-03,
       -3.86428880e-03, 3.51245925e-02, -4.53123115e-02, -2.56111939e-02,
       -1.48055516e-02, 3.57213925e-04, -1.18364976e-03, -1.50501560e-02,
       -9.28643998e-03, -3.81560181e-03, 7.31645618e-03, -2.13711448e-02,
       1.32991942e-02, 1.43799642e-02, -1.89642329e-02, -4.61445190e-03,
       -4.90365364e-02, -9.34808690e-04, -7.30521511e-03, 2.20027957e-02,
       -4.52767797e-02, -7.77767524e-02, -1.23318983e-02,
       -2.48230081e-02, -1.97251956e-03, -2.81727058e-03, 2.32101139e-02,
       3.90516408e-02, 6.15142845e-02, -4.02523838e-02, -1.50751751e-02,
       5.03622033e-02, 4.27365676e-02, 2.52841134e-03, -1.73255187e-02,
       2.92810556e-02, 1.73436366e-02, 1.38711790e-02, 9.37016495e-03,
       4.06047814e-02, -3.07984781e-02, -2.06384063e-02, -4.30470072e-02,
       -2.48186551e-02, -2.25581285e-02, -5.22786938e-03,
       -1.24200499e-02, -1.95574518e-02, 2.96411123e-02, 3.98507230e-02,
       -2.03408506e-02, -7.83096440e-03, -6.51491284e-02, 3.38985994e-02,
       2.64860168e-02, 3.84916067e-02, -2.37741079e-02, -3.16969380e-02,
       3.31698544e-02, -1.30569853e-03, -2.61488035e-02, 4.12587170e-03,
       3.76206525e-02, 4.91657890e-02, 7.55812228e-03, -5.84097207e-03,
       -3.55815887e-02, -7.25880787e-02, 3.35554145e-02, 3.50837819e-02,
       -3.32336985e-02, -3.91032640e-03, 3.93241993e-04, 6.18585804e-03,
       1.54070258e-02, 2.87281144e-02, -6.74684718e-03, -4.91472008e-03,
       -5.39357439e-02, -3.51987481e-02, -6.47198334e-02,
       -2.11636592e-02, -2.86674798e-02, 2.78211050e-02, 2.30595637e-02,
       1.21360496e-02, -5.02111344e-03, 2.97088437e-02, -6.69469908e-02,
       4.48710769e-02, 3.02026477e-02, -1.29586607e-02, 1.81771461e-02,
       -3.35711017e-02, -2.83217151e-03, -2.64270287e-02,
       -6.80118520e-03, -2.03396822e-03, -1.16485031e-02,
       -3.44525487e-03, -8.27544276e-03, 2.93602552e-02, 1.20247174e-02,
       -4.89759296e-02, 3.50537002e-02, 6.55928627e-03, -3.87556944e-03,
       -1.47996983e-02, 8.10868293e-03, 7.17218593e-03, 3.48837711e-02,
       -7.61812367e-03, 2.64088344e-03, 1.06173614e-03, 2.62168143e-02,
       -2.86765620e-02, -4.03267480e-02, -2.18771808e-02, 4.11119349e-02,
       3.60219441e-02, 1.45497778e-02, 2.68150028e-03, -3.40764113e-02,
       -2.23527867e-02, -2.85904855e-02, 1.63805392e-02, 2.85541546e-02,
       1.54991867e-03, 4.63462546e-02, 2.07460895e-02, -1.85594577e-02,
       -3.26305702e-02, -2.89091412e-02, -1.05256010e-02, 3.44407884e-03,
       8.03511217e-03, 5.63666178e-03, -7.56033417e-03, -4.92894053e-02,
       -6.85169594e-03, -1.62932258e-02, -1.33409081e-02, 2.82054245e-02,
       -4.55742255e-02, -1.68960970e-02, 5.91293685e-02, 3.36326882e-02,
       3.05502415e-02, 1.02040321e-02, -2.85700168e-02, 1.80080216e-02,
       -2.88610552e-02, -1.59949325e-02, -3.37237939e-02, 4.01246222e-03,
       2.49979272e-02, 3.62128811e-03, 9.98218916e-03, -4.16716412e-02,
       -3.31845395e-02, 8.46871058e-04, 2.10850444e-02, 3.59424502e-02,
       4.37009260e-02, 2.63003237e-03, -3.68814729e-02, 6.59657409e-03,
       6.49189949e-03, -3.77400755e-03, 3.41660269e-02, 2.69789081e-02,
       1.82562303e-02, 1.18776402e-02, 6.70916364e-02, -2.16545258e-02,
       1.60983410e-02, -3.84536572e-02, 5.98955993e-03, -8.48403759e-03,
       -1.49275810e-02, -3.61013450e-02, 1.29864812e-02, -8.12718179e-03,
       4.84769419e-03, -8.29139072e-03, -1.50305554e-02, -1.73545759e-02,
       1.96939781e-02, 1.59882791e-02, -5.50240465e-03, -2.08230093e-02,
       1.81079358e-02, -1.35719422e-02, 2.30759289e-02, 8.11087061e-03,
       -1.83780976e-02, 9.01609100e-03, 3.56954820e-02, 1.78465117e-02,
       5.52570168e-03, 4.56661768e-02, -3.53499241e-02, -1.31572713e-03,
       -2.39438303e-02, 3.93697433e-02, 3.86713110e-02, 2.20059324e-02,
       -1.53740589e-02, 2.70976275e-02, 1.11182583e-02, -5.53828431e-04,
       3.07188220e-02, -5.64369448e-02, -2.88794911e-03, 5.45047829e-03,
       -3.74234514e-03, -2.37613451e-02, -1.59691088e-02, 2.69319806e-02,
       -4.19435389e-02, 3.52474116e-02, 5.21127251e-04, -3.31567153e-02,
       -8.01503658e-03, -2.50330493e-02, -4.98591177e-03, 2.31582974e-03,
       -5.18887229e-02, 1.93929262e-02, -8.03773943e-03, 2.77161207e-02,
       1.26755738e-03, -2.50851270e-02, 1.36788087e-02, -2.31493469e-02,
       8.87519121e-03, 4.70596142e-02, -2.54766587e-02, 4.14080881e-02,
       -4.99399491e-02, -3.12216785e-02, 2.53827702e-02, 3.00376471e-02,
       1.89885069e-02, 2.43246667e-02, -2.37907488e-02, 1.76802613e-02,
       3.58853713e-02, 1.66269634e-02, 3.21945027e-02, 3.14168110e-02,
       -4.72142100e-02, -2.72685522e-03, 1.90221844e-03, -2.50437651e-02,
       2.57114079e-02, -1.15474025e-02, 3.81646417e-02, -1.09975673e-02,
       -4.01401371e-02, 4.06258157e-04, 1.16739459e-02, -1.46474093e-02,
       -2.18588091e-03, -1.85972005e-02, 3.00395172e-02, 3.28810625e-02,
       5.13984310e-03, 6.77194912e-03, 1.18944887e-02, -8.54112767e-03,
       1.58264134e-02, 2.45274547e-02, 2.52925958e-02, 4.58460972e-02,
       6.01996071e-05, 1.95424408e-02, 8.64076614e-03, 3.53569873e-02,
       1.68209970e-02, 7.13171661e-02, 9.89083853e-03, 1.30318180e-02,
       -9.71598271e-03, -7.83467852e-03, 5.55929802e-02, 5.57756983e-02,
       -3.03001832e-02, -6.85991859e-03, 2.46516559e-02, -1.07142385e-02,
       -1.02157779e-02, -2.50962041e-02, -6.56110351e-04,
       -1.31441001e-02, -2.08646711e-03, -3.43261920e-02, 3.18085998e-02,
       3.23911756e-02, 5.15524894e-02, 1.67982688e-03, 5.56802899e-02,
       1.90180019e-02, -1.45188868e-02, 8.42333884e-06, 2.49901153e-02,
       1.44192968e-02, 3.41841951e-02, -4.44327854e-03, 4.50998284e-02,
       1.16284918e-02, -1.82145126e-02, 3.03224623e-02, 3.08322329e-02,
       1.39999241e-02, 1.77607138e-03, 2.43474543e-02, 4.80595045e-02,
       -2.07041781e-02, -1.31762624e-02, -1.90664902e-02,
       -9.92819108e-03, 5.87816313e-02, -4.23584469e-02, 4.34282273e-02,
       3.17602567e-02, 5.49908951e-02, 1.93424535e-03, 3.45501676e-02,
       7.13042449e-03, -3.03794667e-02, -1.46611780e-02, -3.93575989e-02,
       4.19631191e-02, -5.17973967e-04, 1.89414639e-02, -5.96365072e-02,
       2.41823401e-02, 3.10468096e-02, 1.66744739e-02, -2.34002843e-02,
       1.70910843e-02, 1.21811517e-02, 1.28622632e-02, 5.16845174e-02,
       2.13884860e-02, 1.37419738e-02, -4.19423776e-03, 1.93500519e-02,
       6.67439550e-02, -2.16196179e-02, 4.63204877e-03, -4.64516133e-02,
       1.69741102e-02, -1.35456696e-02, -2.91626640e-02, 1.60469599e-02,
       -3.12365256e-02, 1.63029917e-02, -1.97990201e-02, 3.41493674e-02,
       2.68491986e-03, 1.27941435e-02, -6.73080469e-03, -1.96172134e-03,
       4.94117662e-02, 4.04212959e-02, -7.27381418e-03, 2.07094643e-02,
       2.55001970e-02, 9.90818371e-04, 5.44833094e-02, 3.79869156e-02,
       1.45527376e-02, 2.10482497e-02, 4.57844511e-02, 2.19464255e-03,
       -1.37775065e-02, 2.82020923e-02, 1.87038239e-02, 2.58646533e-02,
       -1.15545397e-03, -4.11370657e-02, 3.84555720e-02, 2.46193148e-02,
       3.24728824e-02, -1.59360915e-02, 1.03823310e-02, -2.91800825e-03,
       -2.49563511e-02, -2.35313103e-02, -2.02042907e-02,
       -2.19868999e-02, -1.04336981e-02, 1.65594351e-02, 2.63843387e-02,
       1.27517979e-03, -2.10494874e-03, 3.89639810e-02, 2.44334377e-02,
       5.82323642e-04, 3.22978571e-02, 2.04271916e-02, 1.34554217e-02,
       -2.49937735e-02, -1.82962306e-02, 2.63051316e-02, 7.20404834e-02,
       6.37023225e-02, -2.39322428e-02, -3.15076336e-02, -1.68598201e-02,
       -4.97963689e-02, 5.53520117e-03, 3.01382151e-02, -1.55318202e-02,
       -1.97422206e-02, -1.00377556e-02, -4.06312793e-02,
       -1.01551088e-02, -1.93201844e-02, 2.46999916e-02, -3.65983881e-02,
       3.56106274e-02, 1.23061249e-02, 5.74654005e-02, 3.01422197e-02,
       4.14322577e-02, 4.81486088e-03, -5.17566353e-02, -4.43645716e-02,
       -5.69708832e-02, -1.57839451e-02, -4.25148793e-02,
       -6.43451139e-02, 9.80056357e-03, 5.52243832e-03, 5.60961999e-02,
       -7.91915692e-03, -3.50431129e-02, -1.73503887e-02,
       -6.80676568e-03, 2.75814421e-02, -3.85512933e-02, -4.01226841e-02,
       4.77102585e-02, 1.75810158e-02, -2.81925909e-02, -4.42094840e-02,
       -1.18910624e-02, -1.13773262e-02, -4.03530449e-02,
       -3.66595164e-02, 2.57538855e-02, 5.20911589e-02, 2.41396148e-02,
       -1.87425055e-02, -4.86144572e-02, 6.43678475e-03, 2.71074567e-02,
       3.90818268e-02, 4.24448954e-04, -1.98782180e-02, 5.85918017e-02,
       3.75445634e-02, -2.11346000e-02, -2.19762009e-02, -1.54984398e-02,
       -6.30009547e-03, 2.92027183e-02, -4.55079302e-02, -5.24361394e-02,
       1.81795042e-02, -3.23779415e-04, 1.26968604e-02, -1.06828539e-02,
       1.69630125e-02, 1.92322135e-02, 3.08586098e-02, -3.74074690e-02,
       -5.67304157e-02, 3.77165638e-02, 3.34752351e-02, 3.52312252e-02,
       -2.53827516e-02, 1.02146133e-03, -4.87793563e-03, 3.00380448e-03,
       -1.42917857e-02, -1.34958709e-02, 1.91339198e-02, -5.14776483e-02,
       -3.20775211e-02, -2.51840074e-02, -2.03435495e-03, 5.59488609e-02,
       3.86023000e-02, 2.86568347e-02, -2.07251925e-02, -1.57966856e-02,
       4.74040210e-02, 3.17371674e-02, 6.86038518e-03, 1.53573472e-02,
       1.44017674e-02, 3.00779007e-02, -2.08963770e-02, 5.89859486e-03,
       1.09942136e-02, 5.88050671e-02, -1.61530115e-02, -9.75986384e-03,
       1.32052479e-02, 7.77426548e-03, -1.62728801e-02, -2.25039925e-02,
       2.74700690e-02, -3.71132307e-02, -3.96088837e-03, 5.83817437e-02,
       -2.51498576e-02, 7.15146447e-03, 3.91175747e-02, 4.19243388e-02,
       4.15028855e-02, 1.09285628e-02, 2.48246547e-02, 5.43165999e-03,
       -6.66031241e-03, -3.62314656e-03, 1.90050527e-02, 1.82026289e-02,
       6.46279310e-04, -9.48373135e-03, 5.04632527e-03, -4.37743776e-02,
       -6.04885519e-02, 3.28196213e-02, 2.53377818e-02, 1.28871482e-02,
       1.05324704e-02, -1.97387338e-02, 1.50795942e-02, -4.51011909e-03,
       -8.40692408e-03, 2.67578550e-02, 1.17986323e-02, -7.10078049e-03,
       -2.14171596e-02, -1.16361929e-02, -2.61390116e-02, 6.92919828e-03,
       -2.93635414e-04, -1.46835530e-02, 5.69434017e-02, -1.22857350e-03,
       1.27336914e-02, 2.15346459e-02, 9.54256207e-03, -6.24988414e-03,
       1.05035324e-02, -1.93021819e-02, -1.60819385e-02, -5.11874445e-02,
       -1.54795777e-02, 1.99936479e-02, -8.26406234e-04, 3.54830921e-02,
       2.67888084e-02, -4.52129059e-02, -1.17659401e-02, 1.94369238e-02,
       2.02252530e-02, 9.50569101e-03, 3.81159484e-02, -1.94777697e-02,
       -4.47386410e-03, -8.94063804e-03, 3.96091826e-02, 2.68391017e-02,
       -2.88983863e-02, 2.44379789e-02, 2.38718465e-02, -1.85306817e-02,
       -2.21690945e-02, -1.87397730e-02, -2.31949743e-02,
       -6.69986289e-03, -5.38576283e-02, 2.78812647e-03, 8.34996104e-02,
       -6.60594692e-03, 3.36640626e-02, -2.59928051e-02, -1.52022867e-02,
       -6.73916843e-03, -4.50339764e-02, 1.59337949e-02, 3.14074866e-02,
       -3.13090421e-02, -2.30806042e-02, 1.86113399e-02, -1.00591565e-02,
       -3.19708362e-02, -1.28058270e-02, -4.38412093e-02,
       -2.49874331e-02, 3.02112196e-02, -9.36501194e-03, 2.39607748e-02,
       -2.60494277e-02, -2.40232795e-02, -9.86830983e-03, 7.93211348e-03,
       2.96104816e-03, -2.37105358e-02, 9.80223157e-03, 1.99054647e-02,
       2.48689484e-02, 3.40703093e-02, -2.44576787e-03, -1.28867552e-02,
       -9.04926192e-03, 6.71918392e-02, -2.44507920e-02, -1.12064444e-02,
       -2.33916342e-02, 2.10358854e-02, -9.35283303e-03, 1.95561489e-03,
       -2.79389787e-02, 4.69399197e-03, -4.89896052e-02, 5.71474712e-03,
       7.32761575e-04, -3.39794643e-02, -6.01707213e-03, -7.73669267e-03,
       3.72797996e-02, 1.96739510e-02, 3.73597234e-03, 3.53414603e-02,
       -4.38680351e-02, 3.09799705e-03, -3.61300595e-02, -5.16306516e-03,
       -3.36617716e-02, -1.02327801e-02, -3.25325839e-02,
       -1.88286044e-02, 2.73663662e-02, -1.96723174e-02, -2.11899132e-02,
       -1.15132378e-02, 1.01419026e-02, 2.40772050e-02, -1.87701117e-02,
       -1.22787394e-02, 8.65947269e-03, 4.01305258e-02, 6.62602717e-03,
       3.12569104e-02, -4.27765027e-02, -2.06993055e-02, -8.30817316e-03,
       2.92773880e-02, 2.42373310e-02, 1.96910799e-02, 2.72087958e-02,
       -5.11901490e-02, -2.39418205e-02, -3.56227607e-02,
       -5.69429854e-03, -4.89255264e-02, 6.20845100e-03, 3.28926067e-03,
       1.61579363e-02, -4.11513858e-02, -4.10931967e-02, -2.32714862e-02,
       -2.36709844e-02, 1.03360470e-02, -2.71029901e-02, -8.42468534e-03,
       -1.97726879e-02, 3.55196977e-03, 4.62249629e-02, -2.81423479e-02,
       1.73957683e-02, -4.39734682e-02, -2.90950108e-02, -5.68117807e-03,
       2.29477119e-02, -6.92392141e-03, -8.32412578e-03, -7.31397979e-03,
       2.77921427e-02, -7.60790380e-03, -1.79461613e-02, -2.71085562e-04,
       -3.13287713e-02, -1.33226253e-02, -1.00887744e-02, 1.89774670e-02,
       -9.61411092e-03, -6.71933591e-02, -2.27461406e-03,
       -2.21508816e-02, -1.46998279e-02, -2.76225079e-02, 2.00243425e-02,
       1.92970801e-02, -4.34557311e-02, -2.72445083e-02, -2.62210090e-02,
       -7.78545626e-03, -1.56484786e-02, 4.02843915e-02, 6.12346083e-02,
       2.04325113e-02, -1.29052559e-02, -3.13814469e-02, 2.05967985e-02,
       3.18952352e-02, 1.53381545e-02, -8.02392885e-03, -2.25104131e-02,
       -4.09115367e-02, 9.63449478e-03, -2.31116991e-02, 1.80678256e-02,
       -1.29582919e-02, 4.44908068e-02, -6.57252688e-03, -2.11418699e-02,
       1.53199434e-02, 1.70523264e-02, 1.55730760e-02, -7.91058503e-03,
       -2.25808169e-03, -9.65075660e-03, 1.26953135e-04, -1.53247984e-02,
       -3.00362445e-02, 2.03690212e-02, 3.88677940e-02, 1.17498813e-02,
       -4.56185378e-02, 4.16736268e-02, 2.87716202e-02, -6.00581691e-02,
       2.49038474e-03, 8.02504644e-03, 3.86278480e-02, 5.17865419e-02,
       -5.47781447e-03, -2.75396761e-02, 8.95442441e-03, 1.58481784e-02,
       6.16303496e-02, -1.77733484e-03, -3.06193884e-02, 1.64662115e-02,
       -6.23945938e-03, -1.04514034e-02, 7.67925940e-03, 6.03275280e-03,
       6.19022250e-02, -4.24834900e-03, -7.95558933e-03, 6.78267283e-03,
       -3.29422466e-02, 7.95093179e-03, 1.26518914e-02, -3.15019265e-02,
       2.90683713e-02, 3.48992087e-02, 3.56477103e-03, 2.19502095e-02,
       -2.86504757e-02, 1.62167028e-02, 4.10226882e-02, 3.63133922e-02,
       -4.79269288e-02, 6.24556653e-02, -5.97954774e-03, -3.70952263e-02,
       -3.18243429e-02, -3.28274854e-02, 1.94514717e-03, 4.02397700e-02,
       -1.77384224e-02, 2.96160020e-02, 3.21277007e-02, 7.34215379e-02,
       1.42880520e-02, 5.78901358e-03, 1.36985499e-02, 2.30572606e-03,
       1.04898429e-02, -2.89074630e-02, -6.20458834e-03, -2.23357584e-02,
       1.42579190e-02, -2.77374173e-03, -2.25297417e-02, 1.55147370e-02,
       -1.95277017e-02, -3.15484288e-03, 4.02281955e-02, -1.99615695e-02,
       4.88417260e-02, 3.15652341e-02, -1.60631221e-02, 2.86427583e-03,
       -2.10917462e-02, 2.68181227e-02, 5.04402518e-02, -2.06073541e-02,
       -7.97862094e-03, -2.40969914e-03, -1.13894101e-02,
       -1.87121108e-02, -8.73334613e-03, -2.15835683e-02,
       -7.01267086e-03, 3.92913446e-02, -3.30442451e-02, 5.89656783e-03,
       -9.25772171e-03, -2.01252289e-03, -9.49387439e-03,
       -3.27626653e-02, 4.51964438e-02, 3.62187345e-03, 6.12724293e-03,
       -2.98579759e-03, -7.77303590e-04, 6.36161165e-03, -1.28698293e-02,
       3.32718133e-03, -1.47176199e-02, -2.21574353e-03, 8.52345675e-03,
       2.02894919e-02, -9.81099159e-03, -6.58342848e-03, 4.03869450e-02,
       -2.49866722e-03, -5.81979286e-03, -1.85082890e-02,
       -2.32751970e-03, 3.17250602e-02, 6.88956380e-02, 1.37001760e-02,
       1.85368781e-03, 2.52074618e-02, -5.95236719e-02, 2.76516341e-02,
       1.52355041e-02, -2.62292884e-02, -2.92494185e-02, 3.36206220e-02,
       -4.23983019e-03, -1.94715485e-02, -1.81899723e-02,
       -1.63723640e-02, 7.26519339e-03, -3.86433527e-02, -5.43112634e-03,
       -1.33174686e-02, 8.46955553e-03, -3.41345258e-02, 2.09524278e-02,
       3.23449038e-02, 8.80020410e-02, 5.44331074e-02, 3.02828476e-02,
       -7.77146500e-03, -5.90506010e-02, -5.28180338e-02, 8.52182973e-03,
       3.33133861e-02, 2.04292219e-02, -1.89678501e-02, 7.05553684e-03,
       1.52090192e-03, -3.08645368e-02, -4.53906804e-02, 2.15646792e-02,
       -3.85009460e-02, 2.61961762e-03, -2.85500754e-02, 3.64155993e-02,
       2.68390551e-02, 7.34913498e-02, 1.90779865e-02, -2.82826331e-02,
       -1.49570340e-02, -6.88218838e-03, -1.97985247e-02,
       -3.68370265e-02, -1.13985604e-02, 5.12563884e-02, 8.47021788e-02,
       5.14940396e-02, 1.17086312e-02, -2.70873532e-02, 2.06692796e-02,
       -1.50818788e-02, -8.49969778e-03, -5.21893939e-03,
       -1.53759848e-02, -4.53909859e-03, 3.72192524e-02, -6.79049790e-02,
       -1.70593634e-02, -2.52993149e-03, 1.25030079e-03, 6.55212207e-03,
       -3.17230299e-02, 3.98683287e-02, 4.43186946e-02, 7.71524161e-02,
       -1.48272999e-02, -2.72310153e-02, -2.78126616e-02, 2.99009006e-03,
       2.82536279e-02, -2.55653132e-02, 4.94222455e-02, 1.14437295e-02,
       -1.62659436e-02, 3.54276299e-02, -1.98796615e-02, 1.92440897e-02,
       -8.04722484e-04, 5.97203569e-03, -8.22864752e-03, -9.12105944e-03,
       4.00296897e-02, 6.58998592e-03, -2.49174293e-02, -2.56112367e-02,
       2.35669538e-02, 4.45017926e-02, 6.61047697e-02, 1.99553519e-02,
       6.84167445e-03, 1.13663021e-02, 4.50758561e-02, 2.82935426e-03,
       2.47865170e-02, -1.10215740e-02, 2.96366168e-03, 8.36242363e-03,
       -4.24217917e-02, 5.52738421e-02, 3.87850553e-02, -1.18948286e-02,
       8.61836970e-03, -4.83358204e-02, -6.85677817e-03, -4.09602467e-03,
       6.68764953e-03, 3.87713537e-02, -2.54810415e-03, 1.09352265e-02,
       -2.04499289e-02, 5.90327419e-02, 7.13361567e-03, 1.02071119e-02,
       2.43979972e-02, 5.32314815e-02, 2.03596912e-02, 2.43467297e-02,
       3.47640328e-02, 2.91943587e-02, 1.11576105e-02, -5.36606601e-03,
       5.16799651e-02, -1.10457679e-02, 9.08074342e-03, 9.60554276e-03,
       5.21965250e-02, -2.84518804e-02, -2.99960375e-02, -1.82941761e-02,
       3.20345350e-02, -6.34852238e-03, 1.03180064e-02, 2.44195736e-03,
       8.05511326e-03, 2.75347643e-02, 4.45898697e-02, -1.09194946e-02,
       6.61256537e-02, 1.37172581e-03, -6.45881286e-04, 1.41107235e-02,
       1.32184308e-02, 1.82502680e-02, 8.62664171e-03, 2.33224034e-02,
       1.14103369e-02, 4.28866930e-02, 5.05864173e-02, 2.80175358e-02,
       2.12896755e-03, 1.31384786e-02, 3.10972016e-02, 1.96584109e-02,
       -9.53939091e-03, -1.98901109e-02, 4.36556451e-02, 2.29697842e-02,
       1.94453821e-02, -3.52338678e-03, -2.24291580e-04, -5.53631485e-02,
       -1.83893298e-03, 2.75074206e-02, 9.52592194e-02, 3.50813754e-02,
       7.27950856e-02, 1.84848122e-02, -2.93079857e-02, -6.05133967e-03,
       1.06215114e-02, -1.53035130e-02, -2.31053643e-02, -1.22559238e-02,
       3.30214836e-02, 3.79122980e-02, 3.48556577e-03, -5.03301527e-03,
       -7.39038270e-03, -3.92284952e-02, 5.45562943e-03, -1.81359369e-02,
       5.37649542e-02, 6.04493218e-03, 4.87590693e-02, 5.40505024e-03,
       -1.80072971e-02, -2.03957837e-02, -3.18302140e-02, 1.59281865e-02,
       9.99790058e-03, 1.84051543e-02, 1.74400080e-02, 4.99711223e-02,
       1.17423898e-02, 6.09499076e-03, 2.41665146e-03, -6.11691587e-02,
       -5.26975244e-02, 4.24710363e-02, 4.92688455e-02, 1.98721085e-02,
       1.53771807e-02, -1.53685315e-02, -2.71162614e-02, 1.11881988e-02,
       -3.18288319e-02, -1.80062875e-02, 1.47975301e-02, 7.24699534e-03,
       -9.09450464e-03, 3.93305756e-02, -1.48084015e-02, 8.83565750e-03,
       9.70697589e-03, -2.82975901e-02, 3.15600038e-02, 2.84064258e-03,
       3.46001498e-02, -2.49517430e-02, 1.43148666e-02, -2.47523338e-02,
       -9.36425943e-03, 7.44780200e-03, -5.57941757e-02, -1.46158058e-02,
       1.62978470e-02, 1.13205221e-02, 3.75631973e-02, 3.34938131e-02,
       -3.73917958e-03, -1.71390735e-02, -8.34550883e-04, 2.43070070e-02,
       -3.94904464e-02, 6.70999056e-03, 2.64248997e-03, 1.44493105e-02,
       -2.65479856e-03, -2.13932823e-02, -6.98824087e-03,
       -2.09590956e-03, -3.75143625e-02, 1.75159834e-02, 2.10808348e-02,
       6.56647957e-04, -5.22210374e-02, 9.03660338e-03, 3.91278416e-02,
       -3.78174931e-02, 1.35645354e-02, 6.40950690e-04, -9.63892974e-03,
       2.89653544e-04, -2.32314784e-02, -3.07422057e-02, -1.00152185e-02,
       -2.02533845e-02, -1.40440939e-02, 5.73247416e-05, 1.78949852e-02,
       -7.65821431e-03, -2.79628355e-02, -4.14180011e-03, 2.37823115e-03,
       5.70534915e-03, 1.41570810e-02, -2.30594538e-02, 2.23117638e-02,
       -3.20891924e-02, -5.17699011e-02, -3.89602818e-02, 2.03565490e-02,
       2.80025210e-02, 4.56830952e-03, 3.91173922e-02, -1.83491725e-02,
       3.71560976e-02, 5.19126980e-03, 2.60526221e-03, -2.33039577e-02,
       -1.55687500e-02, -4.07117233e-02, -1.20033789e-03, 5.24258660e-03,
       -3.38006467e-02, -5.99467661e-03, 5.76663157e-03, -7.02249929e-02,
       -4.11282554e-02, -5.07336706e-02, -2.98048407e-02,
       -1.22218567e-04, -2.80408822e-02, -2.10459735e-02, 3.54874767e-02,
       -2.35193148e-02, -6.21841289e-02, -1.88900009e-02, 1.06127318e-02,
       3.56455188e-04, 5.32301562e-03, 7.09249005e-02, 8.02187156e-03,
       1.03496835e-02, 8.07693321e-03, -1.39290942e-02, -2.92760246e-02,
       -3.40686888e-02, 2.47270633e-02, 4.20589633e-02, -6.14540279e-03,
       -7.70668080e-03, 1.76203786e-03, 6.49480661e-03, -8.72331113e-02,
       -4.18519303e-02, -2.86326110e-02, -4.57438752e-02,
       -7.76684051e-03, -1.56559590e-02, 2.44321097e-02, -5.06721996e-02,
       1.64008103e-02, -3.08040492e-02, -5.51029518e-02, -2.70113559e-03,
       2.15046573e-02, 3.35448012e-02, 5.47142513e-02, -3.21602151e-02,
       -5.61624533e-03, 9.54494625e-03, 6.97140815e-03, -2.89429240e-02,
       -6.18126728e-02, -1.17839649e-02, 1.44858481e-02, 7.02072773e-03,
       -4.60651256e-02, 4.33159433e-02, 1.98544264e-02, -4.56137098e-02,
       -6.15528459e-03, -1.15615977e-02, 2.59590484e-02, 3.36410590e-02,
       -4.06575017e-02, 3.27669941e-02, -5.47055993e-03, 3.82255740e-03,
       -3.81495208e-02, -4.01302651e-02, -1.43469125e-02, 1.01778796e-03,
       3.37790288e-02, -9.28546302e-03, -1.95405036e-02, 9.49607790e-03,
       2.42095944e-02, -2.02160720e-02, 9.40039009e-03, -9.61837545e-03,
       3.57554741e-02, 3.30541655e-02, -1.43916728e-02, -2.71790791e-02,
       3.22094909e-03, 3.10984142e-02, -1.24629512e-02, 9.12531186e-03,
       -3.18345502e-02, 6.34463795e-04, 2.41399817e-02, 9.11581796e-03,
       -5.32013588e-02, 3.50149460e-02, 3.42610180e-02, -1.79011505e-02,
       -2.54369304e-02, -1.12589551e-02, 1.94917601e-02, 1.84784960e-02,
       -6.63737883e-04, -1.86060643e-04, 1.48092117e-02, 6.11531883e-02,
       -9.17317811e-04, 7.29604810e-03, -4.22548391e-02, 6.52152020e-03,
       3.52715328e-02, 6.98538916e-03, -3.06872670e-02, 2.14318261e-02,
       1.85788069e-02, 1.72824897e-02, -1.30384732e-02, -3.74320219e-03,
       -2.70096045e-02, -3.60564259e-03, 6.44983631e-03, -4.18943651e-02,
       3.68965901e-02, 2.54446957e-02, 9.48038418e-03, -4.04233485e-03,
       2.73275981e-03, 1.45615833e-02, 2.33563576e-02, -3.06129418e-02,
       -3.98043403e-03, 2.10478771e-02, -8.02093185e-03, -1.37694823e-02,
       -6.43385202e-03, 4.97847283e-03, -2.32034456e-03, 1.85400676e-02,
       5.07525634e-03, -2.42276974e-02, 4.38314341e-02, 1.29339509e-02,
       3.65039632e-02, 8.80747288e-03, 7.24417297e-03, -2.62901317e-02,
       1.64359133e-03, -2.69440096e-02, -2.77446751e-02, 1.24216051e-04,
       6.85243532e-02, 1.33419884e-02, 4.63275937e-03, 1.11888163e-02,
       1.63660701e-02, -6.31939713e-03, -2.50437148e-02, -5.69496304e-03,
       2.93776076e-02, 2.97782663e-02, 1.26211038e-02, -4.52987291e-02,
       1.17911659e-02, -3.62040452e-03, 6.34488137e-03, -2.51474008e-02,
       -1.30305835e-03, 3.54609191e-02, -3.75716537e-02, 3.07786074e-02,
       1.58888474e-02, -1.89250037e-02, -2.63585132e-02, 2.41313074e-02,
       -9.67487600e-03, -2.77681965e-02, 6.08332157e-02, 1.43708196e-02,
       4.03923029e-03, -2.58261021e-02, 2.48385519e-02, 1.38850780e-02,
       1.59247126e-02, 2.76636034e-02, -1.91577505e-02, -1.18521694e-02,
       -6.26537576e-02, -4.20999825e-02, 3.06392933e-04, -1.17638791e-02,
       -1.39402505e-02, 2.49749720e-02, -2.08409652e-02, 9.61326435e-03,
       -1.91480555e-02, -1.25673423e-02, 2.23645531e-02, -6.32529333e-03,
       -2.59940792e-02, -4.60883640e-02, -6.11122046e-03,
       -4.37740386e-02, -2.82499902e-02, 8.50213692e-03, 6.62626773e-02,
       6.10118248e-02, 7.36899972e-02, 6.63503073e-03, -3.54271494e-02,
       -1.92939062e-02, 6.19272999e-02, -5.15273819e-03, 3.04390751e-02,
       -1.45612229e-02, -2.08755843e-02, 1.60773322e-02, -3.26433871e-03,
       -1.79916527e-02, 4.64028865e-02, 1.35333138e-02, 1.88253503e-02,
       -4.44947556e-02, -3.24483565e-03, -2.81076413e-03, 3.24201062e-02,
       2.62704231e-02, -1.12541728e-02, 1.65829789e-02, -6.14097295e-03,
       -1.40832122e-02, -7.07804132e-03, -2.41332911e-02, 5.04858457e-02,
       4.62616347e-02, 9.11794826e-02, -1.44798250e-03, -4.73584421e-02,
       -2.64866333e-02, 6.39183680e-03, 2.29375158e-03, -2.34518945e-02,
       -1.72076921e-03, -2.09255237e-02, 2.64144503e-02, 1.32073071e-02,
       -1.50336195e-02, -2.56994721e-02, -4.41626012e-02,
       -4.78030890e-02, -4.08556312e-02, -2.15255022e-02, 3.55430096e-02,
       -3.99375074e-02, -5.35019790e-04, -5.48615828e-02,
       -1.29918195e-03, 2.16121785e-02, 3.18035297e-02, -1.43846392e-03,
       -3.84222008e-02, -1.02691241e-02, 1.26269255e-02, 1.08576538e-02,
       -1.83102973e-02, -1.70431025e-02, -5.68040297e-04, 4.89030126e-03,
       -3.55161689e-02, 9.92738293e-04, 2.43628826e-02, -1.86052769e-02,
       1.99885713e-03, -4.62029539e-02, -2.89178863e-02, -3.47471540e-03,
       2.19142120e-02, 4.33606990e-02, -2.12411880e-02, -1.77500304e-02,
       1.02273673e-02, -3.35572148e-03, 2.81291343e-02, 2.45004543e-04,
       3.53244692e-02, 2.17270125e-02, -2.46729422e-02, -9.11279861e-03,
       1.50656721e-04, 2.98120510e-02, 6.36126194e-03, -2.94183996e-02,
       -7.11578317e-03, 7.24558672e-03, 3.02274060e-02, 7.07008992e-04,
       -1.23743312e-02, 3.90804224e-02, 8.49839021e-03, 4.72834781e-02,
       2.42365133e-02, -2.65107453e-02, 1.52011523e-02, 2.40568668e-02,
       2.24688705e-02, 1.21419840e-02, 5.43796234e-02, -3.78119797e-02,
       5.36461882e-02, -1.34097133e-02, 1.18111949e-02, 1.92146841e-02,
       3.25393341e-02, 5.09593934e-02, -1.86376125e-02, 4.21496946e-03,
       2.47948840e-02, -7.15049682e-04, 2.09180191e-02, -4.72991122e-03,
       1.48164574e-02, -4.16424219e-03, 7.35824069e-05, 1.77679453e-02,
       1.47217968e-02, 8.50999448e-03, 1.27152139e-02, 2.14742348e-02,
       -8.77083652e-03, -4.97311167e-03, -7.25437980e-03, 1.20951300e-02,
       1.82885565e-02, 3.80794182e-02, -1.70170225e-03, 1.75634045e-02,
       -4.17594835e-02, 1.08623849e-02, -1.95420105e-02, -1.22587092e-03,
       3.47815603e-02, 3.33980587e-03, 3.69874015e-02, -8.88850726e-03,
       5.40184826e-02, 3.84841226e-02, 2.84473300e-02, -1.82085261e-02,
       1.26674259e-02, -2.01470181e-02, 1.62637979e-02, -7.38383876e-03,
       4.28121984e-02, -1.13909971e-02, 6.14177510e-02, 2.05004718e-02,
       1.21518383e-02, -1.17375711e-02, 1.16214938e-02, 1.08409552e-02,
       -1.50446100e-02, -2.81920261e-03, 8.79026297e-03, -6.72355434e-03,
       -5.58513450e-03, -2.30020657e-02, -1.56182349e-02,
       -3.36425118e-02, -5.14155068e-03, 5.13732247e-02, 5.78627586e-02,
       6.54128799e-03, 2.59552374e-02, -2.25764345e-02, -4.01693843e-02,
       6.74460270e-03, -1.39836622e-02, -9.99339577e-03, 1.05407191e-02,
       2.44721249e-02, 2.59575527e-02, 7.57148713e-02, 6.55492768e-02,
       -9.45323519e-03, 1.36284938e-03, -3.68501339e-03, 4.60624322e-02,
       7.35200476e-04, 3.08527779e-02, 4.14851774e-03, 5.08502871e-02,
       -2.06571398e-03, 2.36299890e-03, -6.09099772e-03, -2.71056034e-02,
       -2.09860485e-02, 2.37300247e-02, 1.02347415e-02, 9.91782080e-03,
       -6.17948547e-03, -4.74694557e-02, 2.64227926e-03, 2.36222073e-02,
       3.89662082e-03, -4.09007352e-03, 4.95896116e-03, 2.19029803e-02,
       -2.61419807e-02, 2.58765910e-02, 1.82886180e-02, -4.11101133e-02,
       4.60636197e-03, -3.01834047e-02, 2.45934352e-02, -4.13155695e-03,
       5.73492283e-03, -1.18711377e-02, 3.47459614e-02, 3.31429765e-02,
       -4.89397906e-02, 1.22263199e-02, 1.53992120e-02, 3.67108034e-03,
       1.35304229e-02, -2.84319464e-02, -1.35351829e-02, -5.22265136e-02,
       -6.97685108e-02, 5.54413907e-03, -9.69873089e-03, 2.81115132e-03,
       -1.52781261e-02, 1.69207249e-02, -5.25149144e-03, -2.70054024e-02,
       -1.74609211e-03, 2.44024675e-03, 1.57458764e-02, 6.25611981e-03,
       3.56761701e-02, 3.62877501e-03, -1.87864807e-02, -2.06624717e-02,
       -2.76213903e-02, -1.01575325e-03, 2.35400870e-02, -4.62857448e-02,
       2.41288859e-02, 1.08950520e-02, 1.05642220e-02, -3.26748053e-03,
       -6.14279741e-03, -2.17785295e-02, -4.52618755e-04, 3.27401310e-02,
       -4.37298836e-03, -1.07306018e-02, -2.14961600e-02,
       -3.74035276e-02, -2.15687435e-02, -1.26761366e-02, 5.07203788e-02,
       1.22937476e-02, 1.45998262e-02, 1.73111670e-02, 4.28784117e-02,
       1.76738519e-02, 1.55822979e-03, -1.42550087e-02, -3.16463746e-02,
       -1.60065219e-02, 2.61107050e-02, -1.06259426e-02, 2.71967594e-02,
       -8.42732191e-03, -1.05527444e-02, 1.05848080e-02, -3.89840566e-02,
       -5.19208936e-03, 1.59405712e-02, 4.41202559e-02, -1.50070665e-02,
       6.42615091e-03, 1.28697157e-02, 1.76244471e-02, -5.18753827e-02,
       -4.24660817e-02, -5.56467567e-05, 3.82203534e-02, -1.90130379e-02,
       4.04871292e-02, 4.56765853e-02, -8.24713614e-03, 1.94598548e-02,
       -1.37793901e-03, -1.78735033e-02, 9.98153351e-03, 4.31011617e-02,
       7.54211470e-02, -2.50683073e-03, 3.31906080e-02, 7.89367873e-03,
       4.23399778e-03, -2.44263634e-02, -2.66902335e-02, 1.14195487e-02,
       1.19254808e-03, 5.22530004e-02, -1.50820697e-02, -2.14282088e-02,
       2.24214084e-02, -3.04880757e-02, -8.73927027e-03, -4.29466479e-02,
       -2.22902633e-02, 2.24742442e-02, 1.24717504e-02, -1.80414170e-02,
       3.07451449e-02, 2.03685760e-02, 2.69754399e-02, -1.05689960e-02,
       -2.78820209e-02, -7.39903236e-03, 1.44307697e-02, 4.49710228e-02,
       9.61470068e-04, 3.28397825e-02, 9.75678954e-03, 4.19853106e-02,
       2.61143199e-03, 3.71141620e-02, 6.56620739e-03, 2.29794793e-02,
       2.12137084e-02, -3.43545713e-02, -7.15750642e-03, 5.26811667e-02,
       -4.32263687e-03, -1.72136724e-02, -2.34931558e-02,
       -2.32858062e-02, 4.31291200e-03, 1.42505383e-02, -1.37400916e-02,
       -5.57137281e-02, -1.12385117e-02, -1.62618083e-03,
       -2.67406516e-02, -5.81515720e-03, -2.95499377e-02,
       -8.90576094e-03, 4.84597776e-03, -1.53857432e-02, 2.31365729e-02,
       1.43833249e-03, 1.83792189e-02, 4.51981425e-02, 2.70276945e-02,
       -1.59208570e-02, 4.73182090e-03, 7.57781137e-03, -1.96823701e-02,
       -2.67875269e-02, 5.46252131e-02, 2.55448744e-02, 2.78906226e-02,
       -1.23359524e-02, 4.47179191e-03, -3.54175009e-02, -5.19495457e-03,
       -8.92740267e-04, -1.77474637e-02, -2.59750290e-04, 8.30562785e-03,
       1.61054432e-02, -1.61775909e-02, -2.98241321e-02, -3.83207016e-03,
       2.37559173e-02, -2.48538586e-03, -3.68958630e-04, 4.59359074e-03,
       6.71272501e-02, 2.45379712e-02, -7.90666556e-04, 8.99550784e-03,
       -4.21309564e-03, 6.56665117e-03, -2.32182589e-04, -5.99052571e-02,
       6.73141889e-03, -1.36588318e-02, 5.55855930e-02, -9.24535096e-03,
       1.26459878e-02, -3.69728170e-02, -6.88480039e-04, -2.74407696e-02,
       -2.44146045e-02, 3.83079052e-02, 5.52289709e-02, 2.39331345e-03,
       -1.00934179e-02, 2.76575591e-02, 1.21898009e-02, 9.34945792e-03,
       3.26343141e-02, 2.82935500e-02, -1.35727143e-02, 4.22294587e-02,
       2.63438821e-02, -1.49600720e-02, 1.78292524e-02, 1.52893597e-03,
       1.88422520e-02, -4.47178259e-02, -1.26144337e-02, 5.64803835e-04,
       8.47327150e-03, 3.82294990e-02, -1.94487162e-02, 5.00861816e-02,
       -9.02806467e-04, 1.61117651e-02, -6.28422992e-03, -1.68574769e-02,
       2.23103054e-02, 6.66641630e-04, 1.17773963e-02, -5.02309203e-02,
       2.24733241e-02, -8.76926631e-03, 3.74868372e-03, 3.66599336e-02,
       -3.82428942e-03, 3.89625207e-02, -6.01265132e-02, -4.92759496e-02,
       -3.93770519e-04, -2.19159745e-04, -1.52822444e-02, 1.39913931e-02,
       -2.37105303e-02, 7.37765338e-03, 1.82440002e-02, 1.54153481e-02,
       7.03375712e-02, -2.74375696e-02, 2.20983718e-02, -4.27970756e-03,
       1.85527913e-02, 4.14473434e-05, 2.94425292e-04, 6.59208791e-03,
       -4.25204262e-02, -3.71710025e-02, 7.10055837e-03, 1.55917592e-02,
       2.18213466e-03, 2.37781554e-03, 3.16853821e-02, 8.33509956e-03,
       1.05689829e-02, -9.42742825e-03, -1.24559170e-02, -2.69590877e-03,
       4.36611287e-03, -1.69236213e-02, 1.47468066e-02, 6.53642789e-03,
       4.71763350e-02, -2.07808521e-03, -5.11721009e-03, -1.44360792e-02,
       4.11654525e-02, 2.84667723e-02, -8.32341798e-03, 1.10133765e-02,
       3.13290744e-04, 4.68098447e-02, 7.24548660e-03, -2.05742363e-02,
       5.87321445e-03, 5.48259774e-03, 3.60432118e-02, -1.59384927e-03,
       4.67229355e-03, -2.39451360e-02, 2.76451465e-02, -2.01487020e-02,
       -1.63847171e-02, -3.84297520e-02, 8.12864490e-03, 9.36249364e-03,
       -9.95371584e-03, -5.51820807e-02, -3.61634232e-02,
       -5.47583848e-02, -6.15086891e-02, -4.63504940e-02,
       -1.33737046e-02, 3.72972041e-02, 5.60551956e-02, -9.40081943e-03,
       -6.10682294e-02, -3.81057188e-02, 3.76779139e-02, 2.53778752e-02,
       -2.86900774e-02, -2.21106708e-02, -3.01800463e-02, 4.91564088e-02,
       4.52890247e-02, -1.55432671e-02, 4.03621653e-03, -3.16150598e-02,
       -6.96215332e-02, -5.34466319e-02, -3.66037376e-02, 3.27798389e-02,
       2.83012707e-02, 1.94807481e-02, -6.82019740e-02, 3.11044883e-02,
       -8.31745472e-03, -9.57935862e-03, 2.08165348e-02, -1.75667889e-02,
       9.08948388e-03, 7.26591721e-02, -1.59109067e-02, 1.81069430e-02,
       -2.32124943e-02, 3.99384499e-02, 2.36359388e-02, -2.64104158e-02,
       -1.83237158e-02, 1.16124563e-02, 3.18280384e-02, 2.30929535e-02,
       -3.48722786e-02, -1.56469885e-02, 1.57898255e-02, 6.37067575e-03,
       1.41675128e-02, -4.76128124e-02, 5.89067023e-03, -2.24055648e-02,
       5.76731004e-02, 3.37549783e-02, 3.06685222e-03, -7.57586677e-03,
       1.09129054e-02, 8.13850947e-03, -2.70010270e-02, -4.42923717e-02,
       3.09007205e-02, -2.11489070e-02, -5.46282670e-03, -1.61609557e-02,
       2.21051853e-02, 7.15136388e-03, 1.08185085e-02, -1.98487788e-02,
       3.32765914e-02, -2.58748117e-03, 2.07211040e-02, -7.63555942e-03,
       -1.07857594e-02, 3.39734815e-02, 1.20086474e-02, 5.54794958e-03,
       1.18273897e-02, 2.30805278e-02, -1.85915641e-02, 4.32293415e-02,
       2.04508752e-02, -4.76491288e-04, 1.53857367e-02, 1.00056268e-02,
       3.11522484e-02, -2.13200059e-02, 5.70588373e-02, -4.11534011e-02,
       5.41799925e-02, -2.83047948e-02, -2.35185958e-02, 3.59483287e-02,
       2.65318863e-02, 3.72823998e-02, 2.44793389e-02, 5.00943605e-03,
       2.83982456e-02, -1.36066312e-02, -1.32527752e-02, -3.88793624e-03,
       -3.57651524e-02, -4.58898060e-02, -1.65542439e-02,
       -8.68127774e-03, -1.79047901e-02, -2.69174594e-02, 1.23900743e-02,
       -6.85148090e-02, 2.19694544e-02, 2.31064912e-02, 1.59332983e-03,
       5.83930388e-02, 8.86659790e-03, 3.82447578e-02, -2.99125127e-02,
       1.84837263e-02, -1.39098791e-02, 2.19484661e-02, -3.39634754e-02,
       -2.85316701e-03, -1.97899956e-02, 3.71952727e-02, 4.99155298e-02,
       4.49066386e-02, 1.67664513e-02, 2.01791059e-02, 1.42040420e-02,
       6.08305587e-03, -1.76412612e-02, 2.96019986e-02, -1.16780447e-03,
       -5.93918748e-03, -2.15188041e-02, -1.05426135e-02,
       -5.40162623e-02, -2.93230154e-02, -1.87083296e-02,
       -5.59022166e-02, -6.92300126e-02, -2.09812447e-02, 5.18886792e-03,
       8.74174014e-02, 2.14557592e-02, -3.22506838e-02, 1.65937562e-02,
       -1.99754573e-02, 7.31124356e-03, -2.14240956e-03, 4.07645814e-02,
       4.12576795e-02, 6.49840478e-03, 1.86767224e-02, 2.30326038e-02,
       3.57000008e-02, -2.14937404e-02, 9.38133709e-03, -1.21409735e-02,
       2.17357464e-02, 2.56153382e-02, 2.82549895e-02, 3.34316492e-02,
       4.23359722e-02, -3.73841869e-03, 7.19345454e-03, -3.67595367e-02,
       -5.72781861e-02, -1.07702501e-02, -1.00222081e-02, 8.23633969e-02,
       1.54100591e-02, -3.70830018e-03, -7.08464086e-02, 1.90345105e-02,
       -9.40484402e-04, -2.43562013e-02, -3.44911590e-02,
       -2.71920264e-02, 7.95601867e-03, -2.92606815e-03, -4.34612781e-02,
       1.31521225e-02, -2.09167637e-02, 1.18599553e-02, -2.01170500e-02,
       1.65961217e-02, 2.67031249e-02, 3.05603091e-02, 8.59295484e-03,
       3.94242294e-02, 5.96841350e-02, -3.73679698e-02, 4.65135574e-02,
       2.12129541e-02, 4.27437983e-02, 5.82757145e-02, 9.67435353e-03,
       2.92451447e-03, 2.44443044e-02, -4.32211310e-02, 1.87515765e-02,
       -1.46588022e-02, -8.00533872e-03, -2.15872061e-02,
       -6.59362460e-03, 1.99719910e-02, 1.81493126e-02, -3.04699522e-02,
       8.54436588e-03, 3.54889408e-02, 3.67635419e-03, 1.91477183e-02,
       -3.62273566e-02, -3.46467271e-02, -3.16424929e-02,
       -6.95485575e-03, -5.34840524e-02, 6.47569215e-03, -5.93430474e-02,
       6.64611086e-02, -1.38760591e-03, 2.83655599e-02, 2.36863759e-03,
       -1.75387934e-02, -3.47402617e-02, 3.73873487e-02, 6.12861365e-02,
       2.14624335e-03, 7.84379710e-03, 9.33892652e-03, 4.53421324e-02,
       3.53646539e-02, 4.30694595e-02, 2.60640439e-02, 4.73384708e-02,
       -6.37518940e-03, 4.20212746e-02, 2.03783009e-02, 2.58058496e-02,
       -2.51017213e-02, -2.34431103e-02, -1.00521641e-02,
       -4.13950253e-03, -2.92563513e-02, 3.37365493e-02, 1.32335359e-02,
       -3.19444984e-02, 1.64404679e-02, 3.44408378e-02, -2.33338419e-02,
       1.07188458e-02, 1.76867824e-02, -2.29471792e-02, 8.08483437e-02,
       8.60074628e-03, 2.63414849e-02, 2.32524369e-02, 1.66760683e-02,
       -1.08162863e-02, 1.88555215e-02, -3.51007022e-02, 3.98590453e-02,
       3.93796861e-02, 1.02084419e-02, -2.24470324e-03, -8.88163596e-03,
       -3.17983725e-03, 8.41008779e-03, 1.90339256e-02, 3.26719470e-02,
       3.09447870e-02, 5.57495952e-02, 3.76200117e-02, -4.84532490e-02,
       -2.34211609e-03, 2.24268716e-02, -2.69930344e-02, -2.64775865e-02,
       2.49121524e-02, -2.00954042e-02, 2.26708576e-02, 2.87074707e-02,
       1.88111030e-02, 7.54501969e-02, 7.37371715e-03, -4.27977619e-04,
       1.94429811e-02, 3.42697348e-03, 3.84478606e-02, 2.73731053e-02,
       -2.26832386e-02, 1.09248925e-02, 6.96866261e-03, -1.10666826e-02,
       5.99227496e-04, -8.33809748e-03, 1.08871236e-02, 2.77791955e-02,
       1.85224414e-02, 3.13285515e-02, 4.84197773e-03, 5.01381652e-03,
       5.58315543e-03, 3.13853496e-03, 1.25719579e-02, 2.24871822e-02,
       3.47179174e-02, -1.76946297e-02, -1.20518161e-02, 2.15082504e-02,
       6.93886951e-02, -3.20740081e-02, 3.90566909e-03, 1.90861784e-02,
       4.20326646e-03, 3.62437740e-02, 2.49314271e-02, -3.89808719e-03,
