%YAML:1.0
---
opencv_ml_svm:
   format: 3
   svmType: C_SVC
   kernel:
      type: RBF
      gamma: 1.
   C: 1.0000000000000001e-01
   term_criteria: { iterations:10000 }
   var_count: 20
   class_count: 2
   class_labels: !!opencv-matrix
      rows: 2
      cols: 1
      dt: i
      data: [ 0, 1 ]
   sv_total: 482
   support_vectors:
      - [ 5.03477156e-01, -6.06557429e-01, 4.46230143e-01,
          3.61558139e-01, -6.70388222e-01, 4.92441624e-01,
          -5.46821654e-01, -6.27752692e-02, 1.68614417e-01,
          5.32302678e-01, -8.00817192e-01, -7.06536621e-02,
          -2.08475217e-02, 1.80368945e-01, -1.91293135e-02,
          4.06322449e-01, 2.30318472e-01, 3.11908931e-01, 2.24009290e-01,
          1.38129756e-01 ]
      - [ 3.88485998e-01, 6.01932466e-01, 2.66946256e-01, 3.80660772e-01,
          -3.35768133e-01, 6.31716192e-01, 8.43290091e-01,
          1.86355133e-02, -2.57174611e-01, 2.71818578e-01,
          -4.99210030e-01, -5.35632133e-01, 4.76892233e-01,
          -5.07966757e-01, 1.25888035e-01, 1.74962744e-01,
          4.34212863e-01, 1.94905058e-01, -3.18183452e-02,
          1.52671248e-01 ]
      - [ 5.38303435e-01, -4.21821922e-01, -2.31005132e-01,
          -8.82466018e-01, -2.51085401e-01, -1.09049618e-01,
          2.55978137e-01, -3.36026907e-01, 4.96265173e-01,
          -8.70062649e-01, 1.57547414e-01, -7.81496763e-01,
          2.23829791e-01, -1.83610190e-02, -2.07034484e-01,
          5.02624750e-01, -3.17272060e-02, 1.61064759e-01,
          -1.35487691e-02, 8.06800723e-01 ]
      - [ 4.52214360e-01, 8.72233570e-01, 1.82519421e-01, 2.20032319e-01,
          7.81217277e-01, 2.96094954e-01, 1.27631456e-01,
          -5.33597291e-01, 7.50603452e-02, 3.30772921e-02,
          -3.84645462e-01, 1.33161247e-01, 1.13493867e-01,
          3.13540846e-01, -5.77983737e-01, -6.00795805e-01,
          -1.46828577e-01, 6.79498076e-01, -3.29131931e-01,
          7.13953897e-02 ]
      - [ 2.72156388e-01, 6.18927658e-01, 8.64083290e-01,
          -1.49958491e-01, 2.45831117e-01, -6.05416596e-01,
          -3.05222452e-01, 3.76822263e-01, 2.08506316e-01,
          -3.66872363e-02, 1.05373457e-01, -1.27575416e-02,
          2.22126052e-01, 5.83827913e-01, 6.08022138e-02, 8.56570080e-02,
          -8.19079503e-02, -3.33871752e-01, -2.35822216e-01,
          -2.38474429e-01 ]
      - [ 3.70897800e-01, -5.88328958e-01, -3.46785247e-01,
          -4.40061986e-01, 7.04611719e-01, -5.06074846e-01,
          4.25401926e-01, -4.36380953e-01, -2.03592390e-01,
          5.97807884e-01, -8.23828280e-01, -2.98862070e-01,
          2.87160575e-01, -3.72373452e-03, 6.80817604e-01,
          -7.12405145e-02, -3.82850647e-01, 1.57522425e-01,
          -9.34085548e-01, -5.67872703e-01 ]
      - [ 6.00903928e-01, -1.44317970e-01, -4.28540796e-01,
          -5.84225714e-01, -2.45001689e-01, -1.16969295e-01,
          4.18114513e-01, -3.94782901e-01, -5.05265258e-02,
          -7.11158752e-01, 3.65605026e-01, -2.82588806e-02,
          -1.78101674e-01, 4.43099774e-02, -1.16890311e-01,
          -1.97872087e-01, -2.92045474e-01, 1.65599093e-01,
          4.67759311e-01, 9.54074502e-01 ]
      - [ 2.77712464e-01, 5.88373184e-01, 9.34998572e-01,
          -5.60156591e-02, 4.61402386e-01, -4.30868506e-01,
          -5.85155249e-01, 4.96069819e-01, 5.41490138e-01,
          -2.90253907e-01, 2.89493114e-01, -4.14432704e-01,
          7.65899122e-02, 4.74981070e-01, 9.41433534e-02, 4.75060344e-01,
          7.50841945e-02, -2.80511640e-02, 1.23945642e-02,
          4.05466147e-02 ]
      - [ 7.35197723e-01, -5.51667452e-01, 2.92034168e-02,
          -4.13602963e-02, -2.65639335e-01, 6.93920553e-01,
          -6.65991068e-01, 2.82249004e-01, -1.70925647e-01,
          -4.03128296e-01, 7.51900673e-01, 7.12164342e-02,
          2.24564835e-01, 9.29036885e-02, 9.56897959e-02,
          -7.03633130e-01, -2.95425117e-01, -1.27753809e-01,
          -9.15349275e-02, 2.71223634e-01 ]
      - [ 5.76783240e-01, 1.04016282e-01, -4.89691436e-01,
          5.26280999e-01, -1.39476527e-02, 4.12184387e-01,
          2.20186934e-01, 5.14720976e-01, -2.23512873e-01,
          -1.83246449e-01, 4.08831447e-01, -4.22284961e-01,
          -4.70597804e-01, 7.87518561e-01, 3.39661896e-01,
          -2.42289796e-01, 6.10199571e-01, 7.06867635e-01,
          6.53546274e-01, 2.77942449e-01 ]
      - [ 8.03751528e-01, -7.66512871e-01, -3.21863964e-02,
          -1.28677160e-01, 8.10302973e-01, -3.56082410e-01,
          1.37784760e-02, 1.63016617e-02, -6.10992849e-01,
          3.33348602e-01, 7.81003460e-02, 2.42252529e-01, 6.76176488e-01,
          -2.47537926e-01, 1.03581846e-02, -2.65236013e-02,
          -3.63680750e-01, -2.10599169e-01, -6.31143272e-01,
          4.04282480e-01 ]
      - [ 5.29527962e-01, 4.44740504e-01, -3.18359882e-01,
          5.02462268e-01, 6.65662229e-01, -2.40712062e-01,
          -1.49595335e-01, -4.74517167e-01, 1.31230310e-01,
          6.97754370e-03, -2.40236610e-01, 6.48969829e-01,
          1.48940533e-01, -2.32427195e-01, -8.51552904e-01,
          9.79915485e-02, -1.94757655e-01, 1.41401052e-01,
          -6.86741173e-02, 2.81679779e-01 ]
      - [ 5.13999999e-01, 5.10797977e-01, 5.99022210e-01,
          -5.58751598e-02, -1.16333671e-01, -1.59676850e-01,
          1.83375210e-01, -3.25997442e-01, -2.59188145e-01,
          3.38719189e-01, -2.60873586e-01, -2.05719560e-01,
          4.71782148e-01, 2.63031483e-01, -6.44052207e-01,
          -9.65485036e-01, -1.51728049e-01, -4.29819018e-01,
          9.45730746e-01, -1.76802218e-01 ]
      - [ 3.31207633e-01, 2.83666863e-03, -8.16800356e-01,
          6.24601960e-01, -2.91915387e-01, -6.25657558e-01,
          -1.74262121e-01, 2.98408687e-01, -7.84854472e-01,
          -4.39325869e-02, 1.08432695e-01, 2.26995155e-01,
          2.83342719e-01, 1.97443098e-01, 8.33100304e-02, 1.26587451e-01,
          -2.08186939e-01, 3.60369146e-01, 1.10317826e-01,
          5.79858661e-01 ]
      - [ -9.54952538e-01, -1.18388988e-01, 1.56507462e-01,
          1.73346832e-01, 2.40705654e-01, 1.15265220e-01, 7.73984790e-02,
          4.36760038e-02, 1.32384956e-01, 3.48797925e-02, 2.95151651e-01,
          -1.81214847e-02, -1.16967456e-02, -9.96199399e-02,
          -3.56393233e-02, 1.57195423e-02, 1.10311188e-01,
          -3.00818205e-01, -2.91757938e-02, 3.15126121e-01 ]
      - [ 8.05277884e-01, -6.32056653e-01, 3.68382148e-02,
          3.23380195e-02, 6.39054179e-02, 2.62285858e-01,
          -7.90957808e-01, 5.86330108e-02, -9.33949649e-02,
          -2.00427234e-01, 1.91867188e-01, 2.07462102e-01,
          3.54477197e-01, 1.85985833e-01, -5.99448502e-01,
          -1.67797953e-01, -3.46261442e-01, -5.56121647e-01,
          1.23010725e-02, 5.06229103e-01 ]
      - [ 5.04343748e-01, -6.41248703e-01, 1.86958700e-01,
          -6.09346569e-01, 3.96824032e-01, -2.19898373e-01,
          2.93958664e-01, -5.79675892e-04, 5.52874625e-01,
          -2.77450383e-01, -3.64916742e-01, -2.01083690e-01,
          1.36948630e-01, 1.45369163e-03, -9.14615750e-01,
          3.56824368e-01, 2.86154598e-01, 2.75040179e-01,
          -4.50056076e-01, 7.40648925e-01 ]
      - [ 5.62469721e-01, 7.63215005e-01, 7.02879503e-02, 3.72137815e-01,
          6.67255342e-01, 4.65622604e-01, 1.86599195e-01,
          -6.01649642e-01, 3.08648556e-01, 8.87903385e-03,
          -5.51156580e-01, -2.97429502e-01, 6.39296174e-01,
          5.11638597e-02, 4.67055552e-02, 2.19255328e-01,
          -4.92257744e-01, -2.28574574e-01, 1.99438065e-01,
          -1.89135633e-02 ]
      - [ 8.26731920e-01, -7.18390346e-01, -4.66902070e-02,
          -3.99555951e-01, 4.65259969e-01, 2.03301579e-01,
          2.45705526e-03, 2.75198728e-01, 6.19905889e-01,
          -1.88075066e-01, -3.58948946e-01, 4.56456959e-01,
          -1.50453418e-01, -4.69781846e-01, -4.95185107e-01,
          1.72188401e-01, 6.55006096e-02, -3.18095267e-01,
          3.51953745e-01, 2.59968519e-01 ]
      - [ 6.57261491e-01, -5.81709027e-01, 4.04797792e-01,
          5.58341801e-01, -1.46217585e-01, 1.41444862e-01,
          -4.59174931e-01, -3.27403963e-01, 7.53648952e-02,
          -3.92256558e-01, 4.16169286e-01, -4.05220479e-01,
          -1.40311092e-01, 4.25097734e-01, -8.16663682e-01,
          -4.22921658e-01, -2.68466949e-01, -2.43217945e-01,
          -2.30234131e-01, 2.58055270e-01 ]
      - [ 8.14079463e-01, -5.04849374e-01, -4.28226829e-01,
          -2.24629164e-01, 2.37968221e-01, 1.40403762e-01,
          -2.74839520e-01, 2.27604523e-01, -2.74641782e-01,
          1.06689014e-01, -2.43411243e-01, 6.18220985e-01,
          4.23012197e-01, -7.85369128e-02, -7.59757385e-02,
          2.45579686e-02, -1.96754396e-01, -6.52431071e-01,
          1.66332096e-01, -3.55397910e-01 ]
      - [ 3.09738576e-01, 2.05463707e-01, 5.29308677e-01, 5.09052537e-02,
          -6.26884520e-01, -2.49992490e-01, 1.78133816e-01,
          6.76064134e-01, 4.24766719e-01, -7.64090568e-02,
          -1.52600259e-01, 1.61385342e-01, 1.87930316e-01,
          4.41818386e-01, 4.73863482e-01, -3.87337685e-01,
          1.43565729e-01, 1.43606812e-01, -3.27216238e-01,
          2.65078902e-01 ]
      - [ 3.85051817e-01, 3.32261056e-01, 2.37046286e-01, 3.07195276e-01,
          -1.38497666e-01, 3.66801679e-01, 5.49689829e-01,
          -2.74655879e-01, -7.55313575e-01, -1.50027409e-01,
          1.11131348e-01, -6.99757934e-02, -1.04258262e-01,
          -2.10863426e-01, -1.00358278e-01, 2.60165006e-01,
          4.00128448e-03, 1.65831730e-01, 3.00715894e-01,
          -2.52490282e-01 ]
      - [ 5.12077630e-01, -1.88598305e-01, -7.19805896e-01,
          6.64695978e-01, 1.93866789e-01, -7.22365499e-01,
          -6.82413995e-01, 3.19259435e-01, -9.68709812e-02,
          5.18863440e-01, -1.97975025e-01, -9.56460554e-03,
          -8.62656608e-02, 1.29014865e-01, -2.74179161e-01,
          -8.15920234e-02, 3.43231827e-01, -8.04160535e-02,
          8.59662414e-01, -6.34071156e-02 ]
      - [ 4.67252821e-01, -3.69621426e-01, 4.91303176e-01,
          7.27299273e-01, -3.58432233e-01, -3.84305507e-01,
          -2.02665906e-02, -7.08618343e-01, -2.45910570e-01,
          -8.29737112e-02, -1.21698149e-01, -1.73670545e-01,
          -1.93541214e-01, 7.16874301e-01, -5.22276998e-01,
          4.94470328e-01, -6.72472492e-02, -3.91294472e-02,
          1.19669065e-02, -1.67391062e-01 ]
      - [ 5.78789771e-01, 3.68759632e-01, -6.74833834e-01,
          7.52736449e-01, 3.26224178e-01, -3.01446199e-01,
          -1.62393719e-01, 4.38038290e-01, 6.10965312e-01,
          3.54311639e-03, -7.23113537e-01, 1.41936019e-01,
          3.32277119e-02, -1., -6.11586869e-01, -3.09904926e-02,
          -1.40046984e-01, 1.43467888e-01, -3.15036833e-01,
          2.39283383e-01 ]
      - [ -8.83169174e-01, -1.32571444e-01, 1.85332865e-01,
          2.32202113e-01, 2.24376544e-01, -3.44432034e-02,
          6.12206534e-02, -4.60382178e-02, 1.15887292e-01,
          1.69099588e-02, 3.35531563e-01, 2.14339308e-02, 1.80981427e-01,
          3.85347791e-02, -2.18055949e-01, 2.87424698e-02,
          -1.19464643e-01, 5.86646020e-01, 1.54235195e-02,
          -1.13236308e-01 ]
      - [ 6.54092133e-01, -8.66650879e-01, 1.52737170e-01,
          -4.48767729e-02, 4.91415143e-01, 2.18099765e-02,
          -6.71528816e-01, -5.22045381e-02, 6.44183010e-02,
          1.31429031e-01, 4.27424535e-02, 3.64949465e-01, 7.09858537e-01,
          -7.52869099e-02, -6.67899132e-01, -5.29401362e-01,
          3.01642209e-01, -3.16459686e-01, -2.37382412e-01,
          6.76396489e-01 ]
      - [ 7.71945417e-01, -4.83743429e-01, 1.18253253e-01,
          9.16539654e-02, 8.79259706e-01, 2.63593465e-01, 5.35948575e-02,
          2.85275221e-01, -9.24479663e-01, 8.13996792e-02,
          -3.61855067e-02, -4.63879444e-02, 4.28546250e-01,
          8.34679827e-02, 3.13417941e-01, 5.81014194e-02,
          -3.42539281e-01, 3.74138534e-01, 1.80066511e-01,
          -4.18856829e-01 ]
      - [ 4.15375173e-01, -3.96324515e-01, -3.15789878e-02,
          -7.40495801e-01, 3.00308704e-01, -4.13221896e-01,
          3.22781265e-01, -3.77245963e-01, -4.59107868e-02,
          -1.24176957e-01, -4.40398604e-01, -4.18429524e-01,
          9.93252769e-02, -1.13764212e-01, 1.59939826e-02,
          1.15576990e-01, -9.34127390e-01, 1.02151699e-01,
          -7.37315714e-01, 3.76104653e-01 ]
      - [ 6.71349108e-01, 6.65053189e-01, 1.51717380e-01, 3.90062809e-01,
          7.26046801e-01, 4.42028075e-01, -2.36232325e-01,
          -6.41431570e-01, 4.41127837e-01, -3.29158217e-01,
          -4.48593855e-01, -9.62432176e-02, 4.54037607e-01,
          -3.12160462e-01, 3.29239309e-01, -6.93807728e-04,
          -3.17689657e-01, -4.47380841e-01, 6.05881751e-01,
          3.94107312e-01 ]
      - [ 4.75971788e-01, 8.06562603e-01, 6.81122780e-01,
          -6.24961592e-02, 3.70011449e-01, -1.63657993e-01,
          -2.71950141e-02, -2.35933498e-01, -3.87970775e-01,
          2.25896403e-01, -2.88399965e-01, -1.59274340e-01,
          2.75907844e-01, -6.64595664e-02, -4.39341456e-01,
          1.34602755e-01, 9.53897182e-03, -1.00217156e-01,
          2.87001254e-03, -1.50606051e-01 ]
      - [ -9.53962088e-01, -1.38985455e-01, 1.89879924e-01,
          2.05293968e-01, 2.29931101e-01, 1.72083918e-02,
          -2.42743292e-03, 5.12291528e-02, -6.98637515e-02,
          3.90684344e-02, -1.07310265e-01, -4.70550954e-02,
          -4.54103611e-02, -1.36902213e-01, -1.26347363e-01,
          7.97980279e-02, 2.63879657e-01, -5.39606571e-01,
          1.44475251e-01, 6.94999158e-01 ]
      - [ 2.80836016e-01, -1.34303540e-01, -7.50828922e-01,
          5.93927205e-01, 9.83648971e-02, -9.28924382e-01,
          -6.58336341e-01, 3.28462094e-01, -3.33387613e-01,
          5.42721450e-01, 1.44310579e-01, -7.66763270e-01,
          -7.09927320e-01, -2.14658916e-01, -1.81928143e-01,
          -6.30927205e-01, -2.19260186e-01, -1.38320839e-02,
          -4.66340750e-01, 6.87167570e-02 ]
      - [ 8.37292612e-01, -6.37979686e-01, 5.74005507e-02,
          -1.26855895e-01, -2.48073637e-01, 8.39347661e-01,
          -3.13432127e-01, 3.55613738e-01, 3.97648811e-01,
          1.97919339e-01, -3.93888950e-01, 3.76597375e-01,
          -7.05665827e-01, -2.59201109e-01, 4.47789356e-02,
          -1.90769171e-03, -3.42056572e-01, 1.18331328e-01,
          3.00026447e-01, 4.48187381e-01 ]
      - [ 5.14481246e-01, 7.67705977e-01, 6.38421237e-01, 5.33909649e-02,
          5.44885159e-01, 6.61818534e-02, -2.70286381e-01,
          -1.09002002e-01, -2.27418274e-01, -8.91670734e-02,
          1.72609668e-02, -1.66213587e-02, -5.54933190e-01,
          -3.18157524e-01, 1.46915838e-02, 1.09184287e-01,
          3.48119698e-02, 5.30487716e-01, 1.16648808e-01, 2.24530593e-01 ]
      - [ 6.42243564e-01, -6.71584964e-01, 2.36607701e-01,
          3.08572382e-01, -6.46319568e-01, 5.50754905e-01,
          -5.41635811e-01, -3.37080732e-02, 2.21683607e-01,
          1.72226518e-01, -4.63637352e-01, 3.05262357e-02,
          -1.57166034e-01, -1.63956791e-01, 3.18948179e-01,
          4.28210944e-01, -3.68141234e-01, 3.33012581e-01,
          3.32955092e-01, -1.11327790e-01 ]
      - [ 5.78467250e-01, 1.61816910e-01, -8.87581944e-01,
          8.20988119e-01, 1.55971378e-01, -1.01247532e-02,
          1.58308670e-01, 6.23580754e-01, 1.83664262e-01,
          -4.92038578e-01, 2.86910444e-01, 2.38767013e-01,
          6.64080441e-01, -5.84780388e-02, -5.51340878e-01,
          2.84507304e-01, 7.22174048e-01, -6.42229319e-02,
          4.08355743e-02, 1.43229768e-01 ]
      - [ 6.12190962e-01, 9.02951598e-01, 1.14307828e-01, 4.02412355e-01,
          9.58720922e-01, 6.54378057e-01, -1.43844873e-01,
          -7.73715138e-01, 6.34361029e-01, 7.88303763e-02,
          -5.12813509e-01, -4.64113466e-02, 1.46948367e-01,
          8.06105584e-02, 1.31093726e-01, -5.21539450e-01,
          7.93526843e-02, 3.78987610e-01, -8.90753344e-02,
          5.97539842e-01 ]
      - [ 6.72816575e-01, 1.58901319e-01, -2.86812782e-01,
          4.50562388e-01, 6.57455564e-01, 2.98038036e-01,
          -3.35490882e-01, -2.83344865e-01, -1.08320661e-01,
          -1.88667327e-01, 3.70508999e-01, 1.27792984e-01,
          -3.16318661e-01, 6.96214199e-01, 3.09734106e-01,
          -8.24910998e-02, -3.62698853e-01, -2.90209413e-01,
          7.04761982e-01, 1.09955661e-01 ]
      - [ 4.30295587e-01, 2.80751437e-01, 3.78586918e-01,
          -3.03017423e-02, -5.23577273e-01, -3.04536521e-02,
          5.37727296e-01, 5.64681590e-01, -2.20977701e-02,
          1.44179210e-01, 1.54094771e-02, 4.59242821e-01, 5.66378720e-02,
          2.26614639e-01, -4.85764891e-02, -3.21008354e-01,
          -3.57461870e-01, 6.14146926e-02, -2.64797002e-01,
          8.09966028e-02 ]
      - [ 7.16222584e-01, -5.82239568e-01, 4.83661324e-01,
          5.87433517e-01, -7.60127544e-01, 1.64711952e-01,
          -6.53077483e-01, -4.91415590e-01, -4.97985457e-04,
          -3.95370036e-01, 4.60427403e-01, -1.03616491e-01,
          2.75121272e-01, -3.47574688e-02, -6.42168522e-02,
          -6.97026551e-02, 2.02641666e-01, 2.18718544e-01,
          7.13622496e-02, 6.91853464e-01 ]
      - [ 5.42953968e-01, -5.50884426e-01, -2.70659536e-01,
          -5.26860237e-01, 4.03977573e-01, -5.07317960e-01,
          3.01899016e-01, -3.14209759e-01, 4.12021577e-01,
          1.82868529e-03, -5.19053519e-01, -1.98796660e-01,
          3.07888240e-01, 4.74450849e-02, -5.88206232e-01,
          5.70906758e-01, -3.42830509e-01, 2.70706974e-02,
          -5.24615049e-01, 6.52586222e-01 ]
      - [ 4.40790594e-01, -2.68359840e-01, -2.97554076e-01, -1.,
          -1.49847865e-01, -1.43306643e-01, 4.61401701e-01,
          -2.32655168e-01, 5.88731170e-01, -9.86172080e-01,
          2.92128801e-01, -4.08927828e-01, 2.23408684e-01,
          -1.35343537e-01, -4.48201239e-01, 3.66537899e-01,
          2.59248257e-01, 6.49853647e-01, -3.77944559e-01,
          7.62546778e-01 ]
      - [ -8.40728402e-01, -1.49661079e-01, 1.80180237e-01,
          2.59704024e-01, 2.00234398e-01, 4.27771285e-02,
          -8.07939693e-02, 6.80848733e-02, -1.06368065e-01,
          -3.04583460e-01, -4.48606908e-01, 2.54735760e-02,
          1.06498830e-01, 1.36853412e-01, -1.48462921e-01,
          -6.83120564e-02, -1.27901152e-01, 5.85349679e-01,
          -1.91872567e-02, -3.59276421e-02 ]
      - [ 3.80346030e-01, 4.40644659e-02, -8.85738254e-01,
          7.22255111e-01, 1.45430595e-01, -6.39726996e-01,
          -1.72629431e-01, 4.58922833e-01, -2.47532830e-01,
          -1.18255885e-02, -1.07064508e-01, -1.30352497e-01,
          -2.93571591e-01, -3.98490310e-01, 9.58866533e-03,
          2.49678031e-01, -2.64118969e-01, -2.24863797e-01,
          -2.36294284e-01, 3.40980560e-01 ]
      - [ 6.40004039e-01, -6.79213226e-01, -1.60066262e-01,
          -6.20029926e-01, 4.86532003e-01, -1.85939997e-01,
          3.15821350e-01, 2.48222530e-01, 5.47132015e-01,
          -3.87452751e-01, -1.37220353e-01, -1.80674538e-01,
          -2.34307066e-01, -1.25940084e-01, -5.53808630e-01,
          4.16928172e-01, 5.95621824e-01, -1.05019867e-01,
          2.62748927e-01, -3.81931692e-01 ]
      - [ 4.95898366e-01, -2.75240153e-01, 2.39624307e-01,
          6.02111518e-01, -7.65924573e-01, -2.74147540e-01,
          1.85219005e-01, -4.58632290e-01, 3.10890287e-01,
          -5.48731804e-01, 2.74843536e-02, 6.75575256e-01,
          -3.65879297e-01, -3.30242142e-02, -2.18064621e-01,
          -1.27396241e-01, 3.26682962e-02, 1.59644969e-02,
          -2.34876215e-01, 1.88271269e-01 ]
      - [ 4.56143171e-01, -3.55263114e-01, 5.06522298e-01,
          6.38176560e-01, -2.45415121e-01, -3.84644866e-01,
          2.21626565e-01, -4.78794694e-01, 9.41194519e-02,
          -2.54528165e-01, -2.07927912e-01, -1.16267204e-01,
          -3.57188493e-01, 1.84337154e-01, -4.04302686e-01,
          1.72377780e-01, -5.73222600e-02, -5.66988945e-01,
          3.43357056e-01, -4.72565413e-01 ]
      - [ 6.82990968e-01, 7.07743406e-01, 3.76409553e-02, 3.98275971e-01,
          2.30309784e-01, 7.32006013e-01, 5.46748579e-01,
          -5.34991503e-01, 1.31046534e-01, 4.81276289e-02,
          -5.88453948e-01, -5.35272539e-01, 4.23508137e-01,
          -6.54112324e-02, -2.37745911e-01, -1.62906557e-01,
          -5.34907222e-01, -4.04578358e-01, 4.30365026e-01,
          -5.78212850e-02 ]
      - [ 6.61961436e-01, -4.16695654e-01, 3.18861693e-01,
          5.12681484e-01, -2.57145405e-01, 7.30005130e-02,
          -6.61215261e-02, -3.68729025e-01, 5.43420129e-02,
          -5.08547127e-01, 1.12564549e-01, 1.13003217e-01,
          -4.93883163e-01, 1.02977611e-01, -2.14658514e-01,
          -1.65313825e-01, -4.38725948e-01, -6.62265480e-01,
          4.67436701e-01, 2.43968859e-01 ]
      - [ -8.74078393e-01, -1.31611094e-01, 2.03940019e-01,
          3.30167353e-01, 2.00946286e-01, 2.59660091e-02, 1.75833073e-03,
          -1.58566777e-02, 1.95064563e-02, -2.26957738e-01,
          -8.34874902e-03, -4.35082093e-02, 3.02016530e-02,
          1.80350572e-01, -2.03466401e-01, -1.16240069e-01,
          -2.23658413e-01, 8.07048798e-01, -1.17230743e-01,
          3.01774740e-01 ]
      - [ 6.45624578e-01, -7.82608628e-01, 3.29735845e-01,
          2.61851460e-01, 4.08771425e-01, 1.53811112e-01,
          -8.29818904e-01, -2.54025608e-01, 4.91205491e-02,
          -4.06429619e-02, 3.37676257e-01, 6.13492392e-02,
          4.11071360e-01, 2.84159929e-01, -8.90056491e-01,
          -6.46045268e-01, 4.06847268e-01, -1.93132192e-01,
          -3.06826711e-01, 7.34002769e-01 ]
      - [ 3.84292126e-01, -2.72799641e-01, 4.45615590e-01,
          6.97921336e-01, -7.27921247e-01, -4.29950893e-01,
          1.32277057e-01, -5.88288665e-01, 7.14207366e-02,
          -1.72941297e-01, 1.37897760e-01, 4.29416835e-01,
          -1.24244101e-01, 3.26059312e-01, -2.09780231e-01,
          2.80143648e-01, 3.39346677e-01, 3.19276571e-01,
          -4.95857924e-01, -1.33203298e-01 ]
      - [ 5.63431442e-01, 3.18838447e-01, -4.72486645e-01,
          6.12934649e-01, 4.07282531e-01, -2.54183829e-01,
          -8.18595663e-02, 1.08125605e-01, 4.30870295e-01,
          8.87556598e-02, -5.09662151e-01, 4.52242851e-01,
          -3.93104032e-02, -5.19518971e-01, -4.02032763e-01,
          -6.61884844e-02, -4.56191957e-01, 3.50115031e-01,
          -2.15949118e-01, 4.46163267e-01 ]
      - [ 9.05025303e-01, -6.02408350e-01, 6.83212131e-02,
          1.42273679e-01, -3.26349139e-01, 5.54517567e-01,
          -6.53555095e-01, -7.20931888e-02, 9.82024223e-02,
          -3.61578092e-02, 8.63647014e-02, 4.85896617e-01,
          -2.37459037e-02, -2.37618208e-01, -2.01584250e-01,
          -7.89769709e-01, 4.75443937e-02, -2.60769427e-01,
          7.14842007e-02, 7.73738623e-01 ]
      - [ 5.20857513e-01, 5.29599130e-01, -1.83642402e-01,
          5.79129994e-01, 9.07413304e-01, 4.29249913e-01,
          -2.00166434e-01, 4.96758986e-03, 1., -2.95729667e-01,
          -2.75155723e-01, -1.17391288e-01, 4.14988279e-01,
          1.23168901e-02, 2.38049716e-01, -1.10678606e-01,
          1.61829472e-01, 4.56370600e-02, -2.62930900e-01,
          -3.04618888e-02 ]
      - [ 4.35614049e-01, -6.68276966e-01, 7.13933110e-01,
          5.92220664e-01, 6.98790967e-01, -2.43709922e-01,
          8.24772358e-01, 4.19031113e-01, 3.63873899e-01, 7.75964186e-02,
          -4.43079621e-01, 2.15410620e-01, -2.92306066e-01,
          -2.05062181e-01, 2.00002313e-01, -6.99921846e-01,
          -6.38059601e-02, 5.03077984e-01, -5.29421791e-02,
          4.34783399e-01 ]
      - [ 6.53071404e-01, -9.09550428e-01, 7.54825473e-01,
          3.81995648e-01, 3.54013771e-01, 1.32676676e-01,
          -6.25500321e-01, -2.01053515e-01, 1.33833274e-01,
          3.94994378e-01, -5.21560371e-01, -3.28245521e-01,
          6.57637358e-01, 3.32750499e-01, -4.24880296e-01,
          7.30224371e-01, 1.01230934e-01, 2.61560529e-01, 7.38345906e-02,
          4.40028399e-01 ]
      - [ -8.53022814e-01, -1.75560385e-01, 1.90619320e-01,
          2.18987778e-01, 1.43877596e-01, 3.79805686e-03,
          -1.33022398e-01, 1.17577709e-01, -1.44956037e-01,
          -4.44098562e-01, -8.36769462e-01, 9.49500129e-02,
          8.69066343e-02, 1.45248905e-01, -1.59117460e-01,
          9.66706127e-02, -3.60105000e-02, 1.88316628e-01,
          4.38083932e-02, 2.28192419e-01 ]
      - [ 5.29448152e-01, 2.59543031e-01, -4.43825454e-01,
          7.84437597e-01, 7.10151851e-01, -3.31415236e-02,
          -3.61001134e-01, 6.62508309e-01, 5.24002731e-01,
          -9.38035175e-02, 1.42970443e-01, -4.72541511e-01,
          -4.88134176e-01, 1.57351047e-01, -1.12782240e-01,
          -3.42548549e-01, 2.71686882e-01, 3.63077641e-01,
          -1.11694917e-01, -2.33183682e-01 ]
      - [ 6.07147694e-01, -3.08320880e-01, -6.41360879e-01,
          -3.08286071e-01, 3.48331302e-01, -5.95686316e-01,
          7.44257808e-01, -9.99276519e-01, -5.10951206e-02,
          -8.97145569e-02, -3.35140049e-01, -1.26436278e-01,
          1.35175660e-01, 3.06737781e-01, 2.21262023e-01, 9.52318162e-02,
          2.40226582e-01, 1.92949340e-01, 2.93518513e-01,
          -3.73264588e-02 ]
      - [ 8.38686645e-01, -5.79648435e-01, 1.74679637e-01,
          3.12368780e-01, -3.76666635e-02, 2.97358811e-01,
          -6.62313282e-01, -1.35611624e-01, -5.45820408e-02,
          -3.41021389e-01, 4.30759460e-01, 5.52502833e-02,
          5.93133084e-02, 2.46070191e-01, -6.97031498e-01,
          -4.24081802e-01, -3.97147626e-01, -3.72020751e-01,
          -4.02784012e-02, 7.55223751e-01 ]
      - [ 5.72871685e-01, -5.62501311e-01, -4.31975961e-01,
          -6.46171570e-01, -2.74784237e-01, -3.54854494e-01,
          2.63576269e-01, -4.34934586e-01, 9.22962800e-02,
          -7.29051590e-01, 4.72367227e-01, -1.25814065e-01,
          -1.69177979e-01, 1.82722919e-02, -2.42799848e-01,
          -2.03119174e-01, 3.77647340e-01, 2.46433526e-01,
          8.29347730e-01, 6.12653196e-01 ]
      - [ 7.81629443e-01, -6.51000857e-01, 4.13404673e-01,
          4.15889293e-01, -5.45427144e-01, 3.70991170e-01,
          -6.76214695e-01, -1.23534463e-01, -1.09673113e-01,
          -6.95679009e-01, 5.67067862e-01, -3.23851287e-01,
          4.35139358e-01, -4.22853798e-01, 1.52220458e-01,
          2.62067407e-01, -1.75202966e-01, 1.97971269e-01,
          -7.18504786e-02, 3.09783101e-01 ]
      - [ 6.28085792e-01, -6.57707632e-01, 2.00784698e-01,
          2.75189906e-01, -4.73778069e-01, 8.39295387e-01,
          -8.69038045e-01, 1.93191007e-01, 7.70228207e-02,
          2.92720255e-02, -2.86385097e-04, -2.62948245e-01,
          2.90301174e-01, -9.34976861e-02, 2.02657789e-01,
          1.58674300e-01, -3.16319108e-01, 2.28775918e-01,
          1.68006644e-01, -6.93665594e-02 ]
      - [ 6.98892772e-01, -4.64047194e-01, 3.15848827e-01,
          3.44326794e-01, -6.59275532e-01, 2.56411374e-01,
          -4.75273877e-01, -3.98721881e-02, 1.68586597e-01,
          -4.39041734e-01, 1.65533930e-01, 4.86186534e-01,
          5.11757620e-02, -4.34219509e-01, 1.05447903e-01,
          3.20011795e-01, -3.56315285e-01, -6.78214710e-03,
          5.48924983e-01, 4.49713528e-01 ]
      - [ 5.48117042e-01, 6.68409467e-01, -1.35574877e-01,
          4.98556942e-01, 6.63792074e-01, 1.38734043e-01,
          -2.02505037e-01, 1.66047752e-01, 6.19675279e-01,
          -2.46174335e-01, -1.91138983e-01, -3.91980827e-01,
          1.92753389e-01, 1.15557544e-01, 7.39867985e-01, 1.11275297e-02,
          1.33456113e-02, 8.40867236e-02, 4.32303309e-01,
          -7.24984035e-02 ]
      - [ 6.39536560e-01, 4.77954566e-01, 1.04330905e-01, 1.53585076e-01,
          6.13001347e-01, 2.66865283e-01, 2.87367068e-02,
          -9.94266197e-03, -4.54946756e-01, -6.14030600e-01,
          6.91421032e-01, 1.46781057e-01, -4.73905057e-01,
          -4.71571125e-02, -7.71335244e-01, 9.97407958e-02,
          -3.31285626e-01, -5.84463596e-01, 3.20683122e-02,
          6.28468161e-03 ]
      - [ 6.30315065e-01, 6.44888461e-01, -8.04766268e-03,
          4.21953768e-01, 4.16970346e-03, 1., 7.77307987e-01,
          -2.01511517e-01, -3.65082353e-01, 1.94340050e-01,
          6.53531253e-02, -3.20514798e-01, -1.49580166e-01,
          -1.11819156e-01, -3.59737545e-01, -2.40685478e-01,
          -2.94302434e-01, 1.19378857e-01, -2.81767249e-01,
          3.06964248e-01 ]
      - [ 7.27948666e-01, 3.56364429e-01, -4.93370175e-01,
          6.67181611e-01, 1.82620645e-01, 8.14522862e-01, 5.47301531e-01,
          1.40639827e-01, 2.85782933e-01, -4.20638323e-01,
          2.51142651e-01, 2.20510259e-01, 1.34632170e-01, 1.51373535e-01,
          1.44718252e-02, -1.30362228e-01, -2.81488180e-01,
          -1.81316286e-01, -1.82221085e-02, 5.19007027e-01 ]
      - [ 6.22663677e-01, 7.92856455e-01, 5.74484825e-01, 1.33159667e-01,
          4.72154886e-01, 1.86277702e-01, 1.73194986e-02,
          -1.29636109e-01, -6.29155099e-01, -5.85439764e-02,
          5.26811518e-02, 6.94904476e-02, -1.80695087e-01,
          -6.76077962e-01, -2.64905512e-01, 3.80852222e-01,
          -2.86884587e-02, 1.16525285e-01, 8.90618861e-02,
          4.92651284e-01 ]
      - [ -9.40155149e-01, -1.23658493e-01, 2.00969964e-01,
          2.08127946e-01, 1.33965909e-01, 6.41181618e-02,
          -1.25702932e-01, 1.26535788e-01, -2.41988584e-01,
          -5.20604134e-01, -8.95696461e-01, 2.18413509e-02,
          2.42083371e-02, 8.36965740e-02, -1.51712313e-01,
          -2.24804096e-02, 1.12884395e-01, -1.15180083e-01,
          2.86803003e-02, 1.43058926e-01 ]
      - [ 5.39297342e-01, -9.03296888e-01, 4.11460251e-01,
          -1.99705474e-02, 6.17928386e-01, 3.49359244e-01,
          -1.64468095e-01, 5.15871823e-01, 2.92514414e-01,
          5.79452276e-01, -4.32787418e-01, 1.24544419e-01,
          4.16132575e-03, 4.03646350e-01, -6.18846357e-01,
          -3.98284383e-02, 3.52966934e-01, 2.71592345e-02,
          -4.26018648e-02, 6.28063500e-01 ]
      - [ 4.82704759e-01, 5.72677314e-01, 5.78023374e-01, 1.20340675e-01,
          5.59325397e-01, 1.91577449e-02, -3.73727798e-01,
          4.49810445e-01, -7.31745660e-02, -7.06468999e-01,
          5.37038028e-01, -3.02241206e-01, -3.13845724e-01,
          2.90154908e-02, -2.80007958e-01, 1., -4.95721668e-01,
          -3.08423460e-01, 4.25267704e-02, 1.51338890e-01 ]
      - [ 6.73494756e-01, -5.72246552e-01, -3.28180224e-01,
          -8.02242517e-01, 3.25813085e-01, -5.43375671e-01,
          5.20553112e-01, -4.30964470e-01, 1.25540689e-01,
          -7.77529538e-01, 8.40728059e-02, -6.36643589e-01,
          3.11754048e-01, 2.31340811e-01, -2.27684259e-01,
          4.75592524e-01, -2.72989839e-01, 1.39965927e-02,
          -2.10895464e-01, 2.24201962e-01 ]
      - [ 4.81322318e-01, 2.83646196e-01, -7.53358781e-01,
          8.22221220e-01, 4.40719090e-02, 9.50410515e-02, 4.25279111e-01,
          7.38571286e-01, -1.50267649e-02, -4.92848426e-01,
          4.24427062e-01, 9.61014703e-02, 3.61900300e-01, 4.95458663e-01,
          -1.29384529e-02, 2.98320949e-02, 6.47616804e-01,
          7.34743237e-01, 2.36596122e-01, 4.15149480e-01 ]
      - [ 7.48944640e-01, -5.16467929e-01, -1.61571443e-01,
          -7.81086266e-01, -6.47142455e-02, 3.90531421e-01,
          8.43624100e-02, 2.75612146e-01, 7.69424617e-01,
          -4.96739030e-01, 1.92842826e-01, 1.86963618e-01,
          -1.63347378e-01, -3.52673322e-01, -5.57166040e-01,
          1.39040485e-01, 4.28005040e-01, 5.12924433e-01, 2.99014766e-02,
          7.48358309e-01 ]
      - [ 5.84450245e-01, -2.83160359e-01, -4.29876715e-01,
          -6.53386235e-01, 2.11660519e-01, -6.22080088e-01,
          4.77987885e-01, -9.19922888e-01, -1.79272637e-01,
          -1.53712422e-01, 3.76577340e-02, -1.40686542e-01,
          2.35290471e-02, 1.04532875e-01, -4.46937442e-01,
          -5.44659495e-02, 1.27573177e-01, 4.04964119e-01,
          2.81053483e-02, 3.40043157e-01 ]
      - [ 7.38119364e-01, -8.37689340e-01, 6.06164277e-01,
          1.65748000e-01, 5.07201135e-01, 2.40001693e-01,
          -2.06153736e-01, 3.46594125e-01, -1.28772691e-01,
          3.38005126e-01, -5.43403447e-01, -2.19625175e-01,
          6.54332936e-01, -1.75770760e-01, -3.23424190e-01,
          9.33103442e-01, -1.13407083e-01, -7.35887438e-02,
          1.86929777e-01, 5.34997508e-02 ]
      - [ 5.15766680e-01, 6.57630265e-01, -1.94417775e-01,
          6.08675122e-01, 9.00248766e-01, 4.97428596e-01,
          -8.91073123e-02, -1.76417559e-01, 9.87556934e-01,
          -2.34746590e-01, -4.47862267e-01, 3.14329475e-01,
          4.43346798e-01, 4.85118814e-02, -7.08096102e-02,
          -3.29038292e-01, 5.40667139e-02, 4.76409525e-01,
          -2.83032715e-01, 8.27239156e-01 ]
      - [ 6.35154843e-01, 2.25616947e-01, -2.58113712e-01,
          2.69074082e-01, 1.30293235e-01, 7.24335730e-01, 3.79676104e-01,
          -2.80082636e-02, -8.17993402e-01, -2.65793025e-01,
          7.70420372e-01, 3.50846738e-01, -5.21551251e-01,
          1.77082151e-01, -2.46802956e-01, 1.18664153e-01,
          -2.56998688e-02, -4.26268131e-01, -1.86975405e-01,
          1.79833010e-01 ]
      - [ 4.26014304e-01, -2.67296612e-01, -3.62829745e-01,
          -7.67884254e-01, -1.05627537e-01, -3.11819196e-01,
          6.27085626e-01, -4.64740068e-01, -7.72181973e-02,
          -2.40697324e-01, -2.41606995e-01, -7.42926449e-03,
          7.51206130e-02, 1.55157857e-02, -1.91077262e-01,
          2.33827189e-01, 1.75349295e-01, 4.88689154e-01,
          -3.80085230e-01, 3.17489773e-01 ]
      - [ 7.47937262e-01, -5.68964422e-01, -2.70789355e-01,
          -8.42275679e-01, 2.37715602e-01, -5.73058069e-01,
          4.51070130e-01, -4.89102274e-01, -8.47416893e-02, -1.,
          4.33288991e-01, -3.42941880e-01, 1.88598931e-01,
          -1.15078367e-01, -2.81978428e-01, 4.93019931e-02,
          -5.96168637e-02, 2.98461735e-01, -6.41958565e-02,
          5.15987515e-01 ]
      - [ 6.87795639e-01, -1.66922122e-01, -4.50684339e-01,
          -5.09683907e-01, -2.35009342e-01, 1.09133031e-02,
          6.09647989e-01, -8.59006643e-02, 2.98871219e-01,
          -6.38962686e-01, 2.72496819e-01, 3.43191385e-01,
          -1.06149033e-01, 1.13638945e-01, -1.95396483e-01,
          1.37566000e-01, -1.22766294e-01, 4.54437822e-01,
          5.00249922e-01, 7.08550870e-01 ]
      - [ 5.22468030e-01, -1.44717023e-01, -6.47169471e-01,
          8.45736623e-01, 1.16709583e-01, -6.42850339e-01,
          -8.79606068e-01, 3.24928820e-01, -1.97692998e-02,
          2.55743146e-01, -4.63993028e-02, 6.36889413e-02,
          -3.62592399e-01, -1.98742449e-01, -6.54012620e-01,
          -4.97404039e-01, -1.61338776e-01, 1.27193570e-01,
          7.99885154e-01, 1.89749330e-01 ]
      - [ 7.83780873e-01, -7.55405486e-01, 4.46627796e-01,
          2.09632605e-01, 3.98727685e-01, 2.37300441e-01,
          -1.21785980e-03, 2.02199221e-01, 5.84664010e-03,
          4.50836390e-01, -7.77240157e-01, 1.67818874e-01,
          8.07796493e-02, -2.57997513e-01, -7.75009543e-02,
          7.34078705e-01, -1.76984519e-01, 5.19584239e-01,
          5.79939365e-01, 2.63748944e-01 ]
      - [ -9.39851820e-01, -1.41649678e-01, 1.97838902e-01,
          2.09980100e-01, 1.65097237e-01, 3.63052562e-02, 2.21007932e-02,
          5.01387641e-02, -7.11314976e-02, 1.16487043e-02,
          -1.48734644e-01, -1.12959780e-01, -5.83552383e-02,
          -4.70155478e-02, -9.85562727e-02, 1.73526451e-01,
          2.52098203e-01, -5.59435964e-01, 1.23646945e-01,
          7.45904326e-01 ]
      - [ 6.99963868e-01, -5.73155463e-01, 2.46203661e-01,
          1.05316751e-01, -5.48718452e-01, 4.37027007e-01,
          -4.72385406e-01, 1.56506419e-01, 1.10263042e-01,
          -2.19130114e-01, -1.29518867e-01, 2.15427071e-01,
          -2.08571590e-02, -5.42514503e-01, 2.50080466e-01,
          3.60918581e-01, -3.74222308e-01, 4.40743845e-03,
          7.16039956e-01, 1.19887978e-01 ]
      - [ -9.25458848e-01, -1.49621338e-01, 1.76105261e-01,
          2.73094743e-01, 1.91767603e-01, 9.21791047e-02,
          -5.19893579e-02, 6.44860640e-02, -1.94565639e-01,
          -4.02750045e-01, -6.76625013e-01, -1.58955939e-02,
          2.65708789e-02, 1.21451288e-01, -1.44306511e-01,
          9.70869232e-03, -7.17792311e-04, -2.41456553e-01,
          1.66564628e-01, 6.08395159e-01 ]
      - [ 5.87189376e-01, 1.91631556e-01, -4.56081092e-01,
          2.56720036e-01, -2.31003743e-02, 3.07475299e-01,
          4.04944360e-01, -1.36082485e-01, -7.95082033e-01,
          -2.19674215e-01, 5.51536262e-01, 7.88575649e-01,
          1.26547039e-01, 2.14630529e-01, -3.82667743e-02,
          3.19222510e-01, 1.16287291e-01, 2.65836716e-02, 1.52939200e-01,
          3.16553503e-01 ]
      - [ 5.62739313e-01, 8.37168574e-01, 4.92681980e-01, 7.49109546e-03,
          7.08774984e-01, 3.52096260e-01, -1.96195677e-01,
          -2.24381071e-02, -2.95156449e-01, -1.90738499e-01,
          5.42790815e-02, -1.24723166e-01, -3.63256007e-01,
          -2.76175559e-01, -6.08456075e-01, -4.51342296e-03,
          1.67244405e-01, 1.45537648e-02, -2.63235897e-01,
          5.97570062e-01 ]
      - [ 7.56190300e-01, -8.41422617e-01, 8.11275560e-03,
          -6.72851026e-01, 6.79850519e-01, 2.48991460e-01,
          1.40532970e-01, 3.99029791e-01, 6.47953153e-01,
          -3.47108155e-01, -1.21203077e-03, -2.56501883e-01,
          -1.07322663e-01, -1.56812310e-01, -4.18794364e-01,
          7.43584484e-02, 3.26408178e-01, -1.16098173e-01,
          -5.41861057e-01, -2.80292362e-01 ]
      - [ 5.48959196e-01, 7.28886843e-01, 3.83114785e-01, 1.95962608e-01,
          8.21402669e-01, 3.13468426e-01, -2.01363057e-01,
          -4.33361344e-02, -3.97918522e-01, -1.49871066e-01,
          4.87718016e-01, -1.01861559e-01, -4.99397457e-01,
          -8.03576559e-02, -5.86289227e-01, -1.70956239e-01,
          3.86911273e-01, 1.84324011e-01, -4.81364310e-01,
          2.54283637e-01 ]
      - [ 5.35876155e-01, 3.02465945e-01, -4.36755478e-01,
          7.33055413e-01, 8.35638463e-01, 2.43578926e-01, 9.93046835e-02,
          2.03904122e-01, 8.16258550e-01, -4.72862214e-01,
          -2.25063056e-01, 1.62592575e-01, 7.67937303e-01,
          -1.09015286e-01, -3.40684950e-01, 4.44978699e-02,
          4.80475456e-01, 5.22122579e-03, -1.98120937e-01,
          2.34684229e-01 ]
      - [ 6.47127330e-01, 2.82379568e-01, -1.44120485e-01,
          4.21425551e-01, 7.81675100e-01, 5.28229058e-01,
          -2.32684180e-01, -2.41560683e-01, -3.41142207e-01,
          -3.30296844e-01, 5.26464581e-01, -2.49146491e-01,
          -6.51824117e-01, 1.35477021e-01, 2.11788088e-01,
          3.16538334e-01, 1.80577263e-01, -3.46140921e-01,
          -1.21529967e-01, -1.11049607e-01 ]
      - [ 4.28034127e-01, 7.37568855e-01, 7.20581532e-01, 3.11267301e-02,
          3.14776242e-01, -3.27935159e-01, -9.22853574e-02,
          -1.71636760e-01, -8.65184367e-02, -2.85608441e-01,
          -7.83997308e-03, 1.25354901e-01, 5.93049452e-02,
          -3.33407313e-01, -2.50002742e-01, -2.26483315e-01,
          3.55263025e-01, -3.20941247e-02, 3.46494049e-01,
          -1.03588728e-02 ]
      - [ 5.35122037e-01, 4.35486466e-01, -3.41456868e-02,
          5.56619823e-01, -1.35665730e-01, 6.41341686e-01,
          7.65233874e-01, 1.99142080e-02, -9.09793302e-02,
          -9.86018181e-02, -3.45306635e-01, -5.93406856e-01,
          6.43741012e-01, -1.56930506e-01, 5.31583548e-01,
          5.27668297e-01, 3.21381092e-01, -3.47672611e-01,
          2.79761940e-01, -1.97423205e-01 ]
      - [ 5.64579427e-01, 2.94911265e-01, -7.06415057e-01,
          6.53740644e-01, 1.65206984e-01, 3.53633434e-01, 5.00312209e-01,
          6.13009870e-01, 3.91037554e-01, -6.24925435e-01,
          1.36798948e-01, 3.29182088e-01, 6.26602352e-01,
          -5.07933600e-03, -5.35433702e-02, 3.49757761e-01,
          5.96861482e-01, 3.96196336e-01, -1.51218399e-01,
          3.15067500e-01 ]
      - [ 2.45651647e-01, 5.52241504e-01, 8.98047805e-01, 1.04369566e-01,
          3.13087165e-01, -5.69130599e-01, -4.25341606e-01,
          3.19063246e-01, 7.02051878e-01, -3.09351057e-01,
          -5.17518744e-02, -4.06037718e-02, -3.24383634e-03,
          2.11067215e-01, 7.35818967e-02, 3.32833678e-01, 1.27282843e-01,
          -1.03007235e-01, 1.32859319e-01, 4.60862100e-01 ]
      - [ 7.29257822e-01, -7.34802365e-01, -2.50802875e-01,
          -7.26454854e-01, 3.59416306e-01, -2.12807208e-01,
          1.54941589e-01, -1.10360071e-01, 4.45236176e-01,
          -6.10418856e-01, 1.64361492e-01, -5.62145561e-02,
          -1.84933141e-01, -4.62179393e-01, -7.47867048e-01,
          1.12966105e-01, 1.39628291e-01, 1.78468823e-02, 4.27490354e-01,
          2.01771051e-01 ]
      - [ 5.18707931e-01, -6.90337718e-01, 6.99375451e-01,
          6.95608079e-01, 3.86244446e-01, -3.00734460e-01,
          3.35344404e-01, -9.76052657e-02, -1.52259246e-02,
          2.92058140e-01, -2.93495178e-01, 2.33853787e-01,
          -2.47579902e-01, 5.36366105e-01, -4.64004688e-02,
          4.15129542e-01, -1.10962510e-01, 1.36020452e-01,
          -1.28830403e-01, 5.14837921e-01 ]
      - [ 4.65155125e-01, -8.02800357e-01, 7.31547415e-01,
          3.61624599e-01, 3.39283109e-01, 3.43226679e-02,
          -1.57139048e-01, -1.91940486e-01, 1.35020941e-01,
          6.89732313e-01, -9.55953896e-01, -2.18392372e-01,
          2.03225017e-01, 4.16487038e-01, -2.71463752e-01,
          7.85385251e-01, 1.13781326e-01, 1.10537738e-01,
          -5.56372013e-03, -8.61970112e-02 ]
      - [ 7.82817483e-01, -6.96797907e-01, 1.11951403e-01,
          -3.32618594e-01, -1.07550994e-01, 9.22648311e-01,
          -5.09570360e-01, 4.13364351e-01, 4.01243091e-01,
          1.78522795e-01, -3.23355108e-01, 1.35284081e-01,
          -4.58293140e-01, -4.75960672e-02, -2.42809877e-02,
          -3.43574643e-01, 1.18696570e-01, 2.56009459e-01,
          -2.04816923e-01, 7.27931678e-01 ]
      - [ 5.31289458e-01, 4.29574326e-02, -9.93134201e-01,
          6.00645125e-01, 1.11292433e-02, -7.57121086e-01,
          -2.43358556e-02, -1.71609238e-01, -2.68496782e-01,
          1.40803993e-01, -2.45927542e-01, -5.62931821e-02,
          3.99733037e-01, 2.67219156e-01, -3.32020484e-02,
          1.23400159e-01, -3.33716661e-01, -8.61639857e-01,
          7.58718923e-02, 5.43965399e-01 ]
      - [ 6.29534602e-01, 4.75560099e-01, -3.19966078e-01,
          6.08856857e-01, -1.10573150e-01, 6.58118904e-01,
          5.63944995e-01, 5.63189685e-01, 1.38341054e-01,
          -3.25034648e-01, 5.07631376e-02, -4.29372221e-01,
          6.22046329e-02, 4.77340557e-02, 4.29984510e-01,
          -9.72561538e-02, 3.45863283e-01, 4.28297788e-01,
          5.54832220e-01, 4.83545244e-01 ]
      - [ 4.10534561e-01, -7.14175045e-01, 6.85610235e-01,
          7.38335490e-01, 6.53013349e-01, -3.60592127e-01,
          7.33946800e-01, 5.25013395e-02, 2.92080585e-02, 3.55453670e-01,
          -3.82732958e-01, 2.68647194e-01, -5.11158526e-01,
          2.59634644e-01, 1.44711599e-01, 1.44932017e-01, 9.10594240e-02,
          3.36357802e-01, -3.54842037e-01, 3.04897338e-01 ]
      - [ 4.86539274e-01, 7.13410556e-01, 5.49825013e-01, 5.78504987e-02,
          -5.02246618e-01, 1.74483955e-01, 6.56534016e-01,
          2.31674820e-01, -5.32379925e-01, 5.77761292e-01,
          -2.87958473e-01, -3.70826483e-01, 3.30569386e-01,
          -8.96546617e-03, -6.34838402e-01, -4.39275280e-02,
          2.40417570e-01, 9.09373164e-02, 1.74817219e-02,
          -3.29168886e-01 ]
      - [ -8.10233355e-01, -1.25588626e-01, 1.72893301e-01,
          2.58546948e-01, 2.22647905e-01, -2.08033379e-02,
          5.77932447e-02, -3.13733034e-02, 1.15084276e-01,
          -5.14728129e-02, 2.40872145e-01, -7.38649219e-02,
          1.24448091e-01, 1.21729551e-02, -1.57852754e-01,
          -6.28459360e-03, -2.00142503e-01, 6.73620582e-01,
          3.30782868e-02, 8.95986333e-03 ]
      - [ 5.46502054e-01, 3.58615994e-01, -2.92572349e-01,
          4.91551191e-01, 1.35225222e-01, 9.65379834e-01, 5.60731113e-01,
          -4.89745438e-02, -3.71370763e-01, -3.52987498e-01,
          4.79711920e-01, -6.75420314e-02, -2.13828251e-01,
          1.31793961e-01, 6.85011148e-02, 2.06198897e-02,
          -2.11736858e-02, 9.89633426e-02, -6.49201393e-01,
          2.64313251e-01 ]
      - [ 5.73949277e-01, 4.32860523e-01, -2.55926788e-01,
          6.42601728e-01, 3.85704860e-02, 6.80237591e-01, 5.18447578e-01,
          4.56006259e-01, 1.01563275e-01, -3.51196915e-01,
          1.54729813e-01, -6.68227851e-01, -4.84701619e-02,
          2.88141072e-01, 4.58598942e-01, 1.35017619e-01, 6.06123984e-01,
          1.40162393e-01, 4.89053309e-01, 1.48188204e-01 ]
      - [ 7.71722615e-01, -6.18974686e-01, 8.53018463e-02,
          2.01989338e-02, -1.95987538e-01, 7.43353963e-01,
          -7.55055189e-01, 3.14274758e-01, -3.88265371e-01,
          -4.75451767e-01, 6.48544908e-01, 1.19124271e-03,
          3.05141985e-01, 1.15820251e-01, 3.28362912e-01,
          -3.83642137e-01, -4.06431824e-01, 1.30647331e-01,
          8.72922689e-03, 3.39990221e-02 ]
      - [ 3.70615304e-01, -6.94535375e-01, 8.13245893e-01,
          7.66701818e-01, 5.86443901e-01, -2.94426709e-01,
          5.59386969e-01, -3.11026238e-02, 2.26278514e-01,
          3.38885784e-02, -3.60236056e-02, -7.41302669e-02,
          -1.82349056e-01, 5.40382750e-02, -1.10838547e-01,
          -2.11470291e-01, 2.07683012e-01, -2.71728337e-02,
          -5.23720860e-01, -4.15768862e-01 ]
      - [ 6.43934488e-01, 3.51488799e-01, -6.26483023e-01,
          5.36322236e-01, 2.51715451e-01, -8.18300545e-02,
          1.49184123e-01, 2.18569443e-01, 7.76737690e-01,
          -1.86261296e-01, -4.61575627e-01, -4.19927984e-02,
          9.81468737e-01, -3.43155675e-02, -6.01143181e-01,
          -8.53981972e-02, 1.02308668e-01, -5.49643993e-01,
          3.90174031e-01, -2.41765961e-01 ]
      - [ -9.50456977e-01, -1.62440151e-01, 2.05166981e-01,
          1.79380074e-01, 1.91228792e-01, 2.13208161e-02, 1.73991993e-02,
          6.93059415e-02, 3.56890890e-03, 4.35086638e-02,
          -9.99356154e-03, 3.25936116e-02, -7.80330822e-02,
          -4.21842821e-02, -1.86367199e-01, 1.19775668e-01,
          2.19816610e-01, -5.22340238e-01, 1.65356770e-01,
          6.64348364e-01 ]
      - [ 6.30557179e-01, -6.42898738e-01, -2.21655473e-01,
          -3.96880239e-01, 6.51844203e-01, -5.01645625e-01,
          3.36017519e-01, -1.06173299e-01, -4.28233892e-01,
          2.83913434e-01, -4.97846097e-01, -6.18987642e-02,
          1.94790497e-01, -3.92830014e-01, 3.36291373e-01,
          3.11726034e-01, -8.01080883e-01, -2.53715485e-01, -1.,
          -3.98470253e-01 ]
      - [ 5.46123326e-01, -7.21056402e-01, -1.10671848e-01,
          -5.94594359e-01, 4.24385577e-01, -3.70192438e-01,
          2.84598053e-01, -4.20171946e-01, 5.80937564e-01,
          -7.41505027e-01, -4.28313352e-02, -3.92813653e-01,
          6.49588406e-02, -4.48935747e-01, -4.26258296e-01,
          3.97570759e-01, 3.07041034e-02, 2.50901654e-02,
          -3.21992002e-02, 4.38008636e-01 ]
      - [ 3.90840173e-01, 1.99992970e-01, 3.78416181e-01, 2.93831885e-01,
          -6.65333688e-01, 1.15787201e-02, 4.37326372e-01,
          8.73495460e-01, 2.39813715e-01, -3.97937268e-01,
          7.48294592e-02, 1.64627418e-01, -8.52526501e-02,
          1.49979172e-02, 7.28521496e-02, 4.91148949e-01,
          -4.12668914e-01, 9.66888964e-02, -2.55523443e-01,
          4.94441330e-01 ]
      - [ 8.55258524e-01, -9.34002519e-01, 6.41628087e-01,
          2.11086258e-01, 4.64286834e-01, 1.47278011e-01,
          -2.02405736e-01, 3.56455475e-01, -1.95312202e-01,
          -8.12317505e-02, -1.39556631e-01, -1.57102589e-02,
          5.22778332e-01, -3.56266767e-01, 6.63619712e-02,
          5.48798382e-01, -4.59226668e-01, 4.08945382e-01,
          2.94309050e-01, 4.32014316e-01 ]
      - [ 8.06107879e-01, -5.70739150e-01, 2.40448773e-01,
          3.84181082e-01, -5.57717025e-01, 4.68383491e-01,
          -7.23943889e-01, -3.87757838e-01, 3.04968935e-02,
          -3.13003123e-01, 4.44368720e-01, 1.24695050e-02,
          3.97204934e-03, 9.68787521e-02, -1.49294108e-01,
          -8.92625749e-01, 7.75486827e-02, -1.57230690e-01,
          -1.69317842e-01, 5.30819714e-01 ]
      - [ -9.34273660e-01, -1.65952146e-01, 1.73034936e-01,
          2.56618470e-01, 2.58848518e-01, 7.17276335e-02, 7.38921994e-03,
          1.52714420e-02, 1.28440395e-01, 8.83273482e-02, 2.90310800e-01,
          1.25589482e-02, -7.63631538e-02, -5.02687357e-02,
          -2.05512401e-02, -3.91163677e-02, -1.35342928e-03,
          -2.71045744e-01, -4.74708974e-02, 3.32749009e-01 ]
      - [ 2.81133533e-01, -3.89679402e-01, 5.46188235e-01,
          7.87436187e-01, -6.88847363e-01, -3.06324333e-01,
          2.21324578e-01, -3.66545230e-01, 4.45169181e-01,
          -5.98813295e-01, 9.25206468e-02, 3.35728638e-02,
          -2.20045418e-01, -3.83875966e-01, -1.20593272e-01,
          -4.10161465e-01, 4.10364419e-01, -3.13824713e-01,
          -3.65806341e-01, -3.73745650e-01 ]
      - [ 5.87066531e-01, 5.96002519e-01, 3.28212917e-01, 1.05391465e-01,
          6.13632917e-01, 2.37700954e-01, -1.75134242e-01,
          2.01692551e-01, -2.38878839e-02, -9.34128761e-02,
          1.72149062e-01, 3.73169869e-01, -6.14458084e-01,
          1.22402385e-01, -1.75956428e-01, -1.08901508e-01,
          -3.34055692e-01, 6.46505535e-01, -7.43858293e-02,
          4.13973778e-01 ]
      - [ 5.88007569e-01, 1.48693264e-01, -9.30354893e-01,
          7.15198994e-01, -2.09449325e-02, -1.60840347e-01,
          2.52600424e-02, 7.41535962e-01, -2.84734666e-01,
          -2.32068673e-01, 4.41656381e-01, 3.15853879e-02,
          1.69508293e-01, 2.55420059e-01, -4.26630050e-01,
          1.17261037e-01, 7.85159945e-01, 8.52771819e-01, 6.29252434e-01,
          2.84210414e-01 ]
      - [ 5.69335639e-01, 7.44331598e-01, 4.20949250e-01, 3.51347417e-01,
          5.64408541e-01, 1.80304095e-01, -1.12639433e-02,
          -6.93922579e-01, -6.80407230e-03, -5.11075437e-01,
          -4.39072959e-02, -2.84793019e-01, 1.17374286e-01,
          -7.05091476e-01, 3.76333222e-02, 4.77818757e-01,
          1.35180593e-01, -6.33113444e-01, 4.43680823e-01,
          -2.69163549e-01 ]
      - [ 2.92281330e-01, -9.14377198e-02, -5.12593091e-01,
          -2.90043026e-01, -2.62169659e-01, -3.61925930e-01,
          7.78316736e-01, -7.21769333e-01, 4.01927046e-02,
          -2.12089581e-04, -5.61716437e-01, -1.92927733e-01,
          2.14277297e-01, 3.09814543e-01, 4.20901716e-01, 8.57048258e-02,
          -4.79207724e-01, 3.81508172e-02, 2.78278232e-01,
          7.13250577e-01 ]
      - [ 5.22018194e-01, -4.75395203e-01, 5.41037321e-01,
          6.97921157e-01, -3.48601878e-01, -8.55475068e-02,
          -3.38860631e-01, -6.93010330e-01, -2.68903285e-01,
          2.59896070e-01, -2.61223346e-01, -2.64640242e-01,
          -2.28206500e-01, 1., -5.61999202e-01, 4.57849413e-01,
          -1.90681323e-01, -5.82107902e-02, -1.25913164e-02,
          2.56011877e-02 ]
      - [ 5.93758821e-01, -5.13909101e-01, -5.78985922e-02,
          -5.92097521e-01, 3.55633676e-01, -1.97402760e-02,
          4.29090440e-01, 2.51782000e-01, 5.54827571e-01,
          -5.70595443e-01, 9.81554464e-02, -3.81195515e-01,
          -9.79050472e-02, 1.41207919e-01, -4.96979892e-01,
          3.93227994e-01, 3.11433703e-01, 3.64842594e-01, 3.37994426e-01,
          1.45190597e-01 ]
      - [ 4.60226268e-01, -2.49198169e-01, -7.54596174e-01,
          5.47514439e-01, -2.36934721e-01, -5.14400065e-01,
          -2.66677916e-01, 1.53992221e-01, -4.12817657e-01,
          4.60465521e-01, -1.72111377e-01, 3.27555329e-01,
          2.17803240e-01, 3.66799496e-02, -1.20693028e-01,
          -2.25481242e-01, 3.82149190e-01, 3.94980282e-01,
          8.55794489e-01, 3.14681947e-01 ]
      - [ 4.52105582e-01, 8.46163630e-01, 5.24724364e-01, 2.63919502e-01,
          6.64768040e-01, 1.57139212e-01, -1.71557620e-01,
          -6.07818246e-01, 1.27924085e-01, 1.78805664e-02,
          -6.20364070e-01, -3.74790102e-01, 3.48780692e-01,
          -5.43634653e-01, 2.56429195e-01, 3.67552668e-01,
          3.52136075e-01, -1.55284539e-01, 2.54162788e-01,
          -6.65826872e-02 ]
      - [ 6.64828181e-01, -6.89297974e-01, 4.74559039e-01,
          3.53552788e-01, 3.38502914e-01, -2.07402818e-02,
          -1.87845547e-02, 3.12813371e-01, -6.88818932e-01,
          -3.12204719e-01, 2.40803942e-01, -2.22406328e-01,
          5.47996521e-01, -1.35703102e-01, 1.76452890e-01,
          2.70326674e-01, -1.98560983e-01, 2.01032981e-01,
          2.84041345e-01, 1.78019062e-01 ]
      - [ 5.51840186e-01, -5.11368930e-01, 5.32368243e-01,
          7.22912669e-01, -1.97616383e-01, -8.29084218e-02,
          -1.56361908e-01, -4.51501787e-01, 2.24840954e-01,
          -4.46236491e-01, 3.20632011e-01, -4.73402113e-01,
          -2.19340637e-01, 3.68897438e-01, -6.79575861e-01,
          -3.20759147e-01, -1.52251095e-01, -2.82472998e-01,
          -1.92523509e-01, -1.00589260e-01 ]
      - [ 7.62018263e-01, -6.67498767e-01, 3.42120826e-02,
          -1.18530311e-01, 6.91979706e-01, 1.08718611e-01,
          -6.83707118e-01, 4.07002956e-01, -5.89506745e-01,
          -1.09937087e-01, 3.98625374e-01, 2.44061008e-01,
          7.94562697e-01, 8.14484134e-02, -3.84726912e-01,
          -1.68076783e-01, -1.07472964e-01, -3.07679027e-01,
          -2.75851250e-01, -6.95530772e-02 ]
      - [ -8.85109246e-01, -1.22470506e-01, 1.65007144e-01,
          2.33507872e-01, 1.74000248e-01, 6.65729567e-02,
          -2.47436501e-02, 9.27303657e-02, -1.17856555e-01,
          -4.54723418e-01, -4.70331520e-01, 1.11012600e-01,
          1.12510391e-01, 4.42967750e-02, -2.20775425e-01,
          -6.19686320e-02, -9.89838541e-02, 4.58797395e-01,
          2.07597464e-02, -1.47904664e-01 ]
      - [ 2.62251645e-01, -1.63945153e-01, 3.84758979e-01,
          7.12699413e-01, -7.30874419e-01, -2.03844011e-01,
          3.06828946e-01, -3.41184646e-01, 3.31662238e-01,
          -2.18092084e-01, -2.01342806e-01, 3.76892596e-01,
          -4.43731934e-01, 3.18668187e-02, 1.37440592e-01,
          -4.64100167e-02, 3.07893604e-01, -7.58144036e-02,
          -2.51895547e-01, -4.48180169e-01 ]
      - [ 6.94196939e-01, -4.39334154e-01, -7.30319619e-01,
          -3.48172486e-01, 2.17494890e-01, -5.57110071e-01,
          4.85252500e-01, -5.82047045e-01, -3.21825445e-01,
          3.71303260e-01, -6.39942288e-01, -5.96765690e-02,
          -4.67122138e-01, 8.29645544e-02, 3.90483737e-01,
          -1.00492097e-01, -2.94600606e-01, -1.84261784e-01,
          -3.70511077e-02, -4.07245904e-01 ]
      - [ 4.57387537e-01, 7.13371038e-01, 6.99973524e-01,
          -1.74808651e-02, 5.09480655e-01, -1.67912006e-01,
          -4.08100426e-01, 4.01109695e-01, 4.69791330e-02,
          -2.81946689e-01, 1.61392897e-01, -2.87469715e-01,
          -1.03853241e-01, -8.49567801e-02, -1.97940618e-01,
          -7.52621442e-02, 3.40041906e-01, 2.19179198e-01,
          -1.40353709e-01, 1.13937214e-01 ]
      - [ 4.78232563e-01, 6.51185453e-01, 4.85774390e-02, 3.64245623e-01,
          9.06935751e-01, 2.09602639e-01, -8.79975930e-02,
          -3.64874005e-01, -4.16571088e-02, 1.38499085e-02,
          1.43155485e-01, 4.50910151e-01, -2.98970193e-01,
          3.43414962e-01, -7.40404367e-01, -2.49088347e-01,
          -7.98182338e-02, 5.19103169e-01, -3.55089366e-01,
          1.38012409e-01 ]
      - [ 4.90679771e-01, 6.77661061e-01, -2.17754334e-01,
          5.41354299e-01, 1., 2.37356231e-01, 8.97037387e-02,
          -5.10633171e-01, 5.69972515e-01, -1.60268664e-01,
          3.85592990e-02, 2.18234852e-01, -3.73993721e-03,
          8.28273058e-01, -2.16205150e-01, -8.32521319e-02,
          1.30014364e-02, -2.44288426e-03, -2.34586541e-02,
          -2.31612623e-01 ]
      - [ 6.68344080e-01, -8.48806977e-01, 5.33895731e-01,
          5.92969477e-01, 5.31668067e-01, 5.52744195e-02,
          -3.00087005e-01, -1.44767866e-01, -5.04994877e-02,
          -1.90247193e-01, 3.98917586e-01, -8.68922770e-02,
          2.33175363e-02, 2.81804383e-01, -7.21651554e-01,
          -7.08101332e-01, 3.43582481e-01, -9.64256003e-02,
          -2.86233395e-01, 6.68054879e-01 ]
      - [ 6.26000464e-01, -9.69677031e-01, 7.07333982e-01,
          5.26924491e-01, 6.09507680e-01, -7.03220665e-02,
          -4.02250558e-01, -2.78885104e-02, -2.98334777e-01,
          1.67713091e-01, -1.11521572e-01, -5.19959331e-01, 1.,
          -4.03435864e-02, -2.88830042e-01, 2.03845382e-01,
          4.32044685e-01, 1.85732096e-01, -1.05338164e-01,
          1.14222988e-01 ]
      - [ 3.31171632e-01, -4.29242402e-01, -6.70620203e-01,
          4.39281106e-01, -1.17264554e-01, -9.63323176e-01,
          -8.39989781e-01, 7.18328729e-02, -1.24315023e-02, 1.,
          -5.17185867e-01, -4.14524674e-01, -5.52568495e-01,
          -1.16728343e-01, 1.77340120e-01, -3.34520280e-01,
          -1.76738009e-01, -2.41850913e-02, 4.76755023e-01,
          -2.03395829e-01 ]
      - [ 3.58305097e-01, 6.40693069e-01, 8.73851836e-01,
          -6.82891235e-02, 3.27505708e-01, -2.97811389e-01,
          -3.23459357e-01, 5.81405818e-01, 5.63469231e-01,
          -2.02447161e-01, 7.38972574e-02, -3.02265763e-01,
          4.44026217e-02, 5.34953594e-01, -2.79541582e-01,
          7.59185731e-01, -3.38696599e-01, -3.39966238e-01,
          -8.26880708e-02, -5.50374649e-02 ]
      - [ 4.92043942e-01, -6.82472944e-01, 8.10750604e-01,
          6.79765880e-01, 3.57256979e-01, -1.84289455e-01,
          2.51273245e-01, -1.80551291e-01, 1.63806081e-01,
          1.90030977e-01, -2.95640409e-01, -5.41248173e-03,
          -3.52477059e-02, 2.23008946e-01, -1.87711731e-01,
          1.39081642e-01, 9.13545191e-02, 4.26614821e-01,
          -4.01777804e-01, -7.88399763e-03 ]
      - [ 5.47957718e-01, 4.84031625e-02, -5.82586467e-01,
          6.74383998e-01, -8.69416073e-03, 2.51395971e-01,
          -2.93165948e-02, 6.45057559e-01, 3.28350514e-01,
          6.56894520e-02, -1.99904032e-02, -3.49333584e-01,
          -1.36268526e-01, 9.97297913e-02, -1.82325035e-01,
          -4.01445657e-01, 7.06301212e-01, 7.66786933e-02,
          2.23149434e-01, -6.48896620e-02 ]
      - [ -9.09953415e-01, -1.49296358e-01, 1.71264201e-01,
          2.60662407e-01, 2.43401870e-01, -5.53084398e-03,
          -5.76330572e-02, 7.74452370e-03, 1.02818236e-01,
          2.37806112e-01, 3.19416076e-01, -2.94225495e-02,
          -9.20089185e-02, 1.01764813e-01, -7.56161958e-02,
          -4.68381979e-02, -2.33645597e-03, 1.41020566e-01,
          -7.76065364e-02, 4.74400669e-01 ]
      - [ 6.28122211e-01, 5.40225327e-01, -2.60658503e-01,
          5.85088551e-01, 8.85145962e-01, 8.27208936e-01, 2.67715186e-01,
          -1.97832212e-01, 1.44384205e-01, -4.38949645e-01,
          2.35538840e-01, 1.93346351e-01, -7.79286250e-02,
          3.99580859e-02, 1.50737450e-01, 2.82718211e-01,
          -1.90734208e-01, -3.88600938e-02, -2.42449686e-01,
          3.48059624e-01 ]
      - [ 6.70001328e-01, 2.79892206e-01, -8.37006330e-01,
          5.85506737e-01, 4.61652905e-01, 6.97998106e-02, 4.31856453e-01,
          -1.23897389e-01, -7.21307173e-02, -5.39495826e-01,
          1.65980890e-01, 5.13398886e-01, 6.50265574e-01, 3.42678219e-01,
          -5.12803137e-01, 3.95324141e-01, 7.72948936e-02,
          -5.42844415e-01, 1.33352324e-01, 6.39033541e-02 ]
      - [ 6.32445455e-01, 2.15162143e-01, -2.42788672e-01,
          7.05760717e-01, -2.53630038e-02, 6.56608939e-01,
          1.91661283e-01, 1.25258505e-01, -5.86123586e-01,
          -2.79585958e-01, 6.05409324e-01, -3.51546049e-01,
          -3.06495756e-01, 5.04391789e-01, 4.56437469e-01,
          1.71520457e-01, 2.47924015e-01, 3.60659480e-01, 3.45648587e-01,
          3.48917753e-01 ]
      - [ 5.84909558e-01, 7.25840211e-01, 3.20462942e-01, 4.30961363e-02,
          1.29822701e-01, 4.10830051e-01, 3.40986699e-01,
          -6.60341918e-01, -3.29807222e-01, 5.27446747e-01,
          -3.18811089e-01, -3.85894597e-01, 3.28345686e-01,
          3.63872677e-01, -7.38452375e-01, -8.94217789e-01,
          -5.20678282e-01, 1.07144061e-02, 4.15385425e-01,
          -1.66146114e-01 ]
      - [ 6.53250635e-01, 1.53113827e-01, -6.90824449e-01,
          4.91932005e-01, 5.49071252e-01, -1.18757404e-01,
          9.32336003e-02, -4.70574379e-01, -2.02971965e-01,
          -4.86204445e-01, 3.31705838e-01, 5.52775443e-01,
          4.83333260e-01, 2.18331888e-01, 8.92674178e-02, 6.60558224e-01,
          -3.93160939e-01, -4.09454674e-01, 8.66234079e-02,
          4.52949941e-01 ]
      - [ 3.23704332e-01, 3.35400701e-01, 4.61040229e-01, 1.74565941e-01,
          -6.04240477e-01, 4.94113937e-02, 6.30985260e-01,
          8.51669610e-01, 1.56137034e-01, -4.01258878e-02,
          1.73426196e-02, -2.30092369e-02, 1.65089414e-01,
          5.12127429e-02, 4.16752920e-02, 2.28493065e-01, 1.05313249e-01,
          2.16755375e-01, -9.49264348e-01, 1.78139731e-01 ]
      - [ 4.03466046e-01, 2.36753285e-01, 5.11258006e-01, 1.11427933e-01,
          -6.31099641e-01, -1.13398917e-01, 3.32290888e-01,
          5.33986568e-01, 6.37196362e-01, -2.18365621e-02,
          -2.67059922e-01, 4.26157981e-01, 4.83975150e-02,
          4.39230293e-01, -2.31920272e-01, -1.36238679e-01,
          -6.52483642e-01, -2.98695654e-01, 2.45367289e-01,
          5.25747359e-01 ]
      - [ 4.03517127e-01, 6.76436782e-01, 7.74905920e-01, 2.23645046e-02,
          3.52676004e-01, -4.46697056e-01, -3.43735069e-01,
          -4.21321452e-01, -1.94046885e-01, -7.84243196e-02,
          -2.78454758e-02, 1.69209987e-01, 1.29367054e-01,
          -2.01850384e-01, -1.12286255e-01, -4.92769927e-01,
          5.83249152e-01, -9.25332755e-02, 4.28147197e-01,
          6.77265525e-02 ]
      - [ 6.19801342e-01, -9.19133961e-01, 6.18310332e-01,
          5.64247370e-01, 5.79226077e-01, 1.64916664e-01,
          -4.10284996e-02, 1.41644865e-01, -5.99747114e-02,
          2.76427597e-01, -2.00400576e-01, -5.56419007e-02,
          5.70892468e-02, 6.26047254e-01, -4.18733329e-01,
          1.80477619e-01, 1.59504518e-01, 1.42447725e-01, 4.08179462e-01,
          8.22396576e-01 ]
      - [ -9.33370411e-01, -1.08345225e-01, 1.60640702e-01,
          2.28919774e-01, 2.43579388e-01, 9.65553597e-02,
          -3.51741202e-02, 1.49980322e-01, -1.93949148e-01,
          -5.71384370e-01, -7.53874660e-01, 1.72087420e-02,
          -2.62267794e-02, 7.86122307e-02, -9.47240293e-02,
          -2.04908606e-02, 8.00534859e-02, -6.98097497e-02,
          -7.12052286e-02, -1.12305274e-02 ]
      - [ 8.67296994e-01, -6.09813988e-01, -1.31335154e-01,
          5.14503717e-02, 8.64990354e-01, 2.41318569e-01,
          -2.49498457e-01, 4.54436183e-01, -7.44482100e-01,
          2.46605501e-01, 3.05381343e-02, 1.82605267e-01, 6.88561916e-01,
          2.45854184e-02, 1.07878298e-02, -3.03186446e-01,
          -3.38720113e-01, -3.06277238e-02, -8.54469389e-02,
          -2.69726366e-01 ]
      - [ 6.55865848e-01, -5.46417952e-01, -2.90078342e-01,
          -5.05323291e-01, -2.02320367e-01, -2.28731725e-02,
          2.89160013e-01, 2.26301849e-02, 2.53537923e-01,
          -6.49587572e-01, 3.27722847e-01, -5.05705774e-02,
          -3.89420211e-01, 9.24616382e-02, -4.48138624e-01,
          -2.05904409e-01, 9.03948426e-01, 9.80137289e-03,
          7.30856419e-01, 3.04813385e-01 ]
      - [ 6.45206630e-01, 7.22780287e-01, 2.45473489e-01, 2.23428026e-01,
          -3.11188877e-01, 5.84601998e-01, 6.63458943e-01,
          -1.71698555e-01, 7.11867884e-02, 2.97686189e-01,
          -5.83234370e-01, -9.41824750e-04, 3.06871831e-01,
          -4.62732613e-01, -2.05237597e-01, -6.38150156e-01,
          4.85676266e-02, -1.86862156e-01, 3.79072368e-01,
          7.63491631e-01 ]
      - [ 3.72290611e-01, 3.08062345e-01, 4.38924253e-01,
          -1.04657272e-02, -5.56075931e-01, -1.07746057e-01,
          2.37602025e-01, 5.88199496e-01, 5.39642870e-01,
          -7.09750354e-02, -6.76695853e-02, 4.40420628e-01,
          2.93462574e-01, 4.63074148e-01, 1.44554516e-02,
          -4.95691299e-01, -5.62277138e-01, -1.72838792e-01,
          5.60040064e-02, 5.37832797e-01 ]
      - [ 6.25644565e-01, 1.77916745e-03, -4.95433271e-01,
          4.54374075e-01, 7.27881849e-01, 2.93268412e-01,
          -1.09579660e-01, -1.22542843e-01, -1.99902996e-01,
          -4.51740995e-02, 5.51731884e-01, 3.57177407e-02,
          -3.96587968e-01, 7.44198918e-01, 5.02973855e-01,
          5.62937520e-02, 2.13408738e-01, 1.92843646e-01, 2.36600965e-01,
          1.22943923e-01 ]
      - [ 6.50437117e-01, -5.41754544e-01, 3.60583723e-01,
          4.68944103e-01, -2.82943845e-01, 3.70656163e-01,
          -4.74868983e-01, -4.74444807e-01, -1.21029824e-01,
          5.61693251e-01, -4.70673412e-01, -5.60614793e-03,
          -3.53820592e-01, 8.80009890e-01, -4.39705849e-01,
          1.05074324e-01, -4.84058857e-01, -1.09209150e-01,
          1.07479036e-01, 2.96925247e-01 ]
      - [ 7.47749805e-01, -4.70523655e-01, -3.47997278e-01,
          -4.53104645e-01, -3.64412577e-03, 1.69735149e-01,
          -1.66196167e-01, 2.64346570e-01, -4.78473812e-01,
          -1.03325196e-01, 4.66646887e-02, 1., -1.14707217e-01,
          -2.76798129e-01, 6.36299998e-02, -4.00913119e-01,
          3.06452036e-01, -3.02664250e-01, 3.63976926e-01,
          -1.76839679e-01 ]
      - [ 4.98704165e-01, -6.07009232e-01, 7.58888662e-01,
          5.70185900e-01, 6.29441500e-01, -2.65697300e-01,
          8.21443379e-01, 4.48007524e-01, 2.74084002e-01, 1.08380079e-01,
          -5.00873804e-01, 2.43381351e-01, -1.62890956e-01,
          1.84420291e-02, 2.48069331e-01, -3.48662287e-01,
          -1.12954393e-01, 3.57163161e-01, 1.73902646e-01,
          6.50295675e-01 ]
      - [ -9.48932648e-01, -1.32859081e-01, 1.52810574e-01,
          2.36658096e-01, 2.07297787e-01, 9.94990990e-02, 1.93646438e-02,
          6.77364171e-02, 8.40304047e-02, -6.21936470e-03,
          1.87958434e-01, 6.84343278e-03, -1.10853456e-01,
          -1.03549674e-01, -1.55435130e-02, 6.12615459e-02,
          5.00930995e-02, -4.35614318e-01, -5.50472960e-02,
          3.86191010e-01 ]
      - [ 4.31981206e-01, 9.70195532e-02, -6.59007251e-01,
          5.94378471e-01, 6.32185638e-01, -2.27043718e-01,
          6.44070730e-02, -4.93111998e-01, 1.95092827e-01,
          -1.02871217e-01, -1.62625283e-01, 1.83853865e-01,
          5.32029033e-01, 5.55943474e-02, 3.94750386e-02, 2.77299434e-01,
          -2.38088161e-01, -8.95963967e-01, -4.60550070e-01,
          2.42562994e-01 ]
      - [ 4.96758431e-01, -3.73695761e-01, 3.88264388e-01,
          6.74247622e-01, -8.73404086e-01, -1.54405102e-01,
          -2.00398013e-01, -7.17654288e-01, 1.89951256e-01,
          -2.51328915e-01, -1.19835943e-01, 3.74038309e-01,
          -5.43096513e-02, -1.92053288e-01, -1.13168597e-01,
          3.53995979e-01, 2.59032577e-01, 4.29587811e-01,
          -3.19725156e-01, 3.60808498e-03 ]
      - [ 3.16332132e-01, -1.72635652e-02, -7.99717009e-01,
          9.48639631e-01, 8.58604684e-02, -9.02117431e-01,
          -8.21382105e-01, 2.67209038e-02, 3.77617180e-02,
          4.75976199e-01, -3.77998203e-01, -4.32804406e-01,
          -2.95543671e-01, -6.05182827e-01, -1.35732621e-01,
          -1.83393747e-01, -5.53877234e-01, -7.04549193e-01,
          -6.16233885e-01, -1.46056950e-01 ]
      - [ 5.07287920e-01, -5.44866025e-01, 4.57667023e-01,
          5.70200562e-01, -7.20585525e-01, 9.56007987e-02,
          -4.32440609e-01, -4.48268801e-01, -1.83157936e-01,
          -2.27836132e-01, 3.59812886e-01, -4.72962052e-01,
          3.43591958e-01, -8.19727406e-02, -2.53380183e-02,
          -2.31301546e-01, 4.99865353e-01, -2.40514383e-01,
          -3.48311752e-01, -1.82865530e-01 ]
      - [ 6.89735711e-01, -7.19230175e-01, 6.94085181e-01,
          6.93709433e-01, 6.78364694e-01, -1.53553307e-01,
          6.28404260e-01, 4.15603891e-02, -4.46161628e-01,
          2.07764357e-01, 9.75420792e-03, -1.81298748e-01,
          -8.38161111e-02, 4.75021899e-01, -1.47790357e-01,
          5.01226544e-01, 2.82208204e-01, 1.46261305e-01, 3.00094366e-01,
          1.41778529e-01 ]
      - [ 6.32515848e-01, 5.83423615e-01, 1.93816811e-01, 2.62571484e-01,
          -2.52675116e-01, 6.62766993e-01, 5.55885553e-01,
          -2.55852818e-01, -5.25262892e-01, 8.33810773e-03,
          -2.17286438e-01, -4.94546592e-01, 3.18031937e-01,
          -2.20498636e-01, -3.36823314e-01, 3.20364028e-01,
          -9.28536505e-02, -4.28419769e-01, 2.41346896e-01,
          -4.73697424e-01 ]
      - [ 3.65481198e-01, 1.69314742e-01, -8.95747125e-01,
          6.94274426e-01, -1.22997396e-01, -5.26672304e-01,
          1.49131164e-01, 7.80454516e-01, -2.10055768e-01,
          -3.75928015e-01, 2.44485885e-01, -1.77023560e-01,
          1.47470132e-01, -1.62036881e-01, -1.06303185e-01,
          4.09348756e-01, 5.13025403e-01, 6.70353949e-01,
          -1.20784901e-01, 4.35933948e-01 ]
      - [ 5.92929721e-01, -5.53977907e-01, 7.06840932e-01,
          7.08679557e-01, 2.00266644e-01, -1.88314334e-01,
          1.97727352e-01, -3.57791603e-01, 2.69321471e-01,
          -3.84104550e-01, 1.03238106e-01, 2.02791646e-01,
          -3.71062934e-01, 6.33277148e-02, -3.07993352e-01,
          1.33473396e-01, -1.96959585e-01, 1.15551092e-01,
          -3.25211361e-02, 2.22620875e-01 ]
      - [ 4.81605560e-01, 1.59795165e-01, -5.21169603e-01,
          8.61651421e-01, 7.16774523e-01, -1.63665842e-02,
          -6.46166801e-01, 8.80406275e-02, 4.31034476e-01,
          -3.15412134e-01, 5.26802182e-01, -3.87032747e-01,
          -1.92109831e-02, 8.18879783e-01, -1.85171254e-02,
          -3.00985157e-01, 3.17841351e-01, -1.68659762e-01,
          3.11152130e-01, -2.78176218e-01 ]
      - [ 6.78441405e-01, -3.74950528e-01, -2.31363475e-01,
          -4.28823620e-01, 1.74559429e-01, 6.09215736e-01,
          1.27351098e-02, 2.33385175e-01, -4.32429403e-01,
          1.44134566e-01, -1.04587950e-01, 2.63875067e-01,
          -4.41005707e-01, 2.51725554e-01, 4.33161139e-01,
          -3.44733506e-01, 4.29134935e-01, 4.19544697e-01,
          2.71887444e-02, -3.82355660e-01 ]
      - [ 5.71077406e-01, 6.34255307e-03, -8.55417848e-01,
          8.96735728e-01, 1.21905148e-01, -3.78462076e-01,
          -3.24009866e-01, 2.58076876e-01, 1.70076609e-01,
          3.54187265e-02, -1.44498646e-01, -2.34972523e-03,
          4.38751541e-02, -9.23747867e-02, -8.57723176e-01,
          4.04868796e-02, 2.04905942e-01, -5.56128561e-01,
          3.99571955e-01, -7.39339739e-02 ]
      - [ 5.33604980e-01, 6.62046909e-01, 1.40836492e-01,
          -7.11203646e-03, 7.61701763e-01, -3.60834748e-02,
          -1.80041064e-02, -6.09627813e-02, -5.44712901e-01,
          -1.97648153e-01, 5.22702157e-01, 3.41004878e-01,
          -2.14201570e-01, 3.68294090e-01, -1., 5.16183972e-01,
          1.79638520e-01, 2.58634180e-01, -5.65917194e-01,
          1.04087312e-02 ]
      - [ 3.01622719e-01, 5.45805633e-01, 7.79416621e-01,
          -1.34985670e-01, 3.29666793e-01, -5.85166693e-01,
          -4.65639502e-01, 3.35749865e-01, 4.35397357e-01,
          -2.64580697e-01, 2.60700017e-01, 3.45232576e-01,
          8.11744295e-03, 2.90107548e-01, 2.82724231e-01,
          -1.80525139e-01, 4.56853537e-03, -1.12785891e-01,
          -1.91797048e-01, 2.49081403e-01 ]
      - [ 5.15260935e-01, 2.94685941e-02, -7.72437334e-01,
          6.59830272e-01, -2.66261935e-01, -5.18280447e-01,
          4.35816050e-02, 6.31304026e-01, -3.05759668e-01,
          -3.58313948e-01, 2.06289500e-01, 1.93485662e-01,
          -1.97067037e-02, -2.52655059e-01, -2.56474972e-01,
          -5.74178472e-02, 3.05696905e-01, 9.34610426e-01,
          4.93488163e-01, 7.44078159e-01 ]
      - [ 3.90164167e-01, -2.80164275e-03, -9.69167411e-01,
          8.63676906e-01, -1.76370069e-01, -7.48938620e-01,
          -2.67627537e-01, 4.35665786e-01, -5.59792876e-01,
          2.41554957e-02, 2.12923750e-01, -1.75987586e-01,
          1.27431959e-01, -3.55829060e-01, -4.43345129e-01,
          2.49426868e-02, 3.36160243e-01, 4.53743786e-01, 1.91042200e-03,
          2.64622420e-01 ]
      - [ -9.41589415e-01, -1.23441912e-01, 1.98940396e-01,
          2.50959545e-01, 1.87873259e-01, 8.77588689e-02,
          -7.23739862e-02, 6.92979917e-02, -2.50211746e-01,
          -5.66932321e-01, -8.57535005e-01, 4.67576087e-03,
          3.98414060e-02, 6.42072409e-02, -1.05948769e-01,
          -3.05076949e-02, 1.02294020e-01, 1.45840421e-02,
          3.39735337e-02, 2.08004322e-02 ]
      - [ 6.20031238e-01, -7.74283946e-01, -1.56507462e-01,
          -3.52039397e-01, 7.36744523e-01, -2.95234680e-01,
          2.71885823e-02, -8.36844184e-03, -4.61412489e-01,
          3.58778000e-01, -1.54996961e-01, 1.09796591e-01,
          6.02205634e-01, -3.37079078e-01, 3.94650578e-01,
          -1.76548481e-01, -4.43452984e-01, -5.69602214e-02,
          -6.57227993e-01, 2.27435920e-02 ]
      - [ 7.94985294e-01, -7.32948780e-01, -1.79793581e-01,
          -4.42260742e-01, 2.74176188e-02, 5.52984416e-01,
          -2.83805400e-01, 4.84362125e-01, 1.97725520e-01,
          -2.89820969e-01, -2.22484976e-01, 4.11141008e-01,
          -5.71023405e-01, -3.00369233e-01, -2.29814634e-01,
          -1.19424760e-02, 3.33333433e-01, -3.03691000e-01,
          6.07713401e-01, -2.52185851e-01 ]
      - [ 5.52224219e-01, -5.60688674e-01, -2.03567550e-01,
          -6.08499825e-01, 3.92421991e-01, -5.78226686e-01,
          2.25868523e-01, -4.27006960e-01, -8.89623612e-02,
          -8.64334926e-02, -2.87432939e-01, -5.28637707e-01,
          4.00606483e-01, -1.36573046e-01, 2.12561131e-01,
          1.53526545e-01, -7.06139445e-01, -5.51441647e-02,
          -9.29885447e-01, -1.86050367e-02 ]
      - [ 4.97908890e-01, 5.52886665e-01, 3.99329692e-01, 6.93599507e-02,
          -3.58465940e-01, 2.36252680e-01, 6.05485439e-01,
          8.25365841e-01, -4.18883681e-01, 4.61786613e-03,
          1.35510176e-01, -2.58074462e-01, 1.74519375e-01,
          1.52095258e-01, -4.88479882e-01, 4.82512802e-01,
          -2.69537359e-01, -1.12383202e-01, 3.93814314e-03,
          3.52127761e-01 ]
      - [ 4.33914572e-01, -6.47834316e-02, -6.30961180e-01,
          5.27226686e-01, 3.27342570e-01, -5.18425405e-01,
          -2.67953519e-02, -5.63304543e-01, 2.37606615e-01,
          3.53977323e-01, -5.59990227e-01, 2.24184483e-01,
          4.29736286e-01, 4.71317992e-02, 3.62888902e-01, 9.83846411e-02,
          -5.42246401e-01, -6.54801607e-01, -1.54904276e-01,
          2.70753298e-02 ]
      - [ 4.66788381e-01, 5.84603786e-01, 4.44724172e-01, 7.57012665e-02,
          -6.04663312e-01, 2.34617591e-01, 6.87343359e-01,
          5.77921808e-01, -3.29812914e-01, 5.96715845e-02,
          -2.39388630e-01, -7.06832437e-03, 3.57648402e-01,
          -3.94949079e-01, -1.58773914e-01, 3.28814834e-02,
          5.13948560e-01, -3.82653922e-02, -4.23594058e-01,
          2.37958699e-01 ]
      - [ 5.39607286e-01, 7.16293812e-01, 4.41818088e-01, 1.88311204e-01,
          5.93967676e-01, 2.57610351e-01, -3.23024988e-02,
          9.17690173e-02, -6.32950068e-01, -4.21092123e-01,
          4.34058458e-01, -1.77596703e-01, -4.46014225e-01,
          -4.13635671e-01, -4.19358909e-01, 7.64907002e-01,
          1.74910389e-02, -3.37200403e-01, -1.45725340e-01,
          2.41634265e-01 ]
      - [ 4.44039881e-01, 5.16110398e-02, -7.80920267e-01,
          8.18302929e-01, -1.16913497e-01, -4.55121160e-01,
          -1.02505527e-01, 4.58179414e-01, -1.05664372e-01,
          1.34030310e-02, -4.20051254e-02, -3.06583256e-01,
          4.00869340e-01, -2.95062006e-01, -5.69811046e-01,
          2.42618874e-01, 1., -1.47870816e-02, -5.05804941e-02,
          -3.17014545e-01 ]
      - [ 5.74499428e-01, -6.03450179e-01, -1.63478658e-01,
          -2.13508159e-01, 4.05945210e-03, -1.71746969e-01,
          3.67095739e-01, -5.29135704e-01, 5.74748337e-01,
          -5.06333649e-01, -3.45231622e-01, -9.87896398e-02,
          -3.47237140e-01, -4.78188973e-03, -1.16462171e-01,
          1.79164782e-01, -6.22869432e-01, -4.23797339e-01,
          2.14718670e-01, 2.17827603e-01 ]
      - [ 4.62867826e-01, 4.08119261e-01, 6.62700117e-01,
          -3.63018923e-02, -3.86830360e-01, -4.94856179e-01,
          1.89788103e-01, 5.97462714e-01, 6.21068120e-01,
          -7.88175128e-03, -1.84474349e-01, 3.30354087e-02,
          3.86901259e-01, 5.54585636e-01, -2.11211160e-01,
          -3.05526584e-01, -7.76304901e-01, -6.80536389e-01,
          3.31990421e-01, -2.46682763e-01 ]
      - [ 4.57071513e-01, 7.67455101e-01, 6.67758226e-01,
          -4.64180075e-02, -6.19278431e-01, -4.42873919e-03,
          4.54973012e-01, 7.55031481e-02, -1.18815064e-01,
          6.00542247e-01, -5.75298011e-01, -8.54362175e-02,
          4.02670473e-01, -1.59570612e-02, -3.11660767e-01,
          -9.16712284e-01, 4.21015620e-01, -4.95120212e-02,
          6.53347224e-02, -1.12088874e-03 ]
      - [ 4.27428633e-01, 2.59493321e-01, -6.75938547e-01,
          6.65645123e-01, 2.93072551e-01, -5.68381786e-01,
          -4.22710359e-01, 3.82765651e-01, 1.30232871e-01,
          -4.10710387e-02, 1.37015991e-02, 4.37716991e-02,
          -6.48310781e-01, -2.90387154e-01, -6.16101682e-01,
          -3.23081344e-01, -1.67095795e-01, 1.73964590e-01,
          4.90860373e-01, 2.61150539e-01 ]
      - [ 6.43843770e-01, 4.94070858e-01, -3.33126247e-01,
          4.76726741e-01, 3.99520993e-01, 4.31841940e-01, 2.56341636e-01,
          -1.42914712e-01, 9.52645719e-01, -2.20380295e-02,
          -4.22253788e-01, -2.23442197e-01, 7.62430608e-01,
          6.08036160e-01, -2.56602198e-01, -6.27589285e-01,
          -1.27980337e-01, -4.56201822e-01, 3.49238873e-01,
          -2.70914495e-01 ]
      - [ 5.02525270e-01, -7.24855781e-01, 7.98038244e-01,
          7.94554889e-01, 3.64282101e-01, -1.84760228e-01,
          3.18305418e-02, -3.51111412e-01, -1.08796824e-02,
          -2.81668633e-01, 3.54313135e-01, -4.54979986e-01,
          3.51623327e-01, 4.51323867e-01, -4.64443952e-01,
          2.10458666e-01, 5.74798167e-01, 7.55593702e-02,
          -3.57051730e-01, -8.42107385e-02 ]
      - [ 5.89545906e-01, 5.63303471e-01, 7.01561347e-02, 3.01702321e-01,
          6.90729976e-01, 2.90714741e-01, -6.58415770e-03,
          -5.15109897e-02, 5.32010458e-02, -2.88289785e-02,
          3.86491939e-02, 5.33950150e-01, -3.52024615e-01,
          9.89004225e-02, -3.06185067e-01, -7.40711577e-03,
          -2.67108053e-01, 1., -1.68495595e-01, 4.74918842e-01 ]
      - [ 7.04570949e-01, -8.42843115e-01, 1.29370078e-01,
          -4.33093071e-01, 6.39395714e-01, 3.96420747e-01,
          -2.61971444e-01, 5.60464740e-01, 2.34686911e-01,
          4.50545192e-01, -2.47755527e-01, -5.01821376e-02,
          2.34899655e-01, 2.24824309e-01, -2.46021375e-01,
          5.54470308e-02, 2.92471796e-01, -1.10946493e-02,
          -4.52608317e-01, -2.63386607e-01 ]
      - [ 7.88314402e-01, -5.59659600e-01, -1.94590855e-02,
          8.03222731e-02, 8.99836361e-01, 1.96160004e-01, 3.30795757e-02,
          2.84278691e-01, -7.87855446e-01, -1.92436248e-01,
          3.74579728e-01, 3.75726372e-01, 2.70100325e-01, 1.64188057e-01,
          1.14876986e-01, -4.54311460e-01, -2.77674377e-01,
          -2.30033338e-01, -3.34468693e-01, -7.62935653e-02 ]
      - [ -9.50032055e-01, -1.24356553e-01, 1.78776532e-01,
          1.73045814e-01, 2.05074608e-01, 2.65227854e-02,
          -2.14358009e-02, 9.14502591e-02, -7.14475885e-02,
          1.85251888e-02, -1.11647189e-01, -3.95808415e-03,
          -6.26822859e-02, -1.13967888e-01, -1.12717658e-01,
          3.84694710e-02, 2.81833172e-01, -5.54332256e-01,
          1.00449525e-01, 6.99960589e-01 ]
      - [ 6.03860855e-01, 4.45651561e-01, 2.35979512e-01, 1.33997753e-01,
          6.50231659e-01, 3.14446121e-01, -2.80580044e-01,
          3.60748440e-01, -2.80108958e-01, -5.96954465e-01,
          6.88302696e-01, 7.13097975e-02, -7.43581176e-01,
          1.73225686e-01, -3.53186816e-01, 5.73761106e-01,
          -7.23592162e-01, -4.46624100e-01, 5.86691918e-03,
          1.69336066e-01 ]
      - [ 5.52978635e-01, 5.41398287e-01, 1.21866085e-01, 1.75667062e-01,
          -1.20820194e-01, 8.30812573e-01, 5.77017426e-01,
          -1.34742349e-01, -4.68712240e-01, 3.69524136e-02,
          4.81326431e-02, 7.57854208e-02, -1.47188991e-01,
          -2.43644550e-01, -4.16305602e-01, -4.46496069e-01,
          2.51098126e-01, 6.09846890e-01, -2.69097954e-01,
          4.09085244e-01 ]
      - [ 7.29777932e-01, -7.35261500e-01, 3.07961613e-01,
          -9.43763480e-02, 5.72430193e-01, 4.93842930e-01,
          -1.57759354e-01, 5.09889185e-01, -2.01188400e-02,
          2.07830995e-01, -4.84334916e-01, -1.81929648e-01,
          2.83438802e-01, -3.87766182e-01, -2.40174025e-01,
          6.86442435e-01, -2.16645181e-01, -2.86802500e-01,
          1.00752480e-01, -3.50106150e-01 ]
      - [ 7.23929763e-01, -9.47556257e-01, 5.39960444e-01,
          4.10499275e-01, 6.94204628e-01, 1.77774593e-01,
          -1.18528537e-01, 2.54662752e-01, -1.48416802e-01,
          2.18331024e-01, -3.22556049e-02, -8.18558112e-02,
          6.94806352e-02, 4.31108654e-01, -6.78028286e-01,
          -1.40528798e-01, 7.63606429e-02, 2.79899180e-01,
          -5.58322445e-02, 9.47036386e-01 ]
      - [ -9.71780896e-01, -1.29987434e-01, 1.85261846e-01,
          2.66550899e-01, 2.29410142e-01, 1.15751065e-01,
          -8.17935765e-02, 1.15439981e-01, -1.59765795e-01,
          -5.86688697e-01, -6.86110437e-01, 4.78475541e-02,
          2.69382205e-02, 6.13090172e-02, -6.13209009e-02,
          -1.73861608e-02, -4.58249412e-02, 1.53946936e-01,
          9.05452017e-03, -1.00950286e-01 ]
      - [ 6.73214078e-01, 5.33118248e-01, 2.53508449e-01, 1.69921488e-01,
          -7.17736781e-03, 3.00733656e-01, 3.53977054e-01,
          -3.34463082e-02, -3.12192857e-01, -1.96114630e-01,
          -1.49713326e-02, -2.61942446e-01, -1.60826504e-01,
          -4.74422835e-02, -6.05206788e-01, 2.03531280e-01,
          -8.92761827e-01, -2.05303088e-01, 7.49663830e-01,
          -6.37489110e-02 ]
      - [ 6.63965344e-01, 4.01741475e-01, -3.30373526e-01,
          4.78287369e-01, 8.39173615e-01, 4.41104859e-01, 1.90838546e-01,
          -6.64643347e-02, 9.65187103e-02, -6.73059106e-01,
          3.90709549e-01, 6.53548613e-02, -1.38401374e-01,
          3.61382633e-01, 2.27426827e-01, 3.53736848e-01,
          -9.56188366e-02, 4.95882750e-01, 7.19897225e-02,
          1.44254103e-01 ]
      - [ -9.53641415e-01, -1.34486109e-01, 1.96706444e-01,
          2.23458007e-01, 1.48983374e-01, 4.91420142e-02,
          -1.43926024e-01, 2.19962165e-01, -2.64831483e-01,
          -4.70238894e-01, -8.81415427e-01, 4.33024019e-02,
          2.73914784e-02, -4.97758910e-02, -1.93446577e-01,
          2.20643207e-02, 1.54861897e-01, -7.73296952e-02,
          2.24540517e-01, 2.08939642e-01 ]
      - [ 6.37800694e-01, -5.72895467e-01, 2.93216079e-01,
          4.52953160e-01, -7.89268255e-01, 2.49165416e-01,
          -4.60183144e-01, -3.37053061e-01, 1.17284246e-01,
          5.70030734e-02, -2.18917981e-01, 2.07064509e-01,
          4.46515620e-01, -2.14465633e-01, -2.69359231e-01,
          8.20840895e-01, 7.22318813e-02, 3.85670513e-01, 1.45596534e-01,
          -1.39281899e-01 ]
      - [ 6.22483611e-01, 7.66118765e-01, 3.64547133e-01, 1.17671981e-01,
          -2.05821041e-02, 3.45053971e-01, 4.86274451e-01,
          -5.42731047e-01, -2.63853222e-01, 3.31119686e-01,
          -6.32594168e-01, -3.98558855e-01, 4.94990200e-01,
          -3.79631311e-01, -7.06424534e-01, -2.87939280e-01,
          -2.28497967e-01, -2.97288209e-01, 6.13911688e-01,
          -2.29268670e-02 ]
      - [ 2.63993263e-01, -1.50927857e-01, -6.84033096e-01,
          5.79880476e-01, 1.86782293e-02, -8.04463327e-01,
          -5.14906108e-01, 4.27682728e-01, -2.89878398e-01,
          1.92707941e-01, 2.34008655e-01, -4.20780659e-01,
          -5.41078210e-01, -4.45965499e-01, 1.43869678e-02,
          -3.50129396e-01, -4.21721697e-01, -2.24186122e-01,
          -2.03968912e-01, 2.93413490e-01 ]
      - [ 6.17763996e-01, 5.80593109e-01, -2.54348934e-01,
          5.44354558e-01, 8.36524963e-01, 5.22728205e-01,
          -2.79620618e-01, -3.21520455e-02, 9.21451449e-01,
          -2.46715039e-01, -3.50476980e-01, -2.99464017e-01,
          4.01782155e-01, 1.63360715e-01, 2.36384392e-01,
          -1.16839387e-01, -2.23450214e-01, -5.14117956e-01,
          1.74226463e-01, -1.74588840e-02 ]
      - [ 5.15304744e-01, 5.53372025e-01, 4.15789485e-01,
          -1.87993180e-02, -3.60863239e-01, 4.28059340e-01,
          3.44792128e-01, 2.21682712e-01, -4.48296607e-01,
          1.26119494e-01, 3.76882702e-02, -2.57301610e-02,
          -1.57347396e-01, -1.64788082e-01, -3.25010777e-01,
          -3.81113648e-01, 5.04491866e-01, 4.49997157e-01,
          -2.86266893e-01, 2.93803841e-01 ]
      - [ 6.57864273e-01, -8.94304514e-01, 1.37680605e-01,
          -1.65890411e-01, 6.64947510e-01, 5.27421176e-01,
          -2.53297299e-01, 6.12852514e-01, 4.99190450e-01,
          4.62115020e-01, -7.05082715e-01, -4.19843607e-02,
          -3.33440036e-01, 4.88207713e-02, -1.95396319e-01,
          2.81359911e-01, 9.22404230e-03, 3.09763342e-01,
          -2.00351596e-01, -2.45978966e-01 ]
      - [ -9.36551452e-01, -1.45449832e-01, 1.76317245e-01,
          1.77370295e-01, 1.99722663e-01, 4.89201546e-02, 7.72902835e-03,
          1.14974193e-01, 4.01363213e-04, 3.59356143e-02,
          -1.39552757e-01, -4.26246710e-02, -7.43325055e-02,
          -1.44076079e-01, -1.81388646e-01, 1.02323875e-01,
          2.54486412e-01, -5.28574169e-01, 1.22617856e-01,
          7.02928007e-01 ]
      - [ 5.31442404e-01, -9.00313675e-01, 8.25702012e-01,
          7.21523225e-01, 5.86119413e-01, -2.31921941e-01,
          -5.71990162e-02, -1.39580041e-01, -1.04378223e-01,
          5.12993634e-02, 9.76761281e-02, -5.08144200e-01,
          6.32244110e-01, -1.12062944e-02, -3.38205099e-01,
          1.39732480e-01, 5.77525258e-01, 1.53648272e-01,
          -3.41355056e-01, -2.25095376e-01 ]
      - [ 3.44837844e-01, -1.04894921e-01, -8.94710541e-01,
          5.38971424e-01, -4.43277925e-01, -6.54493153e-01,
          -2.98338920e-01, 4.65264678e-01, -1., 5.95443130e-01,
          9.48867872e-02, -2.05489010e-01, -1.93168491e-01,
          2.95463830e-01, 6.39453530e-01, 1.18357688e-01,
          -3.18811625e-01, 5.91340736e-02, -9.89233479e-02,
          3.69566977e-01 ]
      - [ 7.14809239e-01, 4.41273361e-01, -3.16112876e-01,
          3.33243072e-01, 3.72011185e-01, 6.19788408e-01, 4.66472387e-01,
          -6.64330050e-02, -2.69316494e-01, -4.28946048e-01,
          3.55916053e-01, 2.56286621e-01, -4.38488483e-01,
          1.98001519e-01, -5.59351265e-01, -1.79085955e-01,
          -6.68474615e-01, -3.56266737e-01, 4.02164310e-02,
          1.19989283e-01 ]
      - [ 5.85231841e-01, 2.74400860e-01, -1.72483936e-01,
          1.92334414e-01, -5.97111657e-02, 4.47738737e-01,
          3.10375541e-01, 4.70166624e-01, -7.66967535e-01,
          -4.50803339e-01, 7.65679836e-01, 4.94387060e-01,
          -4.49107230e-01, 2.04553723e-01, -2.79861629e-01,
          1.61035001e-01, -6.05430119e-02, 2.18155831e-01,
          -5.77712357e-02, 2.35923275e-01 ]
      - [ -9.42054212e-01, -1.26246259e-01, 1.79665014e-01,
          1.94935709e-01, 1.80737332e-01, 9.42259654e-02,
          -1.66970268e-02, 6.14424646e-02, -5.73418066e-02,
          -1.01776915e-02, -6.43631145e-02, -7.02475011e-02,
          -1.23833150e-01, -3.71692553e-02, -1.06437020e-01,
          1.29887238e-01, 2.29333982e-01, -4.93730187e-01,
          9.88801941e-02, 7.73356497e-01 ]
      - [ 6.90359950e-01, -6.77436888e-01, -3.84838581e-01,
          -6.84218287e-01, -3.05259656e-02, 1.15764409e-01,
          2.88977753e-02, 4.57016379e-01, 9.48767439e-02,
          -4.13942039e-01, -7.48490915e-02, 2.67865270e-01,
          -2.80535609e-01, -2.85126984e-01, -2.12810770e-01,
          9.20231864e-02, 8.08280706e-01, -1.65467948e-01,
          3.15376759e-01, -3.54660511e-01 ]
      - [ -9.17092800e-01, -1.24256879e-01, 1.56001568e-01,
          2.32472673e-01, 2.27084801e-01, 7.21429288e-03, 6.98057786e-02,
          -4.80857827e-02, 1.65371656e-01, 3.61922979e-02,
          4.32478219e-01, 6.05820958e-03, 4.21112478e-02,
          -7.97253251e-02, -1.53137952e-01, 1.94897829e-03,
          -1.38470665e-01, 2.99715251e-01, 9.08509418e-02,
          -8.55933428e-02 ]
      - [ 8.53161097e-01, -9.51972663e-01, 5.48666060e-01,
          4.77769554e-01, 3.74202251e-01, 2.33436197e-01,
          -4.23661351e-01, -2.72771195e-02, -8.97744671e-02,
          -2.00928316e-01, 1.52364954e-01, -1.79938585e-01,
          7.78593600e-01, -2.12707609e-01, -6.14225827e-02,
          -4.89524864e-02, -4.67822328e-02, 3.24691623e-01,
          3.01304519e-01, 7.11709678e-01 ]
      - [ 9.17393386e-01, -7.22145855e-01, 3.09157167e-02,
          1.04892232e-01, 6.48891866e-01, -1.96516782e-01,
          -6.09664768e-02, 1.77630916e-01, -5.06062508e-01,
          -1.33848056e-01, 3.80375892e-01, 5.76964319e-01,
          4.42779154e-01, -2.14661077e-01, -3.43048036e-01,
          -3.95905495e-01, -1.68109611e-01, -1.89674228e-01,
          1.39940426e-01, 8.62511694e-01 ]
      - [ 6.08094335e-01, 3.73148620e-01, 1.80851035e-02, 6.18324399e-01,
          -3.06040972e-01, 4.08197254e-01, 5.45303285e-01,
          1.18664578e-01, -7.47386277e-01, -3.99420142e-01,
          4.93720174e-01, -3.75284791e-01, 2.68987697e-02,
          -1.17769487e-01, 2.53413111e-01, 6.60074353e-01,
          4.33956772e-01, 2.77423263e-01, 2.45645300e-01, 9.07633156e-02 ]
      - [ 4.59681273e-01, -6.67201355e-02, -8.19631457e-01,
          2.84969211e-01, 1.54269621e-01, -7.49774933e-01,
          -2.46618271e-01, -3.37962918e-02, -5.56554019e-01,
          3.27078193e-01, -5.40178299e-01, 2.27798775e-01,
          3.24920893e-01, 3.79907906e-01, 2.75862068e-01, 2.70024538e-02,
          -6.37339950e-02, 7.45117962e-02, 2.24964961e-01,
          2.03976020e-01 ]
      - [ 7.46017456e-01, -6.13585949e-01, -1.79679587e-01,
          -3.55802059e-01, -2.29536757e-01, 4.24408346e-01,
          5.21761887e-02, 2.44461924e-01, 4.93334532e-01,
          -4.43788707e-01, -1.21180452e-01, 2.29229778e-02,
          -9.74273503e-01, -1.17827758e-01, -2.04732835e-01,
          -4.37699705e-02, 4.21497047e-01, -2.61032045e-01,
          5.83449662e-01, 3.16361710e-02 ]
      - [ 5.78167439e-01, -7.68789172e-01, 2.61953890e-01,
          -4.45360214e-01, 5.31012595e-01, 1.05846494e-01,
          8.48334506e-02, 3.03911358e-01, 6.35003567e-01, 1.28730163e-01,
          -4.49027866e-01, 1.56477019e-01, 3.48343514e-02,
          7.96616748e-02, -8.17770362e-01, 2.17485934e-01,
          4.10606503e-01, 1.62768528e-01, -1.92194447e-01,
          4.92977351e-01 ]
      - [ 5.86298227e-01, -6.59455359e-03, -6.12063944e-01,
          7.01825738e-01, 8.84989649e-02, 4.27101463e-01,
          -1.18954107e-03, 3.58630866e-01, -2.63690650e-01,
          -4.80356365e-02, 5.02851486e-01, 6.93259537e-02,
          -1.36636630e-01, 8.70404243e-01, 3.87191534e-01,
          -2.76239008e-01, 4.71080363e-01, 3.52999777e-01,
          5.24425626e-01, 5.07115960e-01 ]
      - [ 4.63930398e-01, 5.31807125e-01, 7.66736925e-01,
          -8.79553258e-02, -3.69712472e-01, -5.22497535e-01,
          2.52355158e-01, 4.19521898e-01, 2.77044982e-01, 2.58545518e-01,
          -2.78677851e-01, -7.62690455e-02, 5.78957915e-01,
          6.16021037e-01, -2.99819082e-01, -5.67274451e-01,
          -2.86274463e-01, -5.60720265e-01, 1.02285154e-01,
          -2.22257614e-01 ]
      - [ 4.72850382e-01, 8.27098429e-01, 6.93413317e-01,
          -9.41150412e-02, 4.65970516e-01, -8.29172358e-02,
          -1.25819966e-01, 4.88680936e-02, -1.42733455e-01,
          -3.90439760e-03, -1.95726752e-01, -1.94095690e-02,
          -7.79387131e-02, 1.98047802e-01, -5.42434096e-01,
          -4.31901485e-01, 2.61114061e-01, 3.73102605e-01,
          1.56817064e-02, 2.61234581e-01 ]
      - [ 4.22095627e-01, 4.62328821e-01, -5.33637762e-01,
          7.40982890e-01, 4.13414031e-01, -3.70629817e-01,
          -1.89647246e-02, -8.44382402e-03, 6.47844970e-01,
          -3.36192012e-01, -6.96085632e-01, 1.84606388e-01,
          3.06239396e-01, -3.90353054e-01, -3.87127608e-01,
          1.30595034e-02, -4.50485080e-01, -5.73911548e-01,
          -3.59881699e-01, -2.77966056e-02 ]
      - [ 5.89062870e-01, 1.44205481e-01, -8.32641244e-01,
          6.66070700e-01, 9.69926789e-02, 1.61772892e-01, 2.40294158e-01,
          4.57358271e-01, -9.55593884e-02, -6.37748182e-01,
          4.52754736e-01, 4.77754354e-01, 7.64535367e-01, 2.52335936e-01,
          -3.99646163e-02, 4.82496977e-01, 4.64847028e-01,
          1.10276960e-01, -3.31294946e-02, 3.44121367e-01 ]
      - [ 5.02914071e-01, 3.91149193e-01, -3.94163728e-02,
          2.21414760e-01, 8.72196019e-01, 3.28246206e-01,
          -1.12530299e-01, -3.99076706e-03, -5.73387325e-01,
          -2.55401760e-01, 7.72364080e-01, 1.45666018e-01,
          -5.86638808e-01, 5.13043940e-01, -3.51966530e-01,
          4.01330590e-01, -1.45558581e-01, -5.68965375e-01,
          -4.64943439e-01, -5.13730526e-01 ]
      - [ 6.89889491e-01, -6.40556812e-01, 8.47443342e-02,
          -2.47164369e-02, 2.49249786e-02, 3.58277887e-01,
          -1.39585406e-01, 3.73140499e-02, 4.19174582e-01,
          5.90033174e-01, -8.72157753e-01, 4.22601610e-01,
          -6.10714674e-01, 2.97444701e-01, -4.88740742e-01,
          -3.11852675e-02, -1.06552318e-01, -3.42348576e-01,
          2.86036193e-01, -1.11495487e-01 ]
      - [ 4.90641862e-01, 2.71807611e-01, -6.97161496e-01,
          8.26754510e-01, 2.54623920e-01, 4.35993522e-01, 3.83534491e-01,
          5.20483792e-01, -1.46271177e-02, -4.52493638e-01,
          5.62947869e-01, -1.34048313e-01, 8.40865746e-02,
          7.39716291e-01, 3.15069973e-01, 1.62678599e-01, 8.15928817e-01,
          3.40741485e-01, -1.09977834e-01, 1.90874428e-01 ]
      - [ 4.93490338e-01, 3.20478499e-01, 2.34676063e-01, 2.91544765e-01,
          -4.22557205e-01, 2.80808896e-01, 3.65993232e-01,
          7.64595509e-01, -5.86414754e-01, -5.37741363e-01,
          6.84054434e-01, -2.61713881e-02, -2.12522775e-01,
          -6.33594245e-02, -1.40739933e-01, 7.04926431e-01,
          -1.57114595e-01, -9.13619772e-02, 3.37264575e-02,
          1.22037947e-01 ]
      - [ -9.43914592e-01, -1.25926286e-01, 1.84447393e-01,
          1.95522159e-01, 1.81167990e-01, 2.89606228e-02,
          -1.98267028e-02, 1.06889583e-01, -4.14802991e-02,
          -3.10016866e-03, -9.57444832e-02, -5.33128977e-02,
          -6.10280707e-02, -7.07792044e-02, -9.35121700e-02,
          4.36933637e-02, 2.57044643e-01, -5.87147653e-01,
          1.16619863e-01, 7.57308364e-01 ]
      - [ -9.02607501e-01, -1.73277736e-01, 1.41067803e-01,
          2.40930364e-01, 2.39129856e-01, 3.69097926e-02, 1.12438679e-01,
          4.96199727e-02, 1.83759972e-01, 9.73132625e-02, 4.38116759e-01,
          9.59063545e-02, 9.54511091e-02, -1.35084838e-02,
          -1.44666225e-01, -1.25600938e-02, -1.65191144e-01,
          4.28114384e-01, 4.63800021e-02, -2.13553626e-02 ]
      - [ 4.71064836e-01, 9.00886238e-01, 5.93335688e-01,
          -2.87524760e-02, 6.72384322e-01, 2.12629244e-01,
          -3.07263136e-01, -1.85043573e-01, -2.55447358e-01,
          7.27237538e-02, -3.92503180e-02, -1.39702886e-01,
          -5.51915824e-01, 1.16877623e-01, -4.13748443e-01,
          1.63899455e-02, 1.10253327e-01, 5.43534994e-01,
          -2.60111094e-01, 1.03418581e-01 ]
      - [ 7.68824577e-01, 5.22286773e-01, 3.57470334e-01,
          -1.83672365e-02, -1.30128011e-01, 1.23403095e-01,
          2.82477736e-01, 4.45096970e-01, -1.91369653e-01,
          -2.67457426e-01, 7.53640756e-02, -1.21625140e-02,
          -9.97754261e-02, -7.50391278e-03, -6.74224973e-01,
          1.90799445e-01, -9.78831649e-01, -4.63200480e-01,
          7.43692696e-01, 3.26447606e-01 ]
      - [ 6.64035797e-01, 5.06943464e-01, 5.05761623e-01,
          -4.56534773e-02, -2.74145931e-01, -1.05457813e-01,
          2.37673745e-01, 6.01490855e-01, 1.19079947e-01,
          -1.45159960e-01, -1.87758394e-02, -1.47347540e-01,
          1.55769944e-01, 2.22793564e-01, -6.36979342e-01,
          1.60177723e-01, -9.11214530e-01, -5.28959036e-01,
          6.96322620e-01, 1.58072025e-01 ]
      - [ 2.93659925e-01, 8.00788477e-02, -8.68299723e-01,
          5.90965390e-01, 5.12103960e-02, -4.31621581e-01,
          5.12685720e-03, 2.35392060e-03, -4.92650300e-01,
          3.26568112e-02, 1.54653892e-01, 2.17269398e-02, 5.17076135e-01,
          3.74905199e-01, 6.04881942e-01, 5.87460637e-01,
          -1.55909210e-01, -4.15206105e-01, -4.67825234e-02,
          3.30568671e-01 ]
      - [ 6.24689937e-01, -6.19040787e-01, 7.64427841e-01,
          5.52584767e-01, 5.89935362e-01, -2.68900216e-01,
          7.10828662e-01, 5.17312646e-01, 8.41883197e-02,
          -2.74066806e-01, -2.51931608e-01, 4.48301136e-02,
          1.43738940e-01, -3.66112173e-01, 1.16341613e-01,
          -1.38660982e-01, -1.31614849e-01, 2.93122917e-01,
          5.24557650e-01, 4.99897122e-01 ]
      - [ 3.41608584e-01, -9.71254855e-02, -3.97016019e-01,
          -3.08095783e-01, 3.39326262e-01, -6.20449483e-01,
          6.31188214e-01, -8.42884123e-01, -2.02630442e-02,
          -5.24317026e-02, -3.25567245e-01, -5.53293049e-01,
          9.72180888e-02, 2.31419340e-01, 1.23575389e-01, 3.02516550e-01,
          -6.16451204e-01, 4.04582053e-01, -3.06930035e-01,
          4.89421785e-01 ]
      - [ 6.04057312e-01, 5.20928383e-01, -3.76674235e-01,
          5.70819318e-01, 5.15808403e-01, -7.03036934e-02,
          -1.98837847e-01, 4.95977104e-01, 3.03293169e-01,
          6.04331680e-02, 2.72080600e-02, -1.26346827e-01,
          -4.43997890e-01, 3.37854743e-01, 3.41936082e-01,
          -3.65948379e-01, 4.56226878e-02, 4.23457265e-01,
          6.05766773e-01, 1.45345449e-01 ]
      - [ 5.39990544e-01, 2.98104703e-01, -6.20052159e-01, 1.,
          5.31342387e-01, -2.65849531e-01, -4.94713724e-01,
          4.10530955e-01, 5.69427192e-01, -3.33635360e-01,
          1.54873908e-01, -2.60105610e-01, -2.19672903e-01,
          1.81875676e-01, -4.20264244e-01, -3.71592909e-01,
          2.84696519e-01, 3.41448933e-01, 5.23218155e-01, 6.79053888e-02 ]
      - [ 5.43049574e-01, 3.19205433e-01, -2.83050060e-01,
          4.30298179e-01, 8.71368229e-01, 4.94272977e-01,
          -5.46553135e-02, -5.83579719e-01, -4.29147154e-01,
          -1.32254940e-02, 2.97877580e-01, 4.09117430e-01,
          -2.31346771e-01, 4.29365218e-01, -1.55167386e-01,
          3.63942802e-01, 1.39625724e-02, -5.44559479e-01,
          -4.35840398e-01, -2.26964340e-01 ]
      - [ 3.61005127e-01, -2.35552028e-01, -3.90501618e-01,
          -5.72859645e-01, 1.71434477e-01, -8.00008476e-01,
          6.38822973e-01, -8.48530889e-01, -2.80273914e-01,
          -1.85403183e-01, -1.91548824e-01, -8.80226552e-01,
          2.50022262e-01, 4.74716574e-01, 3.30350965e-01, 1.45015135e-01,
          -1.69485629e-01, 1.53564468e-01, -5.12581877e-03,
          1.70405075e-01 ]
      - [ 5.54160178e-01, 1.42312631e-01, -2.49049380e-01,
          3.95597726e-01, 1.39080837e-01, 7.78174162e-01, 2.39729643e-01,
          -9.79227386e-03, -8.75829875e-01, -2.31924310e-01,
          6.48459435e-01, 3.81544620e-01, -4.13480699e-01,
          2.70527184e-01, -4.39703390e-02, 5.84629551e-02,
          9.78782400e-02, -2.75605351e-01, -8.55776742e-02,
          5.33779860e-02 ]
      - [ 5.08122861e-01, 7.83152580e-01, 2.26659194e-01, 3.56436402e-01,
          6.64595485e-01, 1.27075195e-01, -1.90570861e-01,
          -4.19931769e-01, 4.85509098e-01, -1.49687409e-01,
          -5.38719416e-01, -3.93393099e-01, 6.09336972e-01,
          -2.25834787e-01, 8.81119907e-01, 3.34743321e-01,
          1.23420507e-01, -2.64527261e-01, 2.92671293e-01,
          -1.42682597e-01 ]
