%YAML:1.0
---
opencv_ml_svm:
   format: 3
   svmType: EPS_SVR
   kernel:
      type: LINEAR
   C: 1.0000000000000001e-01
   p: 1.0000000000000000e-02
   term_criteria: { iterations:10000 }
   var_count: 64
   sv_total: 1
   support_vectors:
      - [ -2.93664128e-01, -4.29297209e-01, -4.06258285e-01,
          1.96619481e-01, -5.24860561e-01, -5.45981109e-01,
          3.42247546e-01, 1.81054652e-01, -3.08023721e-01,
          2.45455474e-01, -3.55815701e-02, -1.88786462e-01,
          -1.13585562e-01, 1.40253752e-01, -3.61454040e-01,
          -2.37622648e-01, -2.22665250e-01, -7.98610926e-01,
          -6.04223728e-01, 1.53349268e+00, -5.50667703e-01,
          -2.52150714e-01, 3.67873192e-01, 6.04529619e-01,
          -8.31258833e-01, 1.25205502e-01, 5.91715157e-01,
          -3.52683105e-02, -4.18755472e-01, 1.10842392e-01,
          -1.30644307e-01, -2.13761359e-01, 1.04449594e+00,
          -2.53635019e-01, -8.18959177e-01, 3.39071393e-01,
          4.33399439e-01, 4.50378517e-03, -4.16734427e-01,
          -2.35173330e-01, -3.43610972e-01, 6.18740320e-01,
          6.94464743e-02, -2.34929383e-01, -7.24523783e-01,
          8.39390308e-02, 2.13379681e-01, -2.70611405e-01,
          2.81902760e-01, -7.73879215e-02, -5.60314476e-01,
          -4.79060590e-01, 6.69819951e-01, 6.46538556e-01,
          -6.92283928e-01, -6.95352316e-01, -1.40895545e-01,
          6.88829720e-01, -4.82351370e-02, -3.90757084e-01,
          -2.65871942e-01, 1.97547600e-02, -1.20711982e-01,
          -2.53712803e-01 ]
   uncompressed_sv_total: 861
   uncompressed_support_vectors:
      - [ 4.54522729e-01, 2.12847799e-01, 4.61820606e-03, 9.29921679e-03,
          4.69615310e-01, 4.69615310e-01, 1.61532536e-02, 9.58671980e-03,
          4.69615310e-01, 3.12416255e-01, 2.54706126e-02, 4.46077660e-02,
          4.44193520e-02, 3.42339016e-02, 8.75770394e-03, 1.15322564e-02,
          4.69615310e-01, 4.00889307e-01, 8.20502639e-03, 3.64418179e-02,
          4.69615310e-01, 4.69615310e-01, 1.20653948e-02, 2.68216021e-02,
          1.39204934e-01, 8.00405294e-02, 2.61823949e-03, 3.37384418e-02,
          3.01739527e-03, 2.97552580e-03, 2.93086516e-04, 4.98247100e-04,
          2.10186288e-01, 1.35800943e-01, 4.47403491e-02, 3.50029022e-02,
          5.65545335e-02, 5.03829680e-02, 1.52851585e-02, 5.55050001e-03,
          2.37260501e-05, 0., 0., 2.37260501e-05, 0., 0., 0., 0.,
          1.06376447e-02, 1.03864269e-02, 7.65095325e-03, 6.46883808e-03,
          1.00905495e-03, 2.46192678e-03, 2.24978803e-03, 9.14150733e-04,
          0., 0., 0., 0., 0., 0., 0., 0. ]
      - [ 2.00834032e-03, 2.54706130e-03, 4.34884569e-03, 3.54215968e-03,
          2.28607468e-03, 1.88023359e-01, 3.18156570e-01, 9.88538936e-03,
          4.18695026e-06, 2.52788514e-01, 3.26893330e-01, 1.05790270e-03,
          3.64264677e-04, 5.22154570e-02, 6.89674392e-02, 1.03417668e-03,
          9.27716494e-02, 1.03166448e-02, 2.48286151e-03, 5.77171072e-02,
          2.31220141e-01, 4.22242761e-01, 3.59234750e-01, 3.82268541e-02,
          5.48685864e-02, 4.22242761e-01, 4.22242761e-01, 2.43261806e-03,
          5.86172985e-03, 1.27122790e-01, 1.38791814e-01, 1.27534503e-02,
          2.90468276e-01, 1.21477377e-02, 5.81986038e-04, 2.00818673e-01,
          4.22242761e-01, 4.22242761e-01, 3.92345153e-02, 1.04246683e-01,
          1.86086208e-01, 4.22242761e-01, 1.03402309e-01, 2.60009593e-03,
          3.51996869e-02, 1.13897607e-01, 6.00590073e-02, 9.91609320e-03,
          7.23770112e-02, 1.22231031e-02, 2.29444867e-03, 4.44765761e-02,
          1.71496078e-01, 1.97457954e-01, 8.49811267e-03, 1.10828569e-02,
          9.92432758e-02, 1.82982281e-01, 6.60142489e-03, 2.66429596e-03,
          3.35807353e-02, 3.99211757e-02, 2.74943071e-03, 2.86108255e-03 ]
      - [ 3.92400958e-02, 4.39322703e-02, 9.14178714e-02, 6.09703660e-02,
          6.58356026e-02, 1.47316441e-01, 1.95210963e-01, 1.21118695e-01,
          4.38499302e-02, 1.84499338e-01, 2.33566225e-01, 1.07247330e-01,
          2.79520806e-02, 7.92771056e-02, 9.10591930e-02, 4.76991348e-02,
          9.10884887e-02, 1.41069517e-01, 2.89421529e-01, 1.55564740e-01,
          9.41114724e-02, 3.19991857e-01, 3.52504909e-01, 1.74024999e-01,
          8.82804468e-02, 3.52504909e-01, 3.52504909e-01, 1.04331814e-01,
          5.83953932e-02, 1.13859922e-01, 1.46412060e-01, 8.33077505e-02,
          8.80403966e-02, 1.70609847e-01, 2.28068754e-01, 1.17668651e-01,
          1.87597692e-01, 3.52504909e-01, 3.52504909e-01, 2.14648187e-01,
          1.95428684e-01, 2.52780110e-01, 2.78073490e-01, 2.37492189e-01,
          1.02147631e-01, 1.30856141e-01, 1.68240026e-01, 1.43718466e-01,
          5.43089285e-02, 1.06728151e-01, 1.10337302e-01, 4.81317863e-02,
          8.99608061e-02, 2.59071708e-01, 2.66987860e-01, 8.84297788e-02,
          1.46046400e-01, 1.36388496e-01, 1.12852253e-01, 1.28360718e-01,
          5.62502816e-02, 6.54490069e-02, 7.65876919e-02, 6.75592273e-02 ]
      - [ 2.72151752e-04, 0., 0., 2.72151752e-04, 1.03975926e-03,
          7.77377049e-04, 3.55890748e-04, 9.15546378e-04, 5.54324239e-02,
          1.38341025e-01, 1.00584496e-02, 1.89947966e-03, 9.03585628e-02,
          2.46970043e-01, 1.01086935e-02, 1.55335839e-03, 5.67694642e-02,
          7.38298870e-04, 8.15896969e-03, 1.00849673e-01, 3.15652788e-01,
          9.60849226e-02, 3.51982960e-03, 1.35876298e-01, 4.64949667e-01,
          4.64949667e-01, 8.70187860e-03, 2.15292964e-02, 2.04411104e-01,
          4.24249679e-01, 7.05501111e-03, 3.56169906e-03, 2.66228616e-01,
          1.21421553e-03, 3.40678170e-03, 2.71113396e-01, 4.64949667e-01,
          1.83158129e-01, 1.34261535e-03, 3.12971741e-01, 4.64949667e-01,
          4.64949667e-01, 1.49069373e-02, 4.37452532e-02, 1.24565952e-01,
          1.50060296e-01, 7.81284831e-03, 8.31528287e-03, 9.02483091e-02,
          6.25390746e-03, 3.33560369e-04, 4.62043881e-02, 2.11394921e-01,
          7.10706860e-02, 2.79827812e-03, 3.13518830e-02, 1.22704148e-01,
          9.44701582e-02, 9.01589915e-03, 6.06130762e-03, 3.35835256e-02,
          5.60883842e-02, 8.46043043e-03, 4.21067607e-03 ]
      - [ 6.90707238e-03, 4.06134175e-04, 5.84777328e-04, 9.19454265e-03,
          1.29265105e-02, 1.71664957e-04, 5.33138285e-04, 1.50855808e-02,
          6.76471554e-03, 1.44170644e-03, 1.88133621e-03, 8.49532150e-03,
          3.49610322e-03, 8.42972600e-04, 6.74098963e-04, 2.78571760e-03,
          2.46011227e-01, 8.61116045e-04, 1.29097630e-03, 2.70502090e-01,
          3.97979379e-01, 5.52677410e-03, 2.58334819e-03, 3.97979379e-01,
          3.97979379e-01, 1.19844470e-02, 8.21339991e-03, 3.97979379e-01,
          3.97979379e-01, 6.51908107e-03, 2.92109558e-03, 2.92454273e-01,
          1.22447349e-01, 1.85970366e-02, 6.85264170e-03, 1.01586573e-01,
          3.97979379e-01, 1.02090411e-01, 1.12433564e-02, 3.19437772e-01,
          3.97979379e-01, 1.45200640e-01, 6.08642958e-03, 3.97979379e-01,
          3.97979379e-01, 5.49774431e-02, 5.28672244e-03, 2.19881862e-01,
          5.51044494e-02, 1.86626334e-02, 6.56653382e-03, 3.38766128e-02,
          1.56085312e-01, 8.12421814e-02, 1.76968426e-02, 5.08993566e-02,
          1.66174471e-01, 1.03068754e-01, 1.99661702e-02, 3.26693766e-02,
          7.42569566e-02, 4.15415242e-02, 1.31833097e-02, 1.51162855e-02 ]
      - [ 0., 0., 0., 0., 0., 0., 0., 0., 3.64264677e-04, 4.35066000e-02,
          4.35470715e-02, 4.04738501e-04, 1.95432883e-02, 4.46663834e-02,
          4.54884209e-02, 2.03667209e-02, 6.55536819e-03, 8.82888213e-03,
          3.51005979e-03, 3.57844657e-03, 1.52583629e-01, 1.19851440e-01,
          9.40361097e-02, 1.53598264e-01, 1.47651389e-01, 1.95605934e-01,
          3.12328339e-01, 3.10114831e-01, 8.40697736e-02, 7.53078833e-02,
          8.09476972e-02, 8.93229991e-02, 8.17641541e-02, 1.05599068e-01,
          8.61967430e-02, 8.41897950e-02, 3.11432302e-01, 4.05828506e-01,
          4.05828506e-01, 3.36773127e-01, 2.77551532e-01, 4.05221403e-01,
          4.05828506e-01, 4.05828506e-01, 2.27947325e-01, 1.15188576e-01,
          1.65157035e-01, 2.95914084e-01, 7.39359558e-02, 5.28769903e-02,
          8.95672366e-02, 1.13685459e-01, 1.83518216e-01, 1.44939646e-01,
          1.71846390e-01, 2.06909299e-01, 1.65835321e-01, 5.32203205e-02,
          6.73638359e-02, 1.83754072e-01, 1.05995432e-01, 4.45282124e-02,
          5.94225898e-02, 1.33281797e-01 ]
      - [ 3.58221494e-02, 1.09656230e-02, 3.82408104e-03, 2.29375064e-02,
          4.53125685e-02, 7.59233627e-03, 7.04496205e-02, 1.50617152e-01,
          8.07383563e-03, 1.39648747e-02, 1.24487802e-01, 1.16324633e-01,
          3.57286399e-03, 1.22426413e-02, 4.28338945e-02, 2.05425732e-02,
          2.96236485e-01, 2.83275098e-02, 3.21697351e-03, 9.61351693e-02,
          3.93373758e-01, 5.67052625e-02, 2.30585113e-01, 3.93373758e-01,
          3.95652801e-02, 1.35771632e-01, 3.93373758e-01, 3.72878611e-01,
          5.84358675e-03, 7.93734044e-02, 1.43383503e-01, 2.35683415e-02,
          3.93373758e-01, 4.96711861e-03, 1.50451064e-03, 1.56286284e-01,
          3.93373758e-01, 1.91096589e-01, 1.38368934e-01, 3.57610196e-01,
          1.86496526e-01, 3.93373758e-01, 3.93373758e-01, 1.07300363e-01,
          9.87980701e-03, 1.44339532e-01, 1.52106315e-01, 8.88889469e-03,
          8.96970332e-02, 4.56098421e-03, 5.94128203e-03, 5.28058149e-02,
          1.28363520e-01, 8.37543532e-02, 2.85033621e-02, 9.44757387e-02,
          5.59404455e-02, 3.02920252e-01, 1.01486087e-01, 1.08665312e-02,
          8.70885607e-03, 7.16638416e-02, 4.43830676e-02, 2.46332237e-03 ]
      - [ 3.91926430e-02, 1.09530613e-02, 5.36348298e-03, 2.65871342e-02,
          9.36132222e-02, 2.67211143e-02, 6.28056452e-02, 9.78378579e-02,
          9.08568222e-03, 1.10215880e-01, 1.83255821e-01, 4.94520701e-02,
          4.88896202e-03, 4.88268137e-02, 4.14870940e-02, 7.57558830e-03,
          3.12163651e-01, 7.55325845e-03, 2.48704827e-03, 1.60228997e-01,
          3.85881871e-01, 3.33691567e-01, 3.00017297e-01, 3.61311466e-01,
          3.77341919e-02, 3.85881871e-01, 3.85881871e-01, 6.84133694e-02,
          2.85103396e-02, 1.39534295e-01, 9.49949250e-02, 1.03054801e-02,
          2.93051630e-01, 1.21533209e-02, 6.36276836e-03, 1.68357268e-01,
          3.85881871e-01, 3.85881871e-01, 1.43296972e-01, 1.58851489e-01,
          7.55158365e-02, 3.85881871e-01, 3.85881871e-01, 2.10380275e-02,
          1.47199212e-02, 1.25449404e-01, 1.26299351e-01, 2.71467883e-02,
          4.32553813e-02, 1.29921064e-02, 1.11135608e-02, 3.96629758e-02,
          1.36706710e-01, 2.33250797e-01, 3.14035192e-02, 2.09124200e-02,
          5.74142523e-02, 1.94151655e-01, 9.44338664e-02, 1.02524450e-02,
          6.61119400e-03, 3.59379873e-02, 5.36222719e-02, 1.55740585e-02 ]
      - [ 3.65102035e-03, 4.32093255e-03, 4.32093255e-03, 3.65102035e-03,
          2.09766194e-01, 2.65907615e-01, 1.21600196e-01, 8.52016434e-02,
          2.18497381e-01, 1.95568264e-01, 9.49237421e-02, 1.22935839e-01,
          2.87922611e-03, 4.96432744e-03, 3.53099452e-03, 1.44449773e-03,
          1.34779319e-01, 7.85611421e-02, 4.75637503e-02, 8.89266357e-02,
          4.31015790e-01, 4.31015790e-01, 4.31015790e-01, 4.31015790e-01,
          1.54088140e-01, 2.19800919e-01, 3.55152458e-01, 4.09432083e-01,
          0., 0., 0., 0., 2.52173036e-01, 3.05320770e-01, 1.97682664e-01,
          1.49749070e-01, 3.62730831e-01, 1.65355220e-01, 1.43546790e-01,
          3.53699595e-01, 5.24806269e-02, 5.04457727e-02, 5.61749116e-02,
          8.02331269e-02, 0., 0., 0., 0., 5.38623221e-02, 8.21158588e-02,
          5.37883490e-02, 2.90546436e-02, 4.85686213e-03, 9.98448022e-03,
          8.92797299e-03, 2.67685694e-03, 0., 0., 0., 0., 0., 0., 0., 0. ]
      - [ 3.32611315e-02, 2.59883981e-02, 1.08093098e-02, 2.97817755e-02,
          1.70650318e-01, 9.99634340e-02, 5.18149026e-02, 1.10923477e-01,
          1.46518141e-01, 1.30533755e-01, 6.57951310e-02, 7.21704587e-02,
          4.89482358e-02, 4.74716425e-02, 3.17454562e-02, 3.25954072e-02,
          1.29207879e-01, 9.01966766e-02, 4.80592102e-02, 9.81086120e-02,
          3.51558656e-01, 2.52427042e-01, 1.69939920e-01, 2.65621513e-01,
          3.51558656e-01, 2.41926163e-01, 1.29512146e-01, 3.02977473e-01,
          1.86456054e-01, 7.26282299e-02, 4.71659899e-02, 1.67879954e-01,
          1.96898311e-01, 7.50999302e-02, 3.34313996e-02, 1.04158752e-01,
          3.51558656e-01, 3.30591798e-01, 2.03914240e-01, 2.84787983e-01,
          3.51558656e-01, 2.61382908e-01, 2.07604349e-01, 3.51558656e-01,
          2.61610419e-01, 1.38007462e-01, 7.75018409e-02, 1.91939563e-01,
          1.23734146e-01, 4.36796583e-02, 9.37179010e-03, 6.28503114e-02,
          2.67325610e-01, 1.44500032e-01, 3.47614549e-02, 1.32071763e-01,
          2.08341241e-01, 6.97685406e-02, 4.53656018e-02, 1.85241833e-01,
          1.10186577e-01, 1.16630286e-01, 3.62603813e-02, 4.22965698e-02 ]
      - [ 0., 0., 0., 0., 1.69013219e-03, 3.37049481e-03, 3.63427284e-03,
          4.33628447e-03, 5.97212613e-02, 6.57239482e-02, 8.12366009e-02,
          8.52560773e-02, 7.86309242e-02, 9.44352597e-02, 9.32056978e-02,
          7.79484510e-02, 0., 0., 0., 0., 0., 0., 0., 0., 2.24378660e-01,
          2.91961610e-01, 3.60954195e-01, 2.64752001e-01, 3.04350793e-01,
          2.86254823e-01, 3.60954195e-01, 3.56030345e-01, 8.65093693e-02,
          8.96565616e-03, 1.70115773e-02, 8.53007361e-02, 1.11132815e-01,
          3.00748609e-02, 7.38536119e-02, 1.47040099e-01, 2.08824143e-01,
          2.21190989e-01, 2.62492448e-01, 2.61808604e-01, 2.16169447e-01,
          2.56051540e-01, 3.60954195e-01, 3.00650924e-01, 1.59670740e-01,
          3.89428213e-02, 7.65346587e-02, 1.72870800e-01, 2.57879823e-01,
          1.37428254e-01, 2.61544824e-01, 3.11662585e-01, 1.37234271e-01,
          2.06327319e-01, 2.17890278e-01, 1.42265588e-01, 8.48387703e-02,
          1.49421081e-01, 1.53800637e-01, 9.57443863e-02 ]
      - [ 3.57607380e-02, 1.49055431e-02, 1.17457900e-02, 2.73868404e-02,
          5.98971099e-02, 2.88732070e-02, 5.10403179e-02, 9.06014070e-02,
          6.39779940e-02, 2.35250760e-02, 5.49244098e-02, 1.27551258e-01,
          5.10821864e-02, 3.32164695e-03, 1.02454666e-02, 6.84049949e-02,
          1.24556176e-01, 3.26191336e-02, 2.80037187e-02, 1.08661130e-01,
          3.41888189e-01, 7.87704885e-02, 8.05764571e-02, 3.53437185e-01,
          3.53437185e-01, 1.78405941e-02, 4.21416536e-02, 3.53437185e-01,
          2.42833346e-01, 1.62383877e-02, 1.17095036e-03, 2.09639192e-01,
          2.27633312e-01, 1.71190426e-02, 1.71525385e-02, 1.88062444e-01,
          3.53437185e-01, 2.84768436e-02, 1.41909700e-02, 3.53437185e-01,
          3.53437185e-01, 2.33855117e-02, 7.17364112e-03, 3.53437185e-01,
          3.44034731e-01, 2.34538987e-02, 0., 2.09586158e-01,
          1.44700989e-01, 6.60142454e-04, 1.92599706e-04, 1.00414224e-01,
          3.45913261e-01, 2.82758707e-03, 1.15978520e-03, 2.99787015e-01,
          3.53437185e-01, 1.30995717e-02, 2.92667793e-03, 2.62223095e-01,
          2.32151017e-01, 5.05504478e-03, 1.91064482e-03, 1.22196138e-01 ]
      - [ 6.57769851e-03, 1.59145966e-02, 1.36368964e-02, 8.10593553e-03,
          1.25608500e-02, 1.03156678e-01, 1.30265787e-01, 2.97552589e-02,
          8.25247914e-03, 1.21972829e-01, 1.47202000e-01, 1.65231004e-02,
          1.40807126e-02, 4.71576191e-02, 3.82045247e-02, 1.03403712e-02,
          7.06198886e-02, 1.91552974e-02, 3.88255902e-02, 1.23111688e-01,
          8.96523669e-02, 2.12671950e-01, 3.65064353e-01, 2.01956138e-01,
          3.08382846e-02, 2.50743896e-01, 3.65064353e-01, 1.64660186e-01,
          2.20554583e-02, 1.06800720e-01, 1.26113728e-01, 5.39586246e-02,
          1.38715044e-01, 1.79606210e-02, 1.18903801e-01, 3.65064353e-01,
          6.58537447e-02, 2.43951261e-01, 3.65064353e-01, 3.65064353e-01,
          1.51204728e-02, 2.44760737e-01, 3.65064353e-01, 3.22986931e-01,
          6.93079829e-03, 1.28758490e-01, 1.78050041e-01, 7.56191090e-02,
          1.34409472e-01, 2.76687630e-02, 8.53258520e-02, 2.46654630e-01,
          6.99695200e-02, 8.67536068e-02, 3.65064353e-01, 3.30766261e-01,
          1.90924935e-03, 1.23050272e-01, 3.65064353e-01, 1.22804642e-01,
          2.51914840e-03, 4.24584672e-02, 9.92111713e-02, 4.54046838e-02 ]
      - [ 1.75140128e-02, 6.69242069e-02, 6.11518025e-02, 1.17374174e-02,
          1.42724752e-01, 1.47063836e-01, 1.34602070e-01, 1.25593156e-01,
          3.26527685e-01, 2.24808529e-01, 2.25751966e-01, 3.25587004e-01,
          5.95998392e-02, 6.48642331e-02, 5.10054268e-02, 4.88882288e-02,
          8.56691897e-02, 1.88764453e-01, 1.70064151e-01, 6.69521242e-02,
          1.74341813e-01, 3.62566143e-01, 3.22993875e-01, 1.34937033e-01,
          3.31792086e-01, 2.20098197e-01, 2.07886264e-01, 3.20555687e-01,
          2.33266145e-01, 5.61637506e-02, 4.33684289e-02, 2.19708815e-01,
          2.72416919e-02, 1.05063133e-01, 1.02594234e-01, 2.47713923e-02,
          3.72177996e-02, 3.06406587e-01, 3.03211927e-01, 3.40203643e-02,
          1.43146232e-01, 1.11219354e-01, 1.16827078e-01, 1.48759544e-01,
          2.76352674e-01, 1.26148626e-01, 1.26200259e-01, 2.76404291e-01,
          5.01401201e-02, 4.07529809e-02, 4.29064669e-02, 5.22964038e-02,
          2.39741966e-01, 1.82691976e-01, 1.70954570e-01, 2.27993384e-01,
          1.51568979e-01, 1.61018938e-01, 1.54202580e-01, 1.44747049e-01,
          7.30874017e-02, 8.02401081e-02, 6.40338212e-02, 5.68685532e-02 ]
      - [ 1.18965209e-02, 1.05232012e-03, 1.68399140e-02, 8.10537711e-02,
          2.55934317e-02, 3.42771667e-03, 4.50515859e-02, 1.13910168e-01,
          5.69006521e-03, 1.60583481e-02, 1.28264427e-01, 4.20160443e-02,
          9.88120213e-04, 9.56997182e-03, 7.16875643e-02, 1.00765936e-02,
          1.01855934e-01, 5.97338192e-04, 3.52415591e-02, 4.11757261e-01,
          6.59626052e-02, 6.58607250e-03, 3.20176065e-01, 4.11757261e-01,
          1.14582861e-02, 3.70642766e-02, 4.11757261e-01, 3.07454705e-01,
          2.32933997e-03, 1.95586402e-02, 1.80644572e-01, 4.58582677e-02,
          2.13306949e-01, 6.62235962e-03, 7.98032619e-03, 1.46187365e-01,
          4.11757261e-01, 4.41109166e-02, 3.15793753e-01, 4.11757261e-01,
          1.69172332e-01, 5.38916327e-02, 4.11757261e-01, 4.11757261e-01,
          5.15692681e-03, 5.25601814e-03, 2.27428153e-01, 1.62372723e-01,
          1.43090412e-01, 1.04059670e-02, 9.68581124e-04, 4.41974439e-02,
          2.76165664e-01, 9.48902406e-03, 2.58055679e-03, 1.31499544e-01,
          1.25815064e-01, 1.43137863e-02, 7.87355974e-02, 1.69211403e-01,
          1.39062572e-02, 1.08079137e-02, 9.70255882e-02, 6.32494614e-02 ]
      - [ 2.49765534e-02, 6.18035682e-02, 7.21271932e-02, 4.92427200e-02,
          6.95605949e-02, 9.29000527e-02, 1.16683319e-01, 9.53619778e-02,
          6.22948408e-02, 1.07974470e-01, 1.03308812e-01, 5.83270080e-02,
          3.47321481e-02, 6.24916255e-02, 4.87528443e-02, 2.32906081e-02,
          6.41957149e-02, 1.60113156e-01, 1.83035314e-01, 8.99538323e-02,
          1.88871920e-01, 3.52457434e-01, 3.52457434e-01, 2.26901993e-01,
          1.48026824e-01, 3.52457434e-01, 3.20063025e-01, 9.33508426e-02,
          6.33136630e-02, 1.31343231e-01, 1.12023242e-01, 4.35945243e-02,
          1.25852749e-01, 2.15383679e-01, 1.29770339e-01, 6.20799102e-02,
          3.52457434e-01, 3.52457434e-01, 3.52457434e-01, 2.36949280e-01,
          3.52457434e-01, 3.52457434e-01, 3.13051283e-01, 3.31955343e-01,
          7.92143047e-02, 1.11213766e-01, 8.87005404e-02, 5.65908179e-02,
          5.97603396e-02, 1.02742173e-01, 6.52201176e-02, 2.04937253e-02,
          1.11181669e-01, 2.20943958e-01, 1.56356066e-01, 5.41191213e-02,
          9.66417938e-02, 1.44640982e-01, 1.18789360e-01, 7.06868842e-02,
          2.11971328e-02, 3.10350694e-02, 2.51761302e-02, 1.35224536e-02 ]
      - [ 3.08159529e-03, 2.04044022e-03, 1.34024262e-01, 1.39249593e-01,
          3.32164695e-04, 6.27623824e-03, 2.47575745e-01, 1.43248126e-01,
          5.24764415e-04, 5.98594267e-03, 1.81227937e-01, 7.60810673e-02,
          8.54137819e-04, 2.47169612e-03, 4.48994562e-02, 2.03709081e-02,
          4.26789792e-03, 9.97889787e-03, 2.46950507e-01, 1.88358322e-01,
          1.73339737e-03, 1.73465349e-02, 4.47393745e-01, 4.47393745e-01,
          1.53521505e-05, 7.76958326e-03, 4.47393745e-01, 2.69292057e-01,
          2.27351394e-03, 5.16809197e-03, 1.56869665e-01, 9.66948196e-02,
          5.27458005e-02, 2.82702856e-02, 3.62199098e-02, 2.50407532e-02,
          1.89037994e-01, 2.85149425e-01, 4.47393745e-01, 2.97258109e-01,
          1.78140774e-02, 1.64593190e-01, 4.47393745e-01, 2.19834432e-01,
          3.14579508e-03, 1.27101848e-02, 2.11840138e-01, 9.06349048e-02,
          1.44421861e-01, 3.21292579e-02, 3.31187737e-03, 9.31038149e-03,
          3.02772313e-01, 1.81548938e-01, 4.24500927e-02, 1.64128449e-02,
          4.40606698e-02, 1.75144315e-01, 2.17625096e-01, 1.11596184e-02,
          5.86173031e-04, 2.87894681e-02, 8.62609372e-02, 4.99503128e-03 ]
      - [ 4.89381880e-01, 7.59750009e-02, 4.84067239e-02, 4.03560579e-01,
          5.81571519e-01, 5.10489702e-01, 4.75697517e-01, 4.93317634e-01,
          4.79447655e-02, 9.56048220e-02, 9.34164375e-02, 3.24781723e-02,
          0., 0., 0., 0., 4.05733615e-01, 1.76883280e-01, 1.70560986e-01,
          3.70173842e-01, 1.91089600e-01, 5.24261966e-02, 2.98752859e-02,
          1.64970025e-01, 3.20162112e-03, 5.44163911e-03, 4.10181563e-03,
          1.86040148e-03, 0., 0., 0., 0., 4.02310081e-02, 5.86019456e-02,
          5.86019456e-02, 4.02310081e-02, 0., 0., 0., 0., 0., 0., 0., 0.,
          0., 0., 0., 0., 0., 0., 0., 0., 0., 0., 0., 0., 0., 0., 0., 0.,
          0., 0., 0., 0. ]
      - [ 1.73814259e-02, 1.05162226e-02, 7.16945389e-03, 2.54468862e-02,
          1.88008007e-02, 1.48022640e-02, 1.16746118e-02, 1.64770447e-02,
          5.54938391e-02, 3.99421081e-02, 8.06267001e-03, 6.74517639e-03,
          1.09194264e-01, 1.01163693e-01, 3.61612905e-03, 4.93222708e-03,
          9.35518220e-02, 1.84225815e-03, 2.68202052e-02, 3.13583016e-01,
          4.22198087e-01, 2.01783068e-02, 2.08189115e-02, 4.22198087e-01,
          4.22198087e-01, 3.35031360e-01, 1.24505945e-02, 1.03777744e-01,
          4.09750283e-01, 2.66574740e-01, 1.58127153e-03, 1.09460829e-02,
          1.35502264e-01, 4.47445409e-03, 1.63472481e-02, 2.33785346e-01,
          4.22198087e-01, 3.96546051e-02, 3.65939434e-03, 4.22198087e-01,
          4.22198087e-01, 2.28177607e-01, 1.71664957e-04, 1.45185292e-01,
          2.41027370e-01, 1.04640253e-01, 2.08091410e-03, 3.35863158e-02,
          8.73048902e-02, 1.17625380e-02, 3.76685942e-03, 3.95708643e-02,
          2.78176755e-01, 3.04209832e-02, 2.93086492e-03, 8.30970034e-02,
          2.21700400e-01, 3.33239362e-02, 2.72291317e-03, 7.63727576e-02,
          5.11910468e-02, 1.98712647e-02, 2.43122224e-03, 2.40610074e-02 ]
      - [ 5.07737463e-03, 4.89594042e-03, 4.96851420e-03, 5.10807894e-03,
          1.94679219e-02, 1.59313455e-02, 1.05860047e-02, 1.47464378e-02,
          1.04923576e-01, 1.35930732e-01, 1.00584496e-02, 8.99915211e-03,
          1.09709255e-01, 1.97989717e-01, 3.54495109e-03, 2.57218303e-03,
          1.05063133e-01, 6.92242431e-03, 6.11852948e-03, 7.44663030e-02,
          4.52706993e-01, 1.23212174e-01, 1.16355345e-02, 1.28159761e-01,
          4.52706993e-01, 4.52706993e-01, 2.08370551e-03, 1.20556252e-02,
          2.84589797e-01, 3.77378166e-01, 2.18140101e-03, 3.39980330e-03,
          3.43320131e-01, 8.23293906e-03, 4.50794934e-04, 1.46477655e-01,
          4.52706993e-01, 2.04926088e-01, 1.64826273e-03, 1.54293299e-01,
          4.52706993e-01, 4.52706993e-01, 3.54215968e-03, 1.48748374e-02,
          1.57778233e-01, 1.53150260e-01, 5.24206134e-03, 8.76747351e-03,
          9.51065719e-02, 1.46571174e-02, 8.44368304e-04, 2.12962236e-02,
          1.94250762e-01, 1.11029543e-01, 6.68376777e-03, 1.39383571e-02,
          1.37119815e-01, 1.47281557e-01, 9.82118864e-03, 4.36140643e-03,
          4.35680076e-02, 3.77662890e-02, 5.05364873e-03, 6.16179453e-03 ]
      - [ 2.77873920e-03, 1.80876243e-03, 1.91762310e-03, 2.88899546e-03,
          3.42869349e-02, 5.57338856e-02, 1.58148080e-01, 1.10836945e-01,
          4.06971537e-02, 9.18295830e-02, 3.61322641e-01, 3.26191336e-01,
          2.06332896e-02, 4.77954336e-02, 2.25369558e-01, 1.62876546e-01,
          2.74105668e-02, 1.37150530e-02, 1.76131036e-02, 2.49849260e-02,
          9.24157575e-02, 7.01439753e-02, 1.06800720e-01, 1.26921803e-01,
          1.16267413e-01, 3.61322641e-01, 3.61322641e-01, 3.55617195e-01,
          4.23733294e-02, 1.52706444e-01, 3.61322641e-01, 2.24374473e-01,
          1.67062089e-01, 4.88407724e-02, 2.71049198e-02, 1.42106473e-01,
          3.61322641e-01, 5.41875064e-02, 4.02631089e-02, 3.61322641e-01,
          3.61322641e-01, 3.61322641e-01, 2.20130309e-01, 3.61322641e-01,
          9.82216597e-02, 1.42198592e-01, 2.09347516e-01, 1.35535762e-01,
          3.23651247e-02, 2.07770430e-02, 1.55028803e-02, 2.38502640e-02,
          7.15884715e-02, 4.39099409e-02, 6.18677698e-02, 9.33494493e-02,
          9.15225446e-02, 9.40137804e-02, 1.09993972e-01, 1.12873197e-01,
          6.14714064e-02, 5.16557992e-02, 3.92959230e-02, 5.62740043e-02 ]
      - [ 3.20301694e-03, 1.51288463e-03, 1.43054128e-03, 2.49960925e-03,
          7.69421831e-03, 9.84268188e-02, 6.98104203e-02, 1.17122950e-02,
          3.42632085e-03, 4.67537194e-01, 2.94480771e-01, 4.79266234e-03,
          1.28678931e-03, 4.68980297e-02, 5.23410626e-02, 7.13177118e-03,
          4.05994616e-02, 1.13103483e-02, 2.47169612e-03, 1.66291706e-02,
          1.62657425e-01, 4.67537194e-01, 1.29849881e-01, 5.13054915e-02,
          6.96401447e-02, 4.67537194e-01, 3.61064404e-01, 7.25319330e-03,
          9.42342915e-03, 1.09832071e-01, 7.38187209e-02, 2.92388676e-03,
          2.07714587e-01, 2.75110528e-02, 4.74521017e-04, 1.02003872e-01,
          4.67537194e-01, 4.67537194e-01, 4.31353562e-02, 8.49308893e-02,
          2.09425673e-01, 4.67537194e-01, 1.28917590e-01, 4.99084452e-03,
          2.63624340e-02, 9.64310467e-02, 4.60201651e-02, 6.60282001e-03,
          9.93660986e-02, 2.19745114e-02, 1.12768519e-03, 2.81363055e-02,
          1.81201428e-01, 2.89965838e-01, 1.40486127e-02, 1.24561768e-02,
          6.68083727e-02, 2.23799467e-01, 2.65815500e-02, 2.43540923e-03,
          3.62338684e-02, 3.48661281e-02, 9.32573341e-03, 5.08016627e-03 ]
      - [ 7.79344887e-02, 3.43776494e-02, 1.70813613e-02, 5.55245392e-02,
          1.63365021e-01, 6.51042834e-02, 3.03163100e-02, 1.38833687e-01,
          1.71817079e-01, 3.40901464e-02, 1.75461117e-02, 1.83943883e-01,
          8.02261457e-02, 1.75544862e-02, 3.15668099e-02, 8.46503600e-02,
          8.72853473e-02, 6.43534213e-02, 4.98302914e-02, 7.15075284e-02,
          3.53540450e-01, 2.46316865e-01, 1.16825670e-01, 2.02931702e-01,
          3.53540450e-01, 9.94107574e-02, 1.90296888e-01, 3.53540450e-01,
          3.83678153e-02, 4.49804030e-02, 8.29169676e-02, 7.81298801e-02,
          6.27916902e-02, 1.76658601e-01, 1.57920584e-01, 3.77411693e-02,
          3.53540450e-01, 3.53540450e-01, 3.51571202e-01, 1.83918759e-01,
          3.51240456e-01, 2.14230895e-01, 3.53540450e-01, 3.53540450e-01,
          6.31950274e-02, 1.00560769e-01, 2.16394141e-01, 2.02369243e-01,
          7.99149182e-03, 1.16161354e-01, 1.02708675e-01, 4.53586271e-03,
          6.37546852e-02, 2.44848654e-01, 2.19535738e-01, 4.57256809e-02,
          1.19011261e-01, 1.67471021e-01, 1.77971885e-01, 1.33415759e-01,
          3.62869017e-02, 2.62605511e-02, 4.93571647e-02, 6.63938671e-02 ]
      - [ 6.37812074e-04, 6.37812074e-04, 5.70820877e-04, 5.70820877e-04,
          4.23161089e-02, 2.11482849e-02, 1.45831471e-02, 3.57467867e-02,
          7.31125250e-02, 7.57140154e-03, 8.73258244e-03, 7.42750987e-02,
          4.18513566e-02, 2.66108606e-02, 2.61000507e-02, 4.13405485e-02,
          1.83254421e-01, 1.25491261e-01, 3.94005962e-02, 1.30251825e-01,
          2.27013648e-01, 1.43870577e-01, 1.17783099e-01, 2.09206551e-01,
          1.50029585e-01, 1.33188277e-01, 1.12705722e-01, 1.44857302e-01,
          6.31294399e-02, 1.00488201e-01, 1.08295470e-01, 6.23729974e-02,
          2.84425110e-01, 1.70322344e-01, 7.90775344e-02, 2.45081723e-01,
          3.88274044e-01, 3.37394208e-01, 3.88274044e-01, 3.88274044e-01,
          3.58846724e-01, 3.88274044e-01, 3.88274044e-01, 3.88274044e-01,
          1.20702788e-01, 2.27606803e-01, 3.36743832e-01, 1.80979520e-01,
          6.46465048e-02, 2.19424088e-02, 1.60513707e-02, 6.68265149e-02,
          1.43489569e-01, 6.40031174e-02, 5.73947132e-02, 1.44786119e-01,
          8.90899226e-02, 3.56965400e-02, 4.22100388e-02, 9.20012519e-02,
          4.46984805e-02, 3.22004370e-02, 4.45016958e-02, 5.28783910e-02 ]
      - [ 1.54498464e-03, 2.92653851e-02, 2.92388685e-02, 1.51986291e-03,
          2.44071297e-02, 1.60661653e-01, 1.61875859e-01, 2.49025840e-02,
          2.57441606e-02, 1.91527858e-01, 2.21929282e-01, 3.78932953e-02,
          5.30486600e-03, 7.27147609e-02, 7.71375820e-02, 6.37253793e-03,
          3.53378570e-03, 8.09435174e-02, 7.90468231e-02, 1.22258940e-03,
          2.65759677e-02, 3.70437622e-01, 3.70437622e-01, 2.18349434e-02,
          2.32081249e-01, 3.70437622e-01, 3.70437622e-01, 1.60716072e-01,
          3.22339348e-02, 1.87469289e-01, 1.92626208e-01, 2.15669796e-02,
          6.69451505e-02, 1.15858488e-01, 8.74570161e-02, 3.98151018e-02,
          2.37120941e-01, 3.70437622e-01, 3.54668140e-01, 1.33239910e-01,
          2.92503119e-01, 3.70437622e-01, 3.70437622e-01, 2.06078902e-01,
          4.82322685e-02, 2.12688684e-01, 2.11782917e-01, 4.06971537e-02,
          1.61700007e-02, 7.30064511e-02, 6.09508269e-02, 4.58331499e-03,
          8.73565227e-02, 2.05381066e-01, 1.50423169e-01, 3.97523008e-02,
          7.27538392e-02, 2.53891081e-01, 2.04267338e-01, 4.71659899e-02,
          1.33675355e-02, 8.33705515e-02, 8.34235847e-02, 1.50660425e-02 ]
      - [ 1.37577593e-01, 3.13282967e-01, 2.75698096e-01, 8.66238102e-02,
          3.58877443e-02, 9.53466296e-02, 9.23068970e-02, 2.47392934e-02,
          0., 0., 0., 0., 0., 0., 0., 0., 4.55071211e-01, 4.59521949e-01,
          4.59521949e-01, 4.59521949e-01, 6.82249591e-02, 2.38767803e-01,
          2.34766468e-01, 1.07396662e-01, 0., 0., 0., 0., 0., 0., 0., 0.,
          4.59521949e-01, 3.77062768e-01, 3.02332699e-01, 4.59521949e-01,
          7.02444613e-02, 2.00399995e-01, 1.65210083e-01, 5.98482639e-02,
          0., 0., 0., 0., 1.50730208e-04, 0., 0., 1.50730208e-04,
          6.89269677e-02, 7.46072605e-02, 7.38703609e-02, 6.81900680e-02,
          1.67198875e-03, 0., 0., 1.67198875e-03, 0., 0., 0., 0.,
          4.16182820e-03, 7.32018473e-03, 7.32018473e-03, 4.16182820e-03 ]
      - [ 4.64597940e-02, 2.29458828e-02, 1.54819461e-02, 3.89888808e-02,
          1.59732148e-01, 1.70046002e-01, 1.56635195e-01, 1.40680134e-01,
          1.92275912e-01, 2.25333288e-01, 2.31268987e-01, 2.02600926e-01,
          7.18536451e-02, 4.47626822e-02, 4.34549600e-02, 5.93053587e-02,
          8.82050861e-03, 7.03407638e-03, 4.94618388e-03, 6.72982447e-03,
          1.54026732e-01, 1.46892160e-01, 1.66556880e-01, 1.90848172e-01,
          3.78346771e-01, 3.14067304e-01, 2.89633662e-01, 3.78346771e-01,
          5.60241826e-02, 2.67392602e-02, 2.87587643e-02, 5.58343753e-02,
          0., 0., 0., 0., 3.80091332e-02, 9.40081999e-02, 7.30329677e-02,
          1.70157645e-02, 3.78346771e-01, 3.78346771e-01, 3.78346771e-01,
          3.78346771e-01, 1.63651124e-01, 2.07637832e-01, 2.50799716e-01,
          1.95929721e-01, 0., 0., 0., 0., 4.78707952e-03, 8.13203454e-02,
          8.03112835e-02, 1.68734090e-03, 1.29629374e-01, 3.43003333e-01,
          3.43856066e-01, 6.79234937e-02, 6.12815954e-02, 1.18042685e-01,
          9.38993394e-02, 4.07376289e-02 ]
      - [ 1.14820125e-02, 1.53661065e-03, 1.40248872e-02, 3.63859944e-02,
          5.28811803e-03, 4.52888431e-03, 1.29757777e-01, 9.72740129e-02,
          1.85621451e-04, 6.54559862e-03, 1.68265149e-01, 8.30188468e-02,
          1.59662357e-03, 3.34258191e-03, 4.14214991e-02, 3.36868055e-02,
          7.83992410e-02, 1.90506235e-03, 2.24895049e-02, 1.36416420e-01,
          5.71141839e-02, 8.58883001e-03, 2.69459546e-01, 4.22378153e-01,
          1.34121964e-03, 2.07449421e-02, 4.22378153e-01, 2.40886405e-01,
          3.77104641e-03, 7.63141457e-03, 1.28369093e-01, 7.37810358e-02,
          2.73434371e-01, 1.17234602e-04, 1.65803218e-03, 3.39518368e-01,
          2.92613387e-01, 5.55747841e-03, 2.86406904e-01, 4.22378153e-01,
          1.11791566e-02, 3.89972515e-02, 4.22378153e-01, 4.22378153e-01,
          2.83875200e-03, 3.73685285e-02, 2.23696187e-01, 4.83620614e-02,
          5.46857528e-02, 1.92599706e-04, 3.62869003e-04, 6.99164867e-02,
          6.51363805e-02, 4.63648885e-02, 1.80264950e-01, 2.73392469e-01,
          2.28328351e-03, 1.97445393e-01, 4.22378153e-01, 1.59312055e-01,
          1.14303734e-03, 5.94323575e-02, 1.45282984e-01, 8.95867776e-03 ]
      - [ 7.34391063e-03, 1.74316689e-02, 2.28105038e-02, 1.69110913e-02,
          9.82258469e-03, 8.52728188e-02, 1.27075329e-01, 5.20019196e-02,
          3.13197821e-02, 9.60695669e-02, 1.25341937e-01, 2.59367600e-02,
          1.47883072e-02, 3.50084864e-02, 2.88117994e-02, 6.01525186e-03,
          8.56984928e-02, 7.97474477e-03, 9.92195532e-02, 2.36603156e-01,
          2.33059581e-02, 1.65418029e-01, 3.79251152e-01, 2.42801234e-01,
          1.27646159e-02, 2.47184977e-01, 3.79251152e-01, 1.32938460e-01,
          2.60149166e-02, 1.12263300e-01, 1.11792959e-01, 3.52904052e-02,
          9.89069268e-02, 5.69913685e-02, 3.51714969e-01, 3.60053986e-01,
          5.73193422e-03, 3.79251152e-01, 3.79251152e-01, 1.91582277e-01,
          5.67792319e-02, 3.79251152e-01, 3.79251152e-01, 7.84132034e-02,
          7.32437102e-03, 1.28634274e-01, 1.46120369e-01, 1.80024896e-02,
          1.93869751e-02, 8.34473073e-02, 1.89049169e-01, 2.61000507e-02,
          7.04663713e-03, 3.14735830e-01, 3.79251152e-01, 4.08018269e-02,
          1.01547493e-02, 1.59665152e-01, 2.81414688e-01, 5.17981574e-02,
          1.70548435e-03, 5.98315150e-02, 8.36078078e-02, 7.42206676e-03 ]
      - [ 1.21421553e-03, 9.07172507e-04, 1.08023314e-03, 1.38727610e-03,
          1.69390049e-02, 1.47617897e-02, 5.85614750e-03, 9.94261075e-03,
          1.82612434e-01, 1.84061110e-01, 7.64537044e-03, 7.93427043e-03,
          1.41750589e-01, 2.02063605e-01, 4.95176623e-03, 1.94134924e-03,
          1.05710715e-01, 1.22803245e-02, 1.07185927e-03, 2.44350415e-02,
          4.48168337e-01, 2.75523633e-01, 6.60561165e-03, 2.37260517e-02,
          4.48168337e-01, 4.48168337e-01, 3.93712893e-03, 5.36487857e-03,
          2.11577758e-01, 2.51561731e-01, 4.73404489e-03, 3.11090378e-03,
          4.48168337e-01, 2.94049494e-02, 7.15968490e-04, 1.08160079e-01,
          4.48168337e-01, 3.19072098e-01, 3.99853708e-03, 4.09581438e-02,
          4.48168337e-01, 4.48168337e-01, 2.82465592e-02, 4.66286670e-03,
          1.08963981e-01, 1.18092924e-01, 1.21491337e-02, 7.51976250e-03,
          6.13276549e-02, 1.21784415e-02, 1.39146310e-03, 1.85132977e-02,
          1.28762677e-01, 1.18133396e-01, 7.86309224e-03, 1.08832782e-02,
          9.87575948e-02, 1.38627127e-01, 1.38336830e-02, 4.11577197e-03,
          3.30462009e-02, 4.34940383e-02, 5.36627416e-03, 4.70054941e-03 ]
      - [ 1.17844500e-01, 1.31763322e-02, 2.77957655e-02, 1.41384929e-01,
          2.25029036e-01, 4.37982865e-02, 2.02794924e-01, 3.32520604e-01,
          2.99089193e-01, 1.96033008e-02, 1.11502670e-01, 3.32520604e-01,
          1.46790281e-01, 5.22252265e-03, 2.26960611e-02, 1.57250687e-01,
          5.01443073e-02, 3.52527238e-02, 1.17893353e-01, 1.22833952e-01,
          2.19186842e-01, 1.47863537e-01, 2.74913758e-01, 3.32520604e-01,
          3.13718408e-01, 1.07925616e-01, 2.77946472e-01, 3.32520604e-01,
          1.27932265e-01, 3.68828438e-02, 9.92251411e-02, 2.09686652e-01,
          9.42705795e-02, 1.30381621e-02, 1.18111074e-01, 2.04575762e-01,
          2.63307542e-01, 1.25237271e-01, 2.53589630e-01, 3.32520604e-01,
          1.59059435e-01, 1.63740456e-01, 2.89177299e-01, 3.32520604e-01,
          1.07900493e-01, 6.73191771e-02, 1.02450483e-01, 1.63748831e-01,
          3.92303243e-02, 1.43347215e-02, 4.61499579e-02, 8.35533813e-02,
          7.18480647e-02, 7.44021013e-02, 1.83078587e-01, 2.05181494e-01,
          6.82807788e-02, 8.32616836e-02, 1.19614184e-01, 1.65646911e-01,
          6.56234622e-02, 1.43012255e-02, 2.30505560e-02, 7.83908740e-02 ]
      - [ 2.48481538e-02, 7.36903225e-04, 8.30272213e-03, 1.41259328e-01,
          5.04583269e-02, 3.41096870e-03, 6.80407286e-02, 2.62611091e-01,
          8.48276075e-03, 7.39889890e-02, 1.38914630e-01, 6.70651719e-02,
          2.74663931e-03, 3.78988758e-02, 3.55541818e-02, 1.49753247e-03,
          5.41428477e-02, 1.55363763e-02, 1.89250149e-02, 1.71630055e-01,
          1.09551556e-01, 3.21154416e-01, 3.74952555e-01, 4.21571434e-01,
          5.56013025e-02, 4.21571434e-01, 4.21571434e-01, 9.07451659e-02,
          4.39643711e-02, 1.19991012e-01, 5.85223995e-02, 1.01449806e-02,
          5.35734184e-02, 6.53345659e-02, 2.58502290e-02, 2.29291338e-02,
          3.58919293e-01, 4.21571434e-01, 1.53726667e-01, 1.96940172e-02,
          2.33127996e-01, 4.21571434e-01, 1.70648918e-01, 6.00827346e-03,
          4.84541766e-02, 1.47482529e-01, 4.49804030e-02, 7.36763654e-03,
          1.32447183e-01, 8.89084861e-02, 5.89103857e-03, 3.00064757e-02,
          2.86630243e-01, 4.21571434e-01, 1.83709413e-02, 3.99574591e-03,
          8.16650614e-02, 1.89379930e-01, 3.48870642e-02, 4.20509325e-03,
          2.05467604e-02, 5.05267195e-02, 1.91832092e-02, 3.30908597e-03 ]
      - [ 1.63584147e-02, 7.41229765e-03, 8.19665194e-03, 1.71427689e-02,
          8.54416937e-03, 1.41239781e-02, 1.32349497e-02, 7.65514048e-03,
          4.54200320e-02, 8.77570808e-02, 8.24619830e-02, 3.71228941e-02,
          8.60850886e-02, 2.64712945e-02, 4.63062711e-02, 9.58574265e-02,
          1.49916545e-01, 5.99571243e-02, 5.68183102e-02, 1.38962090e-01,
          3.06191653e-01, 5.58385625e-02, 9.45929736e-02, 3.54895651e-01,
          3.54895651e-01, 3.54895651e-01, 2.23140717e-01, 2.20240548e-01,
          1.50092393e-01, 1.36878386e-01, 1.14360958e-01, 1.36952341e-01,
          1.86795190e-01, 4.47082520e-02, 5.27095161e-02, 1.80291459e-01,
          3.54895651e-01, 6.75801709e-02, 8.23949873e-02, 3.54895651e-01,
          3.54895651e-01, 3.44795346e-01, 1.60446718e-01, 3.54895651e-01,
          2.56612569e-01, 1.83424711e-01, 7.75283650e-02, 1.64064243e-01,
          7.17210621e-02, 2.35585729e-03, 7.08152819e-03, 7.64243975e-02,
          2.42672831e-01, 6.42724782e-02, 5.90694919e-02, 2.16008931e-01,
          2.94898063e-01, 1.60134092e-01, 7.99707472e-02, 2.27786839e-01,
          1.41950175e-01, 1.21809542e-01, 2.41656806e-02, 7.46868178e-02 ]
      - [ 1.92404315e-02, 6.21064275e-04, 1.74149200e-02, 9.14667100e-02,
          6.45906804e-03, 1.54917147e-02, 1.65390119e-01, 1.05371572e-01,
          9.15546378e-04, 7.37908036e-02, 1.57406986e-01, 1.03920102e-02,
          9.16942081e-04, 3.64962481e-02, 3.52792405e-02, 9.57415905e-04,
          1.32113621e-01, 2.55403947e-03, 3.77174392e-02, 2.43556276e-01,
          6.09061643e-02, 9.93549302e-02, 4.59039092e-01, 3.43934238e-01,
          1.70269297e-04, 1.80851132e-01, 4.59039092e-01, 2.58599985e-02,
          3.93712893e-03, 8.00921693e-02, 1.52442664e-01, 5.66633930e-03,
          7.33093098e-02, 5.87149989e-03, 2.06988864e-02, 9.88790169e-02,
          4.83425222e-02, 2.79727340e-01, 4.59039092e-01, 1.68634996e-01,
          2.95877806e-04, 3.35913420e-01, 4.59039092e-01, 4.31339592e-02,
          1.40960654e-03, 7.53972009e-02, 2.21052825e-01, 1.40932743e-02,
          3.66078992e-03, 4.33768006e-03, 4.50655399e-03, 3.33699933e-03,
          2.84991739e-03, 2.53747314e-01, 4.07721013e-01, 3.39282514e-03,
          2.06416636e-03, 2.76344299e-01, 3.69311333e-01, 7.07594538e-03,
          2.19814875e-03, 4.21639830e-02, 7.24565685e-02, 9.68581159e-03 ]
      - [ 3.03874873e-02, 1.16815907e-03, 3.04809981e-03, 5.36794923e-02,
          8.01298469e-02, 3.19464295e-03, 1.45663992e-02, 1.29347444e-01,
          3.65702175e-02, 1.01493061e-01, 8.40167329e-02, 8.02373141e-02,
          1.51679246e-02, 1.57958269e-01, 2.51398440e-02, 3.80593771e-03,
          6.14895485e-02, 6.02641655e-03, 8.49392544e-03, 9.59886238e-02,
          1.67006269e-01, 1.85335353e-01, 8.01117122e-02, 2.23503590e-01,
          1.78364083e-01, 4.48079050e-01, 1.64954677e-01, 6.09005876e-02,
          8.34877864e-02, 4.48079050e-01, 1.82690583e-02, 2.60009593e-03,
          3.48828770e-02, 5.45643345e-02, 2.48034932e-02, 1.45998951e-02,
          3.74586880e-01, 4.48079050e-01, 2.29723994e-02, 1.62830483e-02,
          4.48079050e-01, 4.48079050e-01, 2.29989178e-02, 1.91064482e-03,
          1.04101531e-01, 2.61050761e-01, 1.85119025e-02, 3.61054647e-03,
          7.12172240e-02, 8.95742178e-02, 7.32855871e-03, 2.89876503e-03,
          2.79132783e-01, 4.48079050e-01, 8.51346459e-03, 1.85621451e-04,
          1.54263988e-01, 3.33337039e-01, 1.87868457e-02, 1.07185927e-03,
          3.05870660e-02, 5.94239868e-02, 1.19202472e-02, 2.07254034e-03 ]
      - [ 2.24699662e-03, 4.43537580e-03, 4.82755341e-03, 3.21697351e-03,
          2.82200444e-02, 3.93922217e-02, 2.90965121e-02, 2.24169325e-02,
          9.76801515e-02, 2.94060647e-01, 4.56572995e-02, 7.53930165e-03,
          5.51993549e-02, 2.27277413e-01, 3.36351655e-02, 1.11652003e-03,
          1.02502123e-01, 5.58678713e-03, 1.11484528e-02, 1.82391927e-01,
          4.40556467e-01, 2.34332427e-01, 2.62410119e-02, 2.58580446e-01,
          4.40556467e-01, 4.40556467e-01, 3.76085788e-02, 3.10211144e-02,
          1.22337095e-01, 2.95932233e-01, 2.57357880e-02, 2.37539643e-03,
          2.65666187e-01, 5.99850388e-03, 3.56867700e-03, 2.49599442e-01,
          4.40556467e-01, 2.08083048e-01, 6.46185922e-03, 2.71192938e-01,
          4.40556467e-01, 4.40556467e-01, 9.14988201e-03, 2.22606175e-02,
          1.21923991e-01, 1.32881239e-01, 2.85968697e-03, 4.23300639e-03,
          5.88727072e-02, 8.17711372e-03, 1.41239783e-03, 2.90295202e-02,
          1.34490415e-01, 5.69481030e-02, 1.31916841e-02, 3.30420136e-02,
          1.11159332e-01, 1.41941801e-01, 1.00919455e-02, 8.32086615e-03,
          4.76028323e-02, 5.02154902e-02, 6.03758171e-03, 3.90223763e-03 ]
      - [ 0., 0., 0., 0., 4.66761179e-02, 2.17260849e-02, 1.54735725e-02,
          3.60538252e-02, 1.96273059e-01, 1.84983641e-01, 1.11093737e-01,
          1.09058887e-01, 7.52101839e-02, 7.66030401e-02, 5.37311323e-02,
          4.78303246e-02, 8.16371515e-02, 8.33342597e-02, 4.53418791e-02,
          3.21222804e-02, 4.14625287e-01, 4.14625287e-01, 2.27813348e-01,
          4.14625287e-01, 4.14625287e-01, 4.14625287e-01, 3.50333273e-01,
          3.83429706e-01, 3.35458443e-02, 4.85490821e-02, 4.13810238e-02,
          2.05997936e-02, 2.69586533e-01, 2.35895544e-01, 1.31929412e-01,
          1.34878412e-01, 4.14625287e-01, 3.66116673e-01, 2.41792172e-01,
          2.84419507e-01, 3.80398370e-02, 2.85982657e-02, 2.15306934e-02,
          3.64306532e-02, 1.07325485e-03, 5.77799103e-04, 5.77799103e-04,
          1.07325485e-03, 5.28197698e-02, 3.31271477e-02, 1.95293296e-02,
          3.43874209e-02, 2.72863526e-02, 2.06974894e-02, 1.80122592e-02,
          2.03248505e-02, 0., 0., 0., 0., 0., 0., 0., 0. ]
      - [ 2.58809328e-02, 1.06488098e-03, 1.92892794e-02, 1.03752621e-01,
          7.14712404e-03, 2.63749938e-02, 2.03905866e-01, 1.31379515e-01,
          1.06348528e-03, 7.47217089e-02, 1.52025372e-01, 2.58893073e-02,
          8.34598730e-04, 3.26568149e-02, 5.19335344e-02, 6.37532910e-03,
          1.33376688e-01, 2.92388676e-03, 4.99154218e-02, 2.41557717e-01,
          4.43593413e-02, 1.55972257e-01, 4.77962673e-01, 3.93936187e-01,
          1.02440710e-03, 1.59695849e-01, 4.77962673e-01, 6.02725446e-02,
          8.42972600e-04, 7.22067431e-02, 1.46762371e-01, 1.52014205e-02,
          2.62312423e-02, 1.00528672e-02, 2.31747683e-02, 3.82003374e-02,
          2.03736983e-02, 2.43533954e-01, 4.77962673e-01, 9.73396078e-02,
          2.49402667e-03, 2.59794682e-01, 4.77962673e-01, 3.96155268e-02,
          1.93576654e-03, 7.69393966e-02, 2.20763922e-01, 2.29026172e-02,
          7.95520563e-03, 6.38370309e-03, 3.49749904e-03, 3.68032930e-03,
          2.34929770e-02, 1.95872515e-01, 3.42361331e-01, 1.28260236e-02,
          2.41028750e-03, 2.69437224e-01, 4.15293783e-01, 6.42975979e-03,
          1.07604614e-03, 4.77926396e-02, 8.00963566e-02, 9.82816797e-03 ]
      - [ 0., 0., 0., 0., 0., 0., 0., 0., 2.74649970e-02, 4.13838141e-02,
          3.96741405e-02, 2.57539302e-02, 4.76802886e-01, 6.61418080e-01,
          8.06701064e-01, 5.52493215e-01, 0., 0., 0., 0., 0., 0., 0., 0.,
          0., 5.89103857e-03, 5.89103857e-03, 0., 3.40753555e-01,
          1.45740747e-01, 1.76756278e-01, 3.67148072e-01, 0., 0., 0., 0.,
          0., 0., 0., 0., 0., 0., 0., 0., 0., 0., 0., 0., 0., 0., 0., 0.,
          0., 0., 0., 0., 0., 0., 0., 0., 0., 0., 0., 0. ]
      - [ 5.87122068e-02, 3.70391570e-02, 5.29258400e-02, 8.25736374e-02,
          2.20921621e-01, 8.70941430e-02, 1.67155609e-01, 3.34870875e-01,
          1.49711385e-01, 6.71000630e-02, 1.40992761e-01, 2.49337062e-01,
          3.37607749e-02, 3.17105651e-02, 3.14398073e-02, 3.34816426e-02,
          1.53789476e-01, 7.65639693e-02, 1.62907243e-01, 2.42199704e-01,
          2.59516925e-01, 1.65267289e-01, 2.34805554e-01, 3.57938200e-01,
          2.90697157e-01, 2.51645476e-01, 3.58160108e-01, 3.58160108e-01,
          1.94712713e-01, 1.65658072e-01, 2.52901554e-01, 2.79753864e-01,
          5.43424226e-02, 6.88111335e-02, 1.12335868e-01, 9.93758664e-02,
          1.52001634e-01, 3.00934255e-01, 3.58160108e-01, 2.26530746e-01,
          1.27634987e-01, 1.28879905e-01, 1.74574882e-01, 1.71112269e-01,
          1.35943294e-01, 1.28553331e-01, 1.58378363e-01, 1.73533723e-01,
          2.64936257e-02, 6.71586767e-02, 8.67103413e-02, 6.65041208e-02,
          1.10605266e-02, 1.91949338e-01, 1.98620543e-01, 1.84365362e-02,
          1.13131385e-02, 5.47778681e-02, 5.42600825e-02, 1.07953530e-02,
          1.95544530e-02, 6.19249903e-02, 5.72649166e-02, 1.48915853e-02 ]
      - [ 4.97926064e-02, 4.45212383e-04, 4.73125343e-04, 6.51656911e-02,
          1.18102700e-01, 1.75070334e-02, 1.83095336e-02, 1.23976991e-01,
          4.42979299e-02, 2.40548655e-01, 6.06047064e-02, 3.78737561e-02,
          1.70199536e-02, 1.22099839e-01, 1.20835379e-02, 6.28042500e-04,
          1.16670758e-01, 3.66637250e-03, 3.79337673e-03, 1.48036599e-01,
          2.29839832e-01, 4.64376032e-01, 1.29728466e-01, 3.08474958e-01,
          1.62104756e-01, 4.64376032e-01, 1.36469454e-01, 4.23286706e-02,
          6.37002587e-02, 2.26843372e-01, 2.56869383e-02, 2.42424407e-03,
          6.49381950e-02, 1.05406471e-01, 7.03128520e-03, 1.43486783e-02,
          4.63925242e-01, 4.64376032e-01, 3.99030298e-02, 2.15460453e-02,
          2.52841532e-01, 4.64376032e-01, 5.87736145e-02, 8.76468257e-04,
          6.12913631e-02, 1.90169886e-01, 2.42745411e-02, 2.25257897e-03,
          1.07188717e-01, 1.78620875e-01, 5.57283033e-03, 3.78221157e-04,
          2.05841631e-01, 4.28884655e-01, 1.06404359e-02, 0.,
          7.78772682e-02, 1.88284367e-01, 2.68132277e-02, 2.23303996e-05,
          1.72962900e-02, 7.18480647e-02, 1.61351096e-02, 6.72703318e-04 ]
      - [ 1.45761697e-02, 1.77540649e-02, 5.00466153e-02, 5.39027937e-02,
          2.06247777e-01, 5.97380102e-02, 2.46138230e-01, 3.68051052e-01,
          2.85728663e-01, 4.47277911e-02, 3.96358997e-01, 3.96358997e-01,
          9.94233191e-02, 5.41749485e-02, 2.09717348e-01, 3.96358997e-01,
          1.35419928e-02, 2.31608134e-02, 2.40735672e-02, 1.48218032e-02,
          1.07885145e-01, 3.39003392e-02, 3.96671668e-02, 1.12836905e-01,
          1.72934994e-01, 3.38919647e-02, 2.67901987e-01, 3.96358997e-01,
          1.96160004e-01, 5.30053899e-02, 3.16028208e-01, 3.96358997e-01,
          1.87980104e-02, 5.71658229e-03, 2.41447450e-03, 1.54945068e-02,
          1.00835718e-01, 1.11079784e-02, 4.41723224e-03, 8.91359821e-02,
          9.91595387e-02, 5.20158745e-03, 1.13940863e-02, 1.10684812e-01,
          7.18690008e-02, 3.00581157e-02, 2.62507815e-02, 7.72617906e-02,
          1.12485200e-01, 4.79098707e-02, 1.19537432e-02, 8.79817829e-02,
          3.07558000e-01, 5.10640405e-02, 3.10183223e-02, 2.81703591e-01,
          3.06720614e-01, 2.83163432e-02, 3.44990715e-02, 3.24629605e-01,
          1.47294119e-01, 3.81640494e-02, 6.60561165e-03, 1.29687995e-01 ]
      - [ 6.76750671e-03, 8.37669149e-03, 1.39732482e-02, 1.45803560e-02,
          0., 0., 0., 0., 8.94793049e-02, 1.11353338e-01, 1.29175782e-01,
          1.07315719e-01, 1.27893180e-01, 1.46530688e-01, 1.38218209e-01,
          1.19573712e-01, 5.77645600e-02, 1.44012943e-01, 1.38382882e-01,
          5.04792668e-02, 0., 0., 0., 0., 1.32503016e-02, 2.09110249e-02,
          1.59104113e-02, 8.24549980e-03, 3.76825511e-01, 3.30728590e-01,
          1.65535256e-01, 1.25187024e-01, 2.34301724e-02, 1.75391342e-02,
          1.04924971e-02, 1.24157025e-02, 1.61895412e-04, 0., 0.,
          1.61895412e-04, 1.23822065e-02, 1.43630534e-01, 1.29414439e-01,
          3.40957288e-03, 4.07400042e-01, 5.58451235e-01, 5.58451235e-01,
          6.42180443e-02, 5.23229167e-02, 2.76380591e-02, 3.73266600e-02,
          6.20198958e-02, 2.86108255e-03, 1.02315107e-02, 1.24673424e-02,
          5.09830983e-03, 3.90782006e-05, 8.15548077e-02, 8.11654180e-02,
          0., 4.27348027e-03, 5.58451235e-01, 5.58451235e-01, 0. ]
      - [ 7.87425786e-03, 3.45325693e-02, 3.83147784e-02, 1.15113221e-02,
          2.64405888e-02, 1.78016558e-01, 1.78876281e-01, 2.84279957e-02,
          4.46259119e-02, 1.91519469e-01, 2.58893073e-01, 9.85761508e-02,
          2.60567870e-02, 8.01675320e-02, 9.37416255e-02, 3.88604812e-02,
          3.44962813e-02, 1.04696080e-01, 1.50026798e-01, 8.49936903e-02,
          1.09996758e-01, 3.52531433e-01, 3.52531433e-01, 2.54895926e-01,
          1.61031500e-01, 3.52531433e-01, 3.52531433e-01, 1.92596912e-01,
          3.96308787e-02, 1.81680128e-01, 2.06873029e-01, 6.29131123e-02,
          1.03265539e-01, 1.30302072e-01, 1.25506625e-01, 1.01586573e-01,
          8.22875202e-02, 3.52531433e-01, 3.52531433e-01, 2.74962604e-01,
          8.06225166e-02, 3.52531433e-01, 3.52531433e-01, 1.87301815e-01,
          5.31589128e-02, 1.90429464e-01, 2.18084276e-01, 6.95731491e-02,
          5.34212962e-02, 3.41138728e-02, 2.90518515e-02, 4.96977009e-02,
          1.30911976e-01, 1.72057137e-01, 1.20585561e-01, 5.85140251e-02,
          7.29227141e-02, 2.51401246e-01, 1.97396547e-01, 2.73086838e-02,
          6.23269416e-02, 1.54205367e-01, 8.42567906e-02, 1.80401728e-02 ]
      - [ 0., 0., 0., 0., 0., 0., 0., 0., 0., 0., 0., 0., 0., 0., 0., 0.,
          0., 0., 0., 0., 0., 0., 0., 0., 0., 0., 0., 0., 0., 0., 0., 0.,
          2.94457018e-01, 5.27875304e-01, 6.39856696e-01, 4.06533301e-01,
          0., 0., 0., 0., 0., 0., 0., 0., 0., 0., 0., 0., 1.79244742e-01,
          6.96578681e-01, 6.71424866e-01, 1.54069990e-01, 0., 0., 0., 0.,
          0., 0., 0., 0., 0., 0., 0., 0. ]
      - [ 1.17932423e-03, 1.17932423e-03, 1.05511141e-03, 1.05511141e-03,
          7.93901533e-02, 3.98946553e-02, 2.83512361e-02, 6.78355694e-02,
          8.30858424e-02, 4.63718660e-02, 5.33138290e-02, 8.86489004e-02,
          4.54591140e-02, 1.65272877e-02, 1.22705549e-02, 4.19574268e-02,
          3.99058200e-02, 7.93789923e-02, 6.78355694e-02, 2.83512361e-02,
          3.48188162e-01, 3.48188162e-01, 2.66111374e-01, 2.63811350e-01,
          3.48188162e-01, 3.48188162e-01, 3.48188162e-01, 3.48188162e-01,
          2.28826597e-01, 2.11919680e-01, 2.01762155e-01, 2.12597966e-01,
          3.31648290e-02, 7.03951940e-02, 7.84578621e-02, 4.12344784e-02,
          2.31993318e-01, 2.75396645e-01, 2.22719237e-01, 1.79465249e-01,
          3.48188162e-01, 2.85411835e-01, 2.57109433e-01, 3.36397707e-01,
          2.81594723e-01, 2.12496087e-01, 1.69695690e-01, 2.22169340e-01,
          2.67881062e-02, 2.66624987e-02, 2.65815500e-02, 2.67071594e-02,
          1.21198250e-02, 1.42523786e-02, 1.72725655e-02, 1.51428031e-02,
          5.92788421e-02, 3.59072834e-02, 4.53711860e-02, 6.87483251e-02,
          7.58856758e-02, 4.13000770e-02, 4.67361324e-02, 8.03210586e-02 ]
      - [ 1.34440169e-01, 2.88475275e-01, 1.27701983e-02, 6.55955495e-03,
          2.23906919e-01, 3.09637517e-01, 5.26299626e-02, 6.12411238e-02,
          1.29341871e-01, 7.48794153e-02, 5.06244116e-02, 8.96356255e-02,
          3.45102400e-02, 4.94283400e-02, 3.07056960e-02, 1.96563359e-02,
          2.07096323e-01, 3.27264577e-01, 6.90818876e-02, 4.68715094e-02,
          3.27264577e-01, 3.27264577e-01, 1.35380849e-01, 2.07930923e-01,
          2.78642923e-01, 2.44706303e-01, 1.68880627e-01, 2.11467505e-01,
          1.60139680e-01, 1.56209514e-01, 7.58493915e-02, 8.62944350e-02,
          4.90487255e-02, 1.33489743e-01, 1.19161993e-01, 4.28045876e-02,
          2.97406048e-01, 1.54565454e-01, 7.91682452e-02, 2.02951252e-01,
          3.27264577e-01, 3.27264577e-01, 1.38985798e-01, 2.10084409e-01,
          3.26559782e-01, 2.39236742e-01, 4.08576541e-02, 1.10973708e-01,
          5.35552800e-02, 4.12679762e-02, 4.42155898e-02, 4.19755727e-02,
          2.59650916e-01, 1.50449678e-01, 1.46557214e-02, 9.93465632e-02,
          2.89295912e-01, 2.20670417e-01, 3.28815170e-02, 9.67827514e-02,
          1.46036625e-01, 1.42166495e-01, 1.17471861e-02, 1.02747753e-02 ]
      - [ 0., 0., 0., 0., 0., 0., 0., 0., 9.57401991e-02, 1.80884615e-01,
          1.86624929e-01, 1.01484694e-01, 5.12065411e-01, 5.09547591e-01,
          5.11648118e-01, 5.14168620e-01, 0., 0., 0., 0., 0., 0., 0., 0.,
          3.03567834e-02, 2.96854749e-02, 4.24375311e-02, 4.31200042e-02,
          1.87508374e-01, 9.71623659e-02, 1.01830810e-01, 1.92181021e-01,
          0., 0., 0., 0., 0., 0., 0., 0., 0., 0., 0., 0., 0., 0., 0., 0.,
          1.61296666e-01, 2.19968390e-02, 2.19968390e-02, 1.61296666e-01,
          3.79629344e-01, 1.74161777e-01, 1.74161777e-01, 3.79629344e-01,
          3.10862899e-01, 7.29743540e-02, 7.29743540e-02, 3.10862899e-01,
          2.08392873e-01, 5.17939664e-02, 5.17939664e-02, 2.08392873e-01 ]
      - [ 0., 0., 0., 0., 0., 0., 0., 0., 7.27985054e-02, 6.20059371e-02,
          4.75791059e-02, 5.83605021e-02, 9.50465649e-02, 9.06335097e-03,
          5.73472586e-03, 9.17137489e-02, 2.98613273e-02, 2.97761932e-02,
          2.09347494e-02, 2.10129078e-02, 3.31706941e-01, 5.13850451e-02,
          3.30824889e-02, 3.13390404e-01, 3.55453938e-01, 4.45181668e-01,
          3.90945315e-01, 2.99298555e-01, 1.00792445e-01, 6.22725114e-02,
          5.54882549e-02, 9.40026119e-02, 1.72746584e-01, 2.15449288e-01,
          1.61090121e-01, 1.18341357e-01, 4.45181668e-01, 2.10480779e-01,
          1.59282744e-01, 4.45181668e-01, 3.30113113e-01, 1.21001467e-01,
          1.05276674e-01, 3.14375758e-01, 4.45770612e-03, 1.22203110e-02,
          1.02719842e-02, 2.50937860e-03, 6.25348911e-02, 1.15547262e-01,
          1.09709255e-01, 5.66913038e-02, 2.31983542e-01, 1.31253898e-01,
          1.31294385e-01, 2.32024014e-01, 1.38447076e-01, 1.29498169e-01,
          1.85804278e-01, 1.94800645e-01, 2.05328036e-02, 3.28563936e-02,
          2.88508758e-02, 1.65231004e-02 ]
      - [ 7.00979158e-02, 1.43472827e-03, 4.13112430e-04, 6.10694587e-02,
          1.42158121e-01, 4.04933915e-02, 2.89471783e-02, 1.01350710e-01,
          4.87849452e-02, 2.74521559e-01, 6.96485192e-02, 1.81280989e-02,
          2.05034949e-02, 1.08595528e-01, 1.50786033e-02, 8.16455227e-04,
          1.55592650e-01, 1.75684430e-02, 5.96082164e-03, 1.72237173e-01,
          2.62609690e-01, 4.64857519e-01, 1.44640982e-01, 2.94984579e-01,
          1.39204934e-01, 4.64857519e-01, 1.33115709e-01, 2.05649026e-02,
          5.19837737e-02, 2.19888851e-01, 3.57021242e-02, 2.15767487e-03,
          1.12504743e-01, 2.15393454e-01, 1.05776321e-02, 1.59550719e-02,
          4.64857519e-01, 4.64857519e-01, 3.29387337e-02, 1.25231668e-02,
          2.01766327e-01, 4.64857519e-01, 6.00213222e-02, 1.06488098e-03,
          7.24007413e-02, 1.66639224e-01, 2.74245217e-02, 5.86033473e-03,
          1.33895874e-01, 2.01222032e-01, 3.81710287e-03, 1.30772404e-03,
          1.89036608e-01, 3.42506468e-01, 8.15896969e-03, 1.40960654e-03,
          8.44996348e-02, 2.03043357e-01, 2.48816498e-02, 1.36913266e-03,
          2.07351726e-02, 5.51812090e-02, 1.26920408e-02, 2.85968697e-03 ]
      - [ 1.64016783e-02, 1.15824994e-02, 1.85272545e-02, 2.32752543e-02,
          7.36065861e-03, 3.81877758e-02, 2.12062031e-01, 8.38590264e-02,
          2.57637003e-03, 1.03368819e-01, 1.86167136e-01, 1.72837302e-02,
          3.63427284e-03, 6.03186004e-02, 5.26676476e-02, 3.23651242e-03,
          2.22811341e-01, 2.80721057e-02, 1.73297860e-02, 1.31795421e-01,
          1.16617724e-01, 3.60460103e-01, 3.97513241e-01, 3.16300362e-01,
          4.20509325e-03, 3.97513241e-01, 3.97513241e-01, 2.05146596e-02,
          6.76471554e-03, 1.48987040e-01, 1.43432349e-01, 7.66072329e-03,
          2.14962214e-01, 6.88739344e-02, 1.55224204e-02, 6.56876639e-02,
          2.19285935e-01, 3.97513241e-01, 3.89013708e-01, 4.13405485e-02,
          2.67085563e-02, 3.97513241e-01, 3.97513241e-01, 2.73128715e-03,
          1.70283262e-02, 1.55377716e-01, 1.25113040e-01, 1.13131385e-02,
          1.00925036e-01, 2.94914804e-02, 4.64472314e-03, 2.42982674e-02,
          1.05920069e-01, 3.43218267e-01, 8.94192979e-02, 5.24066575e-03,
          2.02118028e-02, 2.52369791e-01, 1.25753641e-01, 2.54566572e-03,
          6.93358947e-03, 6.33750707e-02, 4.51590493e-02, 3.48912505e-03 ]
      - [ 7.66630564e-03, 2.02508806e-03, 1.50674377e-02, 2.95682419e-02,
          4.49692421e-02, 2.36283545e-03, 2.75878124e-02, 8.41130391e-02,
          4.86258455e-02, 2.73686973e-03, 1.74819119e-02, 1.00115567e-01,
          1.50967464e-02, 8.94611643e-04, 9.01589915e-03, 5.23801409e-02,
          1.36540636e-01, 2.56380904e-03, 4.43816697e-03, 1.23682506e-01,
          2.19390601e-01, 1.33982394e-03, 1.35238487e-02, 4.30425465e-01,
          1.82389140e-01, 1.43891526e-03, 1.66026540e-02, 4.30425465e-01,
          7.43490681e-02, 3.76825483e-04, 1.95935294e-02, 1.78645998e-01,
          4.08393711e-01, 1.79061908e-02, 3.12625605e-04, 1.27240017e-01,
          4.30425465e-01, 3.23511660e-03, 6.37672516e-03, 4.30425465e-01,
          3.17139149e-01, 2.84712587e-04, 5.50639741e-02, 4.30425465e-01,
          5.91322966e-02, 3.43329913e-04, 5.55133782e-02, 3.63510996e-01,
          1.69621721e-01, 8.69210809e-03, 3.63287702e-03, 3.56337354e-02,
          2.03477412e-01, 4.89594042e-03, 6.54280698e-03, 2.14013174e-01,
          8.97109881e-02, 2.30421824e-03, 3.89581770e-02, 4.30425465e-01,
          1.74023602e-02, 8.30411736e-04, 5.84330782e-02, 3.05683643e-01 ]
      - [ 0., 0., 0., 0., 1.61016136e-02, 5.25755323e-02, 6.39319345e-02,
          3.16254310e-02, 1.93367302e-01, 4.09535378e-01, 4.09535378e-01,
          2.28959173e-01, 8.10565576e-02, 1.34932846e-01, 1.10638760e-01,
          5.99766634e-02, 3.77188362e-02, 3.21878754e-02, 3.13309468e-02,
          3.68619114e-02, 2.55808700e-02, 3.19771320e-02, 4.35345098e-02,
          3.29764187e-02, 1.10577360e-01, 4.09535378e-01, 4.09535378e-01,
          9.44226980e-02, 9.49125811e-02, 3.73131216e-01, 3.73703420e-01,
          8.84674639e-02, 9.42035839e-02, 9.32238325e-02, 9.39272493e-02,
          9.49069932e-02, 6.39640316e-02, 7.96595216e-02, 7.59107992e-02,
          6.02125302e-02, 6.41650110e-02, 3.75575006e-01, 4.09535378e-01,
          6.99108988e-02, 2.00293913e-01, 3.57935369e-01, 4.09535378e-01,
          1.96559161e-01, 2.09207949e-03, 0., 0., 2.09207949e-03,
          1.38169352e-03, 0., 0., 1.38169352e-03, 1.25636421e-02,
          6.49088919e-02, 7.47258961e-02, 2.32487395e-02, 6.98536783e-02,
          1.45548150e-01, 1.28177896e-01, 7.61494562e-02 ]
      - [ 5.12343133e-03, 2.14092713e-03, 1.00041591e-01, 1.84915259e-01,
          9.69976769e-04, 3.20301694e-03, 2.30682805e-01, 3.20428669e-01,
          7.00616278e-04, 2.49123527e-03, 1.64721593e-01, 1.66851357e-01,
          2.54008314e-03, 2.65173521e-03, 5.07165268e-02, 5.06299958e-02,
          1.61379017e-02, 1.84895713e-02, 8.85372460e-02, 1.20944239e-01,
          7.08766878e-02, 5.13515472e-02, 4.19927359e-01, 4.19927359e-01,
          1.45636080e-02, 3.01125459e-02, 4.19927359e-01, 4.19927359e-01,
          3.78221157e-03, 1.39565009e-03, 1.96482405e-01, 1.27281889e-01,
          2.14631438e-01, 4.78065945e-02, 1.38602005e-02, 2.04141736e-02,
          4.19927359e-01, 1.91978648e-01, 2.23013714e-01, 1.38628528e-01,
          2.04143137e-01, 2.26773590e-01, 4.19927359e-01, 2.05862567e-01,
          4.18136735e-03, 1.76675338e-02, 2.57436037e-01, 8.86614621e-02,
          1.63493425e-01, 2.37079058e-02, 1.13187218e-03, 1.32265752e-02,
          3.03534329e-01, 2.99925189e-02, 1.91901880e-03, 4.27417830e-02,
          1.86742157e-01, 8.55435729e-02, 4.36391868e-02, 2.48676930e-02,
          1.29669840e-02, 3.62994634e-02, 6.11280799e-02, 6.20645564e-03 ]
      - [ 4.74521003e-05, 0., 0., 4.74521003e-05, 5.20577421e-04, 0., 0.,
          5.20577421e-04, 6.66981144e-03, 5.99152548e-03, 6.25949027e-03,
          5.59655624e-03, 1.11331008e-02, 3.84082878e-03, 3.99295473e-03,
          1.06753269e-02, 6.18300885e-02, 2.79409159e-03, 1.72502338e-03,
          9.89418104e-02, 1.14838265e-01, 1.51749030e-02, 3.52610983e-02,
          1.69974819e-01, 1.20577186e-01, 4.74018566e-02, 2.38139760e-02,
          1.20977737e-01, 1.29972696e-01, 7.43783787e-02, 1.14261862e-02,
          4.00453843e-02, 2.41998732e-01, 8.63907393e-04, 1.02580281e-03,
          4.09472555e-01, 4.56260324e-01, 6.73959451e-03, 1.89124532e-02,
          4.56260324e-01, 4.56260324e-01, 3.83636281e-02, 6.86380733e-03,
          4.56260324e-01, 4.56260324e-01, 1.49217322e-01, 2.31538340e-03,
          1.16867550e-01, 1.07639506e-01, 1.10256358e-03, 2.87503906e-04,
          1.08912341e-01, 3.22026700e-01, 1.22956769e-03, 2.19814875e-03,
          3.10774982e-01, 4.56260324e-01, 2.56883353e-02, 2.28328351e-03,
          2.00673535e-01, 2.18655109e-01, 4.14675549e-02, 7.49464089e-04,
          2.00275779e-02 ]
      - [ 1.20653948e-02, 1.95670128e-03, 1.00528672e-02, 3.00315972e-02,
          3.91047187e-02, 2.38656159e-03, 2.04574391e-02, 9.64380205e-02,
          4.02714796e-02, 1.46961946e-03, 1.43305343e-02, 1.15933858e-01,
          1.54875284e-02, 4.63355798e-04, 5.39279170e-03, 5.70806935e-02,
          1.42035306e-01, 1.23794156e-03, 2.37679202e-03, 1.12360992e-01,
          2.45965183e-01, 2.88899551e-04, 5.60632627e-03, 4.34798032e-01,
          1.29219055e-01, 0., 1.00472849e-02, 4.34798032e-01,
          6.30694255e-02, 0., 5.46815665e-03, 1.86518863e-01,
          4.22607034e-01, 1.10898353e-02, 1.57708462e-04, 1.18363678e-01,
          4.34798032e-01, 2.20233575e-03, 1.52963237e-03, 4.34798032e-01,
          3.08437258e-01, 1.25608503e-05, 4.97214310e-02, 4.34798032e-01,
          6.69702664e-02, 0., 4.09707017e-02, 4.22417194e-01,
          1.50283590e-01, 5.45978267e-03, 4.71729727e-04, 3.29066366e-02,
          1.82398900e-01, 3.14160809e-03, 3.05786915e-03, 1.64249867e-01,
          8.77389386e-02, 2.63219606e-03, 2.58739572e-02, 4.01065171e-01,
          1.99480262e-02, 3.71103338e-03, 4.01123762e-02, 2.93660104e-01 ]
      - [ 4.44386154e-01, 1.44735888e-01, 2.82619148e-03, 8.47159605e-03,
          5.20246685e-01, 3.63386780e-01, 1.10144690e-02, 1.00542624e-02,
          5.20246685e-01, 3.29748839e-01, 3.01013794e-02, 2.03653257e-02,
          9.41910222e-02, 4.97298017e-02, 1.36131709e-02, 9.68302041e-03,
          5.20246685e-01, 2.95407474e-01, 3.09136487e-03, 5.25532030e-02,
          5.20246685e-01, 3.91753376e-01, 1.22565990e-02, 1.25609905e-01,
          2.77287751e-01, 1.27771765e-01, 2.02118028e-02, 3.81193869e-02,
          1.25859724e-02, 1.00821760e-02, 6.26926031e-03, 7.53511442e-03,
          1.60827726e-01, 4.49762195e-02, 3.51843378e-03, 2.62898579e-02,
          3.72457132e-02, 1.67785045e-02, 5.42070484e-03, 1.84323490e-02,
          6.32229436e-04, 4.35442780e-04, 0., 2.83316971e-04, 0., 0., 0.,
          0., 0., 0., 0., 0., 0., 0., 0., 0., 0., 0., 0., 0., 0., 0., 0.,
          0. ]
      - [ 3.44306859e-03, 5.20158745e-03, 5.40116569e-03, 3.86874168e-03,
          3.94271128e-03, 1.89920053e-01, 2.27320701e-01, 4.92943591e-03,
          1.36355008e-03, 3.08596373e-01, 3.27580005e-01, 4.21486300e-04,
          1.51148892e-03, 5.78455068e-02, 6.11922778e-02, 6.18272985e-04,
          8.58994648e-02, 1.36410836e-02, 1.47701642e-02, 6.59765601e-02,
          1.71235085e-01, 4.25218284e-01, 3.35292369e-01, 8.07537064e-02,
          3.31606455e-02, 4.25218284e-01, 4.25218284e-01, 1.39983697e-03,
          3.45702516e-03, 1.49214521e-01, 1.24525480e-01, 1.72502338e-03,
          2.49131903e-01, 6.45209011e-03, 1.35657180e-03, 2.01498359e-01,
          4.25218284e-01, 4.25218284e-01, 5.55929318e-02, 1.92803472e-01,
          1.81755498e-01, 4.25218284e-01, 1.18013382e-01, 3.90223763e-03,
          3.06205619e-02, 1.51885808e-01, 5.39516397e-02, 1.96647085e-03,
          6.58383965e-02, 1.00528672e-02, 1.35378051e-03, 5.10961413e-02,
          1.57866165e-01, 2.15343207e-01, 1.25203766e-02, 1.50213810e-02,
          8.70634392e-02, 2.31509030e-01, 9.97191947e-03, 7.49464089e-04,
          3.65771949e-02, 4.48827110e-02, 4.84290579e-03, 1.37471536e-03 ]
      - [ 3.00176423e-02, 6.99946433e-02, 7.72966817e-02, 2.79562660e-02,
          3.00370425e-01, 2.71202713e-01, 2.05551326e-01, 2.44636506e-01,
          1.44569814e-01, 1.23431288e-01, 5.67889996e-02, 9.66655090e-02,
          2.96073202e-02, 1.78852547e-02, 1.75991468e-02, 2.93212123e-02,
          7.63281016e-03, 2.28597701e-01, 2.32642308e-01, 1.06823053e-02,
          5.13752736e-02, 4.66673255e-01, 4.66673255e-01, 3.77565213e-02,
          9.14988201e-03, 1.70869436e-02, 1.45719815e-02, 6.63212873e-03,
          0., 0., 0., 0., 3.34216319e-02, 2.55805880e-01, 2.58953094e-01,
          4.95888405e-02, 8.83544162e-02, 4.66673255e-01, 4.66673255e-01,
          1.31847054e-01, 0., 1.40625704e-02, 1.40625704e-02, 0., 0., 0.,
          0., 0., 1.94637347e-02, 9.80011523e-02, 1.12430781e-01,
          5.74198365e-02, 8.38004127e-02, 3.94409299e-01, 4.66673255e-01,
          2.42900327e-01, 2.04071943e-02, 2.05397811e-02, 2.85061505e-02,
          2.83805430e-02, 4.19951091e-03, 2.38795718e-03, 2.38795718e-03,
          4.19951091e-03 ]
      - [ 2.46794194e-01, 2.94042528e-01, 2.92751547e-02, 8.35436117e-03,
          2.72538364e-01, 3.31098408e-01, 1.14148825e-01, 4.92664464e-02,
          1.25554070e-01, 1.49712771e-01, 1.51151687e-01, 1.46465093e-01,
          3.97969596e-02, 2.48048883e-02, 8.12031031e-02, 1.09954886e-01,
          2.83857077e-01, 3.31098408e-01, 8.23084638e-02, 3.55262719e-02,
          3.31098408e-01, 3.31098408e-01, 3.31098408e-01, 3.25649798e-01,
          3.31098408e-01, 3.31098408e-01, 3.16258490e-01, 3.27595353e-01,
          1.07199885e-01, 9.90088135e-02, 9.90576521e-02, 1.01388395e-01,
          2.05220580e-01, 2.49708310e-01, 7.74418339e-02, 4.80885170e-02,
          2.06949785e-01, 1.98221385e-01, 9.51972827e-02, 1.44894987e-01,
          2.06702739e-01, 8.48638937e-02, 5.48504442e-02, 1.63002148e-01,
          9.68092680e-02, 1.46671653e-01, 7.58787021e-02, 6.39849752e-02,
          3.03260796e-02, 4.42560613e-02, 7.38396570e-02, 4.87947129e-02,
          2.53184866e-02, 4.10935208e-02, 5.64610213e-02, 3.65758017e-02,
          5.92579059e-02, 6.31029233e-02, 3.14886570e-02, 2.84070615e-02,
          7.10553378e-02, 1.06319219e-01, 4.74716425e-02, 2.00778209e-02 ]
      - [ 5.89829609e-02, 7.85611384e-03, 9.96773224e-03, 5.83674796e-02,
          5.93932830e-02, 4.03314941e-02, 3.29191983e-02, 4.23900783e-02,
          4.78666089e-02, 6.23478740e-02, 5.54756932e-02, 3.96183170e-02,
          7.49045387e-02, 1.07925618e-02, 3.03442217e-02, 7.97572136e-02,
          1.00458890e-01, 7.02025965e-02, 7.52129778e-02, 9.87701565e-02,
          1.26796201e-01, 2.40107626e-02, 4.84109148e-02, 1.50290579e-01,
          1.70417249e-01, 3.72641325e-01, 2.77724594e-01, 1.07377119e-01,
          1.96532652e-01, 1.46114796e-01, 1.62506700e-01, 2.11983889e-01,
          2.52741039e-01, 9.14960280e-02, 1.16748914e-01, 2.47304991e-01,
          4.03405666e-01, 7.35591277e-02, 1.51000962e-01, 4.03405666e-01,
          4.03405666e-01, 4.03405666e-01, 1.74036160e-01, 4.03405666e-01,
          2.39582866e-01, 2.16857493e-01, 1.21041931e-01, 1.69084400e-01,
          8.12980086e-02, 9.72488895e-03, 1.41560780e-02, 8.57333839e-02,
          1.97282106e-01, 2.94886883e-02, 3.45172137e-02, 2.02521384e-01,
          2.65857399e-01, 1.90199181e-01, 9.58169550e-02, 1.66731328e-01,
          1.41598463e-01, 9.95866060e-02, 3.09387688e-02, 7.41159990e-02 ]
      - [ 1.62579287e-02, 1.89333893e-02, 1.47673730e-02, 1.20891212e-02,
          0., 0., 0., 0., 1.53940206e-03, 8.81771743e-03, 8.80515575e-03,
          1.52684108e-03, 7.61368945e-02, 7.43085966e-02, 7.06701353e-02,
          7.24942535e-02, 6.76973984e-02, 7.31446221e-02, 7.76232630e-02,
          7.21802264e-02, 2.49779485e-02, 0., 0., 2.49779485e-02,
          1.23975594e-02, 3.09136487e-03, 3.57984239e-03, 1.28860362e-02,
          4.05980647e-02, 2.30631176e-02, 2.73924228e-02, 4.49301638e-02,
          4.06114608e-01, 5.08295707e-02, 4.17913459e-02, 3.97068024e-01,
          5.02588928e-01, 7.66100213e-02, 1.05836332e-01, 5.02588928e-01,
          3.05940449e-01, 3.06233525e-01, 3.64206016e-01, 3.63963187e-01,
          1.22353852e-01, 1.68954611e-01, 1.52065843e-01, 1.05452523e-01,
          9.85859260e-02, 9.07409787e-02, 8.72253329e-02, 9.50674936e-02,
          1.63166836e-01, 2.94783622e-01, 2.93192595e-01, 1.61574394e-01,
          1.30383015e-01, 3.11636090e-01, 2.75953501e-01, 9.46683437e-02,
          1.23277772e-02, 1.60679787e-01, 1.59553498e-01, 1.12000909e-02 ]
      - [ 1.32359266e-01, 9.66138691e-02, 1.81413576e-01, 1.63483649e-01,
          1.41107187e-01, 1.95155144e-01, 2.26599127e-01, 1.98853612e-01,
          9.68832299e-02, 3.97020578e-02, 2.91648973e-02, 8.79231542e-02,
          6.29424229e-02, 2.02620476e-02, 1.40262824e-02, 5.66996783e-02,
          1.69896662e-01, 3.79149288e-01, 2.88695782e-01, 6.08977936e-02,
          1.06507637e-01, 1.73674688e-01, 1.51419654e-01, 7.81410486e-02,
          2.33368024e-01, 3.41103852e-01, 2.95468867e-01, 1.87868446e-01,
          1.07453883e-01, 2.46346183e-02, 1.41742220e-02, 9.69837233e-02,
          9.01422501e-02, 1.57127872e-01, 9.41142589e-02, 4.38750461e-02,
          3.20758075e-01, 3.49553078e-01, 2.50177234e-01, 2.21298456e-01,
          1.78830221e-01, 2.09967181e-01, 1.58272296e-01, 1.27559617e-01,
          1.90588564e-01, 2.91749477e-01, 1.76295713e-01, 1.06753267e-01,
          2.92207245e-02, 5.18832877e-02, 4.26357128e-02, 1.99647732e-02,
          6.44622818e-02, 1.33341804e-01, 1.12945773e-01, 4.82280850e-02,
          2.50474542e-01, 1.72883362e-01, 1.55429363e-01, 2.17230126e-01,
          2.53292322e-01, 2.41139010e-01, 1.59822866e-01, 1.34964943e-01 ]
      - [ 1.79452673e-02, 9.26711597e-04, 1.06181055e-02, 1.26304924e-01,
          6.74768835e-02, 1.38867181e-03, 1.36382915e-02, 3.23518664e-01,
          5.01457043e-02, 9.22524719e-04, 2.44797021e-02, 3.15330386e-01,
          9.33410786e-03, 4.54981904e-03, 3.43720689e-02, 7.43058026e-02,
          7.24160969e-02, 6.58746809e-04, 1.22510167e-02, 3.00606281e-01,
          2.23831549e-01, 1.21979811e-03, 2.93281879e-02, 3.96419019e-01,
          1.56389564e-01, 1.55252106e-02, 1.65529668e-01, 3.96419019e-01,
          1.13591962e-02, 1.03017114e-01, 3.45747173e-01, 1.63293853e-01,
          1.98238138e-02, 1.81294943e-03, 6.48139883e-03, 4.62378860e-02,
          1.18150152e-01, 3.56462970e-02, 3.61445434e-02, 2.45397151e-01,
          2.60950267e-01, 3.96419019e-01, 1.66170269e-01, 3.55044991e-01,
          1.46195740e-01, 3.96419019e-01, 2.37963915e-01, 4.50948477e-02,
          2.73268274e-03, 3.61473346e-03, 2.13115755e-03, 1.25608500e-03,
          6.95591941e-02, 1.19738400e-01, 2.32920051e-02, 9.42482427e-03,
          2.94783622e-01, 3.96419019e-01, 2.08468251e-02, 2.94900849e-03,
          1.08832784e-01, 2.55875677e-01, 4.92245797e-03, 1.02580281e-03 ]
      - [ 1.40114889e-01, 3.47935548e-03, 3.09415604e-03, 1.46353453e-01,
          3.14183146e-01, 5.92034776e-03, 7.73050543e-03, 3.54947269e-01,
          1.75888196e-01, 1.07158003e-02, 7.46979788e-02, 3.54947269e-01,
          1.16187865e-02, 9.77234170e-03, 9.35867056e-02, 2.30458096e-01,
          5.96486852e-02, 7.13595888e-03, 5.36906580e-03, 5.87219745e-02,
          2.07022354e-01, 4.08688188e-02, 2.52207909e-02, 1.97537512e-01,
          1.88475564e-01, 2.90868819e-01, 2.14034095e-01, 2.07668543e-01,
          2.88508758e-02, 3.06976020e-01, 2.29566291e-01, 8.02596509e-02,
          2.45864689e-01, 3.03693442e-03, 3.49610322e-03, 1.50619939e-01,
          3.54947269e-01, 1.82606857e-02, 2.39912258e-03, 3.54947269e-01,
          3.54947269e-01, 3.33850652e-01, 1.46947997e-02, 1.68397740e-01,
          1.77493185e-01, 3.54947269e-01, 2.00568866e-02, 3.22813843e-03,
          1.03102244e-01, 1.52125853e-04, 4.08925436e-04, 8.12031031e-02,
          2.23828763e-01, 2.67266994e-03, 2.30700942e-03, 1.91291973e-01,
          3.14248741e-01, 8.44549686e-02, 2.88899546e-03, 7.76749030e-02,
          1.00890145e-01, 1.10983483e-01, 2.29026168e-03, 1.93297525e-03 ]
      - [ 3.36909927e-02, 1.70464702e-02, 6.69912063e-03, 1.95432883e-02,
          3.40454876e-02, 1.03054801e-02, 9.00612995e-02, 1.19210839e-01,
          1.24589670e-02, 2.97301356e-02, 1.07035190e-01, 7.28306025e-02,
          1.70269306e-03, 3.33574340e-02, 5.90541363e-02, 1.13619864e-02,
          2.05170333e-01, 7.63895065e-02, 6.32648123e-03, 5.11896536e-02,
          3.08938295e-01, 7.83015490e-02, 3.69152218e-01, 3.76766890e-01,
          1.47115476e-02, 1.62047520e-01, 3.76766890e-01, 1.88870519e-01,
          7.62443617e-03, 1.24501750e-01, 1.60979867e-01, 1.70925260e-02,
          3.76766890e-01, 2.83121560e-02, 3.42352968e-03, 1.76259443e-01,
          3.76766890e-01, 3.76766890e-01, 3.02614629e-01, 3.57078463e-01,
          7.27594271e-02, 3.76766890e-01, 3.76766890e-01, 7.26533532e-02,
          1.47255035e-02, 1.60808191e-01, 1.61056623e-01, 1.02091804e-02,
          8.69322494e-02, 6.64050272e-03, 1.81574076e-02, 6.20617680e-02,
          1.57995954e-01, 2.05852792e-01, 5.33780269e-02, 5.79501800e-02,
          3.89260761e-02, 2.97232985e-01, 1.10224254e-01, 2.72291317e-03,
          8.94332491e-03, 6.92940205e-02, 5.18972427e-02, 2.87224795e-03 ]
      - [ 1.20933075e-02, 8.87633418e-04, 2.03374121e-02, 9.26209167e-02,
          4.82057501e-03, 2.69779167e-03, 1.03900559e-01, 1.72474429e-01,
          6.16458617e-03, 2.10464024e-03, 8.20781738e-02, 1.60478815e-01,
          4.95734904e-03, 6.76890253e-04, 2.55055036e-02, 4.39601839e-02,
          1.85146928e-02, 4.04738530e-05, 1.06354117e-01, 4.10036415e-01,
          1.41616603e-02, 2.72151752e-04, 3.85555327e-01, 4.10036415e-01,
          9.78908874e-03, 1.20165467e-03, 3.65310013e-01, 4.10036415e-01,
          3.70545080e-03, 7.63420539e-04, 1.28006235e-01, 1.39537081e-01,
          9.76955052e-03, 4.56237979e-03, 8.81520435e-02, 2.41690293e-01,
          1.52251469e-02, 1.61672104e-02, 4.10036415e-01, 4.10036415e-01,
          6.63073361e-03, 3.06177698e-02, 4.10036415e-01, 4.10036415e-01,
          4.99642733e-03, 2.68523069e-03, 1.73847750e-01, 1.47401571e-01,
          6.03618659e-03, 5.39000053e-03, 3.70545080e-03, 4.98665730e-03,
          1.09664597e-01, 1.28773838e-01, 1.36040986e-01, 8.57445523e-02,
          4.45296131e-02, 1.99499786e-01, 3.42876315e-01, 8.28150809e-02,
          1.41100225e-03, 1.78587381e-02, 9.23320130e-02, 3.23539563e-02 ]
      - [ 0., 0., 0., 0., 0., 0., 0., 0., 0., 0., 0., 0., 0., 0., 0., 0.,
          0., 0., 0., 0., 0., 0., 0., 0., 0., 0., 0., 0., 0., 0., 0., 0.,
          1.61323193e-02, 0., 0., 1.61323193e-02, 0., 0., 0., 0., 0., 0.,
          0., 0., 0., 0., 0., 0., 3.90332580e-01, 8.32731307e-01,
          9.08864021e-01, 4.66530919e-01, 0., 2.32319906e-02,
          2.32319906e-02, 0., 0., 0., 0., 0., 0., 0., 0., 0. ]
      - [ 0., 0., 0., 0., 0., 0., 0., 0., 3.52680753e-03, 7.05082389e-03,
          9.09265969e-03, 4.04040655e-03, 7.10469559e-02, 4.18415889e-02,
          1.24370560e-01, 1.23269394e-01, 1.16034346e-02, 2.89443862e-02,
          3.37537974e-02, 1.64170321e-02, 0., 8.19246576e-04,
          8.19246576e-04, 0., 1.01754054e-01, 7.63881132e-02,
          3.60328928e-02, 9.63933617e-02, 1.59101322e-01, 4.15066332e-02,
          3.94215323e-02, 1.66381016e-01, 1.70981083e-02, 5.37674166e-02,
          4.96237315e-02, 1.29502360e-02, 2.94665009e-01, 2.36605942e-01,
          2.77932525e-01, 3.78980398e-01, 4.04220730e-01, 4.04220730e-01,
          4.04220730e-01, 4.04220730e-01, 2.94448674e-01, 1.16185069e-01,
          9.38546732e-02, 3.32580596e-01, 2.08510109e-03, 2.05718819e-03,
          1.70687994e-03, 1.73479307e-03, 1.68935061e-01, 1.15954787e-01,
          1.79435924e-01, 2.20984429e-01, 2.58914024e-01, 3.93876165e-01,
          3.57816756e-01, 3.03983718e-01, 3.76979038e-02, 5.96417077e-02,
          5.09691387e-02, 5.68880923e-02 ]
      - [ 1.05287842e-02, 3.96364630e-04, 7.56023638e-03, 6.48167729e-02,
          1.99242998e-02, 2.55543506e-03, 3.46330553e-02, 1.07077070e-01,
          6.37393398e-03, 1.94525700e-02, 8.96132886e-02, 3.62673625e-02,
          1.64547144e-03, 1.27171641e-02, 4.37271111e-02, 1.22635765e-02,
          1.32338330e-01, 2.21908354e-04, 2.95794066e-02, 3.22443992e-01,
          5.28225601e-02, 7.81005714e-03, 2.59172201e-01, 4.20093447e-01,
          6.71028532e-03, 4.25128974e-02, 3.83177131e-01, 1.81973219e-01,
          6.91265473e-03, 2.02857722e-02, 1.09399423e-01, 3.67516540e-02,
          2.19280332e-01, 4.47445409e-03, 1.29139498e-02, 2.48806730e-01,
          3.25630277e-01, 2.46164743e-02, 4.20093447e-01, 4.20093447e-01,
          9.38700214e-02, 4.06887829e-02, 4.20093447e-01, 4.20093447e-01,
          3.62310745e-03, 6.74238568e-03, 1.58898950e-01, 1.20931678e-01,
          1.99897543e-01, 3.91061138e-03, 1.63430616e-03, 3.54313664e-02,
          4.20093447e-01, 1.37499431e-02, 2.81404909e-02, 1.50037959e-01,
          1.62764892e-01, 4.04040702e-02, 2.05092177e-01, 2.19944671e-01,
          5.94686484e-03, 2.94398423e-02, 1.09523632e-01, 4.82755341e-02 ]
      - [ 5.37911430e-02, 1.24296593e-02, 1.39704570e-02, 5.31449579e-02,
          1.08267546e-01, 2.74594147e-02, 7.64439404e-02, 1.54215142e-01,
          8.98338035e-02, 3.58989127e-02, 7.39136264e-02, 1.56618446e-01,
          4.32679430e-02, 1.41128125e-02, 2.18991432e-02, 4.90570962e-02,
          9.56913456e-02, 1.81922987e-02, 4.76474911e-02, 1.32103860e-01,
          2.58496702e-01, 3.88297774e-02, 1.39288664e-01, 3.49476337e-01,
          2.88840920e-01, 5.62209673e-02, 1.94591299e-01, 3.49476337e-01,
          1.77740216e-01, 2.15432532e-02, 2.59618834e-02, 1.84006691e-01,
          1.55882940e-01, 9.14150756e-03, 4.42546681e-02, 1.93671569e-01,
          3.49476337e-01, 2.22731791e-02, 8.18283558e-02, 3.49476337e-01,
          3.49476337e-01, 3.82547677e-02, 9.95461345e-02, 3.49476337e-01,
          2.91237265e-01, 3.01962830e-02, 6.92521548e-03, 2.63166577e-01,
          1.10827178e-01, 0., 6.89311558e-03, 1.50178924e-01,
          3.27492058e-01, 4.06832015e-03, 2.88062147e-03, 3.49476337e-01,
          3.49476337e-01, 1.27311200e-02, 2.00443249e-02, 3.49476337e-01,
          1.96062312e-01, 2.12027151e-02, 1.33145007e-03, 1.55676380e-01 ]
      - [ 7.94264395e-03, 3.17929103e-03, 3.17929103e-03, 7.94264395e-03,
          0., 1.15838950e-04, 1.15838950e-04, 0., 0., 0., 0., 0., 0., 0.,
          0., 0., 1.56416088e-01, 1.26666412e-01, 1.77653685e-01,
          2.01963127e-01, 7.12395608e-02, 1.99201126e-02, 4.41095196e-02,
          8.91848281e-02, 0., 5.35929634e-04, 5.35929634e-04, 0., 0., 0.,
          0., 0., 2.35312179e-01, 1.63926065e-01, 2.26580992e-01,
          2.58664191e-01, 4.34957117e-01, 3.60817403e-01, 4.34957117e-01,
          4.34957117e-01, 2.02030122e-01, 1.87532097e-01, 2.44735613e-01,
          2.82172531e-01, 7.57558830e-03, 4.65449272e-03, 5.71518717e-03,
          9.71232913e-03, 6.03618659e-03, 6.57909410e-03, 8.28318298e-03,
          7.74167106e-03, 1.60700724e-01, 1.18073389e-01, 1.61433443e-01,
          2.36597568e-01, 4.34957117e-01, 2.41594002e-01, 3.29494834e-01,
          4.34957117e-01, 8.28932375e-02, 4.99014668e-02, 8.56705830e-02,
          1.24173775e-01 ]
      - [ 3.33965085e-02, 6.12481013e-02, 6.94531277e-02, 4.16085124e-02,
          7.28264153e-02, 1.42574027e-01, 1.40645236e-01, 7.41522834e-02,
          3.40957288e-03, 1.99912917e-02, 2.01936588e-02, 3.82826803e-03,
          1.96647085e-02, 1.15392338e-02, 1.61490664e-02, 2.54650321e-02,
          1.26344010e-01, 1.02633312e-01, 9.73535702e-02, 1.21918403e-01,
          2.59223849e-01, 2.27944538e-01, 2.27097377e-01, 2.49577120e-01,
          3.84920277e-02, 6.52843192e-02, 7.09883422e-02, 5.27499877e-02,
          3.30336429e-02, 4.28785570e-02, 4.45547290e-02, 4.53851447e-02,
          7.32799992e-02, 6.42222315e-02, 6.63561821e-02, 6.93889260e-02,
          2.99800962e-01, 3.81468832e-01, 3.81468832e-01, 3.16726029e-01,
          1.20131969e-01, 2.53158361e-01, 2.83570945e-01, 1.42374441e-01,
          9.35099497e-02, 1.84839889e-01, 2.07007006e-01, 1.19455084e-01,
          1.74347386e-01, 2.97510717e-02, 1.49236852e-02, 1.41888753e-01,
          3.81468832e-01, 8.14557150e-02, 9.20082331e-02, 3.81468832e-01,
          3.81468832e-01, 5.08449264e-02, 4.92915660e-02, 3.81468832e-01,
          2.67433047e-01, 3.73978391e-02, 3.38626578e-02, 2.57782161e-01 ]
      - [ 2.57846341e-02, 3.58542497e-03, 5.46955224e-03, 4.13726494e-02,
          6.51601106e-02, 2.19814875e-03, 8.82748608e-03, 1.27884805e-01,
          4.14884910e-02, 8.21395814e-02, 5.33319749e-02, 9.10480246e-02,
          2.20470838e-02, 1.53934628e-01, 2.34399419e-02, 6.79402426e-03,
          7.44844452e-02, 3.26861232e-03, 4.97967936e-03, 1.02983624e-01,
          1.79789037e-01, 1.24799021e-01, 6.73359260e-02, 2.36423120e-01,
          1.90398768e-01, 4.43982780e-01, 1.48437157e-01, 8.72727856e-02,
          1.07601821e-01, 4.43982780e-01, 1.70101821e-02, 3.20441253e-03,
          3.36351655e-02, 4.01612259e-02, 1.06167095e-02, 2.37693172e-02,
          3.83607000e-01, 4.43982780e-01, 3.87069583e-02, 3.40482779e-02,
          4.43982780e-01, 4.43982780e-01, 2.39130668e-02, 2.24141404e-03,
          1.08831391e-01, 2.78437763e-01, 1.92069355e-02, 3.28117330e-03,
          6.38844892e-02, 8.08946639e-02, 5.67331724e-03, 1.42774999e-03,
          3.05083513e-01, 4.43982780e-01, 8.91262107e-03, 6.00129482e-04,
          1.79765299e-01, 3.22653353e-01, 1.39327748e-02, 6.55955519e-05,
          2.80106962e-02, 6.45516068e-02, 1.40067441e-02, 1.69013219e-03 ]
      - [ 8.28318298e-03, 5.37325279e-04, 1.12321908e-02, 6.40240461e-02,
          1.20346909e-02, 1.11931132e-03, 3.83733995e-02, 1.51133552e-01,
          1.78029127e-02, 8.96007346e-04, 2.75124479e-02, 1.32008955e-01,
          4.21346724e-03, 5.55468723e-04, 1.64267998e-02, 5.13613150e-02,
          7.98437446e-02, 0., 2.28286497e-02, 3.47976029e-01,
          6.37072325e-02, 0., 9.92949083e-02, 4.91415352e-01,
          4.02505472e-02, 0., 1.03516757e-01, 4.91415352e-01,
          1.79801602e-02, 2.51217007e-05, 6.54406324e-02, 1.48220822e-01,
          1.61645576e-01, 1.45985000e-03, 5.66773489e-03, 3.79881978e-01,
          1.34553224e-01, 2.92946934e-03, 1.56356066e-01, 4.91415352e-01,
          1.52530586e-02, 1.61337142e-03, 3.30923975e-01, 4.91415352e-01,
          9.69558116e-03, 0., 1.17021069e-01, 2.78811812e-01,
          3.93433729e-03, 5.93151257e-04, 9.33689822e-04, 7.43462751e-03,
          1.70255359e-02, 5.83381718e-03, 2.37037204e-02, 1.15597509e-01,
          1.54554285e-02, 7.93427043e-03, 1.62594631e-01, 4.53441113e-01,
          3.89525923e-03, 2.40749633e-03, 1.19374134e-01, 2.62288690e-01 ]
      - [ 1.71190426e-02, 4.85686207e-04, 1.71804521e-02, 9.35294852e-02,
          6.75215479e-03, 3.88688524e-03, 1.03635393e-01, 1.77733243e-01,
          6.51908107e-03, 2.56101787e-03, 7.96497464e-02, 1.57935947e-01,
          7.79191405e-03, 1.22956769e-03, 2.65717804e-02, 4.75763120e-02,
          2.87643466e-02, 0., 9.03264657e-02, 3.91394675e-01,
          1.27729885e-02, 4.18695026e-06, 3.87779951e-01, 3.95171344e-01,
          1.06222928e-02, 9.29782074e-03, 3.57259899e-01, 3.95171344e-01,
          7.46114552e-03, 8.89866520e-03, 1.07430167e-01, 1.31112948e-01,
          1.60723068e-02, 6.16877282e-04, 9.78490263e-02, 3.29888403e-01,
          1.54386805e-02, 7.53092766e-03, 3.95171344e-01, 3.95171344e-01,
          5.09551819e-03, 2.36548726e-02, 3.95171344e-01, 3.95171344e-01,
          8.05569254e-03, 8.65163468e-03, 1.78196594e-01, 1.39235631e-01,
          3.87990708e-03, 4.37396718e-03, 1.20221293e-02, 2.19745114e-02,
          1.69306304e-02, 9.72028375e-02, 2.34960467e-01, 1.33383662e-01,
          5.59516111e-03, 1.34177789e-01, 3.95171344e-01, 8.20893422e-02,
          1.10814616e-03, 1.12084663e-02, 1.15977123e-01, 3.36658694e-02 ]
      - [ 0., 0., 0., 0., 2.83815205e-01, 1.17308572e-01, 1.17308572e-01,
          2.83815205e-01, 8.44592988e-01, 3.93573307e-02, 3.93573307e-02,
          8.44592988e-01, 3.78912032e-01, 0., 0., 3.78912032e-01, 0., 0.,
          0., 0., 0., 0., 0., 0., 0., 0., 0., 0., 0., 0., 0., 0., 0., 0.,
          0., 0., 0., 0., 0., 0., 0., 0., 0., 0., 0., 0., 0., 0., 0., 0.,
          0., 0., 0., 0., 0., 0., 0., 0., 0., 0., 0., 0., 0., 0. ]
      - [ 2.30686992e-01, 2.30646521e-01, 1.95986941e-01, 1.95998102e-01,
          1.05693974e-01, 3.16885144e-01, 3.05203557e-01, 9.40026119e-02,
          4.31116298e-02, 2.86499038e-02, 3.34886238e-02, 5.03020212e-02,
          6.31880537e-02, 1.24776699e-01, 1.12291209e-01, 6.57141805e-02,
          3.16907465e-01, 1.05671637e-01, 9.39900503e-02, 3.05216104e-01,
          1.88370883e-01, 1.88336000e-01, 1.48296192e-01, 1.48296192e-01,
          0., 0., 0., 0., 6.47442043e-02, 1.58502579e-01, 1.61621854e-01,
          6.91586435e-02, 6.74796756e-03, 5.54631324e-03, 3.38584697e-03,
          4.58471058e-03, 8.86419266e-02, 2.92821340e-02, 3.14816758e-02,
          9.08428580e-02, 5.34743294e-02, 2.35013496e-02, 1.82467289e-02,
          4.82141264e-02, 1.11657582e-01, 1.13279328e-01, 1.25336349e-01,
          1.44721925e-01, 2.06430592e-02, 6.98187873e-02, 6.04539737e-02,
          1.12698739e-02, 2.51839459e-01, 4.41498518e-01, 4.41498518e-01,
          2.61377335e-01, 2.09415898e-01, 2.65918791e-01, 2.63174921e-01,
          2.06669256e-01, 3.43791872e-01, 1.16306491e-01, 1.23329408e-01,
          3.50821733e-01 ]
      - [ 2.12683119e-02, 4.67138030e-02, 5.40325940e-02, 1.26766888e-02,
          7.17768818e-02, 1.28004834e-01, 1.24055140e-01, 6.43241182e-02,
          5.27569689e-02, 1.39189571e-01, 1.48936793e-01, 7.23630562e-02,
          1.74526051e-02, 7.88542256e-02, 7.29478300e-02, 1.16285561e-02,
          3.75276320e-02, 7.71599114e-02, 1.14172541e-01, 5.88322319e-02,
          1.37408718e-01, 2.89468974e-01, 3.03502232e-01, 2.03788623e-01,
          1.95748299e-01, 3.79623771e-01, 3.79623771e-01, 1.06630452e-01,
          1.32899374e-01, 2.92861819e-01, 1.16261832e-01, 1.79606210e-02,
          6.91432953e-02, 1.55211642e-01, 7.29017779e-02, 1.45636080e-02,
          2.59015888e-01, 3.79623771e-01, 3.04424763e-01, 5.39851412e-02,
          3.35877120e-01, 3.79623771e-01, 2.94759899e-01, 1.06697446e-02,
          9.19091329e-02, 2.41952688e-01, 1.01970382e-01, 1.45008042e-02,
          6.44832179e-02, 1.03125975e-01, 4.08674255e-02, 1.42691256e-02,
          2.18861654e-01, 3.20502669e-01, 8.13175514e-02, 9.86166298e-03,
          1.88624889e-01, 3.64472598e-01, 9.97582749e-02, 6.02502143e-03,
          2.02285517e-02, 5.17702438e-02, 2.44866796e-02, 6.63910760e-03 ]
      - [ 1.61002185e-02, 5.78217814e-03, 1.13717560e-02, 4.58722264e-02,
          6.19682595e-02, 1.78740900e-02, 1.79396849e-02, 1.85744256e-01,
          9.04227644e-02, 5.23089617e-03, 9.66068916e-03, 2.93755025e-01,
          3.45883965e-02, 2.55822646e-03, 1.11428704e-02, 1.47366688e-01,
          6.98732212e-02, 1.14122303e-02, 1.28092756e-02, 7.79107660e-02,
          1.36405259e-01, 4.58512902e-02, 5.40591069e-02, 1.71405360e-01,
          2.30248764e-01, 6.03479072e-02, 3.57370153e-02, 2.03925416e-01,
          1.53058156e-01, 7.30259940e-02, 2.35348456e-02, 8.22540298e-02,
          2.62805074e-01, 6.00129497e-05, 1.80457544e-03, 4.19455647e-01,
          4.19455647e-01, 3.29652545e-03, 6.74098963e-03, 4.19455647e-01,
          4.19455647e-01, 1.79173555e-02, 1.01086935e-02, 4.19455647e-01,
          4.19455647e-01, 2.82005053e-02, 1.98880141e-03, 1.72207862e-01,
          8.20502639e-02, 4.31255845e-04, 1.32307620e-03, 1.43382102e-01,
          2.49546409e-01, 9.96494200e-04, 1.95949269e-03, 3.57345045e-01,
          3.07094634e-01, 1.06488098e-03, 5.20856585e-03, 2.99708873e-01,
          1.39450565e-01, 4.08925436e-04, 2.63777853e-04, 8.03461745e-02 ]
      - [ 1.85366049e-01, 1.77311763e-01, 1.32123396e-01, 1.40138611e-01,
          1.72401860e-01, 3.49727571e-01, 3.60072106e-01, 1.82754785e-01,
          1.00103006e-01, 7.22737387e-02, 8.56301039e-02, 1.12898320e-01,
          1.85594946e-01, 1.01102278e-01, 7.53623098e-02, 1.47352740e-01,
          4.35809880e-01, 2.16744453e-01, 2.08143070e-01, 4.27201509e-01,
          4.51069921e-01, 4.51069921e-01, 4.51069921e-01, 4.43481743e-01,
          4.91547957e-03, 2.17121281e-02, 2.24629864e-02, 5.66773489e-03,
          1.48218032e-02, 3.15696024e-03, 1.72083639e-03, 1.46152470e-02,
          4.58833911e-02, 1.93576654e-03, 4.07808926e-03, 4.80271094e-02,
          6.83073029e-02, 1.14889918e-02, 5.12901414e-03, 6.19417392e-02,
          0., 3.30769049e-04, 3.30769049e-04, 0., 0., 0., 0., 0., 0.,
          2.58334819e-03, 2.58334819e-03, 0., 1.54019758e-01,
          1.25280514e-01, 1.16310678e-01, 1.45042926e-01, 7.83224851e-02,
          7.83629566e-02, 8.21479633e-02, 8.21102783e-02, 1.28466785e-01,
          3.54662612e-02, 2.40986887e-02, 1.17089458e-01 ]
      - [ 3.47293541e-02, 1.49041470e-02, 9.16802511e-03, 2.47867443e-02,
          3.17259170e-02, 1.40625704e-02, 1.03197150e-01, 1.19467646e-01,
          1.94748994e-02, 3.96239012e-02, 1.47094533e-01, 8.83809328e-02,
          5.24066575e-03, 3.36058587e-02, 7.15647489e-02, 1.82913896e-02,
          2.84363687e-01, 4.95637171e-02, 7.62024941e-03, 9.98196751e-02,
          2.64408708e-01, 8.76203030e-02, 3.61160755e-01, 3.61160755e-01,
          3.12486049e-02, 2.36677110e-01, 3.61160755e-01, 1.93618536e-01,
          1.34777930e-02, 1.28015995e-01, 1.88418329e-01, 2.79674307e-02,
          3.61160755e-01, 2.46136822e-02, 1.46878213e-02, 1.98052511e-01,
          3.61160755e-01, 3.61160755e-01, 3.61160755e-01, 3.61160755e-01,
          7.23909736e-02, 3.61160755e-01, 3.61160755e-01, 7.39415362e-02,
          2.69388352e-02, 1.49263382e-01, 1.75680235e-01, 3.90502885e-02,
          7.38424510e-02, 8.39762576e-03, 1.46682821e-02, 6.68223277e-02,
          1.56745449e-01, 1.77000508e-01, 4.76098098e-02, 6.28628731e-02,
          5.12398928e-02, 2.12317437e-01, 1.41114175e-01, 2.21894402e-02,
          1.22565990e-02, 5.32859191e-02, 6.29717335e-02, 1.92153081e-02 ]
      - [ 2.71174801e-03, 2.20931391e-03, 9.12615508e-02, 1.60677001e-01,
          6.99220633e-04, 3.71522037e-03, 2.40845934e-01, 2.53268629e-01,
          3.97760246e-04, 6.87357644e-03, 1.86086208e-01, 1.31364152e-01,
          1.19886338e-03, 4.08227602e-03, 5.47890365e-02, 3.51243243e-02,
          9.62021574e-03, 1.08497832e-02, 9.54150110e-02, 1.31325081e-01,
          1.91469230e-02, 6.38886690e-02, 3.99118245e-01, 3.99118245e-01,
          1.95111881e-03, 5.97310327e-02, 3.99118245e-01, 3.29693019e-01,
          2.75361724e-03, 3.31466878e-03, 1.77708119e-01, 1.23731360e-01,
          1.33472979e-01, 3.72387357e-02, 1.21547170e-02, 1.66905783e-02,
          3.99118245e-01, 3.99118245e-01, 3.12043607e-01, 1.24497563e-01,
          1.00799426e-01, 3.99118245e-01, 3.99118245e-01, 9.11219865e-02,
          3.28815146e-03, 7.12828264e-02, 1.41870618e-01, 5.19935451e-02,
          1.87413469e-01, 3.79058532e-02, 2.33631814e-03, 8.48276075e-03,
          3.74038368e-01, 1.43856630e-01, 4.69915383e-03, 2.28091069e-02,
          1.20385982e-01, 1.71604931e-01, 3.00385766e-02, 1.49683468e-02,
          9.43878107e-03, 4.42393124e-02, 2.69709360e-02, 2.56241346e-03 ]
      - [ 1.08274529e-02, 3.33699933e-03, 8.39385837e-02, 1.17083877e-01,
          3.43329913e-04, 3.50001119e-02, 2.37496361e-01, 7.28096664e-02,
          4.04738501e-04, 3.34188417e-02, 1.31205067e-01, 2.75571086e-02,
          1.89389708e-03, 1.75461117e-02, 3.47768068e-02, 5.42628719e-03,
          4.53823544e-02, 1.10102827e-02, 1.91425964e-01, 2.42467672e-01,
          2.39046942e-02, 5.28839678e-02, 4.27529454e-01, 4.27529454e-01,
          7.28529354e-04, 3.28703485e-02, 4.27529454e-01, 1.89262703e-01,
          1.92041439e-03, 3.67125720e-02, 1.53492197e-01, 2.86847949e-02,
          2.55320221e-01, 9.22105927e-03, 1.86598413e-02, 1.66896015e-01,
          3.97940308e-01, 1.34648129e-01, 4.27529454e-01, 4.27529454e-01,
          2.82312091e-02, 2.30894938e-01, 4.27529454e-01, 2.16902167e-01,
          1.14303734e-03, 5.45880608e-02, 2.29803547e-01, 1.69808734e-02,
          7.35772774e-02, 3.43329913e-04, 5.40116569e-04, 6.64273575e-02,
          1.09312892e-01, 4.96055856e-02, 3.56379226e-02, 1.48310140e-01,
          3.15151736e-02, 1.99964553e-01, 2.27884531e-01, 1.84128117e-02,
          5.83381741e-04, 3.72275710e-02, 8.81757736e-02, 2.07533175e-03 ]
      - [ 3.34174447e-02, 4.04389612e-02, 2.42005717e-02, 1.65775307e-02,
          2.17732579e-01, 1.22768350e-01, 9.80876759e-02, 1.65084466e-01,
          1.85151115e-01, 1.00627758e-01, 8.40725601e-02, 1.55848056e-01,
          3.58723924e-02, 2.29542572e-02, 8.10216740e-02, 9.72335413e-02,
          8.69378299e-02, 1.40957862e-01, 2.13567957e-01, 1.07262678e-01,
          2.49899521e-01, 3.36343288e-01, 3.34933698e-01, 2.09092110e-01,
          1.51058182e-01, 2.67579615e-01, 2.66211867e-01, 1.43749163e-01,
          2.69360468e-02, 2.45272934e-01, 2.83827752e-01, 3.76895294e-02,
          1.63427830e-01, 1.31675392e-01, 2.00450242e-01, 1.89811200e-01,
          3.00844938e-01, 1.36466652e-01, 2.78814584e-01, 3.36343288e-01,
          9.33983028e-02, 8.81353021e-02, 1.13217928e-01, 1.36720672e-01,
          7.43113831e-02, 1.33856788e-01, 1.33082211e-01, 9.50981975e-02,
          5.17548881e-02, 7.24049285e-02, 8.65289047e-02, 6.43645898e-02,
          2.00644240e-01, 1.28807336e-01, 3.36343288e-01, 3.36343288e-01,
          1.44548863e-01, 7.59847686e-02, 2.34047711e-01, 2.91099101e-01,
          8.12952220e-02, 2.37051137e-02, 2.55976170e-02, 8.14724639e-02 ]
      - [ 6.27777353e-02, 4.01109830e-03, 5.38720924e-04, 5.70862703e-02,
          1.34962156e-01, 3.14021250e-03, 1.08902575e-02, 1.65200308e-01,
          8.00251812e-02, 3.29512986e-03, 5.84554076e-02, 2.48831823e-01,
          2.77315662e-03, 5.06760506e-03, 9.70269889e-02, 7.84829780e-02,
          3.07920873e-01, 3.47516849e-04, 3.53099458e-04, 3.31917673e-01,
          4.23969179e-01, 7.91333558e-04, 2.20512715e-03, 4.23969179e-01,
          4.23969179e-01, 4.79266234e-03, 1.31848454e-01, 4.23969179e-01,
          2.88787913e-02, 2.22354960e-02, 4.23969179e-01, 4.23969179e-01,
          3.89581770e-02, 0., 2.88899551e-04, 4.27040979e-02,
          1.13864101e-01, 2.92946934e-03, 4.54702787e-03, 1.36071697e-01,
          8.65316987e-02, 8.63111839e-02, 1.62036359e-01, 2.37247944e-01,
          6.04735175e-03, 2.90902317e-01, 4.23969179e-01, 9.98001397e-02,
          6.99220633e-04, 7.17364135e-04, 9.60207195e-04, 9.42063809e-04,
          7.06198905e-03, 1.39271924e-02, 1.41602661e-02, 6.86241128e-03,
          1.39257964e-02, 1.04229935e-01, 6.21650442e-02, 9.78490245e-03,
          3.09555163e-03, 2.47934431e-01, 1.25689447e-01, 7.70398823e-04 ]
      - [ 2.19759047e-02, 1.75279696e-02, 5.62056191e-02, 6.65739030e-02,
          3.14118974e-02, 1.18483707e-01, 1.70011118e-01, 1.20921902e-01,
          3.59365940e-02, 8.91359821e-02, 1.04098745e-01, 7.22053498e-02,
          2.36269608e-02, 5.29439822e-02, 4.75930609e-02, 2.36562677e-02,
          4.78554405e-02, 8.83641839e-02, 1.59159929e-01, 1.19025216e-01,
          4.62085791e-02, 2.53585428e-01, 3.68501842e-01, 3.68501842e-01,
          4.53851447e-02, 2.25475639e-01, 3.68501842e-01, 3.53453934e-01,
          4.02156562e-02, 1.35933518e-01, 1.40996933e-01, 6.72033429e-02,
          5.81483655e-02, 5.93583882e-02, 1.01504229e-01, 1.29315346e-01,
          5.90625145e-02, 2.38925517e-01, 3.68501842e-01, 3.68501842e-01,
          1.99787300e-02, 3.06327045e-01, 3.68501842e-01, 3.68501842e-01,
          4.18778770e-02, 1.69381663e-01, 2.48956054e-01, 1.09407797e-01,
          2.60609742e-02, 3.52303907e-02, 4.61471677e-02, 3.76895294e-02,
          4.81666699e-02, 9.93409753e-02, 1.74149215e-01, 1.10411271e-01,
          2.16939840e-02, 1.22599483e-01, 3.45819741e-01, 1.62649050e-01,
          4.26650234e-03, 1.01469345e-01, 1.65935814e-01, 5.17437272e-02 ]
      - [ 1.10828569e-02, 1.18351122e-03, 2.38251407e-02, 9.06000137e-02,
          4.48143203e-03, 2.14930112e-03, 9.64129046e-02, 1.95339367e-01,
          3.53797269e-03, 1.75712339e-03, 8.36720094e-02, 1.57063663e-01,
          3.58961197e-03, 6.79681601e-04, 3.40008251e-02, 4.78219502e-02,
          2.31580213e-02, 1.33703277e-03, 1.09667391e-01, 4.19634283e-01,
          1.49683468e-02, 1.68036262e-03, 3.89954388e-01, 4.19634283e-01,
          6.40463782e-03, 9.96494200e-04, 3.40630710e-01, 4.19634283e-01,
          5.73053909e-03, 8.23433511e-05, 1.36809990e-01, 1.50667399e-01,
          2.14748662e-02, 1.49306636e-02, 5.60437217e-02, 1.54919937e-01,
          7.50873685e-02, 4.33628447e-02, 4.19634283e-01, 4.19634283e-01,
          3.48633379e-02, 4.30683643e-02, 4.19634283e-01, 4.19634283e-01,
          5.70820877e-03, 2.28049210e-03, 1.91279411e-01, 1.69116497e-01,
          2.35711336e-02, 1.98977813e-02, 1.03640975e-02, 8.10314436e-03,
          2.22403809e-01, 1.19939372e-01, 5.09426221e-02, 4.03733663e-02,
          1.35848388e-01, 1.27588928e-01, 2.63784826e-01, 7.99218938e-02,
          3.12765175e-03, 1.43389078e-02, 1.01948045e-01, 3.59003060e-02 ]
      - [ 3.73140983e-02, 1.45817520e-02, 4.33768006e-03, 1.91552974e-02,
          3.18975821e-02, 1.21840248e-02, 8.11500698e-02, 1.45837054e-01,
          4.09065001e-03, 1.09544573e-02, 1.42902002e-01, 9.63305533e-02,
          2.27490952e-03, 1.52963242e-02, 4.65072468e-02, 1.91873964e-02,
          2.87875146e-01, 2.63331234e-02, 3.39422072e-03, 1.02048531e-01,
          3.96241784e-01, 6.45934790e-02, 1.96129307e-01, 3.96241784e-01,
          5.92732579e-02, 1.50816739e-01, 3.96241784e-01, 3.84565800e-01,
          4.41304548e-03, 7.11279139e-02, 1.66692257e-01, 2.53394209e-02,
          3.71205240e-01, 8.56231246e-03, 4.17578500e-03, 1.55140460e-01,
          3.96241784e-01, 2.00847998e-01, 1.04217373e-01, 3.38741004e-01,
          1.92000985e-01, 3.96241784e-01, 3.96241784e-01, 1.06891446e-01,
          7.58954464e-03, 1.52967438e-01, 1.56774774e-01, 9.27967764e-03,
          9.82453898e-02, 3.62869003e-03, 5.79753006e-03, 4.85393144e-02,
