%YAML:1.0
---
opencv_ml_svm:
   format: 3
   svmType: C_SVC
   kernel:
      type: RBF
      gamma: 1.
   C: 1.0000000000000001e-01
   term_criteria: { iterations:10000 }
   var_count: 20
   class_count: 2
   class_labels: !!opencv-matrix
      rows: 2
      cols: 1
      dt: i
      data: [ 0, 1 ]
   sv_total: 507
   support_vectors:
      - [ 7.51233578e-01, 8.86922717e-01, -4.06781346e-01,
          1.74053684e-01, 2.70857602e-01, -5.24730861e-01,
          2.01853558e-01, 4.21592921e-01, -3.95441860e-01,
          -8.84005129e-02, -5.37891448e-01, 2.16895685e-01,
          -5.49224541e-02, -3.75707209e-01, 2.49660596e-01,
          6.93530738e-01, 1.76778901e-02, 2.38187701e-01, 6.65599525e-01,
          5.19117117e-01 ]
      - [ 6.48581684e-01, -7.09496021e-01, -2.16523111e-01,
          9.47262868e-02, 6.21846139e-01, 1.91128790e-01,
          -4.08578813e-01, 4.46810216e-01, -3.08852732e-01,
          2.18700767e-01, 1.33449867e-01, 2.13502616e-01, 4.34985042e-01,
          -3.39040399e-01, 3.90011847e-01, -6.41074926e-02,
          2.79896200e-01, 4.09425944e-02, 3.58498782e-01,
          -1.04877532e-01 ]
      - [ 7.51323700e-01, -3.53301734e-01, 2.05878228e-01,
          9.09420252e-02, 1.03763767e-01, -1.34054467e-01,
          2.91361194e-02, 4.06075597e-01, 3.26667547e-01,
          -5.22431076e-01, 8.55771244e-01, 8.80298793e-01,
          5.63983738e-01, -4.65600267e-02, 2.95134157e-01,
          -2.39098221e-01, -1.23598263e-01, -5.53873926e-02,
          2.08714634e-01, -2.72149622e-01 ]
      - [ 7.42879927e-01, -6.37481034e-01, 2.74242789e-01,
          8.42675984e-01, 6.46706283e-01, 6.77132979e-02, 4.91424739e-01,
          -4.74523932e-01, 4.43892449e-01, 2.57976294e-01,
          -7.43866861e-02, -5.66605806e-01, 1.76946402e-01,
          -1.87889904e-01, -2.15176374e-01, 5.57166278e-01,
          -1.75607219e-01, -9.83767956e-02, -2.37248406e-01,
          8.91355053e-02 ]
      - [ 5.33997238e-01, -3.31380844e-01, 6.80359304e-01,
          3.19569826e-01, -5.76503217e-01, -6.52630553e-02,
          4.43551719e-01, -1.76712051e-01, 6.23092093e-02,
          -2.14181557e-01, -3.17743182e-01, 2.01007009e-01,
          -2.10026503e-01, 7.69436508e-02, -4.63004522e-02,
          -2.49284863e-01, 3.98106761e-02, 8.05717409e-01,
          7.51530826e-01, -1.01495102e-01 ]
      - [ -9.03120995e-01, 7.46834204e-02, -2.44081348e-01,
          1.50000170e-01, 7.53891617e-02, 1.69982061e-01, 1.99897379e-01,
          1.98084153e-02, -6.19038679e-02, -3.41261357e-01,
          -4.62153077e-01, 3.30836065e-02, 4.18151990e-02,
          3.87660027e-01, -7.34321922e-02, 2.23271608e-01,
          -1.47593962e-02, -6.67760074e-01, 9.29132849e-02,
          -1.79888040e-01 ]
      - [ 7.77958572e-01, 6.43749654e-01, -8.19986403e-01,
          5.75464606e-01, -3.96947324e-01, 8.68763685e-01,
          -3.03321555e-02, -4.40577686e-01, -4.30127829e-01,
          7.83524811e-02, 2.18942404e-01, 3.04558605e-01, 3.64554524e-01,
          3.60999554e-01, -5.53559661e-01, 8.26703943e-03,
          -1.56498119e-01, -3.57478880e-03, 2.31701463e-01,
          -2.39742193e-02 ]
      - [ 6.43170357e-01, -5.41030616e-02, 6.98875248e-01,
          9.11227584e-01, 3.30619663e-01, -2.73535728e-01,
          4.75303411e-01, 1.21889152e-01, -1.93938255e-01,
          -1.80388361e-01, 1.41203448e-01, 1.72500893e-01,
          4.80281472e-01, 1.09587088e-01, -4.53464873e-02,
          2.69040972e-01, -2.02531710e-01, 1.30564021e-03,
          3.12548876e-01, 2.96968758e-01 ]
      - [ 7.32163906e-01, -7.68792868e-01, -2.80705065e-01,
          1.64689481e-01, 6.50317729e-01, 2.33157843e-01,
          -5.87697566e-01, -2.20524799e-02, -2.95387387e-01,
          -1.57340601e-01, 3.86980146e-01, -3.26826796e-02,
          -1.58279002e-01, -5.72103620e-01, 8.74318555e-02,
          4.69933420e-01, 1.73978239e-01, 2.77542084e-01, 4.51840967e-01,
          -3.50420147e-01 ]
      - [ 4.94391650e-01, -1.34724855e-01, 6.19026899e-01,
          5.14337778e-01, -3.36763710e-01, 2.74297982e-01,
          -5.75632036e-01, -1.70237958e-01, -4.44704860e-01,
          -6.32502362e-02, 3.03529918e-01, -2.08489522e-01,
          -2.14763671e-01, -8.37659001e-01, 1.09281093e-01,
          -5.14670387e-02, -5.79926409e-02, -7.52952576e-01,
          2.73236990e-01, 1. ]
      - [ 5.99214494e-01, 8.83348048e-01, -4.31359679e-01,
          -3.06589395e-01, 5.01215279e-01, -4.96520400e-01,
          3.40443075e-01, -2.10978687e-01, -6.84409440e-01,
          -2.82250643e-01, -5.06011881e-02, 5.65326549e-02,
          4.30337995e-01, 1.97144687e-01, -2.45510787e-01,
          3.19918483e-01, 4.51120764e-01, -2.92277694e-01,
          3.27776104e-01, -1.81925327e-01 ]
      - [ 5.72929144e-01, 2.40533844e-01, 4.05659765e-01,
          -8.03676665e-01, -2.23539189e-01, -8.49759802e-02,
          8.04721564e-02, -5.88818610e-01, 7.08764374e-01,
          4.60811198e-01, -5.47788680e-01, 6.49138510e-01,
          -8.84600058e-02, -2.95924008e-01, -2.14002982e-01,
          -2.12774232e-01, 1.48389384e-01, 4.06898588e-01,
          1.18501410e-01, 9.03252661e-02 ]
      - [ -8.50574911e-01, 1.26813844e-01, -1.91299021e-01,
          1.35749221e-01, 2.55202278e-02, -3.71690951e-02,
          1.28521845e-01, -6.89475378e-03, -7.45446384e-02,
          -1.03348762e-01, -1.55649960e-01, 1.10857144e-01,
          -5.32746725e-02, 2.09079027e-01, -1.76306978e-01,
          1.85173806e-02, 3.40498090e-02, -5.69147706e-01,
          2.92687654e-01, -3.53620410e-01 ]
      - [ 6.98643982e-01, -6.62766457e-01, 3.11501175e-01,
          7.00910807e-01, 6.47192299e-01, -5.14555693e-01,
          3.12550843e-01, -4.70485210e-01, -8.61562788e-01,
          3.37840259e-01, -5.18925786e-01, -1.65930670e-02,
          -6.44115433e-02, -5.36780536e-01, -8.15316141e-02,
          3.46546650e-01, 4.13438827e-02, 2.04348385e-01,
          -3.01083121e-02, -2.60738861e-02 ]
      - [ 6.84319198e-01, 2.66405016e-01, -5.68682849e-01,
          5.48251390e-01, -4.43599284e-01, 1.03469767e-01,
          -1.81637287e-01, -1.88199580e-01, 2.06447661e-01,
          -1.33687794e-01, -3.87688160e-01, -7.20849633e-02,
          3.09390843e-01, 9.81300324e-02, 1.57009870e-01,
          -4.01309371e-01, -9.16778892e-02, -3.95337850e-01,
          8.38593900e-01, 1.98984385e-01 ]
      - [ 6.30410969e-01, 5.52349508e-01, -5.81264496e-01,
          7.04257190e-01, -5.86010575e-01, 5.31051934e-01,
          -1.17769763e-01, -6.21639073e-01, -3.13100934e-01,
          4.60640430e-01, -1.52477220e-01, 7.45914578e-01,
          1.95411280e-01, 1.91796213e-01, -5.59242032e-02,
          -3.60987842e-01, -3.71335477e-01, 3.20804536e-01,
          -3.10475290e-01, -1.86186194e-01 ]
      - [ -8.13165545e-01, 1.34833455e-01, -2.21030280e-01,
          1.16224132e-01, 5.45186065e-02, 4.62160297e-02, 1.68951958e-01,
          5.39661618e-04, -9.11207721e-02, -2.84200370e-01,
          -3.18045497e-01, 7.50686452e-02, 3.87216806e-02,
          2.86714494e-01, -1.87562837e-03, 8.79129842e-02,
          -6.64056838e-02, -6.92857504e-01, 2.57412285e-01,
          -3.06986541e-01 ]
      - [ 5.33968151e-01, -5.03998280e-01, -6.80832684e-01,
          -2.00042471e-01, -4.70790535e-01, -1.73452243e-01,
          8.53232980e-01, -5.88278472e-01, 2.82334030e-01,
          -3.61807346e-01, 9.26829040e-01, -3.55780631e-01,
          -5.32267205e-02, -1.73663422e-01, -6.74367428e-01,
          -6.05227947e-02, 9.30059031e-02, -2.67054081e-01,
          1.12561628e-01, -1.49553642e-01 ]
      - [ 6.49115562e-01, -4.97449577e-01, 5.92146397e-01,
          5.68104744e-01, 2.89593607e-01, -4.70310569e-01,
          2.23129153e-01, -5.52961051e-01, -1., -3.39609653e-01,
          -5.71397722e-01, -3.37102450e-02, -5.43487370e-01,
          -2.91555017e-01, -1.54321477e-01, 2.69187331e-01,
          7.80162811e-02, 3.88041556e-01, 2.79862791e-01, 4.85958278e-01 ]
      - [ 3.81301403e-01, -4.49836582e-01, -8.36317539e-01,
          -4.15251553e-02, -4.46741074e-01, -2.25670218e-01,
          7.86266506e-01, -1.06041901e-01, -4.26658809e-01,
          5.97501457e-01, -5.56618989e-01, -8.50570053e-02,
          2.55738229e-01, -2.10208640e-01, -2.77409106e-01,
          -3.79486799e-01, -9.32147279e-02, -9.08385217e-01,
          4.52999622e-01, -2.67052531e-01 ]
      - [ 8.48725617e-01, 7.79750824e-01, -4.87100780e-01,
          4.19782311e-01, 3.86439621e-01, -9.57187340e-02,
          1.44691944e-01, 6.30114198e-01, 3.64597112e-01, 1.24027975e-01,
          -8.62805545e-02, 6.48226216e-02, -1.29926100e-01,
          -8.78582716e-01, 1.37414306e-01, 8.09283316e-01,
          1.86972558e-01, 9.26286876e-02, 4.46024269e-01, 1.97787717e-01 ]
      - [ 7.46376634e-01, 4.61280525e-01, 3.97276193e-01,
          -6.76010251e-01, 1.08745284e-01, -6.58955395e-01,
          7.31707131e-03, 3.75085026e-01, 1.73197120e-01,
          -6.86481446e-02, 2.74134818e-02, 4.17815357e-01,
          5.06692290e-01, 3.55478525e-01, 2.49046892e-01, 4.81885791e-01,
          -4.35342312e-01, 4.11656350e-01, 5.14921725e-01,
          -6.41928660e-03 ]
      - [ 4.98546749e-01, -6.35341763e-01, -6.53302252e-01,
          -1.75193712e-01, -6.38777375e-01, -1.34722918e-01,
          1.61093980e-01, -5.48154056e-01, -1.59374535e-01,
          -7.46047437e-01, 3.54855210e-01, -8.89374763e-02,
          -2.64284819e-01, -3.98587018e-01, 3.73919219e-01,
          7.20718801e-01, -2.66254574e-01, 3.90877873e-01,
          -1.56336606e-01, -1.53173536e-01 ]
      - [ 5.10507464e-01, -2.23379284e-02, 6.87788367e-01,
          6.42617822e-01, -4.24448311e-01, -8.71807039e-02,
          5.53396225e-01, 2.58527189e-01, -1.05694987e-01,
          8.37660804e-02, -1.67959467e-01, 2.22153425e-01,
          6.92683384e-02, 6.59680188e-01, 5.59076130e-01,
          -1.95397004e-01, 1.51339367e-01, 9.86194909e-02,
          6.11286461e-01, -5.55849016e-01 ]
      - [ -7.97110438e-01, 2.90359594e-02, -2.46432483e-01,
          1.45324379e-01, 3.58610041e-02, 1.47851422e-01, 2.72813171e-01,
          4.73744161e-02, -4.86016944e-02, -4.51074213e-01,
          -8.09149146e-01, 1.82842433e-01, 1.47931814e-01,
          -1.29259631e-01, -2.06706226e-01, -1.41105428e-01,
          -3.90006229e-02, -5.22271097e-02, 2.06428394e-01,
          -3.41016144e-01 ]
      - [ 6.33676469e-01, 8.43180597e-01, -7.81036839e-02,
          -5.94027400e-01, -2.43073523e-01, 7.32192695e-02,
          6.14360645e-02, -3.06408793e-01, -3.26438844e-01,
          6.39932990e-01, -3.12588274e-01, 5.57902381e-02,
          -5.33079982e-01, -4.79510278e-01, -2.62444317e-01,
          -1.32036552e-01, 6.06389463e-01, -3.72088939e-01,
          -5.08569002e-01, -3.46381009e-01 ]
      - [ 7.87608743e-01, -3.36996794e-01, 5.53201139e-01,
          5.79935253e-01, 4.06549215e-01, -3.20830613e-01,
          2.45926604e-01, 1.27060756e-01, 3.62563610e-01, 4.33517754e-01,
          4.40368742e-01, 2.89350033e-01, 7.92587638e-01,
          -2.61877656e-01, -5.43414533e-01, -1.45670578e-01,
          -3.89119118e-01, -5.28465509e-02, -2.02923983e-01,
          -3.64695370e-01 ]
      - [ 8.24732900e-01, 7.14184821e-01, -6.01848125e-01,
          2.11420685e-01, 3.69297743e-01, 1., 3.64068478e-01,
          1.33783087e-01, 7.44602978e-02, 3.64052147e-01, 3.91129971e-01,
          2.22280636e-01, -2.24510938e-01, -3.89229864e-01,
          -2.01245770e-01, 5.94295263e-01, -7.38466606e-02,
          -1.04483262e-01, 2.36060154e-02, -2.89119244e-01 ]
      - [ -8.90241325e-01, 1.12048976e-01, -2.02692226e-01,
          1.58596754e-01, 5.60123175e-02, 1.41653895e-01, 2.08758220e-01,
          5.67005537e-02, 6.64415881e-02, -2.67549932e-01,
          -6.08885825e-01, 9.11734253e-02, 9.64677185e-02,
          -5.24780452e-01, 1.39024947e-02, -1.31714493e-01,
          -3.32219511e-01, 3.52885753e-01, 2.00351134e-01,
          4.54885401e-02 ]
      - [ 6.10148191e-01, 4.17088687e-01, 1.85535818e-01,
          -6.32721543e-01, 2.71950886e-02, -6.67147756e-01,
          3.04966778e-01, -2.78753877e-01, 5.91729283e-01,
          3.27424735e-01, -2.38252759e-01, 1.76150769e-01,
          2.97132939e-01, 4.94768977e-01, -6.22731626e-01,
          6.86496198e-02, -2.48215228e-01, 5.13400912e-01,
          3.40059191e-01, -2.71658987e-01 ]
      - [ 8.22464466e-01, 5.81206143e-01, 5.93732893e-01,
          -5.03745079e-01, 8.22995156e-02, -3.08572520e-02,
          1.18574783e-01, 1.81898743e-01, -4.00981784e-01,
          -3.32618773e-01, 6.61367029e-02, 2.48008333e-02,
          -4.59007889e-01, 1.43851088e-02, 3.52131158e-01,
          -4.40260321e-01, -5.72970688e-01, 2.49323025e-02,
          -6.99589998e-02, 2.25704104e-01 ]
      - [ 8.03439915e-01, 7.00974166e-01, -5.41192949e-01,
          -1.19435579e-01, 4.05951321e-01, 5.53958237e-01,
          3.28207880e-01, -4.24208462e-01, 2.35428497e-01,
          1.28295302e-01, -1.76401094e-01, -1.56796128e-01,
          -1.37329206e-01, 3.83832365e-01, 3.29656690e-01,
          -6.08337402e-01, -7.78222263e-01, -1.06879383e-01,
          5.61922371e-01, -1.52402297e-01 ]
      - [ 7.57083237e-01, -7.70069182e-01, -5.60796380e-01,
          -8.32037011e-04, 1.77436829e-01, 2.40360677e-01,
          -8.75450224e-02, 3.42779487e-01, -2.66849250e-02,
          4.93667781e-01, -1.97826728e-01, 3.00664693e-01,
          3.39365155e-01, 1.30428076e-01, 4.17656392e-01,
          -2.13509932e-01, -1.19336210e-01, 2.12487444e-01,
          3.71100634e-01, -4.77677017e-01 ]
      - [ 3.83648276e-01, 7.70609558e-01, 3.85784686e-01, 1.04089202e-02,
          -6.58260345e-01, 5.95557332e-01, -2.93146297e-02,
          -1.12310529e-01, -3.04033071e-01, 3.59718144e-01,
          -1.82972699e-01, -9.50866818e-01, 1.45433590e-01,
          2.45547280e-01, 2.85182297e-01, 6.58581495e-01, 2.95031130e-01,
          -3.70436013e-02, 5.17698228e-01, -3.22693139e-01 ]
      - [ 5.50245285e-01, -5.30045986e-01, -7.20631599e-01,
          -3.08013022e-01, -3.07093207e-02, 5.42065268e-03,
          9.51452672e-01, 5.45749545e-01, 1.65799856e-01, 7.61469841e-01,
          -6.87701106e-02, -1.55598953e-01, 6.41963422e-01,
          -2.10846320e-01, -3.53843510e-01, -3.53044957e-01,
          3.70199680e-01, -7.49187395e-02, 1.93460032e-01,
          3.08968782e-01 ]
      - [ -8.41812134e-01, 9.79026183e-02, -2.14490294e-01,
          1.46497428e-01, 5.73743805e-02, 5.12429327e-02, 1.98353097e-01,
          4.30950373e-02, -1.28305070e-02, -2.57837474e-01,
          -4.03576732e-01, 7.75246248e-02, 2.89500393e-02,
          2.80447423e-01, 7.86513928e-03, 2.34110385e-01,
          -1.14394110e-02, -6.33298874e-01, 1.31516278e-01,
          -3.16033810e-01 ]
      - [ 6.67786360e-01, -2.89851606e-01, 4.23357844e-01,
          5.36339223e-01, -2.13427424e-01, 5.35063595e-02,
          3.14908922e-01, -6.29153967e-01, -3.47052008e-01,
          1.30132034e-01, -4.16585237e-01, 1.36755228e-01,
          -3.62523824e-01, -2.97459215e-01, 7.46091068e-01,
          -1.77568719e-01, 4.12399113e-01, 3.31249982e-01,
          7.04080343e-01, 2.73143739e-01 ]
      - [ -8.27060282e-01, 9.35520530e-02, -2.00321436e-01,
          1.43493786e-01, 2.76157428e-02, -4.06423695e-02,
          1.07004233e-01, -4.75764535e-02, -4.77275774e-02,
          4.68611300e-01, 4.03144509e-01, -7.41587859e-03,
          -3.60620976e-03, -2.12216005e-01, -1.00600749e-01,
          -1.72227159e-01, 4.63808589e-02, 3.63778204e-01,
          4.25945461e-01, -1.60716295e-01 ]
      - [ 5.45617640e-01, 6.93846762e-01, -8.21131766e-01,
          5.83180606e-01, -4.42995846e-01, -1.76020727e-01,
          -4.43490408e-02, 3.06131947e-03, -6.39197767e-01,
          -2.98305124e-01, 4.93357480e-01, -2.00718388e-01,
          6.35248423e-01, 3.19962949e-01, -3.63510191e-01,
          -5.13126433e-01, -1.20834969e-01, 1.13397487e-01,
          -3.20974261e-01, 4.17000760e-04 ]
      - [ 6.62370980e-01, 8.58359337e-01, -8.22456062e-01,
          4.61597472e-01, 2.79515326e-01, 3.38273421e-02, 3.22381079e-01,
          -1.22543596e-01, -2.39376009e-01, -2.65653059e-02,
          1.47662058e-01, -2.12703124e-01, -6.15109444e-01,
          4.69347894e-01, -4.52264011e-01, -8.27298284e-01,
          -2.83338219e-01, 5.42325258e-01, -2.06822008e-01,
          -4.44004774e-01 ]
      - [ 7.47724831e-01, -8.22851360e-01, -3.98082919e-02,
          4.18485165e-01, 6.34868860e-01, 1.46460235e-01,
          -9.80843306e-02, -3.25035751e-01, 5.65942705e-01,
          5.17095774e-02, 2.67607480e-01, 4.42991480e-02,
          -2.35072166e-01, 2.11946279e-01, -3.03873122e-01,
          -1.39591664e-01, -3.62657517e-01, -3.65850776e-01,
          8.32568258e-02, -4.61404353e-01 ]
      - [ 5.91915369e-01, 2.70764261e-01, 8.88239563e-01, 2.86529571e-01,
          -5.39068937e-01, 2.99057245e-01, -4.30074260e-02,
          2.21394077e-01, -5.52492321e-01, 1.43273726e-01,
          2.62346506e-01, -2.47288615e-01, 2.23356336e-02,
          -5.97958148e-01, -5.08031726e-01, -8.66467580e-02,
          -5.58378935e-01, -7.00009823e-01, 3.55567396e-01,
          3.23285311e-02 ]
      - [ 6.07930064e-01, 3.42299402e-01, -6.80171132e-01,
          7.90701926e-01, -4.16011691e-01, 7.91398622e-03,
          -1.16748959e-01, -2.29691923e-01, 4.14385676e-01,
          2.46735662e-01, -4.99773651e-01, 2.06933990e-02,
          2.92050451e-01, 3.24260537e-03, 1.20756112e-01, 2.54915822e-02,
          1.69927180e-01, -1.10119149e-01, 5.05919337e-01,
          2.47154340e-01 ]
      - [ -8.97871673e-01, 1.08737685e-01, -2.27196485e-01,
          2.08375633e-01, 1.12592280e-01, 1.42707571e-01, 1.84688121e-01,
          1.95956137e-03, 6.74503446e-02, -1.45592928e-01,
          -3.86830449e-01, 9.60646421e-02, 1.21919662e-01,
          -5.66111088e-01, 5.18862978e-02, -1.65489063e-01,
          -2.52586573e-01, 3.53956968e-01, 1.07043572e-01,
          9.90517512e-02 ]
      - [ 6.49741173e-01, 2.93828994e-01, -6.07902706e-01,
          4.82429683e-01, -1.59152508e-01, -4.96030092e-01,
          9.23658758e-02, -4.26880866e-02, 1.31226510e-01,
          -2.88533513e-02, -3.82019103e-01, -2.31712058e-01,
          -1.73774943e-01, -1.71219349e-01, 1.02804095e-01,
          -4.24828619e-01, -3.28994513e-01, -5.58934093e-01,
          6.52312398e-01, -2.52536714e-01 ]
      - [ 6.03332937e-01, 1.92072511e-01, 4.12353516e-01, 7.15896845e-01,
          -5.45895815e-01, 2.96008497e-01, 1.50239572e-01,
          -2.27667406e-01, -3.33788753e-01, 3.45858961e-01,
          -5.18489420e-01, -7.63509497e-02, -5.55391192e-01,
          -5.41088641e-01, 5.64202011e-01, 1.86055809e-01,
          3.11704010e-01, -4.86580729e-01, 2.66393483e-01,
          8.98672819e-01 ]
      - [ 7.63745427e-01, 5.54333448e-01, 1.58980802e-01,
          -2.42011830e-01, -2.92726457e-02, -2.09693089e-01,
          -2.01760605e-01, -6.06736124e-01, 3.78592312e-02,
          3.26030701e-01, -5.77141941e-01, 3.46730024e-01,
          -8.95785615e-02, 1.10871144e-01, -1.04092062e-01,
          -4.89628822e-01, -4.41925861e-02, -6.12047255e-01,
          5.99244237e-01, 1.90243810e-01 ]
      - [ 4.97379899e-01, 1.12183526e-01, 4.53794837e-01,
          -6.51491642e-01, -5.25103450e-01, -1.68869784e-03,
          -5.91107428e-01, -1.53169453e-01, 1.43204674e-01,
          1.06762677e-01, -3.11542243e-01, 5.10348417e-02,
          1.12235941e-01, -1.12225205e-01, -1.77373648e-01,
          -3.11975390e-01, 1.20299295e-01, 4.49806660e-01,
          -1.75986573e-01, 8.59778374e-02 ]
      - [ 8.07476342e-01, 6.51196361e-01, -5.39049864e-01,
          4.31969792e-01, -2.29610294e-01, 3.14026892e-01,
          6.05215924e-03, -5.45373082e-01, -4.67955619e-01,
          8.69789869e-02, 2.53159165e-01, 6.21082842e-01,
          -2.13592887e-01, 5.37375569e-01, -3.76841694e-01,
          -7.47415781e-01, -4.37334716e-01, 2.18187362e-01,
          3.04457277e-01, -2.83920974e-01 ]
      - [ 6.03954554e-01, -2.82707095e-01, -7.68711627e-01,
          -1.00253902e-01, -5.40334105e-01, -5.80116808e-02,
          4.42990065e-01, -4.98553932e-01, -1.37174308e-01,
          -1.14006139e-01, 7.48141035e-02, -4.57497060e-01,
          6.10501841e-02, -3.89404058e-01, -5.37903190e-01,
          6.20797239e-02, -4.29196171e-02, -6.32949412e-01,
          5.08167267e-01, -4.72766370e-01 ]
      - [ 7.03117609e-01, -7.11776197e-01, -1.03006035e-01,
          5.56726098e-01, 6.40037835e-01, 3.00400019e-01, 2.01444149e-01,
          -2.52160221e-01, 1.11085407e-01, 7.65390933e-01,
          -7.61705101e-01, -7.01876938e-01, -1.46528170e-01,
          -3.99675295e-02, -6.47924364e-01, 1.82667617e-02,
          -4.28614020e-01, -8.14796388e-02, -6.04688376e-03,
          -1.69600293e-01 ]
      - [ 5.69408000e-01, -7.40413725e-01, -7.06199467e-01,
          1.22696094e-01, 2.82583013e-02, 1.75464034e-01,
          -5.03699422e-01, 3.81677121e-01, -6.68443918e-01,
          4.51321572e-01, -9.43257093e-01, 1.87117234e-01,
          -5.19284070e-01, 1.93599518e-02, -8.93808603e-02,
          -6.61422983e-02, -4.91723120e-01, -2.28940174e-01,
          2.78360844e-01, -3.47408354e-01 ]
      - [ 8.09890389e-01, 7.02158391e-01, -5.92718363e-01,
          5.76177418e-01, 1.59500793e-01, 2.85803884e-01, 3.80475491e-01,
          2.42916211e-01, 5.10115139e-02, 2.58800536e-01,
          -2.75394320e-01, 6.67433143e-01, 2.53587812e-01,
          -3.19327265e-01, -3.81789021e-02, 4.29638356e-01,
          5.70120037e-01, -5.72199859e-02, 1.44137561e-01,
          1.90002441e-01 ]
      - [ 6.92883730e-01, 5.28946161e-01, -7.62918890e-01,
          4.60493892e-01, -3.42628062e-01, -7.67978251e-01,
          2.70676166e-01, 6.52098358e-02, 2.47231916e-01, 2.26935446e-01,
          -7.17105806e-01, -3.01550291e-02, -7.37540126e-01,
          -7.35952914e-01, 2.75891960e-01, 1.58145994e-01,
          -2.46734798e-01, -6.21826313e-02, 1.15767911e-01,
          -5.23531973e-01 ]
      - [ 7.62920976e-01, 5.33261657e-01, -6.05836034e-01,
          5.03486753e-01, -2.11834889e-02, 7.93254137e-01,
          -5.04356511e-02, 1.30051911e-01, -2.65534550e-01,
          -1.78902939e-01, 4.54444736e-01, 4.44565713e-02,
          8.10135961e-01, 2.76770443e-02, -1.26813218e-01,
          -1.90469533e-01, 2.57582873e-01, 1.62467808e-02,
          3.45552504e-01, 2.93145537e-01 ]
      - [ 5.32775223e-01, 5.19237459e-01, 3.17163885e-01,
          -5.16631365e-01, -4.69809860e-01, 2.20038861e-01,
          -2.36265942e-01, 7.80223086e-02, 1.77802667e-01,
          4.60961282e-01, -1.39540136e-01, -3.71356100e-01,
          -4.79007423e-01, -4.98076439e-01, 8.46229270e-02,
          -2.34166726e-01, 1.20959222e-01, 1.58748195e-01, -1.,
          2.35089391e-01 ]
      - [ 2.46177744e-02, 1.25430569e-01, 4.77248043e-01, 4.51377213e-01,
          -7.71212637e-01, 8.01987886e-01, 1.82901457e-01,
          4.05529708e-01, -3.21173251e-01, -1.25116095e-01,
          6.24015808e-01, -8.93737674e-02, 2.13850811e-01,
          -7.29237616e-01, 5.35702944e-01, -7.51125157e-01,
          6.62079500e-03, -5.33946872e-01, 1.53691947e-01,
          1.76578298e-01 ]
      - [ 5.32267511e-01, 6.22024119e-01, -8.76172364e-01,
          8.73230517e-01, -5.05165696e-01, -8.02092433e-01,
          -2.78243661e-01, 1.85584232e-01, 2.18826011e-01,
          8.35701674e-02, -5.16646683e-01, -3.46741319e-01,
          3.55020672e-01, 9.46600437e-02, 1.17349766e-01, 2.44717687e-01,
          -1.52337924e-01, 2.20592156e-01, -1.34712264e-01,
          2.80398250e-01 ]
      - [ 5.48598170e-01, 5.66959798e-01, -7.68272460e-01,
          6.06677949e-01, -2.38384008e-01, -7.24802792e-01,
          -4.42249179e-02, 2.33959094e-01, 2.92895347e-01,
          2.44365558e-02, -2.16341913e-01, -9.15367663e-01,
          -9.08184424e-02, -4.80642378e-01, 1.73505738e-01,
          -4.34484094e-01, -1.33260131e-01, -4.91251051e-01,
          5.42229235e-01, -2.89210916e-01 ]
      - [ 5.69720805e-01, -5.55539072e-01, -9.05394256e-01,
          -3.85951400e-01, -8.37539673e-01, -6.08091503e-02,
          2.88975477e-01, 7.62379318e-02, -3.54597345e-02,
          -2.23371759e-01, 3.85734111e-01, -4.51511890e-01,
          -2.93880533e-02, -2.79306203e-01, -3.55872005e-01,
          8.59480083e-01, -1.09247506e-01, 4.02583867e-01,
          1.34729102e-01, 7.18775317e-02 ]
      - [ -9.19880748e-01, 9.56695080e-02, -1.88389778e-01,
          1.39818013e-01, 1.12067409e-01, 4.99401614e-02, 1.47536397e-01,
          2.20380966e-02, -1.07491367e-01, -1.02924787e-01,
          -6.91068694e-02, 4.69710901e-02, -2.99510434e-02,
          1.78113833e-01, 9.62178782e-02, 3.12469900e-01,
          -2.04483673e-01, -4.15951818e-01, -5.98740913e-02,
          1.87289603e-02 ]
      - [ -7.98923671e-01, 1.07299857e-01, -2.07301944e-01,
          2.31398463e-01, 2.24163048e-02, 5.96434362e-02, 2.08646715e-01,
          1.16646178e-01, 7.59479627e-02, -2.62209568e-02,
          -1.23513274e-01, 1.79805636e-01, 1.34325504e-01,
          -5.63839555e-01, 3.90425138e-02, -2.64695436e-01,
          -2.73554802e-01, 4.12983984e-01, 3.01518768e-01,
          -7.42689073e-02 ]
      - [ 6.93245530e-01, -8.62252593e-01, -7.26388812e-01,
          -1.66198820e-01, 1.34395853e-01, 1.90719992e-01,
          1.14291392e-01, 3.57565403e-01, 5.83410040e-02, 1.79008320e-01,
          -5.19975901e-01, 8.51172581e-02, -4.00252223e-01,
          6.06026590e-01, 1.43369526e-01, -2.37248376e-01,
          -1.10782780e-01, 3.86989236e-01, 1.03833526e-02,
          3.73116732e-01 ]
      - [ 7.21207976e-01, -7.21343577e-01, -2.66537461e-02,
          1.74016878e-01, 6.83471799e-01, -3.04498196e-01,
          -1.74919784e-01, 2.53730297e-01, 3.71298380e-02,
          6.78074434e-02, -1.88678447e-02, 7.61251569e-01,
          -1.13612860e-02, 1.47255361e-01, 1.44954324e-01,
          -4.90654022e-01, 2.74767846e-01, -3.65117460e-01,
          -2.28410974e-01, -2.90166289e-01 ]
      - [ 7.49925315e-01, 5.54979205e-01, -6.62021935e-01,
          6.21442258e-01, -5.99134993e-03, -2.51280814e-01,
          -1.86070323e-01, 6.89910054e-01, 9.43442658e-02,
          -2.69329846e-01, 2.67898232e-01, -4.32147771e-01,
          5.12398303e-01, 5.26183426e-01, -4.76245344e-01,
          -1.14943661e-01, -1.59278944e-01, 3.43643278e-01,
          3.31011534e-01, 3.65299791e-01 ]
      - [ -8.68977308e-01, 9.13555101e-02, -2.43223101e-01,
          1.23043306e-01, 4.46637943e-02, 7.73783028e-02, 1.90698877e-01,
          3.32681984e-02, -8.56127515e-02, -2.86086470e-01,
          -4.37149733e-01, 5.40640466e-02, 4.92098555e-02,
          2.64442682e-01, -5.20944549e-03, 2.54614919e-01,
          -2.21073944e-02, -6.93829358e-01, 1.12026468e-01,
          -1.71836555e-01 ]
      - [ -8.36285472e-01, 7.83288404e-02, -2.27266580e-01,
          1.46461651e-01, 5.58293015e-02, 5.59149981e-02, 1.88188583e-01,
          8.29435233e-03, -6.15968443e-02, 1.04713738e-01,
          -3.91908437e-02, 1.32165298e-01, 4.72232029e-02,
          -5.87630451e-01, -1.17394999e-01, -3.66659194e-01,
          -1.61197662e-01, 4.43575233e-01, 3.18714947e-01,
          -2.63550431e-02 ]
      - [ 4.92658794e-01, 5.29908478e-01, 2.58721203e-01,
          -5.00252128e-01, -3.57126445e-01, 3.74959372e-02,
          -1.39823824e-01, 7.58519843e-02, 3.24189276e-01,
          3.15198660e-01, -4.38492477e-01, -1.72394276e-01,
          1.52170047e-01, -6.29752159e-01, -6.46958709e-01,
          7.24784851e-01, 1.14781938e-01, 2.56251663e-01, 3.08525503e-01,
          -8.58058315e-03 ]
      - [ -8.31029654e-01, 7.39533156e-02, -2.33889788e-01,
          1.26855195e-01, 1.12071715e-01, 1.68638945e-01, 2.96005934e-01,
          4.31194901e-02, -2.78021116e-02, -5.57498395e-01,
          -9.05652821e-01, 2.18632862e-01, 1.69905901e-01,
          -1.91878214e-01, -1.26733944e-01, -1.53027982e-01,
          -9.06660184e-02, -1.36393562e-01, 2.54864573e-01,
          -2.39258945e-01 ]
      - [ 6.11901700e-01, 5.30543685e-01, -7.84179151e-01,
          7.12005436e-01, -3.27689588e-01, -4.83107299e-01,
          -2.52151102e-01, 5.77579260e-01, 2.66187936e-01,
          -1.69812486e-01, 1.76938668e-01, -6.92641556e-01,
          5.25136471e-01, 4.55792010e-01, -3.92001271e-01,
          -3.22630167e-01, -1.85069561e-01, 2.67912179e-01,
          1.11871898e-01, 3.13901842e-01 ]
      - [ 5.52294374e-01, -5.45825005e-01, -8.34352672e-01,
          -3.40291917e-01, -5.03708720e-01, 1.03800870e-01,
          5.03404379e-01, 6.43699825e-01, -1.98696554e-01,
          5.89148641e-01, -1.82475522e-01, -1.08638592e-01,
          2.94867903e-01, 1.47220626e-01, -3.27362329e-01,
          -1.54257253e-01, -2.70678490e-01, 2.00655982e-01,
          2.13382050e-01, 3.15778553e-01 ]
      - [ 6.86332405e-01, -4.92210120e-01, -7.13105381e-01,
          -4.02422389e-03, 6.25846907e-02, 9.01663378e-02,
          7.74871826e-01, 3.02140176e-01, 2.93411851e-01, 5.30838966e-01,
          -8.87753218e-02, -4.15904038e-02, 2.30922587e-02,
          1.25226319e-01, -5.07280827e-01, -1., 2.80803144e-01,
          -7.34729350e-01, 2.89569438e-01, -1.27087664e-02 ]
      - [ 5.25793076e-01, -2.57074200e-02, 7.80996144e-01,
          6.14608049e-01, -5.87538421e-01, 4.56241459e-01,
          5.20257592e-01, 2.25744784e-01, 4.36205268e-01, 2.03079030e-01,
          1.19197600e-01, -4.15676802e-01, 2.93671072e-01,
          5.23160040e-01, 6.73571885e-01, 2.31996253e-01, 4.04935896e-01,
          3.10776323e-01, 3.30211967e-01, -6.33929729e-01 ]
      - [ 8.06460738e-01, 7.08336890e-01, -3.71196121e-01,
          -1.78165823e-01, 6.99270725e-01, 8.74529898e-01,
          5.20025790e-01, 1.79850295e-01, -8.69784355e-02,
          1.21843271e-01, 5.42373657e-01, -1.60528675e-01,
          -1.08196206e-01, -7.62208521e-01, 1.54088527e-01,
          5.26473284e-01, -1.11741945e-01, -2.83482045e-01,
          -5.16661815e-02, -3.59541893e-01 ]
      - [ 6.49563193e-01, 2.40623042e-01, 8.53675723e-01, 3.25768024e-01,
          -3.03948373e-01, -1.45914014e-02, -2.18153700e-01,
          -8.59581679e-02, -6.79587066e-01, -2.19317153e-01,
          -9.70501900e-02, -3.41685414e-02, -2.88526058e-01,
          1.07594937e-01, -4.85077262e-01, -3.53476480e-02,
          -7.96588719e-01, -5.44361413e-01, 5.16864598e-01,
          5.80066562e-01 ]
      - [ 7.84503937e-01, 4.17517364e-01, 7.81896353e-01,
          -2.00232327e-01, -1.30548894e-01, 4.90541495e-02,
          -3.00941169e-01, 2.61435419e-01, -4.86672729e-01,
          -2.66506374e-01, 1.32846590e-02, -4.19604599e-01,
          -1.56873420e-01, 1.05343685e-01, 5.89577317e-01,
          -4.94868279e-01, -6.90932810e-01, 6.69936091e-02,
          2.10097045e-01, -2.56510209e-02 ]
      - [ 7.12547302e-01, -6.70269191e-01, -3.95910710e-01,
          1.52052417e-01, 4.87123430e-02, 9.98842344e-02,
          -1.69001266e-01, -3.41707140e-01, 2.91974217e-01,
          -3.55282336e-01, 3.34137857e-01, 2.89512604e-01,
          -1.16448905e-02, 1.90506756e-01, 3.77924263e-01,
          -1.43937737e-01, -1.17365986e-01, 2.05992092e-03,
          4.56961930e-01, -3.92501235e-01 ]
      - [ 6.25490487e-01, 9.08034384e-01, -7.11517036e-01,
          3.24825197e-01, 4.23973441e-01, 1.36300579e-01, 2.53738999e-01,
          3.34905505e-01, -3.59940380e-01, -2.80179739e-01,
          9.10714567e-02, -2.70916432e-01, 4.85633641e-01,
          -2.62593217e-02, -3.62940431e-01, 2.07319692e-01,
          2.42903709e-01, -2.98150070e-02, 6.45034790e-01,
          8.29004049e-02 ]
      - [ 7.51504242e-01, 7.63794541e-01, -5.70786953e-01,
          -2.82446798e-02, 6.36212170e-01, 1.01696737e-01,
          1.45759791e-01, -2.64304101e-01, -4.01951015e-01,
          -1.11798525e-01, -2.16126934e-01, -6.70024455e-01,
          2.91954670e-02, 8.57764900e-01, -1.33651629e-01,
          -7.45406449e-01, -1.15611486e-01, 6.15229368e-01,
          -2.57155728e-02, -1.76615357e-01 ]
      - [ 7.60688961e-01, -8.72893035e-01, -4.56884563e-01,
          1.43752933e-01, 4.80958313e-01, 1.46977469e-01,
          -3.16633224e-01, -4.35260162e-02, 4.47290123e-01,
          -5.74367523e-01, 3.99383485e-01, 1.30529493e-01,
          -4.40062821e-01, 3.15234244e-01, 2.85006553e-01,
          4.26970124e-02, 4.16426122e-01, 4.02865946e-01, 2.60136098e-01,
          -1.73539236e-01 ]
      - [ 7.13136971e-01, 4.41214889e-01, -5.59570372e-01,
          4.99428332e-01, 1.44499943e-01, 4.83425975e-01,
          -4.19552550e-02, -7.80666014e-03, 2.72459656e-01,
          1.08392537e-01, -2.17620060e-01, 8.72712359e-02,
          5.00870883e-01, -2.67041296e-01, 3.48307103e-01,
          5.29896080e-01, -5.04498295e-02, -3.10538501e-01,
          7.88676441e-01, 7.61087358e-01 ]
      - [ 8.19668949e-01, 7.26200223e-01, -5.46640635e-01,
          4.43394512e-01, 1.63980171e-01, -4.37744826e-01,
          2.16785893e-01, 8.84173930e-01, 5.20403326e-01, 1.71249986e-01,
          -2.09068269e-01, -4.41138856e-02, -2.43833989e-01,
          -9.04925466e-01, -3.15537862e-02, 4.86532301e-01,
          5.34120575e-02, 8.48168805e-02, 2.03573585e-01, 1.84275597e-01 ]
      - [ 7.17756152e-01, -4.44707870e-01, -7.85230696e-01,
          -2.00992133e-02, -2.06697986e-01, -8.28618929e-02,
          7.75475264e-01, -4.28956032e-01, 6.40886247e-01,
          -5.41098297e-01, 9.85211790e-01, -9.91351083e-02,
          -3.98582928e-02, 6.42902628e-02, -4.72904176e-01,
          -5.63273430e-01, 1.69891611e-01, -1.25028819e-01,
          5.04157305e-01, 3.61011595e-01 ]
      - [ -9.24783707e-01, 1.38604075e-01, -1.56628549e-01,
          2.07058504e-01, 1.92047562e-02, -8.87256861e-02,
          8.10875148e-02, 2.28892546e-03, -6.04807027e-02,
          4.82723981e-01, 4.44620609e-01, 2.27200286e-03,
          -1.28989011e-01, -1.25095591e-01, -5.59212305e-02,
          -7.25314766e-02, 1.14654517e-02, 3.20872337e-01,
          3.25010419e-01, -7.73063153e-02 ]
      - [ 8.05471718e-01, 6.63546443e-01, -5.84921241e-01,
          6.08417511e-01, 2.05730259e-01, -1.48745418e-01,
          5.44593096e-01, 5.00133812e-01, 4.18926388e-01, 4.30257291e-01,
          -9.68552660e-03, 4.69027340e-01, -3.31333280e-01,
          -3.12143892e-01, -2.08862245e-01, 5.22282660e-01,
          2.98676610e-01, -1.44483559e-02, -1.31890446e-01,
          -5.37856996e-01 ]
      - [ 5.79085171e-01, -9.37333822e-01, -6.89217269e-01,
          -1.86251521e-01, 7.64723346e-02, -1.68943986e-01,
          -1.26284012e-03, 3.93478274e-01, -2.25191638e-01,
          -2.54496366e-01, -1.71776697e-01, 1.10566102e-01,
          1.40100092e-01, 7.92107284e-02, -5.66707514e-02,
          5.74202061e-01, 2.88119286e-01, 1., 2.76896656e-01,
          -1.98517635e-01 ]
      - [ 5.07308245e-01, 2.34584272e-01, 8.11359942e-01,
          -2.26694997e-02, -7.56763816e-01, 6.69149756e-01,
          -1.54538736e-01, 2.18137518e-01, -3.57913196e-01,
          -3.82152468e-01, 1.62982717e-01, -3.86917531e-01,
          -3.78394686e-02, -6.19590223e-01, 1.54929355e-01,
          1.31031781e-01, 5.81058972e-02, 1.64908454e-01, 5.24181426e-01,
          1.58203423e-01 ]
      - [ 9.04267967e-01, 5.85331678e-01, -1.69778377e-01,
          2.25479141e-01, 3.90579134e-01, 2.21741378e-01, 3.93658102e-01,
          7.43078589e-01, -6.71120882e-02, -2.65215300e-02,
          6.34190679e-01, 2.37860039e-01, -6.48381710e-01,
          -8.39175820e-01, -1.15493722e-01, 1.09852985e-01,
          -4.82211970e-02, 1.44793376e-01, -2.66498029e-01,
          -4.05805707e-01 ]
      - [ 7.24726915e-01, 5.32560825e-01, -5.88267326e-01,
          4.24389511e-01, -3.12587589e-01, -2.30244860e-01,
          2.32679069e-01, 2.65064240e-01, 3.04980636e-01, 8.84877667e-02,
          1.96458876e-01, 3.68124545e-01, -2.42147312e-01,
          -2.00880915e-01, -2.65677255e-02, -3.27076048e-01,
          -5.43401718e-01, 2.42308721e-01, -7.48078898e-02,
          -4.37185943e-01 ]
      - [ 7.35461950e-01, 7.05152094e-01, -3.07215482e-01,
          -2.53396422e-01, 8.58819187e-01, 9.39994380e-02,
          5.07916585e-02, -4.00653452e-01, 1.26031756e-01,
          2.65795201e-01, -4.25621808e-01, -6.53558850e-01,
          3.85864586e-01, 7.03808904e-01, 1.11303568e-01,
          -5.91124892e-01, 5.27258888e-02, 5.66193640e-01,
          1.23573095e-01, -6.81132972e-02 ]
      - [ 7.95131862e-01, -4.22017962e-01, 4.26694512e-01,
          4.49708849e-01, 4.47349101e-01, -4.38808858e-01,
          -2.50148982e-01, 1.72945604e-01, 2.62490218e-03,
          -8.49339738e-02, 3.31731528e-01, 8.50724697e-01,
          -4.32840054e-04, -1.37787879e-01, -2.18584210e-01,
          -8.10101211e-01, -7.71297142e-02, -5.96328378e-01,
          -2.12618917e-01, -1.48327291e-01 ]
      - [ -7.52594531e-01, 1.00873239e-01, -1.90404728e-01,
          1.66427776e-01, -9.96620022e-03, -8.23979378e-02,
          9.46000591e-02, -1.09500550e-01, -1.34743318e-01,
          4.56744164e-01, 3.36237490e-01, 4.71697524e-02,
          -4.00848873e-02, -2.14724168e-01, -2.53333598e-02,
          -3.75774741e-01, 8.03484619e-02, 2.62112349e-01,
          4.46664006e-01, -2.16579050e-01 ]
      - [ 7.49829888e-01, -1.45387538e-02, 7.50288308e-01,
          7.45225787e-01, 1.48071289e-01, -2.51331925e-01,
          2.22402483e-01, 9.55366120e-02, -5.94778001e-01,
          -1.50866598e-01, 2.62543671e-02, 1.75190032e-01,
          -5.43370144e-03, 1.43121824e-01, -3.39350075e-01,
          -3.02575648e-01, -7.43232310e-01, -3.50577116e-01,
          -7.62260482e-02, 6.30580962e-01 ]
      - [ 6.55584157e-01, 1.68931544e-01, 5.76195419e-01,
          -6.26024008e-01, -2.32315689e-01, -3.50278795e-01,
          -1.01812325e-01, -2.71971047e-01, 5.21560729e-01,
          1.63643226e-01, -3.25383581e-02, 3.11606735e-01,
          3.74226481e-01, -1.64654374e-01, -5.53804815e-01,
          -3.49524082e-03, -2.73569942e-01, 4.39331174e-01,
          4.06784475e-01, 1.05207130e-01 ]
      - [ 6.66464806e-01, 7.32896030e-01, -4.81851101e-01,
          2.34147713e-01, 6.07082665e-01, 1.10631682e-01, 8.37911200e-03,
          -2.85391003e-01, -3.35396320e-01, -1.49687827e-01,
          -2.67771095e-01, -6.23393297e-01, 1.58797696e-01,
          1.27294317e-01, 2.67204583e-01, -5.70177674e-01,
          -2.78756380e-01, 2.27272004e-01, 7.49580204e-01,
          4.73175347e-01 ]
      - [ 6.90855920e-01, 2.74090171e-01, 5.76410532e-01,
          -4.96536732e-01, -2.36786142e-01, -7.37410411e-02,
          -6.87805414e-01, 1.98878586e-01, 8.31674486e-02,
          2.29539305e-01, 2.44352613e-02, 2.54877042e-02, 1.82990022e-02,
          -2.26843014e-01, -4.54827517e-01, -1.19809829e-01,
          -3.18756551e-01, -5.25460362e-01, 2.44792834e-01,
          2.29786247e-01 ]
      - [ 7.78449774e-01, 5.45565009e-01, 2.80388892e-01,
          -3.94863337e-01, -1.95273533e-01, -3.38272810e-01,
          1.09013043e-01, -2.52576582e-02, 2.79861987e-01,
          8.40384960e-02, -1.15420833e-01, 6.65433705e-01,
          3.11320305e-01, 2.48389468e-01, -2.20721185e-01,
          4.88658607e-01, -2.69666940e-01, -2.34407872e-01,
          9.61984158e-01, -3.43918353e-01 ]
      - [ 6.16593897e-01, 4.54416692e-01, 4.23182666e-01,
          -3.82995009e-01, -3.91545624e-01, 1.96896285e-01,
          -4.40363795e-01, 2.50225216e-02, 1.55495375e-01,
          3.37176412e-01, -1.17026353e-02, -5.25197327e-01,
          -3.84597629e-01, -4.54694182e-01, 4.31999534e-01,
          -7.14894474e-01, 2.37058952e-01, -6.57449886e-02,
          -8.44454706e-01, 1.21219903e-01 ]
      - [ 6.62181318e-01, -6.38758898e-01, -7.28385627e-01,
          -2.14878932e-01, -4.46095914e-01, -6.73914701e-02,
          2.02698484e-01, -4.09848690e-01, 2.76155770e-01,
          -8.59871864e-01, 5.44360697e-01, 2.59639826e-02,
          -6.75169349e-01, 1.83934823e-01, -7.39032626e-02,
          3.51632178e-01, -2.08195612e-01, 2.81681269e-01,
          -1.88490793e-01, 1.54932335e-01 ]
      - [ 6.88243806e-01, 5.01381814e-01, -4.71130490e-01,
          5.94355762e-01, -6.93147182e-01, -2.73173094e-01,
          -3.50844264e-02, -5.51095903e-01, -5.27379453e-01,
          2.29321383e-02, 2.60182202e-01, 8.34373713e-01, 4.31763619e-01,
          1.48289174e-01, 1.60040006e-01, -2.51144469e-01,
          -2.51880258e-01, 1.21426523e-01, -2.49752775e-01,
          -3.90411615e-01 ]
      - [ 6.43617094e-01, 5.10557532e-01, -6.13208055e-01,
          5.26043832e-01, -4.21717435e-01, -4.77745533e-01,
          8.74415711e-02, 6.29705265e-02, 3.21896732e-01, 1.00801423e-01,
          3.94313186e-02, 2.69448042e-01, -1.87443569e-02,
          -3.65838289e-01, 2.45837510e-01, -2.74619699e-01,
          -5.51275909e-01, 1.75222591e-01, -2.06790164e-01,
          -3.95802200e-01 ]
      - [ 6.36414647e-01, -8.65777135e-01, -4.88105804e-01,
          2.44071543e-01, 7.03870356e-01, 2.04259157e-01,
          -4.10321236e-01, 2.05382988e-01, -6.01328313e-01,
          6.89847529e-01, -6.45988941e-01, 5.17071709e-02,
          1.15525536e-01, -1.75020546e-01, -6.40815720e-02,
          2.05768272e-01, 9.04888958e-02, -1.71032220e-01,
          3.69192868e-01, -7.01587796e-01 ]
      - [ 4.74420100e-01, -4.79588658e-01, -8.45931888e-01,
          -2.72290349e-01, -1.59758180e-01, -7.23715648e-02, 1.,
          4.04461294e-01, -4.71082032e-02, 9.43476737e-01,
          -1.72260880e-01, -4.60043430e-01, 4.69512105e-01,
          -1.63152248e-01, -4.57441926e-01, -1.81321308e-01,
          7.03053921e-02, -3.22811157e-01, 3.33911628e-01,
          1.62698120e-01 ]
      - [ 6.40359879e-01, 2.20422298e-01, 8.85158718e-01, 4.45205212e-01,
          -6.90985978e-01, 3.38921487e-01, 3.64920825e-01,
          4.77978438e-01, -4.17499661e-01, -4.30046886e-01,
          1.87786937e-01, -1.20770916e-01, -3.75323966e-02,
          -2.08787590e-01, -1.03076227e-01, -1.13865966e-02,
          -3.70789349e-01, 1.62293077e-01, 8.49959075e-01,
          -1.38581410e-01 ]
      - [ 6.33083224e-01, 6.36713266e-01, 3.85999829e-01,
          -7.38788426e-01, -9.84371528e-02, -7.75384068e-01,
          2.23650455e-01, -1.59193054e-01, 4.90050912e-01,
          3.38509053e-01, -6.51864469e-01, 2.58382052e-01,
          8.00780728e-02, 6.33959830e-01, -4.16015685e-01,
          6.24284260e-02, -4.02168274e-01, 3.41264576e-01,
          5.29806912e-01, 3.17537993e-01 ]
      - [ 8.96705687e-01, 7.85323679e-01, -9.08805072e-01,
          4.79097664e-01, 2.92443540e-02, 9.55111384e-01, 2.19980076e-01,
          -1.15278400e-01, -1.10197209e-01, 3.84766459e-01,
          1.12334684e-01, 5.61483920e-01, -1.14414252e-01,
          2.65607443e-02, -4.48967069e-01, 3.39059144e-01,
          -1.51975974e-01, -4.32164781e-02, 4.62155223e-01,
          -1.96297124e-01 ]
      - [ 7.23046899e-01, -9.18032348e-01, -4.31282252e-01,
          3.13806772e-01, 4.60421860e-01, 1.29007116e-01,
          -2.70259202e-01, -8.17840874e-01, -1.73735961e-01,
          -2.15291813e-01, 1.28909684e-04, -8.13765749e-02,
          -7.09537327e-01, 5.29733393e-03, -3.18386286e-01,
          4.80234414e-01, -1.23882331e-01, -2.35837370e-01,
          3.70371073e-01, -6.15538895e-01 ]
      - [ 6.89114809e-01, 1.64164323e-02, 8.68854523e-01, 5.98595321e-01,
          -2.50910997e-01, 2.52491951e-01, -2.58761700e-02,
          1.27302960e-01, -1.78184301e-01, -2.03290861e-02,
          2.41901651e-01, 2.31174856e-01, -1.41867980e-01,
          -7.07377553e-01, -5.84927559e-01, -5.08366585e-01,
          -4.01995033e-01, -7.33081400e-01, 3.15682068e-02,
          5.09069145e-01 ]
      - [ 6.30358338e-01, -8.49632025e-01, -2.85757929e-01,
          3.89376581e-01, 5.87064445e-01, 3.22274864e-01,
          -7.02457130e-02, -5.80269516e-01, 2.58671463e-01,
          -1.19486347e-01, 3.03380601e-02, -4.08721387e-01,
          -4.04481560e-01, 1.87148958e-01, -5.22725463e-01,
          1.67924792e-01, -5.09708405e-01, 1.53626040e-01,
          7.16154724e-02, -4.04688478e-01 ]
      - [ 8.64277422e-01, 4.88234669e-01, -2.02919409e-01,
          1.79648623e-01, 2.40249857e-01, -1.58698246e-01,
          1.24052256e-01, 8.29296052e-01, 3.17201167e-01,
          -6.92787096e-02, 2.63225526e-01, 1.43941402e-01,
          -3.61367494e-01, -9.78766084e-01, 3.31489950e-01,
          4.32442408e-03, -4.52070916e-03, 1.20867543e-01,
          1.25892162e-01, 2.71432608e-01 ]
      - [ 5.78268170e-01, -8.62423658e-01, -9.08867836e-01,
          -1.97326124e-01, -1.56868994e-01, 1.63224593e-01,
          -6.46410584e-02, 4.57221240e-01, -3.86638910e-01,
          5.41015208e-01, -8.84868085e-01, 1.19766906e-01,
          -3.58786643e-01, 4.43177760e-01, 1.23654366e-01,
          2.61312395e-01, -1.31934896e-01, 6.02803946e-01,
          2.85416752e-01, -1.05948843e-01 ]
      - [ 6.62111521e-01, -7.86855876e-01, -1.61208749e-01,
          4.76267993e-01, 8.58657598e-01, 1.86351361e-03,
          -1.01774089e-01, -2.58391887e-01, -6.76430464e-01,
          8.22287202e-01, -4.08486813e-01, 7.28998557e-02,
          2.90241212e-01, -7.23844528e-01, -1.27951741e-01,
          2.71988988e-01, 2.18966633e-01, -3.28248978e-01,
          8.61096159e-02, -5.48053801e-01 ]
      - [ 6.85243666e-01, -5.02294958e-01, 6.31069541e-01,
          5.35001576e-01, -6.39554672e-03, -1.03638172e-01,
          7.69389093e-01, -5.34047544e-01, -1.40592352e-01,
          -1.61860257e-01, -6.58899665e-01, -1.69723779e-01,
          -5.24026692e-01, 1.72488362e-01, 1.03009954e-01,
          -3.29206884e-01, 1.42614939e-04, 3.96287501e-01,
          -2.37539321e-01, 1.45852014e-01 ]
      - [ 5.99820673e-01, 5.87516546e-01, 3.33756745e-01,
          -8.27264786e-01, -4.28377986e-01, 2.34926686e-01,
          -1.01448022e-01, -7.43524209e-02, 4.21028435e-01,
          5.01423478e-01, -3.22362751e-01, 1.29226789e-01,
          -4.14277822e-01, -6.61311984e-01, -3.09475690e-01,
          1.11529557e-02, 3.37727368e-01, -4.44900207e-02,
          -5.50350130e-01, -1.51653782e-01 ]
      - [ 7.20215499e-01, -8.40121746e-01, -7.64469564e-01,
          -1.55689657e-01, -2.13254794e-01, 2.18509007e-02,
          1.00324929e-01, -1.73670471e-01, 3.84341449e-01,
          -7.84664273e-01, 5.63105047e-01, -3.33911553e-02,
          -4.83217716e-01, 3.44642133e-01, 3.65613960e-02,
          2.79073775e-01, 2.84767896e-01, 5.58466852e-01, 2.34068498e-01,
          7.98021853e-02 ]
      - [ 7.93268025e-01, -6.97006345e-01, 3.19487870e-01,
          5.73034883e-01, 7.30620444e-01, -4.93782550e-01,
          -5.97044565e-02, -3.32234919e-01, -4.23028260e-01,
          2.16582224e-01, 2.71654457e-01, 3.55388999e-01, 2.33855486e-01,
          -5.60271442e-01, -1.97421923e-01, -3.57483059e-01,
          -3.66429165e-02, -2.45164379e-01, -4.58196700e-02,
          -7.77136311e-02 ]
      - [ 4.91460890e-01, 1.65056840e-01, -5.00879705e-01,
          7.08902299e-01, -7.56574988e-01, -4.92132828e-02,
          -8.66103694e-02, -5.56120396e-01, -9.42689180e-02,
          6.52350113e-02, -3.25008839e-01, 1.91608876e-01,
          5.97319961e-01, -2.50524312e-01, 5.69077492e-01,
          4.10898253e-02, -2.32723698e-01, -1.26919121e-01,
          1.08869635e-01, -1.03962958e-01 ]
      - [ 9.00693595e-01, 6.35509551e-01, 3.47164035e-01,
          -3.04364651e-01, 9.41671953e-02, -1.74645081e-01,
          2.30533272e-01, 5.26947498e-01, -8.47605109e-01,
          -3.09614301e-01, 5.47221422e-01, 3.76159251e-01,
          -4.17542607e-01, -2.92913616e-01, 1.80984899e-01,
          2.18822122e-01, -3.81573975e-01, 3.03437620e-01,
          -2.61896193e-01, -2.68795878e-01 ]
      - [ 7.89558411e-01, -3.46076131e-01, 3.73261154e-01,
          5.40970683e-01, 7.80837417e-01, 2.78816998e-01, 1.44281507e-01,
          -4.64764982e-02, 6.66895509e-01, 1.04509249e-01,
          5.38924932e-01, -3.60693961e-01, 4.95249569e-01,
          -3.79371852e-01, -3.71322483e-01, 1.04048006e-01,
          -3.86683524e-01, -7.64654428e-02, -8.44371766e-02,
          -2.01585721e-02 ]
      - [ 7.20897138e-01, -1.14461087e-01, 7.00766802e-01,
          5.06713152e-01, 1.47914216e-01, -4.59881485e-01,
          8.38357329e-01, 3.05732079e-02, -2.32488159e-02,
          9.78976935e-02, -3.35931391e-01, -1.67624429e-01,
          -1.69480536e-02, 3.95103276e-01, 1.25036184e-02,
          9.62737426e-02, -5.85153162e-01, 4.48928475e-01,
          -2.73753434e-01, -2.73634531e-02 ]
      - [ 7.84174681e-01, 4.04932469e-01, -5.59941411e-01,
          3.07270318e-01, 1.73110008e-01, -3.00648957e-01,
          1.60849959e-01, 5.57824075e-01, 5.76418400e-01, 6.81224838e-02,
          -2.48713791e-01, -1.24161273e-01, -5.37535071e-01,
          -6.92327023e-01, 1.11564159e-01, -5.18972874e-01,
          6.06608838e-02, -3.03514153e-01, 4.69515145e-01,
          -1.81796476e-01 ]
      - [ 7.20696509e-01, 6.59865975e-01, -4.27603163e-02,
          -5.51192701e-01, 5.81971705e-01, 1.80186480e-01,
          4.59676802e-01, 1.53034285e-01, -2.84319818e-01,
          -6.84704408e-02, 4.37065452e-01, -2.10064948e-01,
          1.22536823e-01, -4.83570695e-01, 2.65121549e-01,
          4.30573016e-01, -1.53421357e-01, -1.85452670e-01,
          -3.34668756e-01, -3.55708897e-01 ]
      - [ 7.38169670e-01, -1.59836084e-01, 2.85842597e-01,
          6.48848414e-01, 4.68388170e-01, 1.14625551e-01, 5.58403015e-01,
          -3.03186357e-01, 1.97921917e-01, 2.11038515e-02,
          -2.59731293e-01, -4.47831780e-01, 8.17507878e-02,
          -1.39296740e-01, 7.94738233e-02, 7.01106310e-01,
          -2.42216811e-01, 3.28251809e-01, 3.08092475e-01,
          2.48204038e-01 ]
      - [ 6.92539573e-01, -7.68175244e-01, -4.36761588e-01,
          8.31519216e-02, 3.94746721e-01, 1.37536228e-01, 1.21382281e-01,
          6.41107142e-01, 6.91125214e-01, -7.14051574e-02,
          -2.75374115e-01, 3.44713598e-01, -1.34800553e-01,
          6.29528999e-01, 1.69065654e-01, -5.47488511e-01,
          2.12553546e-01, -3.41500789e-01, -1.60307065e-01,
          4.65696394e-01 ]
      - [ 6.84305966e-01, -8.30877006e-01, -5.39835811e-01,
          -4.15446311e-02, 2.67135382e-01, -2.13805921e-02,
          2.22487450e-01, 7.08344817e-01, -2.54930351e-02,
          4.78681505e-01, -3.03189784e-01, 2.79459685e-01,
          1.82298824e-01, 2.50509828e-01, 2.53630638e-01, 2.10987687e-01,
          4.66225892e-01, 2.14242682e-01, 6.63696006e-02, 4.71610390e-02 ]
      - [ 6.38886809e-01, -8.69563282e-01, -8.07581007e-01,
          -1.68458924e-01, -1.49749652e-01, 1.23940632e-01,
          -2.10346967e-01, -1.10505491e-01, -5.56031987e-02,
          -7.52373934e-01, 6.92164060e-03, -1.68306991e-01,
          -9.21003580e-01, 4.64151889e-01, -2.18644008e-01,
          5.23669064e-01, -1.19782664e-01, 5.93661606e-01,
          2.17547044e-01, -1.84017897e-01 ]
      - [ -9.09533739e-01, 1.05185628e-01, -2.40787089e-01,
          1.06436558e-01, 2.98413411e-02, 6.45452142e-02, 1.96098432e-01,
          4.66777794e-02, -1.46630198e-01, -3.08959931e-01,
          -4.52061296e-01, 6.67819306e-02, -7.93354064e-02,
          2.71543056e-01, -1.49759939e-02, 1.59982041e-01,
          -5.15698679e-02, -6.93575978e-01, 1.12497218e-01,
          -2.26297125e-01 ]
      - [ 2.52718300e-01, 3.43984783e-01, 7.42160082e-01, 6.12740993e-01,
          -8.50653648e-01, 7.23858953e-01, 6.52328908e-01,
          3.98460418e-01, 1.58245936e-01, 6.63134634e-01,
          -1.15652502e-01, -4.80072081e-01, -1.08005457e-01,
          3.27671856e-01, 4.57077950e-01, 3.75432014e-01, 1.98278844e-01,
          -8.21589157e-02, -8.35299417e-02, -3.74671251e-01 ]
      - [ 7.54914939e-01, 6.61308765e-01, -5.99928141e-01,
          1.47640288e-01, 3.26730981e-02, 5.15734017e-01, 3.60235602e-01,
          -4.67472881e-01, -1.32968694e-01, 1.50022343e-01,
          1.81136325e-01, 3.69750440e-01, -2.05148280e-01,
          1.39043778e-01, 1.96219623e-01, -5.54009616e-01,
          -7.95598090e-01, -2.06883803e-01, 4.12835062e-01,
          -2.74081349e-01 ]
      - [ 5.97715616e-01, 5.14230549e-01, -7.79096663e-01,
          7.23987281e-01, -1.78312808e-02, -8.32827806e-01,
          -1.24492250e-01, 1.79897636e-01, 4.75978076e-01,
          2.22567823e-02, -2.67141938e-01, -8.30128193e-01,
          4.74078767e-02, -1.74540251e-01, 2.97870934e-01,
          -2.75792211e-01, -4.66853455e-02, -2.60364771e-01,
          5.77696681e-01, -1.29184857e-01 ]
      - [ 7.19139993e-01, 7.07941651e-01, -9.24116015e-01,
          7.05806673e-01, -4.07937974e-01, 5.71798384e-01,
          -4.88932990e-02, -2.68512845e-01, 6.60661682e-02,
          4.43083942e-01, -1.04914963e-01, 8.39442909e-01,
          1.74931765e-01, 1.25329748e-01, -3.33469778e-01,
          4.87379521e-01, -2.35336795e-01, 2.05930859e-01,
          1.59654498e-01, -8.20308998e-02 ]
      - [ 6.46432400e-01, -3.77978355e-01, 4.43305284e-01,
          2.94941604e-01, -1.58408612e-01, 4.77268584e-02,
          -6.48728669e-01, 1.09187409e-01, -2.47700617e-01,
          -2.56686091e-01, 3.17474276e-01, 6.04878902e-01,
          -9.65632945e-02, -4.12794352e-01, 2.83107072e-01,
          -6.15756214e-01, 2.63671428e-01, -4.39768076e-01,
          2.98886240e-01, 3.99691969e-01 ]
      - [ 3.94778341e-01, 1.83188319e-01, 4.63172972e-01, 7.31425285e-01,
          -7.50180185e-01, 4.53485936e-01, 2.89714664e-01,
          8.16093981e-02, -1.41020387e-01, 3.76561761e-01,
          -3.85018080e-01, -6.27773777e-02, -2.89475948e-01,
          -2.46727452e-01, 5.20297527e-01, 3.83973807e-01,
          5.26317656e-01, -3.96859199e-01, 1.97631851e-01,
          4.83291626e-01 ]
      - [ 7.45097101e-01, -7.83498764e-01, -7.82565325e-02,
          4.93735522e-01, 7.37190723e-01, -5.75505011e-02,
          1.65676236e-01, -7.92567492e-01, -1.38212368e-01,
          1.16818532e-01, 3.17458510e-02, 3.41873355e-02,
          -4.04517829e-01, -3.19772720e-01, -4.86127049e-01,
          3.71235341e-01, 3.22263278e-02, -2.45539561e-01,
          2.23333761e-01, -5.87945044e-01 ]
      - [ 6.95277929e-01, -3.77698511e-01, -1.53045729e-01,
          1.61531165e-01, 3.55201006e-01, 4.15544629e-01,
          -6.10262156e-04, 6.17403984e-01, 7.70987093e-01,
          -5.41256905e-01, 5.16628325e-01, 4.51079816e-01,
          1.67518795e-01, 1.66817512e-02, 2.55285144e-01,
          -6.18465617e-02, 9.89849791e-02, -9.83016789e-02,
          2.92997271e-01, 3.85953546e-01 ]
      - [ 5.27237535e-01, 2.09632516e-01, 5.05742967e-01,
          -7.18760014e-01, -4.53516066e-01, 2.18271941e-01,
          -7.08918214e-01, -2.45163873e-01, 6.48880959e-01,
          3.47635299e-01, -2.04701647e-01, -2.00369373e-01,
          3.53777647e-01, -4.03483272e-01, -7.87369534e-02,
          -9.42406803e-02, -2.72540718e-01, 2.00884491e-01,
          -4.74132478e-01, -1.17717139e-01 ]
      - [ -8.06807399e-01, 1.06557988e-01, -2.33282402e-01,
          1.27071023e-01, 6.77964613e-02, 1.99567050e-01, 2.23239362e-01,
          4.72356603e-02, -2.96554472e-02, -5.76687098e-01,
          -9.17116702e-01, 1.90817237e-01, 1.74532846e-01,
          -3.03246111e-01, -1.25308156e-01, -6.47681057e-02,
          -1.79335713e-01, -1.41982958e-01, 2.81519473e-01,
          -2.19815373e-01 ]
      - [ 5.93228221e-01, 3.74435961e-01, -6.87495172e-01,
          4.58666384e-01, -2.83336848e-01, -8.00635457e-01,
          -6.58141375e-02, -2.04572663e-01, -2.32048884e-01,
          -6.12534396e-02, -1.65790290e-01, -5.63299775e-01,
          2.75569499e-01, -2.97094464e-01, 4.26737547e-01,
          -5.64227998e-01, -1.01854689e-01, -2.81911433e-01,
          1.70036927e-01, -6.35559320e-01 ]
      - [ 9.21922386e-01, 7.00778842e-01, -9.47473496e-02,
          -3.01385432e-01, 6.11807704e-01, 4.52630311e-01,
          6.55515134e-01, 4.29159701e-01, -3.20762284e-02,
          -9.38485488e-02, 3.45944345e-01, 1.29698157e-01,
          -1.96851596e-01, -7.97052383e-01, 4.40522403e-01,
          1.14036955e-01, -7.05668032e-01, -1.16169089e-02,
          3.42420191e-01, 6.59902692e-02 ]
      - [ 4.69972163e-01, 6.02046490e-01, -7.48407423e-01,
          6.84970558e-01, -3.66273522e-01, -4.54098016e-01,
          -3.59430224e-01, 4.89525758e-02, -4.84745741e-01,
          -1.42275706e-01, 1.23781472e-01, -2.55970418e-01,
          5.02021849e-01, 1.77747279e-01, 3.95207061e-03,
          -7.32583225e-01, -1.99522495e-01, 3.97557855e-01,
          -2.61503547e-01, -3.52835059e-01 ]
      - [ 8.11776161e-01, 3.38103890e-01, 6.15599513e-01,
          -4.90539044e-01, 1.38033718e-01, -5.42008817e-01,
          -4.16786402e-01, 2.17888638e-01, -2.72608008e-02,
          -9.79835317e-02, 1.39647573e-01, -1.10186515e-02,
          3.44986320e-01, 3.75984043e-01, 2.90414214e-01, 2.63215229e-02,
          -7.63402879e-01, 1.77573279e-01, 6.58547133e-02,
          -3.23548168e-01 ]
      - [ -8.22882652e-01, 9.03101116e-02, -2.37095088e-01,
          1.40655488e-01, 1.29634440e-01, 1.27696410e-01, 1.71846926e-01,
          4.41600643e-02, -7.57125989e-02, -2.47123957e-01,
          -3.74830335e-01, 7.23766685e-02, 7.10925460e-02,
          2.91911066e-01, -6.20914623e-03, 1.92243576e-01,
          2.26030871e-02, -7.06909716e-01, 1.42064437e-01,
          -2.18052149e-01 ]
      - [ 7.13420630e-01, -6.21092916e-02, 1., 6.32238090e-01,
          -2.41093516e-01, -1.66390330e-01, 7.97779024e-01,
          4.59762216e-01, -2.01477781e-01, -1.85408503e-01,
          1.44103602e-01, 2.65254378e-01, 1.03077576e-01, 6.14555836e-01,
          -4.94392782e-01, 8.98973551e-04, -2.98704147e-01,
          3.55818212e-01, 4.02942538e-01, -5.90985537e-01 ]
      - [ 5.34304976e-01, -5.80167592e-01, -8.19759846e-01,
          -3.36968809e-01, -4.79873061e-01, -1.14728592e-01,
          4.69645530e-01, 2.63251007e-01, -2.30527312e-01,
          1.03632249e-01, -9.31093842e-02, -3.51074040e-01,
          4.66731995e-01, -2.74646968e-01, -2.05879003e-01,
          5.05297065e-01, -1.60309032e-01, 4.18009043e-01,
          2.14081675e-01, 1.48748830e-01 ]
      - [ -7.60879219e-01, 8.57508332e-02, -1.88767686e-01,
          1.71946570e-01, -3.00958343e-02, -2.70849131e-02,
          9.02295336e-02, -4.63378802e-02, -6.20755143e-02,
          4.75663275e-01, 3.88105869e-01, 1.29533485e-01,
          -6.46340698e-02, -3.56100082e-01, -5.92776388e-02,
          -2.37075090e-01, -6.86386079e-02, 2.18305990e-01,
          4.86711264e-01, -1.56660452e-01 ]
      - [ 6.33278906e-01, 6.72790229e-01, -1.33430287e-01,
          -4.95868891e-01, 6.22825563e-01, -4.06333864e-01,
          3.59296948e-01, -5.59799969e-01, 1.20068595e-01,
          4.95599955e-01, -3.33820909e-01, -2.07214296e-01,
          2.42625535e-01, 4.93086278e-01, -1.06257021e-01,
          3.26165929e-02, 1.21660858e-01, 2.52184331e-01,
          -2.49698043e-01, -3.56500834e-01 ]
      - [ -6.83413088e-01, 1.24753706e-01, -1.86567098e-01,
          1.67032212e-01, 2.70638075e-02, -1.49059044e-02,
          8.88844430e-02, -7.01837540e-02, -1.63509801e-01,
          4.03232902e-01, 3.40559959e-01, 1.18959457e-01, 7.03852698e-02,
          -2.78870344e-01, -8.64556655e-02, -2.94257700e-01,
          3.81411798e-02, 3.01673770e-01, 5.11987150e-01,
          -2.21536428e-01 ]
      - [ 6.55587912e-01, -6.29773319e-01, 3.98806810e-01,
          6.72695220e-01, 8.49768892e-02, -4.36310828e-01,
          5.82032651e-02, -5.56504667e-01, -7.13842571e-01,
          -2.74142414e-01, -3.19673270e-01, 9.25751328e-02,
          -3.56378704e-01, -8.68556798e-01, -7.67055303e-02,
          -2.26550266e-01, 1.17659122e-01, 4.13812459e-01,
          3.99602264e-01, 5.53581953e-01 ]
      - [ 6.42972052e-01, -9.22664285e-01, -6.22223258e-01,
          7.87355229e-02, 8.16130638e-02, 7.04250634e-02,
          -3.68179440e-01, -5.80195904e-01, -3.28639865e-01,
          -5.10945737e-01, 1.83852355e-03, -9.24576819e-03,
          -6.86389267e-01, 5.08088171e-02, 7.74294790e-03,
          6.16971970e-01, -2.14411601e-01, 1.90679342e-01,
          4.06436980e-01, -5.66718578e-01 ]
      - [ 8.31947029e-01, 8.37159276e-01, 3.00429817e-02,
          -2.20811181e-02, -4.57792282e-02, -2.06206292e-01,
          2.57645309e-01, 8.40890110e-01, -4.31335092e-01,
          7.61833861e-02, 5.98092601e-02, 4.78430122e-01,
          -7.14117289e-01, -7.57820010e-01, -6.56665787e-02,
          1.77467480e-01, -1.45581499e-01, 6.75556287e-02,
          3.45952832e-03, -1.34303704e-01 ]
      - [ 4.76300150e-01, -4.72432464e-01, -8.32870960e-01,
          -5.54804020e-02, -3.47924650e-01, -9.80328172e-02,
          7.57333338e-01, -2.71990281e-02, -1.88021243e-01,
          5.70534706e-01, -5.65336049e-01, -6.54339120e-02,
          5.82812726e-02, -3.78060825e-02, -4.48122710e-01,
          -5.85709155e-01, -2.12954693e-02, -7.07000971e-01,
          4.38226253e-01, -1.88814208e-01 ]
      - [ -7.76939690e-01, 1.56546846e-01, -2.54686773e-01,
          1.27084553e-01, -5.01567451e-03, 2.12655559e-01,
          2.36936539e-01, -4.14860286e-02, -1.80822805e-01,
          -3.15008223e-01, -5.93912244e-01, 1.04510404e-01,
          1.56118527e-01, -4.10254717e-01, -1.03901312e-01,
          -4.20506209e-01, -3.79275456e-02, 1.55501753e-01,
          3.53411615e-01, -1.38532251e-01 ]
      - [ 7.07038939e-01, -7.43626952e-01, -3.86059076e-01,
          1.42215639e-01, 6.94087446e-02, 2.05705076e-01,
          -2.48510972e-01, -1.12084478e-01, -3.42966735e-01,
          5.93547821e-01, -5.13368309e-01, -3.26609790e-01,
          -4.04816568e-01, -2.42051721e-01, -2.44333401e-01,
          -8.61652493e-02, -1., -1.32317930e-01, 2.28876412e-01,
          -1.42199531e-01 ]
      - [ 8.08432817e-01, -6.21002093e-02, 8.37183595e-01,
          5.37950456e-01, -2.20160678e-01, -2.04134449e-01,
          6.55627847e-01, 1.01672068e-01, -1.03899710e-01,
          -1.02810241e-01, 3.08076888e-01, 6.58170462e-01,
          4.03326228e-02, -1.11671397e-02, -3.71777266e-01,
          -3.75230700e-01, -5.03740966e-01, -3.79113615e-01,
          1.84164584e-01, -1.70030221e-01 ]
      - [ 4.71493691e-01, -8.33940879e-02, 7.22433686e-01,
          7.33896494e-01, -4.40607250e-01, 1.96258083e-01,
          7.33265221e-01, -1.95802853e-01, 4.13722783e-01,
          4.15877670e-01, -7.02905774e-01, -1.19865157e-01,
          -4.02201742e-01, 3.57188970e-01, 7.14313030e-01,
          -2.06724197e-01, 1.72622591e-01, 4.28427905e-01,
          -1.90181568e-01, 9.39613581e-02 ]
      - [ 6.87344193e-01, -5.42440236e-01, 1.30817011e-01,
          -5.23125827e-02, 8.67889076e-03, -4.77567762e-01,
          -2.27049351e-01, 5.87725878e-01, -1.48554057e-01,
          -3.46080005e-01, 4.38366175e-01, 8.25790226e-01,
          2.08322138e-01, 1.34962320e-01, 2.00905859e-01,
          -5.49269974e-01, 5.18997490e-01, 2.08991259e-01,
          1.69019774e-01, 2.05108359e-01 ]
      - [ 6.65833533e-01, 4.58360910e-01, 5.51594615e-01,
          -4.74385917e-01, -2.22905472e-01, -3.32142055e-01,
          -1.52035907e-01, 3.74464631e-01, 3.40607762e-01,
          8.34314339e-03, 1.88788787e-01, 1.44623086e-01, 1.25104412e-01,
          1.59064442e-01, -5.35970390e-01, 5.64895630e-01,
          -4.47033376e-01, 2.78460890e-01, 4.01772648e-01,
          -1.86022818e-01 ]
      - [ 6.11589372e-01, 1.70477137e-01, 6.67373598e-01, 8.73753309e-01,
          1.00062467e-01, -7.02732131e-02, 8.73351216e-01,
          6.03669703e-01, -1.44781932e-01, 2.61999428e-01,
          1.23369835e-01, -1.05713703e-01, 6.04741037e-01,
          1.23532221e-01, -9.57937539e-02, 5.31101882e-01,
          -4.44942057e-01, 1.88642815e-01, -3.74837592e-02,
          -4.29720551e-01 ]
      - [ 8.65748823e-01, 7.68397450e-01, -7.02518895e-02,
          -4.95578162e-02, 2.78139770e-01, -4.03191568e-03,
          7.37319171e-01, 8.81228328e-01, -5.49094260e-01,
          -2.55845308e-01, 4.58385825e-01, 4.24901158e-01,
          -5.78472257e-01, -5.43234944e-01, -4.10827734e-02,
          7.14112669e-02, 3.40867378e-02, 1.11694716e-01,
          -3.36114585e-01, -3.96158159e-01 ]
      - [ 3.23157579e-01, 3.85891311e-02, 5.17862260e-01, 8.41258824e-01,
          -7.07902431e-01, 4.03779775e-01, 4.22945708e-01,
          -1.50558809e-02, 2.26261720e-01, 2.83384353e-01,
          -7.91272447e-02, 1.84071392e-01, -2.60624170e-01,
          4.42169234e-02, 5.07914186e-01, -9.07692388e-02,
          -5.90594970e-02, -8.75029936e-02, 9.24932957e-02,
          1.61338851e-01 ]
      - [ 7.40899026e-01, -7.71833003e-01, -3.63033533e-01,
          3.14037591e-01, 7.41947711e-01, 2.64904022e-01,
          -5.38945079e-01, 3.93600047e-01, 9.75164473e-02,
          3.21170926e-01, -1.98482394e-01, -6.72150999e-02,
          1.41648799e-01, -2.39047155e-01, 1.24879062e-01,
          -1.85647622e-01, 3.17964852e-02, -3.02806675e-01,
          4.02850121e-01, 8.57791379e-02 ]
      - [ -8.21128488e-01, 1.22713476e-01, -2.37896532e-01,
          1.75077215e-01, 1.38592506e-02, 1.60260260e-01, 2.03183770e-01,
          4.85487990e-02, 6.20263629e-03, -9.59928706e-02,
          -4.18531328e-01, 2.30440751e-01, 1.42728597e-01,
          -6.08309627e-01, 7.29999915e-02, -1.57854423e-01,
          -2.67463744e-01, 3.34185511e-01, 1.43088236e-01,
          1.74608454e-02 ]
      - [ 6.02693081e-01, 7.56158650e-01, -8.72555256e-01,
          6.02616966e-01, -9.02247876e-02, -2.51973271e-01,
          1.08542256e-01, -1.33524731e-01, -3.54409486e-01,
          4.85576643e-03, 1.71659634e-01, -4.72039655e-02,
          -2.94096351e-01, 2.80689061e-01, -3.12860131e-01,
          -5.92139840e-01, -2.77877022e-02, 4.31941599e-01,
          -4.90978897e-01, -5.15042245e-01 ]
      - [ 4.43182915e-01, 4.51014310e-01, 6.16333365e-01, 3.31151724e-01,
          -5.65105617e-01, 3.74880731e-01, 2.01263219e-01,
          -1.43598929e-01, -8.79488662e-02, 2.75242180e-01,
          -2.08689660e-01, -5.15319228e-01, -4.66813385e-01,
          -3.34114581e-01, -1.68136265e-02, 3.62517834e-01,
          -1.28829330e-01, -3.38244528e-01, 1.20978795e-01,
          4.28266346e-01 ]
      - [ 5.15652537e-01, -2.26159275e-01, 7.01219916e-01,
          6.59569740e-01, -3.74085307e-01, 1.06978074e-01,
          5.77347755e-01, -2.40695044e-01, 4.05669659e-01,
          1.48546830e-01, -1.64500684e-01, -9.74053815e-02,
          -1.21759497e-01, 4.29870874e-01, 7.83990085e-01,
          -2.55269557e-01, 6.55836612e-02, 2.67781168e-01,
          -3.93409699e-01, -3.01840842e-01 ]
      - [ 6.02457225e-01, 3.90613712e-02, 6.85737312e-01, 5.08765399e-01,
          -7.55025983e-01, 1.58869624e-01, 5.47201633e-01,
          1.59435436e-01, 1.35708988e-01, -1.14733405e-01,
          -2.20297948e-01, 3.30762506e-01, -1.59457430e-01,
          1.55544743e-01, 9.55136120e-02, -2.65335888e-01,
          1.55944452e-01, 3.20261300e-01, 7.70622492e-01,
          -5.80065846e-01 ]
      - [ 6.61443949e-01, -5.49179971e-01, 8.67138132e-02,
          3.95031929e-01, 6.63333416e-01, 1.43517867e-01,
          -2.77014166e-01, 6.56727254e-01, 5.13481319e-01,
          1.35572836e-01, 1.71568751e-01, 5.55606365e-01, 2.81459689e-01,
          2.11481541e-01, 7.04022795e-02, -5.36714852e-01,
          -3.87722179e-02, -6.59867883e-01, -2.53251642e-01,
          -1.65083036e-02 ]
      - [ 6.70122623e-01, -4.29292411e-01, -5.86132467e-01,
          -1.31304711e-01, -5.40528633e-02, 1.68767735e-01,
          -3.09150517e-01, 2.04928488e-01, -1.51969835e-01,
          -2.37709165e-01, -7.14903072e-05, -1.36745930e-01,
          -2.33086869e-01, -8.10874030e-02, -1.96684450e-01,
          5.45446038e-01, -1.79026812e-01, -1.68928616e-02,
          5.55491328e-01, -4.82001871e-01 ]
      - [ 7.09502459e-01, -5.96823215e-01, 3.31790075e-02,
          5.37175179e-01, 8.54704320e-01, -5.27022704e-02,
          -3.81992519e-01, 1.49022833e-01, 6.21673698e-03,
          3.81667763e-01, -1.31661445e-01, -2.87649576e-02,
          3.59962046e-01, -6.40632868e-01, -6.34812042e-02,
          1.76290080e-01, 3.94364037e-02, -5.24336398e-01,
          6.13754392e-02, 2.91996688e-01 ]
      - [ -8.50954354e-01, 6.80282712e-02, -2.37467945e-01,
          2.45985359e-01, 4.35584038e-02, 1.15999810e-01, 2.64824450e-01,
          2.60532778e-02, -2.25223489e-02, -9.16385949e-02,
          -2.19680578e-01, 2.51521260e-01, 1.44968361e-01,
          -4.48629260e-01, 8.71472880e-02, -3.99784923e-01,
          -2.27825433e-01, 4.15876389e-01, 8.96715596e-02,
          -1.02136694e-01 ]
      - [ 6.27405286e-01, -2.65485913e-01, 4.00512308e-01,
          5.69530725e-01, -1.98952436e-01, -2.29017586e-01,
          -1.31311923e-01, -8.45859498e-02, -6.95777178e-01,
          -1.55524120e-01, -3.55695635e-01, 4.25523758e-01,
          -4.75666612e-01, -1.04286373e-01, 3.75720561e-01,
          -5.23477495e-01, 4.64586467e-01, -1.02713689e-01,
          8.48860741e-01, 2.92047977e-01 ]
      - [ 6.91545427e-01, 6.46041811e-01, -7.93203771e-01,
          7.57124126e-01, -4.28705961e-01, 2.98149496e-01,
          1.99683711e-01, -1.31928995e-01, 5.02045214e-01,
          7.20815003e-01, -3.00758272e-01, 6.92076683e-01,
          -2.63891697e-01, -4.69132036e-01, 2.16438681e-01,
          4.82813478e-01, -1.59517154e-01, -3.13057691e-01,
          1.18378937e-01, -3.11403275e-01 ]
      - [ 3.22267503e-01, 6.84524477e-01, 2.15972021e-01,
          -5.13828695e-01, -3.71032625e-01, 3.25747393e-02,
          -1.17759712e-01, -4.45964903e-01, 6.75690532e-01,
          9.53347445e-01, -5.88456571e-01, 2.44635977e-02,
          2.24141583e-01, -6.50107682e-01, -5.40053844e-01,
          3.41335803e-01, 1.01337172e-01, 2.37520654e-02, 8.52384865e-02,
          2.66599022e-02 ]
      - [ 7.53950596e-01, 7.10469961e-01, 1.56143084e-01,
          -3.06386799e-01, -3.10988694e-01, 8.14846456e-02,
          -1.37081459e-01, 3.21533263e-01, -4.72377777e-01,
          2.67729104e-01, 1.74380690e-01, -2.06227988e-01,
          -9.29514945e-01, -5.54799080e-01, 5.14163412e-02,
          -3.27659667e-01, 4.43448842e-01, -4.24324512e-01,
          -5.97649157e-01, 2.23285202e-02 ]
      - [ 6.58057928e-01, -3.23039919e-01, 5.37724495e-01,
          4.79264915e-01, 4.23667878e-02, -4.57871497e-01,
          1.64383948e-01, -2.39868477e-01, -8.41892958e-01,
          -8.18560570e-02, -4.22338009e-01, -8.04911554e-02,
          -4.44864273e-01, -3.19611847e-01, -1.25415072e-01,
          2.61978917e-02, 3.57042819e-01, 1.62245303e-01, 6.59821093e-01,
          8.32243621e-01 ]
      - [ 6.44299388e-01, -7.80857325e-01, -5.35593688e-01,
          -1.61125973e-01, 3.43322456e-01, 2.93090969e-01,
          -1.79876387e-01, 7.74755597e-01, -1.19025283e-01,
          2.56556392e-01, -8.88118073e-02, 7.24307820e-02,
          2.99769253e-01, 1.93746909e-01, 1.91373616e-01,
          -1.82807595e-02, 3.25878888e-01, 4.28711057e-01,
          2.85589427e-01, 1.16062947e-01 ]
      - [ 4.80653077e-01, -2.55633712e-01, 4.78070498e-01,
          6.00061834e-01, -2.62275875e-01, 2.30190344e-03,
          5.74313819e-01, -5.05061865e-01, -1.19475096e-01,
          3.61438692e-01, -9.08988893e-01, 1.43206015e-01,
          -7.61292577e-01, -5.30145876e-02, 6.20272815e-01,
          -5.82241058e-01, 6.22643530e-01, 2.45934740e-01,
          2.92834099e-02, 1.20928712e-01 ]
      - [ 7.06351697e-01, 9.74772930e-01, -8.60526145e-01,
          5.66873312e-01, 8.30569565e-02, 1.94075495e-01, 1.37156442e-01,
          3.27985704e-01, -3.80977482e-01, 5.47612533e-02,
          -5.11923246e-03, 1.37135386e-01, -2.14608565e-01,
          3.57481986e-01, -7.02051640e-01, 2.92207152e-01,
          -3.21452832e-03, 6.73418760e-01, 6.42716736e-02,
          -2.81099253e-03 ]
      - [ 4.70724016e-01, -3.36575449e-01, -7.96025932e-01,
          -1.67434320e-01, -6.36167169e-01, -1.42275602e-01,
          6.79697156e-01, 3.43555778e-01, -4.19528604e-01,
          6.53814614e-01, -3.20449799e-01, -2.75187850e-01,
          2.39830628e-01, -3.14290434e-01, -1.91906959e-01,
          -2.60025412e-01, -4.72400546e-01, -5.46207488e-01,
          2.82603428e-02, -1.77201003e-01 ]
      - [ 3.85380358e-01, -2.07975775e-01, -7.32249141e-01,
          -5.34892455e-02, -6.03294790e-01, -2.91959435e-01,
          5.78839540e-01, -1., -1.69124171e-01, -4.48275566e-01,
          6.39243662e-01, -1.94221064e-01, 5.07259786e-01,
          -6.09835327e-01, -1.35727018e-01, 1.03470564e-01,
          2.46902835e-02, -5.41811585e-01, 2.74377763e-01,
          -5.31843841e-01 ]
      - [ 8.83570194e-01, 6.78239107e-01, -6.49734378e-01,
          5.53037263e-02, 3.16231102e-01, 7.72527277e-01, 3.48739952e-01,
          -4.07768637e-01, 1.68577835e-01, 2.62916565e-01,
          9.78506655e-02, -1.37921097e-02, -6.17623568e-01,
          2.81688012e-02, -5.74372523e-03, -2.53623813e-01,
          -6.59396350e-01, -1.20046258e-01, 2.57626742e-01,
          -1.35477498e-01 ]
      - [ 4.62537289e-01, 3.11755329e-01, 4.06505197e-01,
          -5.93964100e-01, -6.45671189e-01, 1.35698900e-01,
          -6.39915988e-02, -6.01956509e-02, 4.56842571e-01,
          2.95409381e-01, -2.34109268e-01, -1.40610158e-01,
          -4.62321043e-02, -5.30959487e-01, -3.28499407e-01,
          5.63675523e-01, 3.26969951e-01, 2.14537680e-01, 3.65376860e-01,
          6.59140870e-02 ]
      - [ 7.99334764e-01, -2.45591119e-01, -5.92534125e-01,
          -6.14374466e-02, -3.45759153e-01, -6.20514760e-03,
          3.91877264e-01, -4.42573339e-01, -4.54763845e-02,
          -1.23933755e-01, 2.42124274e-01, -5.00883311e-02,
          -3.00164856e-02, -2.26652920e-01, -3.78885806e-01,
          -1.55086547e-01, -1.06596008e-01, -8.97375703e-01,
          6.42554402e-01, -4.82012779e-01 ]
      - [ 5.56517303e-01, 7.39969969e-01, -7.91943908e-01,
          4.10230279e-01, -1.70835793e-01, 8.51130784e-02,
          2.17940342e-02, -5.67310117e-02, -7.01238632e-01,
          -3.61644477e-01, 4.14528191e-01, -3.61368418e-01,
          3.97202551e-01, 4.11313057e-01, -3.96481663e-01,
          -6.00206971e-01, -2.65898943e-01, 3.45874220e-01,
          -1.65257409e-01, 9.73841697e-02 ]
      - [ 6.32992983e-01, -5.16317308e-01, 1.54048830e-01,
          4.62034285e-01, 2.27433786e-01, -5.38989246e-01,
          -1.64484888e-01, 2.34468281e-01, -7.19638348e-01,
          -3.48830670e-01, 7.85336941e-02, 6.41021490e-01,
          2.87282228e-01, -4.75878604e-02, 4.15145576e-01,
          -2.53178656e-01, 2.70699412e-01, 2.66473353e-01,
          5.36891818e-01, -1.39059260e-01 ]
      - [ -8.79092872e-01, 1.01354390e-01, -2.00705707e-01,
          2.17182338e-01, 1.51003161e-02, -5.45354113e-02,
          9.92906019e-02, -6.50491118e-02, -1.74079984e-02,
          4.79440153e-01, 3.49089205e-01, -1.54426219e-02,
          -8.34100842e-02, -1.94578543e-01, -7.60054961e-03,
          -1.08172290e-01, -3.92730944e-02, 4.08862144e-01,
          3.72596741e-01, -1.90623067e-02 ]
      - [ 7.71071136e-01, 8.13284278e-01, -3.44785564e-02,
          -4.93768841e-01, 3.24236691e-01, -2.86800206e-01,
          1.41941726e-01, 8.94229263e-02, -8.73834372e-01,
          4.00592498e-02, -5.02773002e-02, 5.12375049e-02,
          -4.54222918e-01, -9.05508921e-02, -2.01199397e-01,
          -4.94884402e-01, 3.00826550e-01, -2.18961477e-01,
          -2.01631859e-01, -3.90205383e-02 ]
      - [ 7.42205620e-01, 7.29991615e-01, 2.04648048e-01,
          -4.25156265e-01, 3.43261361e-01, -4.89507318e-01,
          3.09001327e-01, -3.18138033e-01, 3.56097519e-01,
          1.80806056e-01, -6.72647178e-01, 3.37697923e-01,
          7.68207490e-01, 5.76874971e-01, 1.43624529e-01, 4.30180043e-01,
          -5.56084514e-01, 1.81683883e-01, 6.07218623e-01,
          2.41357796e-02 ]
      - [ -8.17952573e-01, 7.84116685e-02, -2.45534405e-01,
          1.13462411e-01, 2.65371818e-02, 1.14522003e-01, 1.92558169e-01,
          1.55324833e-02, -7.60183334e-02, -3.63468498e-01,
          -3.74009877e-01, 9.88257900e-02, -2.41664797e-02,
          3.02880198e-01, 2.64564101e-02, 2.17322931e-01,
          -4.31551374e-02, -6.05651557e-01, 9.71158966e-02,
          -1.48300558e-01 ]
      - [ -9.29241478e-01, 1.33288220e-01, -2.04563424e-01,
          1.63923055e-01, 6.58840239e-02, -6.96550235e-02,
          1.38037249e-01, -1.08068334e-02, -6.13090731e-02,
          3.16017449e-01, 3.72641057e-01, 8.66641756e-03,
          -1.65031791e-01, 1.43498838e-01, 1.29803672e-01,
          3.51228714e-02, -2.43320167e-01, -5.07075414e-02,
          1.73760533e-01, -1.17385685e-02 ]
      - [ 8.34706843e-01, -4.22132164e-01, -5.34576893e-01,
          -3.68860848e-02, 1.22941524e-01, 1.17219321e-01,
          5.33526659e-01, 1.16615919e-02, 8.31005573e-01,
          -5.64351439e-01, 6.81823969e-01, 2.41464883e-01,
          6.80684969e-02, 8.33838210e-02, -4.10176255e-02,
          -3.94038051e-01, 2.73666710e-01, -2.29174703e-01,
          5.11351943e-01, 6.22971773e-01 ]
      - [ -7.73509443e-01, 1.41315326e-01, -2.05454141e-01,
          1.51983768e-01, -4.16293517e-02, -6.25514472e-03,
          1.12926334e-01, -7.01446533e-02, -1.11218557e-01,
          4.94283140e-01, 4.51088816e-01, -3.88397202e-02,
          -3.89242265e-03, -1.25747442e-01, -6.76520392e-02,
          -9.77518037e-02, 3.18417326e-02, 1.48064643e-01,
          3.61254483e-01, -3.34258378e-01 ]
      - [ 8.45812261e-01, 2.59673923e-01, 3.14418636e-02,
          -4.45004292e-02, 3.50311339e-01, 2.12655097e-01,
          -8.21224526e-02, 7.35660493e-01, -4.26974148e-02,
          -2.42578521e-01, 4.76716310e-01, -5.74287057e-01,
          -7.82890711e-03, -3.30956161e-01, 2.75142848e-01,
          -4.09472376e-01, -6.57739758e-01, 4.53705698e-01,
          6.46152049e-02, -1.87427491e-01 ]
      - [ 7.66422212e-01, -4.89572138e-01, 4.62023139e-01,
          6.52419150e-01, 2.50720650e-01, -5.51033497e-01,
          5.18590212e-01, -5.82082450e-01, -8.45200598e-01,
          -3.48055400e-02, -7.37931609e-01, 1.25930741e-01,
          -5.06673157e-01, -2.02549666e-01, 8.31981599e-02,
          1.19867519e-01, 1.86840445e-01, 8.03779423e-01, 2.53494352e-01,
          2.43770242e-01 ]
      - [ 6.60241723e-01, -2.75143832e-01, 2.63973832e-01,
          9.27211642e-01, 6.31162465e-01, 2.03763068e-01, 4.53178674e-01,
          2.41039410e-01, 4.33784842e-01, 7.17305779e-01,
          -2.12860227e-01, -2.50084698e-01, 3.72796595e-01,
          -2.40178913e-01, -2.78588980e-01, 2.53871113e-01,
          -4.00133193e-01, -3.01029354e-01, -1.64381102e-01,
          4.37227190e-02 ]
      - [ 2.16880277e-01, 9.81145650e-02, 6.87070489e-01, 5.29820204e-01,
          -9.23464417e-01, 6.27893329e-01, 3.56399745e-01,
          4.84604180e-01, 1.27842754e-01, 2.77876586e-01, 5.60435653e-01,
          -3.55407596e-01, 2.62371987e-01, 1.45308137e-01,
          6.20174229e-01, 9.63688865e-02, -8.40187259e-03,
          -2.15817496e-01, 1.71022579e-01, -6.40246511e-01 ]
      - [ 5.34702241e-01, -4.43637818e-01, -6.07912004e-01,
          -2.13116840e-01, -7.34742641e-01, -2.41066352e-01,
          2.73143113e-01, -5.66054046e-01, -7.42142349e-02,
          -7.16626763e-01, 9.77822244e-01, 1.14364617e-01,
          1.47837877e-01, -5.59408486e-01, 5.03035247e-01,
          4.01431322e-01, -2.35413447e-01, 3.15325230e-01,
          -8.60575512e-02, -2.08831385e-01 ]
      - [ 7.59292066e-01, 6.71221137e-01, -3.70836973e-01,
          5.69103584e-02, 3.95706594e-01, 2.09266916e-01, 2.17399420e-03,
          -2.85400212e-01, -7.87990868e-01, -3.77993613e-01,
          8.83946642e-02, -2.52757102e-01, 7.20090866e-01,
          2.31135893e-03, 4.14997369e-01, -1.71148553e-01,
          6.55882508e-02, -2.36638129e-01, 1.46047562e-01,
          1.36900887e-01 ]
      - [ 8.09627414e-01, -7.69620597e-01, -3.35147233e-05,
          5.39816141e-01, 8.63474011e-01, 7.78818280e-02,
          -3.34841013e-01, -2.86223680e-01, 2.96698004e-01,
          -1.22060500e-01, 4.83887762e-01, 1.26289248e-01,
          -5.62791191e-02, -4.53846633e-01, 1.52138010e-01,
          -3.77811268e-02, 2.16200143e-01, -2.04896674e-01,
          2.36509591e-01, -1.58076137e-01 ]
      - [ 4.26053643e-01, -5.23669362e-01, -7.95505047e-01,
          -1.20434873e-01, -6.36245549e-01, -8.75812620e-02,
          1.25487447e-01, 6.04406297e-01, -6.37832344e-01,
          3.35678011e-01, -8.13347101e-01, 2.54169971e-01,
          2.67183743e-02, -1.82304502e-01, 3.02842051e-01,
          4.17112589e-01, -5.12351871e-01, -1.75797299e-01,
          1.00770541e-01, -3.63099575e-02 ]
      - [ -7.92564273e-01, 1.66140690e-01, -2.23289862e-01,
          2.09321037e-01, 2.26887017e-02, 3.59909469e-03, 1.43196627e-01,
          -3.00409421e-02, -2.08207324e-01, 4.09577966e-01,
          3.72124135e-01, -6.85662553e-02, 4.06752601e-02,
          2.41450332e-02, 1.17476597e-01, -5.47506511e-02,
          6.92180991e-02, -1.33506611e-01, 2.82183915e-01,
          -2.30353206e-01 ]
      - [ 7.61372268e-01, 1.11886173e-01, 7.20542729e-01, 2.70593286e-01,
          -5.50651066e-02, -1.89099774e-01, -2.60478128e-02,
          1.63720638e-01, -5.86381495e-01, -2.37381324e-01,
          5.13328612e-01, 1.10578440e-01, 3.78441513e-01,
          -4.60486770e-01, -5.89249730e-01, -7.29586650e-03,
          -7.93748975e-01, -7.97438145e-01, 4.81763899e-01,
          2.70937949e-01 ]
      - [ 8.06257367e-01, 5.98856091e-01, -5.19481003e-01,
          3.97065043e-01, 3.58298659e-01, 9.25294980e-02,
          -2.93649510e-02, 6.66734695e-01, -2.39534616e-01,
          -2.36606598e-01, 3.17575783e-01, -3.46688628e-01,
          5.91575086e-01, 2.38289818e-01, -5.17960072e-01,
          1.99712254e-02, 5.57223521e-02, 2.04758912e-01, 4.65708375e-01,
          2.49283507e-01 ]
      - [ 6.86278582e-01, 1.10347323e-01, 5.90413153e-01, 6.54399574e-01,
          1.50167137e-01, 1.13030206e-02, 4.16065067e-01, 5.63768744e-01,
          -4.80167478e-01, -2.13960573e-01, 6.39828146e-01,
          -2.09832311e-01, 7.26776779e-01, -7.74310902e-02,
          -1.16242006e-01, 5.35762310e-01, -3.25220287e-01,
          1.43720582e-01, 2.38692224e-01, -5.50734282e-01 ]
      - [ 7.70482898e-01, 5.41386425e-01, -4.77800310e-01,
          1.53756514e-01, 8.64319578e-02, 2.84434766e-01, 3.55609059e-01,
          4.96247649e-01, 2.99034864e-01, -1.29941314e-01,
          5.48315704e-01, 6.58805594e-02, -3.73243511e-01,
          -4.32146132e-01, -4.81864847e-02, -2.85881698e-01,
          -4.09548730e-01, 1.26733094e-01, 1.20353833e-01,
          -3.63708705e-01 ]
      - [ 6.91987574e-01, -4.82635826e-01, 4.66779232e-01,
          7.34811008e-01, 2.30044305e-01, -5.99031508e-01,
          9.95534435e-02, -9.28481221e-02, -4.95951355e-01,
          1.03020854e-02, 7.10567161e-02, 1.01983428e-01, 5.30414879e-01,
          -4.37126458e-01, -2.30837893e-02, 2.78579332e-02,
          -8.95141345e-03, 2.86097638e-02, 5.38785577e-01,
          3.73404950e-01 ]
      - [ 6.01499379e-01, 2.47484893e-01, 8.32991600e-01, 8.01847458e-01,
          -3.26669157e-01, -2.51579355e-03, 5.62927842e-01,
          2.03962848e-01, -4.47241038e-01, 4.41419100e-03,
          -1.93036288e-01, 4.07135606e-01, -9.76783410e-02,
          6.65342152e-01, -2.11784720e-01, -1.03285521e-01,
          -1.44377023e-01, -2.02658027e-01, 7.00677216e-01,
          1.02418333e-01 ]
      - [ 7.02298284e-01, -4.15172547e-01, 2.98882931e-01,
          5.16822219e-01, 7.66086876e-01, -4.57154866e-03,
          5.66476107e-01, -1.90794051e-01, -1.39010027e-01,
          4.78836060e-01, -3.62640679e-01, -4.63169932e-01,
          -5.78973107e-02, -5.61626256e-01, -1.30476356e-01,
          2.27038711e-01, -3.40803415e-01, -8.64163414e-02,
          -2.51086861e-01, 1.30940959e-01 ]
      - [ 9.00616169e-01, 7.89556205e-01, 7.08954483e-02,
          -1.00586236e-01, 4.21938933e-02, -1.62057430e-01,
          3.32180351e-01, 1., -5.06508350e-01, -2.48638570e-01,
          4.26627040e-01, 3.51351321e-01, -4.84615862e-01,
          -6.28587842e-01, -6.96691945e-02, 2.10152254e-01,
          -1.93962455e-01, 3.75718832e-01, -3.25491130e-01,
          8.71727988e-03 ]
      - [ 7.45393693e-01, -4.75858122e-01, -5.11798561e-01,
          -1.75765492e-02, 3.32679063e-01, 1.85745835e-01,
          6.62446380e-01, 4.87983286e-01, 5.14100730e-01, 3.94541234e-01,
          2.58174807e-01, 7.72012770e-02, 2.77716488e-01,
          -5.22520430e-02, -2.01391503e-01, -8.65221500e-01,
          3.32254201e-01, -6.28200471e-01, 8.71512815e-02,
          1.40528560e-01 ]
      - [ -8.93332958e-01, 9.70146134e-02, -1.85173988e-01,
          1.00340262e-01, 5.95279820e-02, 5.45761064e-02, 1.40952945e-01,
          2.04961281e-02, -1.19445741e-01, -2.74987996e-01,
          -2.96714932e-01, -3.92777883e-02, -9.86323804e-02,
          3.36024344e-01, -1.78331360e-01, 3.09221506e-01,
          -3.09280213e-02, -6.59048021e-01, 1.49078131e-01,
          -2.35686779e-01 ]
      - [ 6.10767722e-01, 4.77135330e-01, -7.63395011e-01,
          8.05199981e-01, -1.00724459e-01, -6.02062345e-01,
          2.51188099e-01, 5.78085408e-02, 4.97623950e-01, 3.39889795e-01,
          -6.67318046e-01, -8.69883299e-02, -3.51907253e-01,
          -8.67266357e-02, 1.38823077e-01, 5.64440906e-01,
          1.92651041e-02, -2.09928244e-01, 1.63296983e-01,
          -3.74040991e-01 ]
      - [ 7.00312912e-01, -6.96972549e-01, -7.17919409e-01,
          -1.27871647e-01, -1.49332499e-02, 4.74673510e-02,
          6.49405360e-01, 6.10006452e-01, 3.76221478e-01, 1.68836221e-01,
          1.62277922e-01, -1.65831849e-01, 1.67830959e-01,
          3.49895388e-01, -1.52813092e-01, -7.10427284e-01,
          3.05892646e-01, -1.95123166e-01, 1.76207826e-01,
          5.27905226e-01 ]
      - [ 8.49934280e-01, 7.02654481e-01, -3.40777159e-01,
          3.59859437e-01, 2.77560025e-01, 1.95268430e-02, 7.37311065e-01,
          6.64842129e-01, 9.07599053e-04, 1.47907600e-01, 3.20591837e-01,
          5.59968948e-01, -4.26914781e-01, -4.78325516e-01,
          -1.66215867e-01, 3.29005837e-01, 2.81910032e-01,
          -5.32031059e-02, -2.03174695e-01, -5.85903049e-01 ]
      - [ 8.09325099e-01, 6.46540999e-01, 4.63429421e-01,
          -9.04590368e-01, 4.59522791e-02, -3.37646306e-01,
          5.75794764e-02, 8.75383019e-02, -2.14082733e-01,
          6.61656633e-02, -1.47238448e-01, 1.11441240e-01,
          -3.54658723e-01, 3.09726834e-01, -4.38851714e-02,
          -3.76471847e-01, -9.44820270e-02, 2.55963355e-01,
          -1.60788953e-01, -1.54503450e-01 ]
      - [ 6.92893326e-01, 2.92725146e-01, -5.91803610e-01,
          6.88704789e-01, -6.21186495e-01, 2.80830890e-01,
          -1.32495359e-01, 7.11166784e-02, 2.40232527e-01,
          -7.11252466e-02, 5.67907505e-02, 1.33086994e-01,
          5.76842189e-01, 2.92816758e-01, -3.07505488e-01,
          -3.51679027e-01, 2.87125688e-02, -1.11755002e-02,
          2.48167962e-01, 1.61888018e-01 ]
      - [ 5.87193072e-01, -1.94348142e-01, -5.82328081e-01,
          -1.42527297e-01, -6.12278044e-01, -4.11451161e-02,
          6.24684811e-01, -3.77650142e-01, -1.75978556e-01,
          1.81074768e-01, 4.17954087e-01, -1.51467800e-01,
          5.01446068e-01, -8.25482726e-01, 1.16279386e-01,
          2.40476236e-01, -2.14580327e-01, -2.80737013e-01,
          3.69726330e-01, -1.48791313e-01 ]
      - [ 5.44927776e-01, 5.45981407e-01, -1.66502059e-01,
          -6.15374625e-01, -4.16429564e-02, -3.49628270e-01,
          2.26180524e-01, -4.48994786e-01, 1.76960975e-01,
          4.62145269e-01, -5.29218793e-01, 4.76693839e-01,
          -1.28997311e-01, -2.01415449e-01, -1., 2.21535005e-02, 1.,
          -6.98099658e-02, -1.95786059e-01, -1.54053450e-01 ]
      - [ 5.63277543e-01, -8.43709826e-01, -5.74754059e-01,
          8.57904404e-02, 1.75389037e-01, 1.68658331e-01,
          -3.12596321e-01, -3.48880775e-02, -4.95651215e-01,
          5.56751072e-01, -8.99973691e-01, 4.12106365e-02,
          -5.09326994e-01, 4.15745586e-01, -2.54059322e-02,
          -1.48489654e-01, -5.33598244e-01, 1.31283402e-01,
          8.11898261e-02, -3.12224925e-01 ]
      - [ 2.10126460e-01, 1.95384752e-02, 4.77585971e-01,
          -1.70507014e-01, -5.75584888e-01, 3.90071779e-01,
          -5.61500847e-01, -4.01676089e-01, 5.03214560e-02,
          2.83158347e-02, -1.07592396e-01, -7.95704246e-01,
          7.73789287e-02, -4.02226746e-01, -2.63320893e-01,
          -1.92115158e-02, 9.85844210e-02, -1.36691064e-01,
          1.15057006e-01, 2.51316696e-01 ]
      - [ -8.37474942e-01, 9.66264084e-02, -2.71968454e-01,
          1.25915885e-01, 6.39733002e-02, 2.05033645e-01, 1.54280841e-01,
          -2.30726283e-02, 8.51795077e-03, -5.05563796e-01,
          -6.93906784e-01, 8.27745795e-02, 6.99984208e-02,
          -3.95804383e-02, -3.22918087e-01, -1.35289188e-02,
          9.70545858e-02, -3.20409745e-01, 1.52285919e-01,
          -2.91483819e-01 ]
      - [ 7.16153920e-01, 7.67839372e-01, -1.24965969e-03,
          -2.03769058e-01, -9.53221545e-02, -6.91148862e-02,
          -1.47788301e-01, 9.69079137e-03, -1.12366512e-01,
          6.68982625e-01, -1.33877233e-01, 4.69788760e-01,
          -6.73557103e-01, -5.85857868e-01, -3.76473457e-01,
          2.99825728e-01, 2.52281100e-01, -3.53983611e-01,
          -1.04278654e-01, 2.34051943e-02 ]
      - [ 7.63675809e-01, 7.11333036e-01, -4.20899034e-01,
          -2.90723950e-01, 8.37866426e-01, 4.66402382e-01,
          3.65718693e-01, -7.00827420e-01, 6.61532283e-02,
          2.20409393e-01, -4.39570993e-01, -3.05943012e-01,
          5.71256399e-01, 1.24851584e-01, 4.20477360e-01,
          -1.43647671e-03, 3.79986107e-01, 6.21360205e-02,
          9.99807194e-02, 1.34390369e-02 ]
      - [ -8.86117995e-01, 9.54063162e-02, -2.59368926e-01,
          1.27327099e-01, 7.42557496e-02, 1.63710713e-01, 2.16858119e-01,
          3.22698392e-02, -8.07915255e-03, -4.46681798e-01,
          -8.37859452e-01, 1.12986967e-01, 2.23729402e-01,
          -3.35600972e-01, -1.60388038e-01, -1.68495625e-02,
          -9.75125954e-02, -2.21993420e-02, 2.40855679e-01,
          -2.37309083e-01 ]
      - [ 5.46632528e-01, 4.50167656e-01, -6.75391912e-01,
          7.52277911e-01, -5.97363949e-01, -1.02668501e-01,
          -5.06129712e-02, -4.40342784e-01, 3.36821884e-01,
          4.15206254e-01, -7.50177622e-01, 4.85315770e-01,
          -1.44171834e-01, -4.31294292e-01, 6.56811476e-01,
          2.91105300e-01, -9.41180289e-02, -4.43665177e-01,
          2.42290154e-01, -2.65257686e-01 ]
      - [ 3.50116998e-01, 3.91220063e-01, 6.10535026e-01,
          -3.96541774e-01, -5.14623642e-01, 2.19427109e-01,
          -6.42052948e-01, -1.18721344e-01, -4.08866443e-03,
          3.17701161e-01, -6.80717453e-02, -1., 7.08632693e-02,
          -4.36347514e-01, 3.19659919e-01, 5.74401915e-02,
          -1.59413308e-01, 5.57700634e-01, -4.57789004e-01,
          -2.80296262e-02 ]
      - [ 7.39843488e-01, -6.31088674e-01, -2.73719430e-01,
          3.02548945e-01, 5.99399805e-01, 1.06711797e-01,
          -4.65255320e-01, -1.66163370e-01, -3.87154311e-01,
          9.35143158e-02, 7.53589794e-02, -3.07919741e-01,
          9.16151255e-02, -8.13281536e-01, -3.37890714e-01,
          6.80751324e-01, 2.09283039e-01, 3.98067795e-02, 4.22581822e-01,
          -3.48390341e-01 ]
      - [ 7.93843329e-01, 6.92598939e-01, -3.86165142e-01,
          1.75251082e-01, 3.84773135e-01, 4.35882390e-01, 6.33580163e-02,
          -1.59075573e-01, 4.69053797e-02, 2.58875370e-01,
          2.34171361e-01, 3.94529730e-01, 1.98450923e-01,
          -4.46184129e-01, 1.53232574e-01, 9.06098366e-01,
          1.23837277e-01, -3.43579888e-01, 4.43578392e-01,
          2.00687915e-01 ]
      - [ -8.36691797e-01, 1.13245070e-01, -2.42863774e-01,
          1.01897255e-01, 4.15121168e-02, 2.04932410e-02, 1.84870318e-01,
          2.17902344e-02, -1.24310173e-01, -2.92829156e-01,
          -4.43422586e-01, 8.03282559e-02, -3.51346023e-02,
          2.95571476e-01, -2.28297021e-02, 1.43899158e-01,
          1.07088042e-02, -7.00503588e-01, 1.50301561e-01,
          -2.97969848e-01 ]
      - [ 7.17192054e-01, 7.12495625e-01, -8.21350932e-01,
          7.18065023e-01, 1.87836718e-02, -8.67859833e-03,
          1.59376457e-01, 2.92736679e-01, 7.66734034e-02, 2.10673541e-01,
          3.91654491e-01, 4.87507194e-01, 9.94040221e-02, 2.41166249e-01,
          -6.33043349e-01, 2.95882493e-01, -1.02876574e-01,
          4.07747060e-01, 9.68481004e-02, 1.58014327e-01 ]
      - [ 6.25644088e-01, -5.65721214e-01, -5.65967798e-01,
          -2.84723401e-01, 1.06120721e-01, -8.27729553e-02,
          7.22302079e-01, 6.43235087e-01, 1.92646816e-01, 5.47943592e-01,
          1.69601426e-01, 1.36523902e-01, 6.68620586e-01,
          -1.75558761e-01, -9.70113724e-02, -3.82139891e-01,
          4.40147400e-01, -1.30755484e-01, 8.93497467e-02,
          2.54588962e-01 ]
      - [ -8.69596779e-01, 1.51126295e-01, -2.29773477e-01,
          1.02963507e-01, 3.66307981e-02, -3.45603749e-02,
          1.53176099e-01, 3.28622349e-02, -1.03358723e-01,
          -2.29215994e-01, -2.63466239e-01, 8.30123797e-02,
          1.38915144e-02, 3.59224856e-01, -3.41132879e-02,
          1.49232224e-01, -1.57939177e-03, -6.64377332e-01,
          2.06823751e-01, -2.18293145e-01 ]
      - [ 6.99043453e-01, -8.16197932e-01, -6.89305544e-01,
          -1.12308264e-01, -4.63246703e-02, 3.95100154e-02,
          4.79974151e-01, 3.70267361e-01, 5.18712342e-01, 2.76771616e-02,
          -2.47283131e-01, 1.86093479e-01, -2.12833717e-01,
          4.89691079e-01, -1.96500700e-02, -6.25471234e-01,
          7.13262483e-02, -3.25964034e-01, -1.38890594e-02,
          5.99679947e-01 ]
      - [ 5.46815515e-01, 5.11194885e-01, -6.26864195e-01,
          6.31726563e-01, -5.22599518e-01, -5.18367350e-01,
          -2.71300852e-01, 6.60481676e-02, -3.66782099e-01,
          -1.12076722e-01, 8.54660645e-02, -2.33402699e-01,
          6.26461744e-01, -4.69364002e-02, 2.74200737e-01,
          -5.41549683e-01, -2.10999116e-01, -4.16409001e-02,
          -2.58485734e-01, -3.53850693e-01 ]
      - [ -9.18647110e-01, 1.38403848e-01, -1.92680627e-01,
          1.71236932e-01, 3.13597061e-02, -7.43114725e-02,
          1.40838087e-01, -3.01973950e-02, -1.47277368e-02,
          4.04754847e-01, 3.15397412e-01, -2.29217801e-02,
          -1.26674339e-01, 6.34807274e-02, 1.39181688e-01,
          1.49115250e-01, -2.01757595e-01, -1.30249530e-01,
          1.34147897e-01, -3.71330930e-03 ]
      - [ -8.32506895e-01, 8.35073739e-02, -2.08170637e-01,
          1.31399646e-01, 4.32845317e-02, 2.29792729e-01, 2.63752669e-01,
          8.12725797e-02, 6.18099328e-03, -5.69933176e-01,
          -8.44101846e-01, 1.46438792e-01, 1.94057420e-01,
          -2.58782089e-01, -8.66957083e-02, -2.24810272e-01,
          -8.23123604e-02, -1.73885256e-01, 2.69679070e-01,
          -2.34510437e-01 ]
      - [ 7.19699919e-01, -5.37794292e-01, -3.94947194e-02,
          8.39534342e-01, 6.72171712e-01, 2.91880727e-01, 1.91768631e-01,
          9.28389579e-02, 4.60166901e-01, 7.40555942e-01,
          -6.79626644e-01, -4.01213467e-01, 3.27728502e-03,
          -5.33859655e-02, -5.54848969e-01, -1.02687463e-01,
          -6.10202849e-01, -4.43312019e-01, -1.47183195e-01,
          1.48810863e-01 ]
      - [ 7.96612620e-01, 6.86880112e-01, -7.35548377e-01,
          5.39069057e-01, -1.58259958e-01, 5.63045561e-01,
          4.16749239e-01, 8.04621950e-02, 2.83820152e-01, 6.28812373e-01,
          1.70458645e-01, 6.83264077e-01, -3.10058683e-01,
          -4.88011628e-01, -1.36523712e-02, 3.21098506e-01,
          -2.93632358e-01, -2.45632082e-01, 1.75731942e-01,
          -3.66374522e-01 ]
      - [ -9.30193901e-01, 1.53306246e-01, -2.29231834e-01,
          1.91202357e-01, 1.07464194e-02, -1.90370735e-02,
          1.17129110e-01, -2.69933511e-02, -5.44551164e-02,
          4.22286153e-01, 3.15661252e-01, 2.27015894e-02,
          -5.31754233e-02, 9.32234302e-02, 1.83090031e-01,
          1.14772819e-01, -1.27925113e-01, -5.71568199e-02,
          9.25227180e-02, 9.69250035e-03 ]
      - [ 6.84401751e-01, 2.43085865e-02, 7.01726437e-01, 9.74622905e-01,
          -1.26883149e-01, -2.95561761e-01, 9.89716589e-01,
          2.34600365e-01, -6.78137019e-02, 3.10379654e-01,
          -3.04653138e-01, 1.02910355e-01, 3.08008462e-01,
          4.89548892e-01, 1.72371805e-01, 2.75004327e-01,
          -1.86801553e-01, 2.74085134e-01, 2.02161968e-01,
          -6.55467153e-01 ]
      - [ 7.45329261e-01, 5.67556441e-01, 3.80764842e-01,
          -8.44761193e-01, 2.58819163e-01, -6.40962183e-01,
          1.84856579e-02, -3.91020179e-02, 2.05688640e-01,
          2.27003440e-01, -1.36532307e-01, -2.04174733e-03,
          6.22518770e-02, 3.28766704e-01, -3.27999264e-01,
          9.00308117e-02, -4.03540313e-01, 5.89758635e-01,
          -1.77365065e-01, -1.98393881e-01 ]
      - [ 6.75959527e-01, -7.34540522e-01, 5.12780761e-03,
          6.09617591e-01, 7.67895222e-01, -1.59900989e-02,
          1.81982800e-01, -3.58115703e-01, -4.86122280e-01,
          7.48817444e-01, -6.45951867e-01, -2.86389083e-01,
          5.15382811e-02, -6.48120940e-01, 1.86957940e-02,
          3.66327047e-01, -3.40055078e-02, 3.53330150e-02,
          2.44492218e-02, -4.25224751e-02 ]
      - [ 8.88940036e-01, 8.13750088e-01, -1.73194915e-01,
          2.14208558e-01, 4.57135886e-02, -3.05473417e-01,
          2.74609745e-01, 7.90903986e-01, -4.44875568e-01,
          1.16622126e-04, 1.70035452e-01, 5.97447813e-01,
          -2.68488407e-01, -7.25629508e-01, -2.09801957e-01,
          4.60567892e-01, -2.99160299e-03, -6.95057884e-02,
          3.31388086e-01, 8.13585073e-02 ]
      - [ 9.22549784e-01, 7.96056807e-01, -4.95828778e-01,
          2.53102034e-01, 2.69571185e-01, 6.32718623e-01, 2.89781988e-01,
          1.37556354e-02, -4.01217878e-01, 2.03670517e-01,
          -2.32037708e-01, 5.05475760e-01, 1.40636384e-01,
          -6.01673663e-01, 3.08322608e-01, 9.21080172e-01,
          -4.79353182e-02, -2.39228159e-02, 4.89880860e-01,
          2.84662157e-01 ]
      - [ 7.75449753e-01, 4.80683208e-01, 7.30129033e-02,
          -5.20166814e-01, 7.03532100e-01, 3.49302202e-01,
          2.58962959e-01, 3.28390338e-02, 8.39280844e-01, 2.58834302e-01,
          -1.72070995e-01, -2.19631597e-01, 4.73520488e-01,
          -2.17873633e-01, 5.54462671e-01, 3.79360586e-01,
          -4.51969922e-01, 1.59627691e-01, 2.55432308e-01,
          -1.21222168e-01 ]
      - [ 6.96368635e-01, -4.82868522e-01, 3.42171997e-01,
          4.12635118e-01, 7.06411153e-02, -2.98743427e-01,
          1.63994536e-01, -2.68590838e-01, -6.59004092e-01,
          -1.48866013e-01, -9.22929868e-02, 4.26298827e-01,
          -8.90914425e-02, -1.91380814e-01, 3.16473782e-01,
          -2.39323780e-01, 1.67596936e-01, 6.12273216e-01,
          7.76512086e-01, -1.24380171e-01 ]
      - [ 7.17107356e-01, 9.11642760e-02, 3.60268205e-01, 5.36705017e-01,
          3.85596067e-01, 2.66667724e-01, 4.75605465e-02, 5.85830629e-01,
          -1.22491524e-01, 6.07703216e-02, 6.41894102e-01,
          -2.91826874e-01, 6.68624163e-01, -3.39592785e-01,
          -1.03591211e-01, 1.02993190e-01, -4.68996972e-01,
          -4.70084995e-01, -8.80909860e-02, -6.01592481e-01 ]
      - [ 7.44794846e-01, -9.99417245e-01, -6.88072145e-01,
          5.10352403e-02, 4.21148032e-01, 2.30714783e-01,
          -3.21735740e-01, 3.85453343e-01, 7.40557164e-02,
          7.10550174e-02, -4.11035031e-01, 1.29317150e-01,
          -4.42106277e-01, 5.60877323e-01, 1.73793152e-01,
          -3.22994709e-01, 3.66205610e-02, 2.43827626e-01,
          1.04815923e-01, 1.15070790e-01 ]
      - [ 6.25851452e-01, 5.34250200e-01, -2.93366313e-01,
          4.88675646e-02, 1.09875083e-01, -1.33768111e-01,
          2.44274035e-01, -5.31257272e-01, -5.01806259e-01,
          -1.20164692e-01, -3.92911673e-01, 8.82775038e-02,
          5.13827384e-01, 4.89811063e-01, 3.03968668e-01, 3.22185576e-01,
          2.41374850e-01, 5.29733039e-02, 4.42111976e-02, 1.17844783e-01 ]
      - [ -6.89373791e-01, 1.12799034e-01, -2.14919567e-01,
          2.26387084e-01, -1.76325478e-02, 2.83518508e-02,
          1.11701146e-01, -1.93311591e-02, -3.87019254e-02,
          4.94393647e-01, 2.81622887e-01, -9.05072615e-02,
          -1.71932988e-02, -3.52636725e-01, -1.10403627e-01,
